{"learner":{"attributes":{"scikit_learn":"{\"_estimator_type\": \"classifier\"}"},"feature_names":["rsi","volume_ratio","close_to_support","close_to_resistance","sentiment_1d","sentiment_3d","sentiment_5d","price_momentum_5d","price_momentum_10d","volatility_20d","pe_ratio","debt_to_equity","eps_growth","operating_margin"],"feature_types":["float","float","float","float","float","float","float","float","float","float","float","float","float","float"],"gradient_booster":{"model":{"cats":{"enc":[],"feature_segments":[],"sorted_idx":[]},"gbtree_model_param":{"num_parallel_tree":"1","num_trees":"100"},"iteration_indptr":[0,1,2,3,4,5,6,7,8,9,10,11,12,13,14,15,16,17,18,19,20,21,22,23,24,25,26,27,28,29,30,31,32,33,34,35,36,37,38,39,40,41,42,43,44,45,46,47,48,49,50,51,52,53,54,55,56,57,58,59,60,61,62,63,64,65,66,67,68,69,70,71,72,73,74,75,76,77,78,79,80,81,82,83,84,85,86,87,88,89,90,91,92,93,94,95,96,97,98,99,100],"tree_info":[0,0,0,0,0,0,0,0,0,0,0,0,0,0,0,0,0,0,0,0,0,0,0,0,0,0,0,0,0,0,0,0,0,0,0,0,0,0,0,0,0,0,0,0,0,0,0,0,0,0,0,0,0,0,0,0,0,0,0,0,0,0,0,0,0,0,0,0,0,0,0,0,0,0,0,0,0,0,0,0,0,0,0,0,0,0,0,0,0,0,0,0,0,0,0,0,0,0,0,0],"trees":[{"base_weights":[-8.089007E-2,-2.740079E-1,6.966724E-2,-5.3245676E-1,5.968597E-1,1.6655969E-2,-3.7737917E-2,6.966724E-2,-1.08197555E-2],"categories":[],"categories_nodes":[],"categories_segments":[],"categories_sizes":[],"default_left":[0,0,0,0,0,0,0,0,0],"id":0,"left_children":[1,3,-1,5,7,-1,-1,-1,-1],"loss_changes":[1.3457135E1,9.935663E0,0E0,6.892501E0,7.269416E0,0E0,0E0,0E0,0E0],"parents":[2147483647,0,0,1,1,3,3,4,4],"right_children":[2,4,-1,6,8,-1,-1,-1,-1],"split_conditions":[2.6609994E-2,6.9680115E1,6.966724E-2,1.4113708E-2,1.7561363E-2,1.6655969E-2,-3.7737917E-2,6.966724E-2,-1.08197555E-2],"split_indices":[9,0,0,9,9,0,0,0,0],"split_type":[0,0,0,0,0,0,0,0,0],"sum_hessian":[4.4542408E1,4.058308E1,3.959325E0,3.1922058E1,8.661023E0,6.186445E0,2.5735613E1,3.959325E0,4.7016983E0],"tree_param":{"num_deleted":"0","num_feature":"14","num_nodes":"9","size_leaf_vector":"1"}},{"base_weights":[-3.191243E-2,-5.4833704E-1,3.881897E-1,2.3120597E-2,-7.0556384E-1,1.0090234E0,7.678807E-2,-1.5755234E-2,-5.097566E-2,-0E0,6.795592E-2,1.8974788E-2,-4.8596967E-2],"categories":[],"categories_nodes":[],"categories_segments":[],"categories_sizes":[],"default_left":[0,0,0,0,0,0,0,0,0,0,0,0,0],"id":1,"left_children":[1,3,5,-1,7,9,11,-1,-1,-1,-1,-1,-1],"loss_changes":[1.0704189E1,4.072524E0,4.8823576E0,0E0,1.7043943E0,3.085208E0,6.7219853E0,0E0,0E0,0E0,0E0,0E0,0E0],"parents":[2147483647,0,0,1,1,2,2,4,4,5,5,6,6],"right_children":[2,4,6,-1,8,10,12,-1,-1,-1,-1,-1,-1],"split_conditions":[7.9710394E-1,1.7045483E-2,-2.8886177E-2,2.3120597E-2,5.366894E1,-7.713732E-2,7.343558E-2,-1.5755234E-2,-5.097566E-2,-0E0,6.795592E-2,1.8974788E-2,-4.8596967E-2],"split_indices":[1,3,7,0,0,8,3,0,0,0,0,0,0],"split_type":[0,0,0,0,0,0,0,0,0,0,0,0,0],"sum_hessian":[4.6219845E1,2.0741215E1,2.547863E1,2.2288957E0,1.851232E1,7.1737833E0,1.8304848E1,9.87426E0,8.638059E0,2.2228234E0,4.9509597E0,1.5095539E1,3.2093074E0],"tree_param":{"num_deleted":"0","num_feature":"14","num_nodes":"13","size_leaf_vector":"1"}},{"base_weights":[-2.9481878E-3,-2.2739649E-1,6.0467917E-2,2.6908776E-1,-6.8730086E-1,3.0908054E-2,-4.4135056E-2,1.49693815E-2,-4.495625E-2],"categories":[],"categories_nodes":[],"categories_segments":[],"categories_sizes":[],"default_left":[0,0,0,0,0,0,0,0,0],"id":2,"left_children":[1,3,-1,5,7,-1,-1,-1,-1],"loss_changes":[1.3458446E1,1.0057591E1,0E0,9.325328E0,5.2631903E0,0E0,0E0,0E0,0E0],"parents":[2147483647,0,0,1,1,3,3,4,4],"right_children":[2,4,-1,6,8,-1,-1,-1,-1],"split_conditions":[2.3799134E-2,1.8164666E-2,6.0467917E-2,9.29302E-2,1.6952574E-2,3.0908054E-2,-4.4135056E-2,1.49693815E-2,-4.495625E-2],"split_indices":[9,9,0,3,3,0,0,0,0],"split_type":[0,0,0,0,0,0,0,0,0],"sum_hessian":[4.7167133E1,4.09662E1,6.200931E0,1.9789822E1,2.117638E1,1.5853645E1,3.936175E0,3.4662318E0,1.7710148E1],"tree_param":{"num_deleted":"0","num_feature":"14","num_nodes":"9","size_leaf_vector":"1"}},{"base_weights":[6.924753E-2,-1.5277426E-1,1.2429897E0,6.800465E-1,-3.9768055E-1,1.7466424E-2,7.01889E-2,2.1961397E-4,6.0016878E-2,-3.2810275E-2,2.2796242E-2],"categories":[],"categories_nodes":[],"categories_segments":[],"categories_sizes":[],"default_left":[0,0,0,0,0,0,0,0,0,0,0],"id":3,"left_children":[1,3,5,7,9,-1,-1,-1,-1,-1,-1],"loss_changes":[1.3877083E1,9.395033E0,1.3102436E-1,3.42339E0,8.301752E0,0E0,0E0,0E0,0E0,0E0,0E0],"parents":[2147483647,0,0,1,1,2,2,3,3,4,4],"right_children":[2,4,6,8,10,-1,-1,-1,-1,-1,-1],"split_conditions":[2.3799134E-2,1.4464857E-2,2.525602E-2,3.9586666E1,7.191235E1,1.7466424E-2,7.01889E-2,2.1961397E-4,6.0016878E-2,-3.2810275E-2,2.2796242E-2],"split_indices":[9,9,9,0,0,0,0,0,0,0,0],"split_type":[0,0,0,0,0,0,0,0,0,0,0],"sum_hessian":[4.9821503E1,4.2850407E1,6.9710984E0,8.946257E0,3.390415E1,1.9783276E0,4.9927707E0,4.7173414E0,4.228915E0,2.6468897E1,7.435251E0],"tree_param":{"num_deleted":"0","num_feature":"14","num_nodes":"11","size_leaf_vector":"1"}},{"base_weights":[1.2365838E-2,-1.8141425E-1,7.29002E-2,1.024E-1,-1.034733E0,3.436367E-2,-1.9149248E-2,-1.0298591E-2,-6.329884E-2],"categories":[],"categories_nodes":[],"categories_segments":[],"categories_sizes":[],"default_left":[0,0,0,0,0,0,0,0,0],"id":4,"left_children":[1,3,-1,5,7,-1,-1,-1,-1],"loss_changes":[1.4185255E1,1.095577E1,0E0,1.0126492E1,1.4696646E0,0E0,0E0,0E0,0E0],"parents":[2147483647,0,0,1,1,3,3,4,4],"right_children":[2,4,-1,6,8,-1,-1,-1,-1],"split_conditions":[2.6609994E-2,9.46871E-2,7.29002E-2,1.7823182E-2,1.453494E-2,3.436367E-2,-1.9149248E-2,-1.0298591E-2,-6.329884E-2],"split_indices":[9,3,0,9,2,0,0,0,0],"split_type":[0,0,0,0,0,0,0,0,0],"sum_hessian":[4.6809353E1,4.231118E1,4.4981713E0,3.25655E1,9.745682E0,1.4673065E1,1.7892433E1,2.9334295E0,6.812252E0],"tree_param":{"num_deleted":"0","num_feature":"14","num_nodes":"9","size_leaf_vector":"1"}},{"base_weights":[-9.9178016E-2,1.6770858E-1,-6.204235E-1,9.381811E-1,-2.2230126E-1,5.6431342E-2,-1.1354469E0,7.780168E-2,-3.4384232E-2,-3.475636E-2,1.787485E-2,2.4124777E-2,-3.423306E-2,-6.424295E-2,-0E0],"categories":[],"categories_nodes":[],"categories_segments":[],"categories_sizes":[],"default_left":[0,0,0,0,0,0,0,0,0,0,0,0,0,0,0],"id":5,"left_children":[1,3,5,7,9,11,13,-1,-1,-1,-1,-1,-1,-1,-1],"loss_changes":[7.2172065E0,1.0692681E1,6.42659E0,1.3741446E1,6.9259243E0,3.246585E0,1.7000732E0,0E0,0E0,0E0,0E0,0E0,0E0,0E0,0E0],"parents":[2147483647,0,0,1,1,2,2,3,3,4,4,5,5,6,6],"right_children":[2,4,6,8,10,12,14,-1,-1,-1,-1,-1,-1,-1,-1],"split_conditions":[8.7564275E-2,5.2601803E1,-2.867923E-2,1.2551302E-2,6.872108E1,2.5613042E-2,2.1785326E-2,7.780168E-2,-3.4384232E-2,-3.475636E-2,1.787485E-2,2.4124777E-2,-3.423306E-2,-6.424295E-2,-0E0],"split_indices":[3,0,7,7,0,2,8,0,0,0,0,0,0,0,0],"split_type":[0,0,0,0,0,0,0,0,0,0,0,0,0,0,0],"sum_hessian":[4.8607227E1,3.2566372E1,1.6040855E1,1.0408559E1,2.2157814E1,7.3407693E0,8.700085E0,7.6781774E0,2.7303813E0,1.2230451E1,9.927363E0,5.1647606E0,2.176009E0,7.495555E0,1.2045299E0],"tree_param":{"num_deleted":"0","num_feature":"14","num_nodes":"15","size_leaf_vector":"1"}},{"base_weights":[6.029309E-2,-4.35414E-1,4.6787113E-1,-6.603628E-1,4.8853618E-1,7.9792583E-1,-3.3627322E-1,3.2000695E-3,-5.2660484E-2,4.7912307E-2,-3.621578E-3,9.033638E-3,4.6707463E-2,-3.38964E-2,2.4363922E-2],"categories":[],"categories_nodes":[],"categories_segments":[],"categories_sizes":[],"default_left":[0,0,0,0,0,0,0,0,0,0,0,0,0,0,0],"id":6,"left_children":[1,3,5,7,9,11,13,-1,-1,-1,-1,-1,-1,-1,-1],"loss_changes":[9.784297E0,5.0305223E0,7.5741606E0,5.498283E0,1.5826092E0,1.1662245E0,2.964925E0,0E0,0E0,0E0,0E0,0E0,0E0,0E0,0E0],"parents":[2147483647,0,0,1,1,2,2,3,3,4,4,5,5,6,6],"right_children":[2,4,6,8,10,12,14,-1,-1,-1,-1,-1,-1,-1,-1],"split_conditions":[7.9710394E-1,2.3378247E-2,1.453341E0,1.7414223E-2,7.721362E-2,-4.6195675E-2,2.0788487E-2,3.2000695E-3,-5.2660484E-2,4.7912307E-2,-3.621578E-3,9.033638E-3,4.6707463E-2,-3.38964E-2,2.4363922E-2],"split_indices":[1,9,1,9,3,8,9,0,0,0,0,0,0,0,0],"split_type":[0,0,0,0,0,0,0,0,0,0,0,0,0,0,0],"sum_hessian":[4.53831E1,2.0210009E1,2.5173088E1,1.6771208E1,3.4388018E0,1.8032217E1,7.1408706E0,6.1597896E0,1.0611418E1,1.4875059E0,1.9512957E0,4.1564054E0,1.3875813E1,5.4061756E0,1.7346947E0],"tree_param":{"num_deleted":"0","num_feature":"14","num_nodes":"15","size_leaf_vector":"1"}},{"base_weights":[-1.16263814E-1,-2.746466E-1,5.7085782E-2,-5.1438093E-1,4.7315198E-1,-7.824343E-3,-5.7160556E-2,5.6196567E-2,-9.344433E-3],"categories":[],"categories_nodes":[],"categories_segments":[],"categories_sizes":[],"default_left":[0,0,0,0,0,0,0,0,0],"id":7,"left_children":[1,3,-1,5,7,-1,-1,-1,-1],"loss_changes":[9.793955E0,8.2050085E0,0E0,7.12399E0,5.306469E0,0E0,0E0,0E0,0E0],"parents":[2147483647,0,0,1,1,3,3,4,4],"right_children":[2,4,-1,6,8,-1,-1,-1,-1],"split_conditions":[2.6609994E-2,6.9680115E1,5.7085782E-2,1.3213722E-2,1.7561363E-2,-7.824343E-3,-5.7160556E-2,5.6196567E-2,-9.344433E-3],"split_indices":[9,0,0,7,9,0,0,0,0],"split_type":[0,0,0,0,0,0,0,0,0],"sum_hessian":[4.6165665E1,4.218586E1,3.9798064E0,3.2501858E1,9.684003E0,2.2109646E1,1.039221E1,4.4979477E0,5.186055E0],"tree_param":{"num_deleted":"0","num_feature":"14","num_nodes":"9","size_leaf_vector":"1"}},{"base_weights":[6.756923E-2,3.666612E-1,-4.5478886E-1,9.6266425E-1,3.8769018E-2,-7.026354E-1,4.6351492E-2,7.080137E-2,-1.589256E-2,3.0761106E-2,-3.5012946E-2,-4.353742E-4,-5.1346015E-2],"categories":[],"categories_nodes":[],"categories_segments":[],"categories_sizes":[],"default_left":[0,0,0,0,0,0,0,0,0,0,0,0,0],"id":8,"left_children":[1,3,5,7,9,11,-1,-1,-1,-1,-1,-1,-1],"loss_changes":[7.7028294E0,5.8956103E0,7.0405245E0,7.2184095E0,1.0038522E1,3.402264E0,0E0,0E0,0E0,0E0,0E0,0E0,0E0],"parents":[2147483647,0,0,1,1,2,2,3,3,4,4,5,5],"right_children":[2,4,6,8,10,12,-1,-1,-1,-1,-1,-1,-1],"split_conditions":[8.7564275E-2,5.2601803E1,2.6609994E-2,1.1417686E-2,2.8903197E-2,-3.7719525E-2,4.6351492E-2,7.080137E-2,-1.589256E-2,3.0761106E-2,-3.5012946E-2,-4.353742E-4,-5.1346015E-2],"split_indices":[3,0,9,7,3,7,0,0,0,0,0,0,0],"split_type":[0,0,0,0,0,0,0,0,0,0,0,0,0],"sum_hessian":[4.6315247E1,2.9979532E1,1.6335712E1,9.392727E0,2.0586805E1,1.4599175E1,1.7365376E0,6.9348946E0,2.4578328E0,1.1858729E1,8.728076E0,5.3365865E0,9.262589E0],"tree_param":{"num_deleted":"0","num_feature":"14","num_nodes":"13","size_leaf_vector":"1"}},{"base_weights":[4.595391E-2,-4.8518217E-1,3.3587277E-1,4.022122E-2,-7.570562E-1,6.377418E-1,-1.6723658E-1,-4.719607E-2,2.5182396E-2,5.6632906E-2,-2.6716662E-4,-2.9420478E-2,2.5887594E-2],"categories":[],"categories_nodes":[],"categories_segments":[],"categories_sizes":[],"default_left":[0,0,0,0,0,0,0,0,0,0,0,0,0],"id":9,"left_children":[1,3,5,-1,7,9,11,-1,-1,-1,-1,-1,-1],"loss_changes":[7.2956877E0,6.7268457E0,4.9435644E0,0E0,4.2446365E0,6.5549784E0,4.0828524E0,0E0,0E0,0E0,0E0,0E0,0E0],"parents":[2147483647,0,0,1,1,2,2,4,4,5,5,6,6],"right_children":[2,4,6,-1,8,10,12,-1,-1,-1,-1,-1,-1],"split_conditions":[7.1619755E-1,1.700826E-2,1.0230835E-2,4.022122E-2,2.3781192E-2,8.692752E-2,1.9793004E-2,-4.719607E-2,2.5182396E-2,5.6632906E-2,-2.6716662E-4,-2.9420478E-2,2.5887594E-2],"split_indices":[1,3,7,0,9,3,9,0,0,0,0,0,0],"split_type":[0,0,0,0,0,0,0,0,0,0,0,0,0],"sum_hessian":[4.448531E1,1.510768E1,2.937763E1,1.9907773E0,1.3116903E1,1.835852E1,1.101911E1,1.1890075E1,1.2268286E0,9.904848E0,8.453672E0,7.1353345E0,3.8837755E0],"tree_param":{"num_deleted":"0","num_feature":"14","num_nodes":"13","size_leaf_vector":"1"}},{"base_weights":[-2.6309583E-2,-2.1544527E-1,1.0571519E0,-6.8085015E-1,1.4648958E-1,5.994783E-2,9.523745E-3,1.6940584E-2,-5.58585E-2,2.129796E-2,-2.6089475E-2],"categories":[],"categories_nodes":[],"categories_segments":[],"categories_sizes":[],"default_left":[0,0,0,0,0,0,0,0,0,0,0],"id":10,"left_children":[1,3,5,7,9,-1,-1,-1,-1,-1,-1],"loss_changes":[9.887135E0,7.2909484E0,2.572856E-1,9.077037E0,4.887043E0,0E0,0E0,0E0,0E0,0E0,0E0],"parents":[2147483647,0,0,1,1,2,2,3,3,4,4],"right_children":[2,4,6,8,10,-1,-1,-1,-1,-1,-1],"split_conditions":[2.3799134E-2,7.327408E-1,1.1456121E0,1.7526874E-2,9.29302E-2,5.994783E-2,9.523745E-3,1.6940584E-2,-5.58585E-2,2.129796E-2,-2.6089475E-2],"split_indices":[9,1,1,9,3,0,0,0,0,0,0],"split_type":[0,0,0,0,0,0,0,0,0,0,0],"sum_hessian":[4.5902794E1,4.026092E1,5.641874E0,1.7276407E1,2.2984514E1,4.1560125E0,1.485861E0,5.140382E0,1.2136024E1,1.6801449E1,6.1830664E0],"tree_param":{"num_deleted":"0","num_feature":"14","num_nodes":"11","size_leaf_vector":"1"}},{"base_weights":[5.5382874E-2,-1.0034968E-1,4.897986E-2,1.4843276E-1,-7.569065E-1,5.076201E-2,-6.4522023E-3,-0E0,-4.7409963E-2],"categories":[],"categories_nodes":[],"categories_segments":[],"categories_sizes":[],"default_left":[0,0,0,0,0,0,0,0,0],"id":11,"left_children":[1,3,-1,5,7,-1,-1,-1,-1],"loss_changes":[6.8637166E0,6.8342867E0,0E0,7.6104593E0,1.5761948E0,0E0,0E0,0E0,0E0],"parents":[2147483647,0,0,1,1,3,3,4,4],"right_children":[2,4,-1,6,8,-1,-1,-1,-1],"split_conditions":[2.3799134E-2,9.253286E-2,4.897986E-2,4.9796432E-2,1.453494E-2,5.076201E-2,-6.4522023E-3,-0E0,-4.7409963E-2],"split_indices":[9,3,0,2,2,0,0,0,0],"split_type":[0,0,0,0,0,0,0,0,0],"sum_hessian":[4.3941555E1,3.856413E1,5.3774257E0,2.8587877E1,9.976251E0,6.139932E0,2.2447945E1,2.4103081E0,7.565943E0],"tree_param":{"num_deleted":"0","num_feature":"14","num_nodes":"9","size_leaf_vector":"1"}},{"base_weights":[3.3587847E-2,-1.4329839E-1,1.0261307E0,1.576184E-1,-9.372439E-1,5.82348E-2,7.871461E-3,-2.0235278E-2,2.866146E-2,-5.0691813E-2,-1.16041405E-2],"categories":[],"categories_nodes":[],"categories_segments":[],"categories_sizes":[],"default_left":[0,0,0,0,0,0,0,0,0,0,0],"id":12,"left_children":[1,3,5,7,9,-1,-1,-1,-1,-1,-1],"loss_changes":[8.781653E0,1.0334949E1,3.7277222E-1,7.7025075E0,3.8090706E-2,0E0,0E0,0E0,0E0,0E0,0E0],"parents":[2147483647,0,0,1,1,2,2,3,3,4,4],"right_children":[2,4,6,8,10,-1,-1,-1,-1,-1,-1],"split_conditions":[2.3799134E-2,9.29302E-2,1.1456121E0,7.738279E-1,1.9623838E-1,5.82348E-2,7.871461E-3,-2.0235278E-2,2.866146E-2,-5.0691813E-2,-1.16041405E-2],"split_indices":[9,3,1,1,3,0,0,0,0,0,0],"split_type":[0,0,0,0,0,0,0,0,0,0,0],"sum_hessian":[4.625678E1,4.0178326E1,6.078454E0,2.9824656E1,1.0353669E1,4.602922E0,1.4755319E0,1.2487343E1,1.7337313E1,8.4911585E0,1.8625109E0],"tree_param":{"num_deleted":"0","num_feature":"14","num_nodes":"11","size_leaf_vector":"1"}},{"base_weights":[6.74762E-3,-1.5225574E-1,8.3804756E-1,-3.701437E-1,4.8058236E-1,2.328422E-1,5.048048E-2,1.623288E-2,-3.0699015E-2,5.2758235E-2,-6.7840363E-3,4.298134E-2,-2.2437604E-2],"categories":[],"categories_nodes":[],"categories_segments":[],"categories_sizes":[],"default_left":[0,0,0,0,0,0,0,0,0,0,0,0,0],"id":13,"left_children":[1,3,5,7,9,11,-1,-1,-1,-1,-1,-1,-1],"loss_changes":[6.608858E0,5.891535E0,2.3590136E-1,5.7013083E0,4.2604628E0,2.3643668E0,0E0,0E0,0E0,0E0,0E0,0E0,0E0],"parents":[2147483647,0,0,1,1,2,2,3,3,4,4,5,5],"right_children":[2,4,6,8,10,12,-1,-1,-1,-1,-1,-1,-1],"split_conditions":[2.3799134E-2,6.9680115E1,2.6609994E-2,2.8474718E-2,1.7750796E-2,2.5009753E-2,5.048048E-2,1.623288E-2,-3.0699015E-2,5.2758235E-2,-6.7840363E-3,4.298134E-2,-2.2437604E-2],"split_indices":[9,0,9,2,9,9,0,0,0,0,0,0,0],"split_type":[0,0,0,0,0,0,0,0,0,0,0,0,0],"sum_hessian":[4.601345E1,3.9452103E1,6.561351E0,3.0045904E1,9.406197E0,2.487598E0,4.073753E0,7.4630046E0,2.25829E1,4.482815E0,4.923382E0,1.2446575E0,1.2429403E0],"tree_param":{"num_deleted":"0","num_feature":"14","num_nodes":"13","size_leaf_vector":"1"}},{"base_weights":[8.178979E-2,-3.938646E-1,4.7656623E-1,4.006769E-2,-6.2860924E-1,1.4568487E-1,9.707374E-1,-4.0772382E-2,1.9235065E-2,2.1455597E-2,-3.3188846E-2,6.002144E-2,1.9560596E-2],"categories":[],"categories_nodes":[],"categories_segments":[],"categories_sizes":[],"default_left":[0,0,0,0,0,0,0,0,0,0,0,0,0],"id":14,"left_children":[1,3,5,-1,7,9,11,-1,-1,-1,-1,-1,-1],"loss_changes":[9.377422E0,7.0397854E0,4.0334744E0,0E0,4.3061676E0,4.596472E0,3.6872578E-1,0E0,0E0,0E0,0E0,0E0,0E0],"parents":[2147483647,0,0,1,1,2,2,4,4,5,5,6,6],"right_children":[2,4,6,-1,8,10,12,-1,-1,-1,-1,-1,-1],"split_conditions":[7.871972E-1,1.7045483E-2,2.0788487E-2,4.006769E-2,2.3799134E-2,1.8164666E-2,5.2601803E1,-4.0772382E-2,1.9235065E-2,2.1455597E-2,-3.3188846E-2,6.002144E-2,1.9560596E-2],"split_indices":[1,3,9,0,9,9,0,0,0,0,0,0,0],"split_type":[0,0,0,0,0,0,0,0,0,0,0,0,0],"sum_hessian":[4.6851612E1,2.1020947E1,2.5830666E1,2.7166023E0,1.8304344E1,1.6877172E1,8.953492E0,1.586868E1,2.4356642E0,1.3205325E1,3.6718488E0,5.01401E0,3.939482E0],"tree_param":{"num_deleted":"0","num_feature":"14","num_nodes":"13","size_leaf_vector":"1"}},{"base_weights":[-5.140985E-2,-1.9957024E-1,5.6450885E-2,6.5362966E-1,-4.223191E-1,6.668462E-2,-3.9647217E-3,-2.680011E-2,2.0913387E-2],"categories":[],"categories_nodes":[],"categories_segments":[],"categories_sizes":[],"default_left":[0,0,0,0,0,0,0,0,0],"id":15,"left_children":[1,3,-1,5,7,-1,-1,-1,-1],"loss_changes":[8.631441E0,8.825317E0,0E0,5.2023907E0,3.8368826E0,0E0,0E0,0E0,0E0],"parents":[2147483647,0,0,1,1,3,3,4,4],"right_children":[2,4,-1,6,8,-1,-1,-1,-1],"split_conditions":[2.6609994E-2,1.4464857E-2,5.6450885E-2,4.068477E-2,1.9282083E-1,6.668462E-2,-3.9647217E-3,-2.680011E-2,2.0913387E-2],"split_indices":[9,9,0,3,2,0,0,0,0],"split_type":[0,0,0,0,0,0,0,0,0],"sum_hessian":[4.69832E1,4.300171E1,3.9814932E0,8.11587E0,3.4885838E1,3.7135272E0,4.4023433E0,3.1418211E1,3.467626E0],"tree_param":{"num_deleted":"0","num_feature":"14","num_nodes":"9","size_leaf_vector":"1"}},{"base_weights":[-1.7460674E-2,2.1109547E-1,-5.273631E-1,5.7325255E-2,-1.5185328E-2,1.8790676E-1,-5.679555E-2,-8.3766235E-3,4.2705934E-2,2.6144609E-2,-2.4832947E-2],"categories":[],"categories_nodes":[],"categories_segments":[],"categories_sizes":[],"default_left":[0,0,0,0,0,0,0,0,0,0,0],"id":16,"left_children":[1,3,5,-1,7,9,-1,-1,-1,-1,-1],"loss_changes":[5.8614326E0,7.483843E0,7.3238626E0,0E0,3.893871E0,2.3055582E0,0E0,0E0,0E0,0E0,0E0],"parents":[2147483647,0,0,1,1,2,2,4,4,5,5],"right_children":[2,4,6,-1,8,10,-1,-1,-1,-1,-1],"split_conditions":[8.7564275E-2,4.8298307E-2,-2.867923E-2,5.7325255E-2,2.3378247E-2,2.5613042E-2,-5.679555E-2,-8.3766235E-3,4.2705934E-2,2.6144609E-2,-2.4832947E-2],"split_indices":[3,2,7,0,9,2,0,0,0,0,0],"split_type":[0,0,0,0,0,0,0,0,0,0,0],"sum_hessian":[4.681928E1,3.266463E1,1.415465E1,5.346555E0,2.7318075E1,6.832318E0,7.3223324E0,2.4470554E1,2.8475206E0,5.021505E0,1.810813E0],"tree_param":{"num_deleted":"0","num_feature":"14","num_nodes":"11","size_leaf_vector":"1"}},{"base_weights":[7.4944295E-2,2.538433E-1,-4.6168208E-1,7.740089E-2,6.1596453E-1,-7.305211E-1,3.4642722E-2,2.484272E-2,-3.8388144E-2,4.848021E-2,-2.329864E-2,-4.5914273E-3,-4.9894627E-2],"categories":[],"categories_nodes":[],"categories_segments":[],"categories_sizes":[],"default_left":[0,0,0,0,0,0,0,0,0,0,0,0,0],"id":17,"left_children":[1,3,5,7,9,11,-1,-1,-1,-1,-1,-1,-1],"loss_changes":[4.6398735E0,2.1184688E0,4.487334E0,9.945255E0,5.12241E0,1.45366E0,0E0,0E0,0E0,0E0,0E0,0E0,0E0],"parents":[2147483647,0,0,1,1,2,2,3,3,4,4,5,5],"right_children":[2,4,6,8,10,12,-1,-1,-1,-1,-1,-1,-1],"split_conditions":[9.570962E-2,6.9680115E1,2.5073003E-2,1.5669847E-2,2.8903197E-2,-4.2850494E-2,3.4642722E-2,2.484272E-2,-3.8388144E-2,4.848021E-2,-2.329864E-2,-4.5914273E-3,-4.9894627E-2],"split_indices":[3,0,9,7,3,7,0,0,0,0,0,0,0],"split_type":[0,0,0,0,0,0,0,0,0,0,0,0,0],"sum_hessian":[4.5432896E1,3.494588E1,1.0487017E1,2.5092537E1,9.853345E0,9.093641E0,1.3933749E0,1.734103E1,7.7515063E0,7.6827655E0,2.1705792E0,3.498848E0,5.5947933E0],"tree_param":{"num_deleted":"0","num_feature":"14","num_nodes":"13","size_leaf_vector":"1"}},{"base_weights":[-5.342935E-2,-4.5282733E-1,2.4946293E-1,-6.447061E-1,5.640664E-1,5.0184464E-1,-3.7585688E-1,5.907011E-3,-5.033206E-2,2.5406263E-3,3.454821E-2,3.850707E-2,-0E0,-3.2383118E-2,1.8383738E-2],"categories":[],"categories_nodes":[],"categories_segments":[],"categories_sizes":[],"default_left":[0,0,0,0,0,0,0,0,0,0,0,0,0,0,0],"id":18,"left_children":[1,3,5,7,9,11,13,-1,-1,-1,-1,-1,-1,-1,-1],"loss_changes":[5.691183E0,4.533952E0,4.48232E0,5.323737E0,5.0791383E-2,2.564242E0,2.0774937E0,0E0,0E0,0E0,0E0,0E0,0E0,0E0,0E0],"parents":[2147483647,0,0,1,1,2,2,3,3,4,4,5,5,6,6],"right_children":[2,4,6,8,10,12,14,-1,-1,-1,-1,-1,-1,-1,-1],"split_conditions":[7.738279E-1,2.3781192E-2,1.453341E0,1.7414223E-2,4.42953E1,1.3875642E-2,2.0787302E-2,5.907011E-3,-5.033206E-2,2.5406263E-3,3.454821E-2,3.850707E-2,-0E0,-3.2383118E-2,1.8383738E-2],"split_indices":[1,9,1,9,0,7,9,0,0,0,0,0,0,0,0],"split_type":[0,0,0,0,0,0,0,0,0,0,0,0,0,0,0],"sum_hessian":[4.3807575E1,1.8858404E1,2.4949171E1,1.6492165E1,2.3662395E0,1.8213963E1,6.735208E0,5.4542017E0,1.1037964E1,1.1978973E0,1.1683424E0,1.119422E1,7.0197444E0,5.2708054E0,1.4644028E0],"tree_param":{"num_deleted":"0","num_feature":"14","num_nodes":"15","size_leaf_vector":"1"}},{"base_weights":[-2.1957658E-2,-4.2305744E-1,2.8037623E-1,2.8050482E-2,-6.024972E-1,4.295914E-1,-3.1050796E-2,-4.2006753E-2,2.2338113E-2,-3.982212E-3,3.4166265E-2],"categories":[],"categories_nodes":[],"categories_segments":[],"categories_sizes":[],"default_left":[0,0,0,0,0,0,0,0,0,0,0],"id":19,"left_children":[1,3,5,-1,7,9,-1,-1,-1,-1,-1],"loss_changes":[5.635374E0,4.0687523E0,3.8784285E0,0E0,5.1087403E0,3.2399387E0,0E0,0E0,0E0,0E0,0E0],"parents":[2147483647,0,0,1,1,2,2,4,4,5,5],"right_children":[2,4,6,-1,8,10,-1,-1,-1,-1,-1],"split_conditions":[7.738279E-1,1.700826E-2,1.7440976E0,2.8050482E-2,2.3781192E-2,1.6793223E-2,-3.1050796E-2,-4.2006753E-2,2.2338113E-2,-3.982212E-3,3.4166265E-2],"split_indices":[1,3,1,0,9,9,0,0,0,0,0],"split_type":[0,0,0,0,0,0,0,0,0,0,0],"sum_hessian":[4.3268623E1,1.8623625E1,2.4644999E1,2.2083788E0,1.6415247E1,2.2008707E1,2.6362913E0,1.3783182E1,2.6320648E0,7.3993645E0,1.4609343E1],"tree_param":{"num_deleted":"0","num_feature":"14","num_nodes":"11","size_leaf_vector":"1"}},{"base_weights":[7.8618534E-2,7.680641E-1,-9.699946E-2,1.0665247E0,-1.8547831E-2,5.1770058E-2,-4.304478E-2,4.8046154E-3,5.9819188E-2,-1.4112713E-2,2.697214E-2],"categories":[],"categories_nodes":[],"categories_segments":[],"categories_sizes":[],"default_left":[0,0,0,0,0,0,0,0,0,0,0],"id":20,"left_children":[1,3,5,7,-1,9,-1,-1,-1,-1,-1],"loss_changes":[5.3885503E0,3.7995849E0,4.200672E0,5.3624916E-1,0E0,5.2399044E0,0E0,0E0,0E0,0E0,0E0],"parents":[2147483647,0,0,1,1,2,2,3,3,5,5],"right_children":[2,4,6,8,-1,10,-1,-1,-1,-1,-1],"split_conditions":[2.8474718E-2,-1.6742423E-2,9.570962E-2,6.921314E-3,-1.8547831E-2,2.088893E-2,-4.304478E-2,4.8046154E-3,5.9819188E-2,-1.4112713E-2,2.697214E-2],"split_indices":[2,7,3,2,0,9,0,0,0,0,0],"split_type":[0,0,0,0,0,0,0,0,0,0,0],"sum_hessian":[4.0972954E1,7.521897E0,3.3451057E1,6.174926E0,1.3469713E0,2.8949617E1,4.5014386E0,1.2185831E0,4.9563427E0,1.7313032E1,1.1636586E1],"tree_param":{"num_deleted":"0","num_feature":"14","num_nodes":"11","size_leaf_vector":"1"}},{"base_weights":[7.118726E-2,-2.8793618E-2,4.9329303E-2,-2.1930766E-1,4.5863757E-1,1.7939938E-2,-2.1683864E-2,4.3549255E-2,-3.075273E-3],"categories":[],"categories_nodes":[],"categories_segments":[],"categories_sizes":[],"default_left":[0,0,0,0,0,0,0,0,0],"id":21,"left_children":[1,3,-1,5,7,-1,-1,-1,-1],"loss_changes":[4.4812813E0,4.105039E0,0E0,4.250686E0,2.8805695E0,0E0,0E0,0E0,0E0],"parents":[2147483647,0,0,1,1,3,3,4,4],"right_children":[2,4,-1,6,8,-1,-1,-1,-1],"split_conditions":[2.6609994E-2,6.9680115E1,4.9329303E-2,2.8474718E-2,1.8289823E-2,1.7939938E-2,-2.1683864E-2,4.3549255E-2,-3.075273E-3],"split_indices":[9,0,0,2,9,0,0,0,0],"split_type":[0,0,0,0,0,0,0,0,0],"sum_hessian":[4.4905178E1,4.1596317E1,3.3088617E0,3.07953E1,1.0801016E1,7.8045683E0,2.2990732E1,5.6749206E0,5.126095E0],"tree_param":{"num_deleted":"0","num_feature":"14","num_nodes":"9","size_leaf_vector":"1"}},{"base_weights":[-5.718423E-2,-1.5553518E-1,3.75723E-2,4.8298517E-1,-3.3633107E-1,6.1751615E-2,-1.2229954E-2,-3.370951E-2,-2.4331424E-3],"categories":[],"categories_nodes":[],"categories_segments":[],"categories_sizes":[],"default_left":[0,0,0,0,0,0,0,0,0],"id":22,"left_children":[1,3,-1,5,7,-1,-1,-1,-1],"loss_changes":[3.502537E0,4.843442E0,0E0,5.696293E0,2.9531634E0,0E0,0E0,0E0,0E0],"parents":[2147483647,0,0,1,1,3,3,4,4],"right_children":[2,4,-1,6,8,-1,-1,-1,-1],"split_conditions":[2.6609994E-2,1.4464857E-2,3.75723E-2,4.068477E-2,7.517135E-1,6.1751615E-2,-1.2229954E-2,-3.370951E-2,-2.4331424E-3],"split_indices":[9,9,0,3,1,0,0,0,0],"split_type":[0,0,0,0,0,0,0,0,0],"sum_hessian":[4.1834904E1,3.859905E1,3.235855E0,7.7201757E0,3.0878872E1,3.4170036E0,4.303172E0,1.2954009E1,1.7924862E1],"tree_param":{"num_deleted":"0","num_feature":"14","num_nodes":"9","size_leaf_vector":"1"}},{"base_weights":[6.232693E-2,-5.8904637E-2,7.2311366E-1,-2.748683E-1,4.880912E-1,4.3415073E-2,-0E0,2.2706123E-2,-2.4462443E-2,5.6585904E-2,-8.591517E-3],"categories":[],"categories_nodes":[],"categories_segments":[],"categories_sizes":[],"default_left":[0,0,0,0,0,0,0,0,0,0,0],"id":23,"left_children":[1,3,5,7,9,-1,-1,-1,-1,-1,-1],"loss_changes":[3.6772866E0,4.629144E0,6.239691E-1,4.7714252E0,5.15176E0,0E0,0E0,0E0,0E0,0E0,0E0],"parents":[2147483647,0,0,1,1,2,2,3,3,4,4],"right_children":[2,4,6,8,10,-1,-1,-1,-1,-1,-1],"split_conditions":[2.3799134E-2,6.9680115E1,1.1456121E0,1.4113708E-2,1.7750796E-2,4.3415073E-2,-0E0,2.2706123E-2,-2.4462443E-2,5.6585904E-2,-8.591517E-3],"split_indices":[9,0,1,9,9,0,0,0,0,0,0],"split_type":[0,0,0,0,0,0,0,0,0,0,0],"sum_hessian":[4.1948143E1,3.6343906E1,5.6042376E0,2.685353E1,9.4903755E0,4.2546816E0,1.3495559E0,5.5092435E0,2.1344288E1,4.4150324E0,5.075343E0],"tree_param":{"num_deleted":"0","num_feature":"14","num_nodes":"11","size_leaf_vector":"1"}},{"base_weights":[6.915755E-2,2.4227095E-1,-4.809348E-1,5.4001594E-1,-7.766634E-2,-7.3180825E-1,2.9594664E-2,4.646412E-2,1.9595323E-3,-4.464772E-2,2.1432022E-2,-4.9354667E-3,-4.7601018E-2],"categories":[],"categories_nodes":[],"categories_segments":[],"categories_sizes":[],"default_left":[0,0,0,0,0,0,0,0,0,0,0,0,0],"id":24,"left_children":[1,3,5,7,9,11,-1,-1,-1,-1,-1,-1,-1],"loss_changes":[4.4378366E0,3.5567484E0,3.654908E0,3.4571676E0,8.179407E0,1.0133686E0,0E0,0E0,0E0,0E0,0E0,0E0,0E0],"parents":[2147483647,0,0,1,1,2,2,3,3,4,4,5,5],"right_children":[2,4,6,8,10,12,-1,-1,-1,-1,-1,-1,-1],"split_conditions":[9.5013686E-2,1.8164666E-2,2.5073003E-2,1.1417686E-2,2.088893E-2,-4.2850494E-2,2.9594664E-2,4.646412E-2,1.9595323E-3,-4.464772E-2,2.1432022E-2,-4.9354667E-3,-4.7601018E-2],"split_indices":[3,9,9,7,9,7,0,0,0,0,0,0,0],"split_type":[0,0,0,0,0,0,0,0,0,0,0,0,0],"sum_hessian":[4.3767967E1,3.420625E1,9.561718E0,1.7506958E1,1.6699293E1,8.287071E0,1.2746468E0,8.903848E0,8.603109E0,6.1100373E0,1.0589255E1,2.9336262E0,5.353445E0],"tree_param":{"num_deleted":"0","num_feature":"14","num_nodes":"13","size_leaf_vector":"1"}},{"base_weights":[2.956855E-2,2.77531E-1,-4.765318E-1,5.035435E-2,9.569009E-2,-7.1105754E-1,3.4667876E-2,-1.1389218E-2,2.2986937E-2,-4.358184E-2,1.613599E-2],"categories":[],"categories_nodes":[],"categories_segments":[],"categories_sizes":[],"default_left":[0,0,0,0,0,0,0,0,0,0,0],"id":25,"left_children":[1,3,5,-1,7,9,-1,-1,-1,-1,-1],"loss_changes":[5.9061346E0,3.8737657E0,4.9538994E0,0E0,3.4364717E0,2.8005571E0,0E0,0E0,0E0,0E0,0E0],"parents":[2147483647,0,0,1,1,2,2,4,4,5,5],"right_children":[2,4,6,-1,8,10,-1,-1,-1,-1,-1],"split_conditions":[8.7564275E-2,4.8298307E-2,2.6609994E-2,5.035435E-2,1.1446083E-1,2.1785326E-2,3.4667876E-2,-1.1389218E-2,2.2986937E-2,-4.358184E-2,1.613599E-2],"split_indices":[3,2,9,0,2,8,0,0,0,0,0],"split_type":[0,0,0,0,0,0,0,0,0,0,0],"sum_hessian":[4.429949E1,3.0452164E1,1.384733E1,4.4981284E0,2.5954035E1,1.2167408E1,1.6799217E0,1.3749251E1,1.2204784E1,1.0902609E1,1.2647998E0],"tree_param":{"num_deleted":"0","num_feature":"14","num_nodes":"11","size_leaf_vector":"1"}},{"base_weights":[5.6103412E-2,2.2849877E-1,-4.8582417E-1,7.374003E-1,5.162885E-2,9.1477714E-2,-5.0793957E-2,-5.674565E-3,5.2803107E-2,2.251307E-2,-8.42958E-3,-1.3480501E-2,3.6226537E-2],"categories":[],"categories_nodes":[],"categories_segments":[],"categories_sizes":[],"default_left":[0,0,0,0,0,0,0,0,0,0,0,0,0],"id":26,"left_children":[1,3,5,7,9,11,-1,-1,-1,-1,-1,-1,-1],"loss_changes":[4.376714E0,3.0170329E0,3.7541642E0,2.7696471E0,2.6765625E0,1.8836946E0,0E0,0E0,0E0,0E0,0E0,0E0,0E0],"parents":[2147483647,0,0,1,1,2,2,3,3,4,4,5,5],"right_children":[2,4,6,8,10,12,-1,-1,-1,-1,-1,-1,-1],"split_conditions":[9.570962E-2,4.3051716E-2,-2.867923E-2,1.2601989E-2,1.7750796E-2,2.3187418E-2,-5.0793957E-2,-5.674565E-3,5.2803107E-2,2.251307E-2,-8.42958E-3,-1.3480501E-2,3.6226537E-2],"split_indices":[3,2,7,9,9,9,0,0,0,0,0,0,0],"split_type":[0,0,0,0,0,0,0,0,0,0,0,0,0],"sum_hessian":[4.4115494E1,3.4406773E1,9.708723E0,7.356281E0,2.7050491E1,5.06072E0,4.648003E0,2.0964599E0,5.259821E0,9.391584E0,1.7658907E1,3.5697846E0,1.4909353E0],"tree_param":{"num_deleted":"0","num_feature":"14","num_nodes":"13","size_leaf_vector":"1"}},{"base_weights":[8.5478E-3,5.8771896E-1,-1.3283417E-1,-9.591393E-3,8.526971E-1,-4.51683E-1,2.456973E-1,5.0923552E-2,4.865334E-3,-3.580801E-2,4.3115716E-2,-1.5449616E-2,2.3918564E-2],"categories":[],"categories_nodes":[],"categories_segments":[],"categories_sizes":[],"default_left":[0,0,0,0,0,0,0,0,0,0,0,0,0],"id":27,"left_children":[1,3,5,-1,7,9,11,-1,-1,-1,-1,-1,-1],"loss_changes":[3.7642922E0,2.252205E0,4.5350523E0,0E0,5.3483486E-1,7.9436507E0,2.4596596E0,0E0,0E0,0E0,0E0,0E0,0E0],"parents":[2147483647,0,0,1,1,2,2,4,4,5,5,6,6],"right_children":[2,4,6,-1,8,10,12,-1,-1,-1,-1,-1,-1],"split_conditions":[1.4464857E-2,1.206837E-2,2.0891326E-2,-9.591393E-3,1.0230835E-2,7.9297356E1,4.0981018E1,5.0923552E-2,4.865334E-3,-3.580801E-2,4.3115716E-2,-1.5449616E-2,2.3918564E-2],"split_indices":[9,9,9,0,7,0,0,0,0,0,0,0,0],"split_type":[0,0,0,0,0,0,0,0,0,0,0,0,0],"sum_hessian":[4.192968E1,7.5755625E0,3.435412E1,1.8353643E0,5.740198E0,1.8776537E1,1.5577581E1,4.061675E0,1.6785233E0,1.6325304E1,2.4512336E0,4.2039285E0,1.1373653E1],"tree_param":{"num_deleted":"0","num_feature":"14","num_nodes":"13","size_leaf_vector":"1"}},{"base_weights":[-6.0329393E-2,-5.074713E-1,2.7030033E-1,-6.738132E-1,2.3920625E-1,-1.8852506E-2,7.52533E-1,-4.392254E-2,1.41559085E-2,4.0250458E-2,-1.959248E-2,1.167772E-2,-4.507978E-2,4.474036E-2,1.3143969E-3],"categories":[],"categories_nodes":[],"categories_segments":[],"categories_sizes":[],"default_left":[0,0,0,0,0,0,0,0,0,0,0,0,0,0,0],"id":28,"left_children":[1,3,5,7,9,11,13,-1,-1,-1,-1,-1,-1,-1,-1],"loss_changes":[6.5616436E0,2.6783724E0,3.6893153E0,3.6416326E0,2.103476E0,4.235287E0,7.8917646E-1,0E0,0E0,0E0,0E0,0E0,0E0,0E0,0E0],"parents":[2147483647,0,0,1,1,2,2,3,3,4,4,5,5,6,6],"right_children":[2,4,6,8,10,12,14,-1,-1,-1,-1,-1,-1,-1,-1],"split_conditions":[7.738279E-1,6.9680115E1,2.0787302E-2,2.3781192E-2,1.9115288E-2,9.29302E-2,1.3875642E-2,-4.392254E-2,1.41559085E-2,4.0250458E-2,-1.959248E-2,1.167772E-2,-4.507978E-2,4.474036E-2,1.3143969E-3],"split_indices":[1,0,9,9,9,3,7,0,0,0,0,0,0,0,0],"split_type":[0,0,0,0,0,0,0,0,0,0,0,0,0,0,0],"sum_hessian":[4.117128E1,1.7417948E1,2.3753332E1,1.4583356E1,2.8345928E0,1.5491221E1,8.262111E0,1.22876835E1,2.2956717E0,1.4436595E0,1.3909333E0,1.2728319E1,2.762902E0,6.387278E0,1.8748326E0],"tree_param":{"num_deleted":"0","num_feature":"14","num_nodes":"15","size_leaf_vector":"1"}},{"base_weights":[-5.9202783E-2,-2.0407803E-1,7.093652E-1,-4.2080522E-1,3.7125665E-1,6.1921915E-3,3.977247E-2,-1.6849976E-3,-5.4052647E-2,-2.1692967E-2,3.9154526E-2],"categories":[],"categories_nodes":[],"categories_segments":[],"categories_sizes":[],"default_left":[0,0,0,0,0,0,0,0,0,0,0],"id":29,"left_children":[1,3,5,7,9,-1,-1,-1,-1,-1,-1],"loss_changes":[5.068597E0,5.083214E0,2.9801369E-2,7.1713357E0,4.2808814E0,0E0,0E0,0E0,0E0,0E0,0E0],"parents":[2147483647,0,0,1,1,2,2,3,3,4,4],"right_children":[2,4,6,8,10,-1,-1,-1,-1,-1,-1],"split_conditions":[2.3781192E-2,6.9680115E1,3.72561E1,1.5669847E-2,1.711112E-2,6.1921915E-3,3.977247E-2,-1.6849976E-3,-5.4052647E-2,-2.1692967E-2,3.9154526E-2],"split_indices":[9,0,0,7,7,0,0,0,0,0,0],"split_type":[0,0,0,0,0,0,0,0,0,0,0],"sum_hessian":[4.2978336E1,3.7307747E1,5.67059E0,2.76446E1,9.663145E0,1.4934963E0,4.177094E0,1.8611877E1,9.032722E0,3.0786576E0,6.5844874E0],"tree_param":{"num_deleted":"0","num_feature":"14","num_nodes":"11","size_leaf_vector":"1"}},{"base_weights":[4.4151552E-2,2.330905E-1,-2.647682E-1,-1.3599299E-1,5.2376777E-1,-9.370639E-1,4.9612865E-1,1.9493058E-2,-2.176387E-2,4.767413E-2,-6.81626E-4,-5.161838E-2,-4.334535E-3,3.3049278E-2,-8.830075E-3],"categories":[],"categories_nodes":[],"categories_segments":[],"categories_sizes":[],"default_left":[0,0,0,0,0,0,0,0,0,0,0,0,0,0,0],"id":30,"left_children":[1,3,5,7,9,11,13,-1,-1,-1,-1,-1,-1,-1,-1],"loss_changes":[2.7448432E0,3.3453088E0,9.782064E0,2.446248E0,4.155083E0,4.5204353E-1,1.2802048E0,0E0,0E0,0E0,0E0,0E0,0E0,0E0,0E0],"parents":[2147483647,0,0,1,1,2,2,3,3,4,4,5,5,6,6],"right_children":[2,4,6,8,10,12,14,-1,-1,-1,-1,-1,-1,-1,-1],"split_conditions":[1.3875642E-2,7.738279E-1,1.1722554E-1,1.7414223E-2,8.45336E-2,1.1274516E-1,8.871205E-2,1.9493058E-2,-2.176387E-2,4.767413E-2,-6.81626E-4,-5.161838E-2,-4.334535E-3,3.3049278E-2,-8.830075E-3],"split_indices":[7,1,2,9,3,2,7,0,0,0,0,0,0,0,0],"split_type":[0,0,0,0,0,0,0,0,0,0,0,0,0,0,0],"sum_hessian":[4.404984E1,2.7962973E1,1.6086866E1,1.23684635E1,1.5594508E1,8.495854E0,7.5910115E0,4.0791006E0,8.289363E0,8.226912E0,7.367597E0,7.139495E0,1.3563596E0,6.3567357E0,1.234276E0],"tree_param":{"num_deleted":"0","num_feature":"14","num_nodes":"15","size_leaf_vector":"1"}},{"base_weights":[9.079561E-2,-2.2732615E-1,3.7375024E-1,-5.069255E-1,1.4185208E-1,6.817141E-1,-1.8604077E-1,-3.9854087E-3,-3.9801873E-2,3.3807304E-2,-8.612941E-3,3.8651068E-2,-5.9473836E-3,-2.4941934E-2,3.025259E-2],"categories":[],"categories_nodes":[],"categories_segments":[],"categories_sizes":[],"default_left":[0,0,0,0,0,0,0,0,0,0,0,0,0,0,0],"id":31,"left_children":[1,3,5,7,9,11,13,-1,-1,-1,-1,-1,-1,-1,-1],"loss_changes":[4.1550045E0,2.401157E0,4.497305E0,1.3200457E0,1.9761952E0,1.4602323E0,2.8096251E0,0E0,0E0,0E0,0E0,0E0,0E0,0E0,0E0],"parents":[2147483647,0,0,1,1,2,2,3,3,4,4,5,5,6,6],"right_children":[2,4,6,8,10,12,14,-1,-1,-1,-1,-1,-1,-1,-1],"split_conditions":[7.9710394E-1,1.4339459E-2,1.4107938E0,-2.400204E-2,4.3861743E-2,1.7592324E-1,1.5590636E-1,-3.9854087E-3,-3.9801873E-2,3.3807304E-2,-8.612941E-3,3.8651068E-2,-5.9473836E-3,-2.4941934E-2,3.025259E-2],"split_indices":[1,8,1,8,8,2,2,0,0,0,0,0,0,0,0],"split_type":[0,0,0,0,0,0,0,0,0,0,0,0,0,0,0],"sum_hessian":[4.2918354E1,2.0009752E1,2.29086E1,1.1376078E1,8.633675E0,1.4798123E1,8.1104765E0,5.642921E0,5.733156E0,2.7921562E0,5.841519E0,1.3554006E1,1.2441185E0,6.3905964E0,1.7198802E0],"tree_param":{"num_deleted":"0","num_feature":"14","num_nodes":"15","size_leaf_vector":"1"}},{"base_weights":[5.2795254E-2,2.546564E-1,-5.79855E-1,7.181323E-1,-4.8891377E-2,-3.2005563E-2,-4.871082E-2,4.603764E-2,-1.3237417E-2,2.500458E-2,-2.2532346E-2,-2.698564E-2,1.0445527E-2],"categories":[],"categories_nodes":[],"categories_segments":[],"categories_sizes":[],"default_left":[0,0,0,0,0,0,0,0,0,0,0,0,0],"id":32,"left_children":[1,3,5,7,9,11,-1,-1,-1,-1,-1,-1,-1],"loss_changes":[5.631098E0,4.9390616E0,2.0394473E0,3.2302318E0,5.082457E0,9.9298626E-1,0E0,0E0,0E0,0E0,0E0,0E0,0E0],"parents":[2147483647,0,0,1,1,2,2,3,3,4,4,5,5],"right_children":[2,4,6,8,10,12,-1,-1,-1,-1,-1,-1,-1],"split_conditions":[9.570962E-2,5.2601803E1,-2.867923E-2,1.3734356E-2,1.7045483E-2,7.3090464E-1,-4.871082E-2,4.603764E-2,-1.3237417E-2,2.500458E-2,-2.2532346E-2,-2.698564E-2,1.0445527E-2],"split_indices":[3,0,7,7,3,1,0,0,0,0,0,0,0],"split_type":[0,0,0,0,0,0,0,0,0,0,0,0,0],"sum_hessian":[4.13686E1,3.228098E1,9.087619E0,1.2225101E1,2.0055878E1,4.6946564E0,4.3929625E0,1.03829565E1,1.842145E0,8.109544E0,1.1946334E1,1.1792623E0,3.5153942E0],"tree_param":{"num_deleted":"0","num_feature":"14","num_nodes":"13","size_leaf_vector":"1"}},{"base_weights":[-0E0,-9.519771E-2,4.2134892E-2,-1.725057E-1,3.5897296E-2,2.5455493E-3,-2.529504E-2],"categories":[],"categories_nodes":[],"categories_segments":[],"categories_sizes":[],"default_left":[0,0,0,0,0,0,0],"id":33,"left_children":[1,3,-1,5,-1,-1,-1],"loss_changes":[3.4486396E0,2.5516748E0,0E0,2.914462E0,0E0,0E0,0E0],"parents":[2147483647,0,0,1,1,3,3],"right_children":[2,4,-1,6,-1,-1,-1],"split_conditions":[2.6609994E-2,1.2450753E-1,4.2134892E-2,1.3213722E-2,3.5897296E-2,2.5455493E-3,-2.529504E-2],"split_indices":[9,8,0,7,0,0,0],"split_type":[0,0,0,0,0,0,0],"sum_hessian":[4.0725292E1,3.7871456E1,2.853836E0,3.5887283E1,1.9841723E0,2.188957E1,1.3997714E1],"tree_param":{"num_deleted":"0","num_feature":"14","num_nodes":"7","size_leaf_vector":"1"}},{"base_weights":[5.0907385E-2,5.597851E-1,-8.886872E-2,-1.8303622E-2,8.145876E-1,-2.800286E-1,3.2671288E-1,-0E0,4.8089646E-2,-2.3755152E-2,2.801602E-2,4.2951733E-2,-1.4588671E-2],"categories":[],"categories_nodes":[],"categories_segments":[],"categories_sizes":[],"default_left":[0,0,0,0,0,0,0,0,0,0,0,0,0],"id":34,"left_children":[1,3,5,-1,7,9,11,-1,-1,-1,-1,-1,-1],"loss_changes":[3.3018014E0,2.8973608E0,2.951397E0,0E0,9.188733E-1,4.5593996E0,4.29547E0,0E0,0E0,0E0,0E0,0E0,0E0],"parents":[2147483647,0,0,1,1,2,2,4,4,5,5,6,6],"right_children":[2,4,6,-1,8,10,12,-1,-1,-1,-1,-1,-1],"split_conditions":[-3.7719525E-2,-8.227685E-2,6.9680115E1,-1.8303622E-2,7.327408E-1,2.3781192E-2,1.8289823E-2,-0E0,4.8089646E-2,-2.3755152E-2,2.801602E-2,4.2951733E-2,-1.4588671E-2],"split_indices":[7,7,0,0,1,9,9,0,0,0,0,0,0],"split_type":[0,0,0,0,0,0,0,0,0,0,0,0,0],"sum_hessian":[4.2546726E1,8.505311E0,3.4041416E1,1.5247992E0,6.980511E0,2.398108E1,1.0060336E1,1.4039503E0,5.576561E0,2.0185312E1,3.795767E0,5.2670445E0,4.793292E0],"tree_param":{"num_deleted":"0","num_feature":"14","num_nodes":"13","size_leaf_vector":"1"}},{"base_weights":[3.804789E-2,4.588002E-1,-6.5355174E-2,-2.1434972E-2,7.911148E-1,-6.821528E-1,4.8876856E-2,5.0419547E-2,-0E0,-4.395218E-2,-5.1139523E-3,-1.9591901E-2,1.2164121E-2],"categories":[],"categories_nodes":[],"categories_segments":[],"categories_sizes":[],"default_left":[0,0,0,0,0,0,0,0,0,0,0,0,0],"id":35,"left_children":[1,3,5,-1,7,9,11,-1,-1,-1,-1,-1,-1],"loss_changes":[1.9558244E0,3.1990619E0,2.6240637E0,0E0,1.0477867E0,3.312652E-1,2.720769E0,0E0,0E0,0E0,0E0,0E0,0E0],"parents":[2147483647,0,0,1,1,2,2,4,4,5,5,6,6],"right_children":[2,4,6,-1,8,10,12,-1,-1,-1,-1,-1,-1],"split_conditions":[-3.7719525E-2,-8.227685E-2,3.3958336E1,-2.1434972E-2,4.16104E-2,1.6499091E-2,-7.5032576E-3,5.0419547E-2,-0E0,-4.395218E-2,-5.1139523E-3,-1.9591901E-2,1.2164121E-2],"split_indices":[7,7,0,0,2,9,7,0,0,0,0,0,0],"split_type":[0,0,0,0,0,0,0,0,0,0,0,0,0],"sum_hessian":[4.0611717E1,7.3762107E0,3.3235508E1,1.7270215E0,5.649189E0,4.301711E0,2.8933796E1,3.930679E0,1.71851E0,2.3761318E0,1.9255794E0,8.075228E0,2.0858568E1],"tree_param":{"num_deleted":"0","num_feature":"14","num_nodes":"13","size_leaf_vector":"1"}},{"base_weights":[-5.9777396E-3,5.893714E-1,-1.6265091E-1,-4.647654E-3,8.168434E-1,4.866467E-2,-7.3829055E-1,4.7727387E-2,2.963642E-4,3.7721768E-2,-7.317684E-3,6.35264E-4,-5.3008176E-2],"categories":[],"categories_nodes":[],"categories_segments":[],"categories_sizes":[],"default_left":[0,0,0,0,0,0,0,0,0,0,0,0,0],"id":36,"left_children":[1,3,5,-1,7,9,11,-1,-1,-1,-1,-1,-1],"loss_changes":[3.9396567E0,1.613245E0,4.3742075E0,0E0,5.719738E-1,3.9075894E0,2.5453038E0,0E0,0E0,0E0,0E0,0E0,0E0],"parents":[2147483647,0,0,1,1,2,2,4,4,5,5,6,6],"right_children":[2,4,6,-1,8,10,12,-1,-1,-1,-1,-1,-1],"split_conditions":[-3.7719525E-2,7.327408E-1,8.426109E-2,-4.647654E-3,2.2786507E-2,5.8808908E-2,5.479462E-1,4.7727387E-2,2.963642E-4,3.7721768E-2,-7.317684E-3,6.35264E-4,-5.3008176E-2],"split_indices":[7,1,3,0,9,2,1,0,0,0,0,0,0],"split_type":[0,0,0,0,0,0,0,0,0,0,0,0,0],"sum_hessian":[4.0110268E1,7.227386E0,3.288288E1,1.8089827E0,5.4184036E0,2.4803385E1,8.079498E0,4.193904E0,1.2244992E0,4.6603475E0,2.0143038E1,2.66978E0,5.409718E0],"tree_param":{"num_deleted":"0","num_feature":"14","num_nodes":"13","size_leaf_vector":"1"}},{"base_weights":[-0E0,5.4393053E-1,-1.5789329E-1,-1.962305E-2,7.93992E-1,2.7047008E-1,-4.6156967E-1,-0E0,5.4590013E-2,3.4562E-2,-3.3094216E-2,-4.688501E-2,-0E0],"categories":[],"categories_nodes":[],"categories_segments":[],"categories_sizes":[],"default_left":[0,0,0,0,0,0,0,0,0,0,0,0,0],"id":37,"left_children":[1,3,5,-1,7,9,11,-1,-1,-1,-1,-1,-1],"loss_changes":[3.8159628E0,2.887893E0,4.7082148E0,0E0,1.8105054E0,6.564185E0,4.473525E0,0E0,0E0,0E0,0E0,0E0,0E0],"parents":[2147483647,0,0,1,1,2,2,4,4,5,5,6,6],"right_children":[2,4,6,-1,8,10,12,-1,-1,-1,-1,-1,-1],"split_conditions":[2.922336E-2,7.667773E-1,1.7750796E-2,-1.962305E-2,1.0726056E-2,4.6772897E-2,2.1410214E-2,-0E0,5.4590013E-2,3.4562E-2,-3.3094216E-2,-4.688501E-2,-0E0],"split_indices":[2,1,9,0,2,3,9,0,0,0,0,0,0],"split_type":[0,0,0,0,0,0,0,0,0,0,0,0,0],"sum_hessian":[4.1454437E1,8.494092E0,3.2960346E1,1.4416461E0,7.052446E0,1.3467968E1,1.9492378E1,2.510501E0,4.541945E0,9.695038E0,3.7729301E0,8.674075E0,1.0818302E1],"tree_param":{"num_deleted":"0","num_feature":"14","num_nodes":"13","size_leaf_vector":"1"}},{"base_weights":[4.011241E-2,-2.3546624E-1,2.680849E-1,-3.9386234E-1,5.173712E-1,5.6608784E-1,-3.1476146E-1,1.0286583E-2,-3.8208276E-2,-0E0,3.431015E-2,3.52845E-2,-5.4707197E-3,-3.7539806E-2,1.8891921E-2],"categories":[],"categories_nodes":[],"categories_segments":[],"categories_sizes":[],"default_left":[0,0,0,0,0,0,0,0,0,0,0,0,0,0,0],"id":38,"left_children":[1,3,5,7,9,11,13,-1,-1,-1,-1,-1,-1,-1,-1],"loss_changes":[2.8580966E0,2.6978784E0,4.6796145E0,4.3032784E0,2.6813877E-1,1.8741083E0,3.288571E0,0E0,0E0,0E0,0E0,0E0,0E0,0E0,0E0],"parents":[2147483647,0,0,1,1,2,2,3,3,4,4,5,5,6,6],"right_children":[2,4,6,8,10,12,14,-1,-1,-1,-1,-1,-1,-1,-1],"split_conditions":[7.738279E-1,2.3781192E-2,1.4107938E0,1.7526874E-2,4.5885697E-2,9.5013686E-2,2.0788487E-2,1.0286583E-2,-3.8208276E-2,-0E0,3.431015E-2,3.52845E-2,-5.4707197E-3,-3.7539806E-2,1.8891921E-2],"split_indices":[1,9,1,9,2,3,9,0,0,0,0,0,0,0,0],"split_type":[0,0,0,0,0,0,0,0,0,0,0,0,0,0,0],"sum_hessian":[4.2382427E1,1.8768276E1,2.3614151E1,1.6316261E1,2.4520156E0,1.5880764E1,7.733387E0,6.2778006E0,1.0038461E1,1.1360083E0,1.3160074E0,1.3350694E1,2.53007E0,4.845545E0,2.8878424E0],"tree_param":{"num_deleted":"0","num_feature":"14","num_nodes":"15","size_leaf_vector":"1"}},{"base_weights":[8.559453E-3,-6.176827E-2,3.8908906E-2,6.7842774E-2,-5.0200033E-1,1.5636707E-2,-8.229169E-3,1.0736457E-2,-3.3671133E-2],"categories":[],"categories_nodes":[],"categories_segments":[],"categories_sizes":[],"default_left":[0,0,0,0,0,0,0,0,0],"id":39,"left_children":[1,3,-1,5,7,-1,-1,-1,-1],"loss_changes":[2.5907092E0,2.4980245E0,0E0,1.9809066E0,1.529599E0,0E0,0E0,0E0,0E0],"parents":[2147483647,0,0,1,1,3,3,4,4],"right_children":[2,4,-1,6,8,-1,-1,-1,-1],"split_conditions":[2.6609994E-2,9.570962E-2,3.8908906E-2,1.8164666E-2,-8.797785E-2,1.5636707E-2,-8.229169E-3,1.0736457E-2,-3.3671133E-2],"split_indices":[9,3,0,9,8,0,0,0,0],"split_type":[0,0,0,0,0,0,0,0,0],"sum_hessian":[4.2385525E1,3.986262E1,2.5229015E0,3.1425121E1,8.437502E0,1.546886E1,1.5956261E1,1.3301959E0,7.107306E0],"tree_param":{"num_deleted":"0","num_feature":"14","num_nodes":"9","size_leaf_vector":"1"}},{"base_weights":[1.4503623E-2,-9.085639E-2,6.125248E-1,-2.448539E-1,3.7137583E-1,7.520209E-1,-0E0,2.1085968E-2,-2.183625E-2,3.459693E-2,-1.6466035E-2,-0E0,4.723647E-2],"categories":[],"categories_nodes":[],"categories_segments":[],"categories_sizes":[],"default_left":[0,0,0,0,0,0,0,0,0,0,0,0,0],"id":40,"left_children":[1,3,5,7,9,11,-1,-1,-1,-1,-1,-1,-1],"loss_changes":[2.8705144E0,2.7606323E0,4.9641085E-1,4.0072355E0,2.5646482E0,8.664775E-1,0E0,0E0,0E0,0E0,0E0,0E0,0E0],"parents":[2147483647,0,0,1,1,2,2,3,3,4,4,5,5],"right_children":[2,4,6,8,10,12,-1,-1,-1,-1,-1,-1,-1],"split_conditions":[2.3799134E-2,7.191235E1,1.1456121E0,-4.2850494E-2,1.700826E-2,3.72561E1,-0E0,2.1085968E-2,-2.183625E-2,3.459693E-2,-1.6466035E-2,-0E0,4.723647E-2],"split_indices":[9,0,1,7,3,0,0,0,0,0,0,0,0],"split_type":[0,0,0,0,0,0,0,0,0,0,0,0,0],"sum_hessian":[4.1077507E1,3.572169E1,5.3558154E0,2.764843E1,8.073261E0,3.9260452E0,1.4297702E0,5.5451026E0,2.2103329E1,5.7478476E0,2.325414E0,1.0170379E0,2.9090073E0],"tree_param":{"num_deleted":"0","num_feature":"14","num_nodes":"13","size_leaf_vector":"1"}},{"base_weights":[9.497553E-3,-3.2748374E-1,2.2234198E-1,-6.310772E-1,5.8029354E-2,-0E0,6.000108E-1,-3.9190274E-2,4.352375E-3,3.4496203E-2,-1.4977703E-2,1.8783022E-2,-1.38070285E-2,4.743217E-2,1.0169725E-2],"categories":[],"categories_nodes":[],"categories_segments":[],"categories_sizes":[],"default_left":[0,0,0,0,0,0,0,0,0,0,0,0,0,0,0],"id":41,"left_children":[1,3,5,7,9,11,13,-1,-1,-1,-1,-1,-1,-1,-1],"loss_changes":[3.0400245E0,2.0625906E0,2.2690692E0,1.2798164E0,2.2430115E0,2.0196145E0,8.5446715E-1,0E0,0E0,0E0,0E0,0E0,0E0,0E0,0E0],"parents":[2147483647,0,0,1,1,2,2,3,3,4,4,5,5,6,6],"right_children":[2,4,6,8,10,12,14,-1,-1,-1,-1,-1,-1,-1,-1],"split_conditions":[7.327408E-1,1.4339459E-2,2.1410214E-2,2.3781192E-2,4.1246828E-2,1.5612143E-2,2.2584101E-2,-3.9190274E-2,4.352375E-3,3.4496203E-2,-1.4977703E-2,1.8783022E-2,-1.38070285E-2,4.743217E-2,1.0169725E-2],"split_indices":[1,8,9,9,8,9,9,0,0,0,0,0,0,0,0],"split_type":[0,0,0,0,0,0,0,0,0,0,0,0,0,0,0],"sum_hessian":[3.9655106E1,1.4674484E1,2.498062E1,7.965183E0,6.7093015E0,1.6541632E1,8.438988E0,6.684795E0,1.2803881E0,2.1229615E0,4.58634E0,6.6627536E0,9.878879E0,3.111711E0,5.3272767E0],"tree_param":{"num_deleted":"0","num_feature":"14","num_nodes":"15","size_leaf_vector":"1"}},{"base_weights":[4.233926E-3,1.407554E-1,-4.1834572E-1,5.159205E-1,-1.0330909E-1,-0E0,-7.477687E-1,4.0963713E-2,-3.1148393E-2,-4.6927687E-2,7.1111186E-3,-3.3116844E-2,1.9598559E-2,-2.2543052E-3,-4.270078E-2],"categories":[],"categories_nodes":[],"categories_segments":[],"categories_sizes":[],"default_left":[0,0,0,0,0,0,0,0,0,0,0,0,0,0,0],"id":42,"left_children":[1,3,5,7,9,11,13,-1,-1,-1,-1,-1,-1,-1,-1],"loss_changes":[2.5393865E0,3.3048806E0,1.4053085E0,5.6761284E0,4.8136506E0,2.0436752E0,1.9843316E-1,0E0,0E0,0E0,0E0,0E0,0E0,0E0,0E0],"parents":[2147483647,0,0,1,1,2,2,3,3,4,4,5,5,6,6],"right_children":[2,4,6,8,10,12,14,-1,-1,-1,-1,-1,-1,-1,-1],"split_conditions":[9.570962E-2,5.2601803E1,-2.867923E-2,1.3734356E-2,9.176553E-3,-8.227685E-2,5.4186296E-1,4.0963713E-2,-3.1148393E-2,-4.6927687E-2,7.1111186E-3,-3.3116844E-2,1.9598559E-2,-2.2543052E-3,-4.270078E-2],"split_indices":[3,0,7,7,8,7,1,0,0,0,0,0,0,0,0],"split_type":[0,0,0,0,0,0,0,0,0,0,0,0,0,0,0],"sum_hessian":[4.1948193E1,3.2819088E1,9.129104E0,1.2599833E1,2.0219255E1,4.7889986E0,4.3401055E0,1.0420735E1,2.1790967E0,3.8166368E0,1.6402618E1,1.4712902E0,3.3177085E0,1.0978982E0,3.242207E0],"tree_param":{"num_deleted":"0","num_feature":"14","num_nodes":"15","size_leaf_vector":"1"}},{"base_weights":[6.905883E-2,-4.968045E-2,7.1567565E-1,9.2688456E-2,-4.9666384E-1,1.211203E-1,4.6818797E-2,2.9979208E-2,-3.1515602E-3,-3.5148736E-2,-1.6995779E-3,2.5775686E-2,-1.5088776E-2],"categories":[],"categories_nodes":[],"categories_segments":[],"categories_sizes":[],"default_left":[0,0,0,0,0,0,0,0,0,0,0,0,0],"id":43,"left_children":[1,3,5,7,9,11,-1,-1,-1,-1,-1,-1,-1],"loss_changes":[3.23661E0,2.3582718E0,4.7416067E-1,2.3145564E0,6.718998E-1,8.9883703E-1,0E0,0E0,0E0,0E0,0E0,0E0,0E0],"parents":[2147483647,0,0,1,1,2,2,3,3,4,4,5,5],"right_children":[2,4,6,8,10,12,-1,-1,-1,-1,-1,-1,-1],"split_conditions":[2.3781192E-2,9.253286E-2,4.4374343E-2,4.9796432E-2,-5.5673525E-2,2.5613042E-2,4.6818797E-2,2.9979208E-2,-3.1515602E-3,-3.5148736E-2,-1.6995779E-3,2.5775686E-2,-1.5088776E-2],"split_indices":[9,3,2,2,8,2,0,0,0,0,0,0,0],"split_type":[0,0,0,0,0,0,0,0,0,0,0,0,0],"sum_hessian":[3.8225517E1,3.3203716E1,5.0218005E0,2.574513E1,7.4585853E0,2.2337089E0,2.7880917E0,5.347335E0,2.0397797E1,4.3206277E0,3.1379578E0,1.2305304E0,1.0031785E0],"tree_param":{"num_deleted":"0","num_feature":"14","num_nodes":"13","size_leaf_vector":"1"}},{"base_weights":[-8.764257E-3,2.002759E-1,-2.574575E-1,4.0411994E-1,-2.493833E-1,-7.283529E-1,4.08684E-1,-7.0935907E-3,3.9967906E-2,2.4850242E-2,-3.80247E-2,6.6602216E-3,-5.138865E-2,-2.1381456E-2,3.1149248E-2],"categories":[],"categories_nodes":[],"categories_segments":[],"categories_sizes":[],"default_left":[0,0,0,0,0,0,0,0,0,0,0,0,0,0,0],"id":44,"left_children":[1,3,5,7,9,11,13,-1,-1,-1,-1,-1,-1,-1,-1],"loss_changes":[2.3667755E0,2.4015894E0,7.130583E0,4.0865865E0,3.7381248E0,3.7583098E0,2.1458254E0,0E0,0E0,0E0,0E0,0E0,0E0,0E0,0E0],"parents":[2147483647,0,0,1,1,2,2,3,3,4,4,5,5,6,6],"right_children":[2,4,6,8,10,12,14,-1,-1,-1,-1,-1,-1,-1,-1],"split_conditions":[4.9762814E-3,5.6003937E1,6.9680115E1,-5.772534E-2,1.7414223E-2,1.5669847E-2,1.7163228E-2,-7.0935907E-3,3.9967906E-2,2.4850242E-2,-3.80247E-2,6.6602216E-3,-5.138865E-2,-2.1381456E-2,3.1149248E-2],"split_indices":[7,0,0,8,9,7,7,0,0,0,0,0,0,0,0],"split_type":[0,0,0,0,0,0,0,0,0,0,0,0,0,0,0],"sum_hessian":[4.231867E1,2.2714079E1,1.9604588E1,1.6039558E1,6.6745205E0,1.1579319E1,8.0252695E0,6.9265695E0,9.112988E0,2.5706408E0,4.10388E0,3.0288317E0,8.550487E0,1.1420281E0,6.8832417E0],"tree_param":{"num_deleted":"0","num_feature":"14","num_nodes":"15","size_leaf_vector":"1"}},{"base_weights":[7.608879E-2,-6.4469784E-2,5.084768E-1,2.1429102E-1,-7.665445E-1,9.3026245E-1,-8.485633E-2,1.8135095E-2,-2.05877E-2,-4.8326097E-2,-3.0985537E-3,8.777686E-3,5.415385E-2,2.2579893E-2,-3.0579194E-2],"categories":[],"categories_nodes":[],"categories_segments":[],"categories_sizes":[],"default_left":[0,0,0,0,0,0,0,0,0,0,0,0,0,0,0],"id":45,"left_children":[1,3,5,7,9,11,13,-1,-1,-1,-1,-1,-1,-1,-1],"loss_changes":[2.6791127E0,6.724561E0,2.9841192E0,2.4680285E0,1.082262E0,2.2661781E-1,2.0441272E0,0E0,0E0,0E0,0E0,0E0,0E0,0E0,0E0],"parents":[2147483647,0,0,1,1,2,2,3,3,4,4,5,5,6,6],"right_children":[2,4,6,8,10,12,14,-1,-1,-1,-1,-1,-1,-1,-1],"split_conditions":[6.9680115E1,1.5669847E-2,1.8289823E-2,6.0467987E1,1.9906936E-2,5.5666887E-3,1.6952574E-2,1.8135095E-2,-2.05877E-2,-4.8326097E-2,-3.0985537E-3,8.777686E-3,5.415385E-2,2.2579893E-2,-3.0579194E-2],"split_indices":[0,7,9,0,9,3,3,0,0,0,0,0,0,0,0],"split_type":[0,0,0,0,0,0,0,0,0,0,0,0,0,0,0],"sum_hessian":[4.031167E1,3.103633E1,9.275339E0,2.2757637E1,8.278693E0,5.120555E0,4.1547837E0,1.9164835E1,3.5928018E0,5.792958E0,2.4857357E0,1.6253548E0,3.4952004E0,1.9762695E0,2.1785142E0],"tree_param":{"num_deleted":"0","num_feature":"14","num_nodes":"15","size_leaf_vector":"1"}},{"base_weights":[4.4261258E-2,-3.47462E-2,3.8996067E-2,1.0521921E-1,-5.573385E-1,1.2173603E-2,-2.4530042E-2,-0E0,-3.8362052E-2],"categories":[],"categories_nodes":[],"categories_segments":[],"categories_sizes":[],"default_left":[0,0,0,0,0,0,0,0,0],"id":46,"left_children":[1,3,-1,5,7,-1,-1,-1,-1],"loss_changes":[2.5708263E0,2.9714239E0,0E0,2.6897879E0,8.568225E-1,0E0,0E0,0E0,0E0],"parents":[2147483647,0,0,1,1,3,3,4,4],"right_children":[2,4,-1,6,8,-1,-1,-1,-1],"split_conditions":[2.6609994E-2,9.570962E-2,3.8996067E-2,1.453341E0,-4.2850494E-2,1.2173603E-2,-2.4530042E-2,-0E0,-3.8362052E-2],"split_indices":[9,3,0,1,7,0,0,0,0],"split_type":[0,0,0,0,0,0,0,0,0],"sum_hessian":[3.9467564E1,3.6685005E1,2.7825599E0,2.9578344E1,7.1066594E0,2.5000095E1,4.5782495E0,2.6095083E0,4.4971514E0],"tree_param":{"num_deleted":"0","num_feature":"14","num_nodes":"9","size_leaf_vector":"1"}},{"base_weights":[-3.33657E-2,5.0462943E-1,-1.8932378E-1,7.7165425E-1,-1.3457264E-2,-3.4672073E-1,4.1920906E-1,-0E0,5.315568E-2,1.9536074E-2,-2.1568196E-2,3.7094235E-2,-0E0],"categories":[],"categories_nodes":[],"categories_segments":[],"categories_sizes":[],"default_left":[0,0,0,0,0,0,0,0,0,0,0,0,0],"id":47,"left_children":[1,3,5,7,-1,9,11,-1,-1,-1,-1,-1,-1],"loss_changes":[3.2041402E0,2.165875E0,3.1002445E0,1.653059E0,0E0,1.8283148E0,9.1744375E-1,0E0,0E0,0E0,0E0,0E0,0E0],"parents":[2147483647,0,0,1,1,2,2,3,3,5,5,6,6],"right_children":[2,4,6,8,-1,10,12,-1,-1,-1,-1,-1,-1],"split_conditions":[2.8474718E-2,-2.0778125E-2,8.716197E-2,7.0008403E-3,-1.3457264E-2,1.2577869E-2,7.558744E1,-0E0,5.315568E-2,1.9536074E-2,-2.1568196E-2,3.7094235E-2,-0E0],"split_indices":[2,7,8,2,0,9,0,0,0,0,0,0,0],"split_type":[0,0,0,0,0,0,0,0,0,0,0,0,0],"sum_hessian":[3.5731457E1,6.988371E0,2.8743088E1,5.390669E0,1.5977021E0,2.3610298E1,5.1327887E0,1.7977159E0,3.592953E0,1.6291909E0,2.1981108E1,2.284687E0,2.8481016E0],"tree_param":{"num_deleted":"0","num_feature":"14","num_nodes":"13","size_leaf_vector":"1"}},{"base_weights":[-3.158602E-2,3.5872288E-2,-1.01872966E-1,3.4048826E-1,-2.2675146E-1,-2.9781649E-2,3.2663543E-2,-1.1871897E-3,-3.587401E-2],"categories":[],"categories_nodes":[],"categories_segments":[],"categories_sizes":[],"default_left":[0,0,0,0,0,0,0,0,0],"id":48,"left_children":[1,-1,3,5,7,-1,-1,-1,-1],"loss_changes":[2.0538058E0,0E0,2.1621757E0,3.0819583E0,2.8609648E0,0E0,0E0,0E0,0E0],"parents":[2147483647,0,0,2,2,3,3,4,4],"right_children":[2,-1,4,6,8,-1,-1,-1,-1],"split_conditions":[3.7235243E-3,3.5872288E-2,-3.7719525E-2,-8.227685E-2,8.426109E-2,-2.9781649E-2,3.2663543E-2,-1.1871897E-3,-3.587401E-2],"split_indices":[3,0,7,7,3,0,0,0,0],"split_type":[0,0,0,0,0,0,0,0,0],"sum_hessian":[3.7766846E1,1.8109899E0,3.5955853E1,6.992984E0,2.896287E1,1.251504E0,5.74148E0,2.1888172E1,7.0746984E0],"tree_param":{"num_deleted":"0","num_feature":"14","num_nodes":"9","size_leaf_vector":"1"}},{"base_weights":[6.7248896E-2,-0E0,3.6056798E-2,-1.4082636E-1,3.663527E-1,3.1039754E-3,-3.015461E-2,-1.7978054E-2,3.7072305E-2],"categories":[],"categories_nodes":[],"categories_segments":[],"categories_sizes":[],"default_left":[0,0,0,0,0,0,0,0,0],"id":49,"left_children":[1,3,-1,5,7,-1,-1,-1,-1],"loss_changes":[1.82739E0,2.1886928E0,0E0,2.9980059E0,3.701058E0,0E0,0E0,0E0,0E0],"parents":[2147483647,0,0,1,1,3,3,4,4],"right_children":[2,4,-1,6,8,-1,-1,-1,-1],"split_conditions":[2.6609994E-2,6.872108E1,3.6056798E-2,1.5669847E-2,1.711112E-2,3.1039754E-3,-3.015461E-2,-1.7978054E-2,3.7072305E-2],"split_indices":[9,0,0,7,7,0,0,0,0],"split_type":[0,0,0,0,0,0,0,0,0],"sum_hessian":[4.144137E1,3.9053974E1,2.387393E0,2.8710567E1,1.0343409E1,2.0554382E1,8.156185E0,3.3633227E0,6.980086E0],"tree_param":{"num_deleted":"0","num_feature":"14","num_nodes":"9","size_leaf_vector":"1"}},{"base_weights":[-5.08374E-2,7.216903E-2,-4.7417313E-1,3.620487E-1,-1.5272586E-1,-2.192754E-3,-6.517567E-1,3.8856924E-2,-9.946588E-3,-2.456154E-2,3.624076E-2,-2.4789145E-2,2.6293267E-2,-0E0,-4.0344305E-2],"categories":[],"categories_nodes":[],"categories_segments":[],"categories_sizes":[],"default_left":[0,0,0,0,0,0,0,0,0,0,0,0,0,0,0],"id":50,"left_children":[1,3,5,7,9,11,13,-1,-1,-1,-1,-1,-1,-1,-1],"loss_changes":[2.2446153E0,2.235465E0,6.800463E-1,3.8352528E0,6.101024E0,1.5487598E0,8.318596E-1,0E0,0E0,0E0,0E0,0E0,0E0,0E0,0E0],"parents":[2147483647,0,0,1,1,2,2,3,3,4,4,5,5,6,6],"right_children":[2,4,6,8,10,12,14,-1,-1,-1,-1,-1,-1,-1,-1],"split_conditions":[9.570962E-2,3.940883E-3,1.453494E-2,8.203364E-2,1.5845256E-1,9.286344E-3,5.0047946E-1,3.8856924E-2,-9.946588E-3,-2.456154E-2,3.624076E-2,-2.4789145E-2,2.6293267E-2,-0E0,-4.0344305E-2],"split_indices":[3,7,2,2,2,2,1,0,0,0,0,0,0,0,0],"split_type":[0,0,0,0,0,0,0,0,0,0,0,0,0,0,0],"sum_hessian":[3.9075405E1,3.0875826E1,8.19958E0,1.347791E1,1.7397917E1,2.96472E0,5.2348595E0,7.618926E0,5.8589835E0,1.3195925E1,4.2019916E0,1.7755203E0,1.1891998E0,1.0630169E0,4.1718426E0],"tree_param":{"num_deleted":"0","num_feature":"14","num_nodes":"15","size_leaf_vector":"1"}},{"base_weights":[-1.2815518E-2,-1.1526515E-1,3.9791632E-2,2.987863E-2,-1.7200817E-1,-0E0,-2.5616596E-2],"categories":[],"categories_nodes":[],"categories_segments":[],"categories_sizes":[],"default_left":[0,0,0,0,0,0,0],"id":51,"left_children":[1,3,-1,-1,5,-1,-1],"loss_changes":[3.0728657E0,1.4618933E0,0E0,0E0,1.9090922E0,0E0,0E0],"parents":[2147483647,0,0,1,1,4,4],"right_children":[2,4,-1,-1,6,-1,-1],"split_conditions":[1.9282083E-1,2.2790618E-3,3.9791632E-2,2.987863E-2,1.5669847E-2,-0E0,-2.5616596E-2],"split_indices":[2,3,0,0,7,0,0],"split_type":[0,0,0,0,0,0,0],"sum_hessian":[3.5573513E1,3.293448E1,2.6390352E0,1.1143175E0,3.1820162E1,2.2291185E1,9.5289755E0],"tree_param":{"num_deleted":"0","num_feature":"14","num_nodes":"7","size_leaf_vector":"1"}},{"base_weights":[3.333417E-2,1.8389606E-1,-3.3810583E-1,7.247505E-1,-8.144775E-2,1.1469815E-2,-5.0110996E-1,5.407197E-2,-1.8628063E-2,2.3052972E-2,-1.8040286E-2,-3.4169264E-2,-0E0],"categories":[],"categories_nodes":[],"categories_segments":[],"categories_sizes":[],"default_left":[0,0,0,0,0,0,0,0,0,0,0,0,0],"id":52,"left_children":[1,3,5,7,9,-1,11,-1,-1,-1,-1,-1,-1],"loss_changes":[2.2287786E0,4.367401E0,1.2737712E0,4.6278796E0,3.336496E0,0E0,9.28509E-1,0E0,0E0,0E0,0E0,0E0,0E0],"parents":[2147483647,0,0,1,1,2,2,3,3,4,4,6,6],"right_children":[2,4,6,8,10,-1,12,-1,-1,-1,-1,-1,-1],"split_conditions":[8.7564275E-2,5.233564E1,-8.797785E-2,1.2551302E-2,1.745138E-2,1.1469815E-2,4.16099E1,5.407197E-2,-1.8628063E-2,2.3052972E-2,-1.8040286E-2,-3.4169264E-2,-0E0],"split_indices":[3,0,8,7,9,0,0,0,0,0,0,0,0],"split_type":[0,0,0,0,0,0,0,0,0,0,0,0,0],"sum_hessian":[3.723701E1,2.7418734E1,9.818276E0,8.417633E0,1.90011E1,1.780726E0,8.037551E0,6.5065837E0,1.9110498E0,5.883638E0,1.3117463E1,5.6164556E0,2.4210951E0],"tree_param":{"num_deleted":"0","num_feature":"14","num_nodes":"13","size_leaf_vector":"1"}},{"base_weights":[1.1962607E-2,-1.0061299E-1,3.3777225E-1,1.4551458E-1,-7.317199E-1,-3.7947154E-1,6.7706496E-1,-2.1560541E-3,2.993754E-2,-5.150302E-2,2.6444096E-2,4.482155E-4,-3.3809125E-2,4.6132512E-2,-1.4839147E-2],"categories":[],"categories_nodes":[],"categories_segments":[],"categories_sizes":[],"default_left":[0,0,0,0,0,0,0,0,0,0,0,0,0,0,0],"id":53,"left_children":[1,3,5,7,9,11,13,-1,-1,-1,-1,-1,-1,-1,-1],"loss_changes":[1.6160752E0,5.1624393E0,3.225528E0,2.171884E0,4.415514E0,6.5441155E-1,2.5651722E0,0E0,0E0,0E0,0E0,0E0,0E0,0E0,0E0],"parents":[2147483647,0,0,1,1,2,2,3,3,4,4,5,5,6,6],"right_children":[2,4,6,8,10,12,14,-1,-1,-1,-1,-1,-1,-1,-1],"split_conditions":[6.872108E1,1.5669847E-2,1.711112E-2,-1.329144E-3,1.3561808E-1,1.6582915E-1,8.976988E-2,-2.1560541E-3,2.993754E-2,-5.150302E-2,2.6444096E-2,4.482155E-4,-3.3809125E-2,4.6132512E-2,-1.4839147E-2],"split_indices":[0,7,7,7,2,2,7,0,0,0,0,0,0,0,0],"split_type":[0,0,0,0,0,0,0,0,0,0,0,0,0,0,0],"sum_hessian":[3.9877884E1,2.9951723E1,9.926158E0,2.2150438E1,7.8012853E0,2.9413133E0,6.984845E0,1.6287601E1,5.8628373E0,6.6584415E0,1.1428437E0,1.6118298E0,1.3294835E0,5.8051343E0,1.1797109E0],"tree_param":{"num_deleted":"0","num_feature":"14","num_nodes":"15","size_leaf_vector":"1"}},{"base_weights":[6.980702E-2,2.7982458E-1,-2.175809E-1,5.2648985E-1,-2.215493E-1,-7.579004E-1,1.4754249E-1,-9.752749E-3,4.550119E-2,4.2601477E-2,-3.5022583E-2,-2.3934103E-3,-4.2866793E-2,3.494176E-2,-7.34781E-4],"categories":[],"categories_nodes":[],"categories_segments":[],"categories_sizes":[],"default_left":[0,0,0,0,0,0,0,0,0,0,0,0,0,0,0],"id":54,"left_children":[1,3,5,7,9,11,13,-1,-1,-1,-1,-1,-1,-1,-1],"loss_changes":[2.4535835E0,3.1486907E0,3.6199336E0,4.974722E0,5.2631974E0,2.708354E-1,1.1457146E0,0E0,0E0,0E0,0E0,0E0,0E0,0E0,0E0],"parents":[2147483647,0,0,1,1,2,2,3,3,4,4,5,5,6,6],"right_children":[2,4,6,8,10,12,14,-1,-1,-1,-1,-1,-1,-1,-1],"split_conditions":[1.3734356E-2,5.6003937E1,6.0406082E1,-5.772534E-2,2.6289416E-2,1.7252794E-2,1.5399522E-2,-9.752749E-3,4.550119E-2,4.2601477E-2,-3.5022583E-2,-2.3934103E-3,-4.2866793E-2,3.494176E-2,-7.34781E-4],"split_indices":[7,0,0,8,3,3,9,0,0,0,0,0,0,0,0],"split_type":[0,0,0,0,0,0,0,0,0,0,0,0,0,0,0],"sum_hessian":[3.7432137E1,2.2052206E1,1.537993E1,1.4997513E1,7.0546937E0,5.7722096E0,9.607719E0,5.2799616E0,9.717551E0,1.68686E0,5.3678336E0,1.229101E0,4.5431085E0,1.3367925E0,8.270927E0],"tree_param":{"num_deleted":"0","num_feature":"14","num_nodes":"15","size_leaf_vector":"1"}},{"base_weights":[-0E0,2.829413E-1,-2.1132734E-1,8.0927294E-1,-3.083975E-1,-7.785691E-1,2.122624E-1,4.7151826E-2,-2.1433576E-3,-0E0,-2.9366767E-2,2.021875E-3,-4.846109E-2,2.901707E-2,-5.244609E-4],"categories":[],"categories_nodes":[],"categories_segments":[],"categories_sizes":[],"default_left":[0,0,0,0,0,0,0,0,0,0,0,0,0,0,0],"id":55,"left_children":[1,3,5,7,9,11,13,-1,-1,-1,-1,-1,-1,-1,-1],"loss_changes":[2.556769E0,6.099057E0,6.3335342E0,1.3980818E0,8.774094E-1,1.9854832E0,1.3699038E0,0E0,0E0,0E0,0E0,0E0,0E0,0E0,0E0],"parents":[2147483647,0,0,1,1,2,2,3,3,4,4,5,5,6,6],"right_children":[2,4,6,8,10,12,14,-1,-1,-1,-1,-1,-1,-1,-1],"split_conditions":[1.7750796E-2,4.6772897E-2,2.0964779E-2,1.5458241E-1,2.8474718E-2,4.28437E1,2.2584101E-2,4.7151826E-2,-2.1433576E-3,-0E0,-2.9366767E-2,2.021875E-3,-4.846109E-2,2.901707E-2,-5.244609E-4],"split_indices":[9,3,9,2,2,0,9,0,0,0,0,0,0,0,0],"split_type":[0,0,0,0,0,0,0,0,0,0,0,0,0,0,0],"sum_hessian":[3.992745E1,1.6571295E1,2.3356153E1,8.654026E0,7.9172697E0,9.649429E0,1.3706725E1,7.544447E0,1.1095788E0,4.277363E0,3.6399064E0,1.8471701E0,7.8022594E0,4.5982904E0,9.108435E0],"tree_param":{"num_deleted":"0","num_feature":"14","num_nodes":"15","size_leaf_vector":"1"}},{"base_weights":[1.0124804E-1,-1.703806E-1,3.92392E-1,3.0910436E-2,-4.644434E-2,9.2157423E-1,1.1332366E-1,-2.200544E-2,1.9123312E-2,5.9045028E-2,9.650825E-3,-8.699891E-3,2.7496789E-2],"categories":[],"categories_nodes":[],"categories_segments":[],"categories_sizes":[],"default_left":[0,0,0,0,0,0,0,0,0,0,0,0,0],"id":56,"left_children":[1,3,5,7,-1,9,11,-1,-1,-1,-1,-1,-1],"loss_changes":[3.1921046E0,3.3718252E0,2.5025876E0,3.145972E0,0E0,5.6293297E-1,2.0584216E0,0E0,0E0,0E0,0E0,0E0,0E0],"parents":[2147483647,0,0,1,1,2,2,3,3,5,5,6,6],"right_children":[2,4,6,8,-1,10,12,-1,-1,-1,-1,-1,-1],"split_conditions":[1.4339459E-2,1.0788798E-2,4.1246828E-2,7.667773E-1,-4.644434E-2,8.9224434E-1,8.716197E-2,-2.200544E-2,1.9123312E-2,5.9045028E-2,9.650825E-3,-8.699891E-3,2.7496789E-2],"split_indices":[8,7,8,1,0,1,8,0,0,0,0,0,0],"split_type":[0,0,0,0,0,0,0,0,0,0,0,0,0],"sum_hessian":[3.7034412E1,1.9125824E1,1.7908587E1,1.6043442E1,3.0823839E0,4.74353E0,1.3165056E1,6.4520984E0,9.591342E0,2.6090322E0,2.1344976E0,8.207859E0,4.9571977E0],"tree_param":{"num_deleted":"0","num_feature":"14","num_nodes":"13","size_leaf_vector":"1"}},{"base_weights":[2.426437E-2,5.416111E-1,-1.1378092E-1,-0E0,6.8260103E-1,5.663915E-2,-5.981178E-1,3.8849514E-2,4.082398E-3,3.5497706E-2,-7.7651753E-3,-3.6399573E-2,1.6202697E-3],"categories":[],"categories_nodes":[],"categories_segments":[],"categories_sizes":[],"default_left":[0,0,0,0,0,0,0,0,0,0,0,0,0],"id":57,"left_children":[1,3,5,-1,7,9,11,-1,-1,-1,-1,-1,-1],"loss_changes":[2.849782E0,5.3278637E-1,2.673747E0,0E0,9.956908E-2,3.5441895E0,8.594785E-1,0E0,0E0,0E0,0E0,0E0,0E0],"parents":[2147483647,0,0,1,1,2,2,4,4,5,5,6,6],"right_children":[2,4,6,-1,8,10,12,-1,-1,-1,-1,-1,-1],"split_conditions":[-3.5730734E-2,7.054267E-3,8.426109E-2,-0E0,5.1861048E-2,1.5729273E-2,5.2042362E1,3.8849514E-2,4.082398E-3,3.5497706E-2,-7.7651753E-3,-3.6399573E-2,1.6202697E-3],"split_indices":[7,2,3,0,2,9,0,0,0,0,0,0,0],"split_type":[0,0,0,0,0,0,0,0,0,0,0,0,0],"sum_hessian":[3.5910812E1,6.945416E0,2.8965397E1,1.9850149E0,4.960401E0,2.2100655E1,6.864743E0,3.6196747E0,1.3407265E0,4.7812977E0,1.7319357E1,5.763014E0,1.1017298E0],"tree_param":{"num_deleted":"0","num_feature":"14","num_nodes":"13","size_leaf_vector":"1"}},{"base_weights":[-8.244472E-2,-1.7542344E-1,3.719459E-2,2.500733E-1,-2.8512654E-1,-8.208544E-3,3.271623E-2,-1.9517459E-2,1.9893281E-2],"categories":[],"categories_nodes":[],"categories_segments":[],"categories_sizes":[],"default_left":[0,0,0,0,0,0,0,0,0],"id":58,"left_children":[1,3,-1,5,7,-1,-1,-1,-1],"loss_changes":[3.1613855E0,1.8623812E0,0E0,1.616107E0,2.448786E0,0E0,0E0,0E0,0E0],"parents":[2147483647,0,0,1,1,3,3,4,4],"right_children":[2,4,-1,6,8,-1,-1,-1,-1],"split_conditions":[2.6609994E-2,-3.7719525E-2,3.719459E-2,-5.3789143E-2,7.957605E1,-8.208544E-3,3.271623E-2,-1.9517459E-2,1.9893281E-2],"split_indices":[9,7,0,7,0,0,0,0,0],"split_type":[0,0,0,0,0,0,0,0,0],"sum_hessian":[3.8578957E1,3.595673E1,2.6222262E0,6.6031575E0,2.935357E1,3.456898E0,3.1462595E0,2.6245668E1,3.1079032E0],"tree_param":{"num_deleted":"0","num_feature":"14","num_nodes":"9","size_leaf_vector":"1"}},{"base_weights":[1.0650153E-1,3.2269207E-1,-7.408363E-2,3.4159306E-3,8.695874E-1,-7.320281E-1,2.690727E-1,-2.5893202E-2,1.2572144E-2,5.8762636E-2,3.872602E-3,-4.6958838E-2,2.0546324E-3,-7.2970847E-3,3.4247816E-2],"categories":[],"categories_nodes":[],"categories_segments":[],"categories_sizes":[],"default_left":[0,0,0,0,0,0,0,0,0,0,0,0,0,0,0],"id":59,"left_children":[1,3,5,7,9,11,13,-1,-1,-1,-1,-1,-1,-1,-1],"loss_changes":[1.6195943E0,3.0804749E0,5.383411E0,1.8904848E0,1.2216473E0,1.5486598E0,2.9223404E0,0E0,0E0,0E0,0E0,0E0,0E0,0E0,0E0],"parents":[2147483647,0,0,1,1,2,2,3,3,4,4,5,5,6,6],"right_children":[2,4,6,8,10,12,14,-1,-1,-1,-1,-1,-1,-1,-1],"split_conditions":[1.8164666E-2,1.6499091E-2,2.0964779E-2,3.242042E1,1.7750796E-2,4.1838996E-2,9.176553E-3,-2.5893202E-2,1.2572144E-2,5.8762636E-2,3.872602E-3,-4.6958838E-2,2.0546324E-3,-7.2970847E-3,3.4247816E-2],"split_indices":[9,9,9,0,9,7,8,0,0,0,0,0,0,0,0],"split_type":[0,0,0,0,0,0,0,0,0,0,0,0,0,0,0],"sum_hessian":[3.7792572E1,1.7167425E1,2.0625147E1,1.2023314E1,5.1441107E0,6.6869807E0,1.3938166E1,3.0902493E0,8.933064E0,3.0061529E0,2.1379578E0,5.223829E0,1.463152E0,7.2229896E0,6.7151756E0],"tree_param":{"num_deleted":"0","num_feature":"14","num_nodes":"15","size_leaf_vector":"1"}},{"base_weights":[-0E0,2.4298143E-1,-1.8958797E-1,5.246421E-1,-1.2352822E-1,-8.441586E-1,1.48518E-1,3.766857E-2,-2.833645E-2,-1.8384065E-2,1.5860334E-2,-0E0,-4.858599E-2,-8.882776E-3,2.1522636E-2],"categories":[],"categories_nodes":[],"categories_segments":[],"categories_sizes":[],"default_left":[0,0,0,0,0,0,0,0,0,0,0,0,0,0,0],"id":60,"left_children":[1,3,5,7,9,11,13,-1,-1,-1,-1,-1,-1,-1,-1],"loss_changes":[1.8874302E0,2.057959E0,5.3264103E0,3.3974814E0,1.1342993E0,8.255334E-1,1.6337854E0,0E0,0E0,0E0,0E0,0E0,0E0,0E0,0E0],"parents":[2147483647,0,0,1,1,2,2,3,3,4,4,5,5,6,6],"right_children":[2,4,6,8,10,12,14,-1,-1,-1,-1,-1,-1,-1,-1],"split_conditions":[1.8164666E-2,4.7119264E-2,2.0891326E-2,1.7518871E0,1.629175E-2,5.564725E-3,7.6037776E-1,3.766857E-2,-2.833645E-2,-1.8384065E-2,1.5860334E-2,-0E0,-4.858599E-2,-8.882776E-3,2.1522636E-2],"split_indices":[9,3,9,1,9,3,1,0,0,0,0,0,0,0,0],"split_type":[0,0,0,0,0,0,0,0,0,0,0,0,0,0,0],"sum_hessian":[3.7805397E1,1.6716599E1,2.1088799E1,9.395055E0,7.3215427E0,6.619648E0,1.44691515E1,8.302771E0,1.0922842E0,5.1635303E0,2.1580124E0,1.1175828E0,5.5020657E0,6.636606E0,7.8325453E0],"tree_param":{"num_deleted":"0","num_feature":"14","num_nodes":"15","size_leaf_vector":"1"}},{"base_weights":[-0E0,3.9413765E-1,-1.07418634E-1,-1.789143E-2,6.719887E-1,1.34512E-1,-4.1012406E-1,4.440192E-2,-1.9390241E-3,1.4265937E-2,-3.059948E-2,-3.1096801E-2,1.3395833E-2],"categories":[],"categories_nodes":[],"categories_segments":[],"categories_sizes":[],"default_left":[0,0,0,0,0,0,0,0,0,0,0,0,0],"id":61,"left_children":[1,3,5,-1,7,9,11,-1,-1,-1,-1,-1,-1],"loss_changes":[1.6989062E0,2.2237859E0,2.4251983E0,0E0,1.2975247E0,2.2366636E0,2.4192312E0,0E0,0E0,0E0,0E0,0E0,0E0],"parents":[2147483647,0,0,1,1,2,2,4,4,5,5,6,6],"right_children":[2,4,6,-1,8,10,12,-1,-1,-1,-1,-1,-1],"split_conditions":[-3.7719525E-2,-8.227685E-2,4.7119264E-2,-1.789143E-2,5.1861048E-2,1.5511432E0,2.1785326E-2,4.440192E-2,-1.9390241E-3,1.4265937E-2,-3.059948E-2,-3.1096801E-2,1.3395833E-2],"split_indices":[7,7,3,0,2,1,8,0,0,0,0,0,0],"split_type":[0,0,0,0,0,0,0,0,0,0,0,0,0],"sum_hessian":[3.6849655E1,7.1164203E0,2.9733236E1,1.6093522E0,5.507068E0,1.6621561E1,1.3111674E1,4.1522145E0,1.3548537E0,1.482188E1,1.7996814E0,1.0310028E1,2.801646E0],"tree_param":{"num_deleted":"0","num_feature":"14","num_nodes":"13","size_leaf_vector":"1"}},{"base_weights":[-3.1079307E-2,-1.6079079E-1,3.167398E-1,1.055498E-1,-7.9817563E-1,5.182598E-1,-1.9478409E-2,2.9650405E-2,-3.5239884E-3,-4.5650516E-2,-0E0,3.4709763E-2,-0E0],"categories":[],"categories_nodes":[],"categories_segments":[],"categories_sizes":[],"default_left":[0,0,0,0,0,0,0,0,0,0,0,0,0],"id":62,"left_children":[1,3,5,7,9,11,-1,-1,-1,-1,-1,-1,-1],"loss_changes":[1.7442584E0,5.1614757E0,1.7968732E0,2.0074759E0,8.115554E-1,7.773411E-1,0E0,0E0,0E0,0E0,0E0,0E0,0E0],"parents":[2147483647,0,0,1,1,2,2,3,3,4,4,5,5],"right_children":[2,4,6,8,10,12,-1,-1,-1,-1,-1,-1,-1],"split_conditions":[6.9680115E1,1.5669847E-2,2.7679028E-2,4.7119264E-2,7.05719E-2,1.1922626E0,-1.9478409E-2,2.9650405E-2,-3.5239884E-3,-4.5650516E-2,-0E0,3.4709763E-2,-0E0],"split_indices":[0,7,3,3,7,1,0,0,0,0,0,0,0],"split_type":[0,0,0,0,0,0,0,0,0,0,0,0,0],"sum_hessian":[3.615959E1,2.7343882E1,8.815711E0,1.9946686E1,7.3971944E0,7.389813E0,1.4258977E0,4.6507835E0,1.5295902E1,6.27341E0,1.1237847E0,5.0678334E0,2.3219795E0],"tree_param":{"num_deleted":"0","num_feature":"14","num_nodes":"13","size_leaf_vector":"1"}},{"base_weights":[1.287527E-1,2.912046E-1,-1.455372E-1,3.9759278E-1,-3.9359856E-1,-6.4640516E-1,2.99742E-1,5.5690546E-2,5.0904597E-3,-0E0,-2.9716114E-2,-3.7069365E-2,-0E0,3.2737236E-2,-7.228136E-3],"categories":[],"categories_nodes":[],"categories_segments":[],"categories_sizes":[],"default_left":[0,0,0,0,0,0,0,0,0,0,0,0,0,0,0],"id":63,"left_children":[1,3,5,7,9,11,13,-1,-1,-1,-1,-1,-1,-1,-1],"loss_changes":[1.8057243E0,2.0643406E0,3.6701035E0,4.401104E0,3.0200797E-1,3.9438105E-1,1.6115882E0,0E0,0E0,0E0,0E0,0E0,0E0,0E0,0E0],"parents":[2147483647,0,0,1,1,2,2,3,3,4,4,5,5,6,6],"right_children":[2,4,6,8,10,12,14,-1,-1,-1,-1,-1,-1,-1,-1],"split_conditions":[1.5669847E-2,1.3505237E-1,1.13663554E-1,4.7119264E-2,2.6289416E-2,6.9680115E1,8.999487E-1,5.5690546E-2,5.0904597E-3,-0E0,-2.9716114E-2,-3.7069365E-2,-0E0,3.2737236E-2,-7.228136E-3],"split_indices":[7,2,2,3,3,0,1,0,0,0,0,0,0,0,0],"split_type":[0,0,0,0,0,0,0,0,0,0,0,0,0,0,0],"sum_hessian":[3.6943916E1,2.3601978E1,1.3341936E1,2.1225618E1,2.376361E0,6.1715536E0,7.1703825E0,4.793617E0,1.6432001E1,1.3211944E0,1.0551664E0,5.049307E0,1.1222464E0,3.8410435E0,3.329339E0],"tree_param":{"num_deleted":"0","num_feature":"14","num_nodes":"15","size_leaf_vector":"1"}},{"base_weights":[8.610556E-3,3.3100013E-2,-4.3387227E-2,1.6837463E-1,-2.3392221E-1,2.4460323E-2,-1.0028957E-2,-4.919284E-2,8.986904E-3],"categories":[],"categories_nodes":[],"categories_segments":[],"categories_sizes":[],"default_left":[0,0,0,0,0,0,0,0,0],"id":64,"left_children":[1,-1,3,5,7,-1,-1,-1,-1],"loss_changes":[1.4857814E0,0E0,1.5684791E0,2.3283858E0,6.8307176E0,0E0,0E0,0E0,0E0],"parents":[2147483647,0,0,2,2,3,3,4,4],"right_children":[2,-1,4,6,8,-1,-1,-1,-1],"split_conditions":[3.7235243E-3,3.3100013E-2,1.8119102E-2,4.3930918E-2,2.0964779E-2,2.4460323E-2,-1.0028957E-2,-4.919284E-2,8.986904E-3],"split_indices":[3,0,9,3,9,0,0,0,0],"split_type":[0,0,0,0,0,0,0,0,0],"sum_hessian":[3.7322144E1,1.737577E0,3.5584568E1,1.643897E1,1.9145597E1,8.821351E0,7.617619E0,6.2431345E0,1.2902464E1],"tree_param":{"num_deleted":"0","num_feature":"14","num_nodes":"9","size_leaf_vector":"1"}},{"base_weights":[2.8478349E-2,2.3766649E-1,-1.6810374E-1,6.5721244E-1,-1.2927915E-1,3.0666709E-2,-3.5094613E-1,4.20525E-2,9.156423E-3,-1.474178E-2,2.402891E-2,-3.5003927E-2,2.0988425E-2],"categories":[],"categories_nodes":[],"categories_segments":[],"categories_sizes":[],"default_left":[0,0,0,0,0,0,0,0,0,0,0,0,0],"id":65,"left_children":[1,3,5,7,9,-1,11,-1,-1,-1,-1,-1,-1],"loss_changes":[1.6077951E0,3.186704E0,3.0731378E0,3.8793612E-1,1.3096024E0,0E0,5.086874E0,0E0,0E0,0E0,0E0,0E0,0E0],"parents":[2147483647,0,0,1,1,2,2,3,3,4,4,6,6],"right_children":[2,4,6,8,10,-1,12,-1,-1,-1,-1,-1,-1],"split_conditions":[5.2601803E1,8.7564275E-2,1.4004052E-2,-7.441853E-3,2.525602E-2,3.0666709E-2,8.689659E-2,4.20525E-2,9.156423E-3,-1.474178E-2,2.402891E-2,-3.5003927E-2,2.0988425E-2],"split_indices":[0,3,9,8,9,0,8,0,0,0,0,0,0],"split_type":[0,0,0,0,0,0,0,0,0,0,0,0,0],"sum_hessian":[3.580192E1,1.7685846E1,1.8116076E1,7.952207E0,9.733639E0,2.5580206E0,1.5558056E1,4.5895524E0,3.362655E0,8.522758E0,1.2108812E0,1.0980763E1,4.5772924E0],"tree_param":{"num_deleted":"0","num_feature":"14","num_nodes":"13","size_leaf_vector":"1"}},{"base_weights":[5.0063515E-3,-1.3912666E-1,2.5849098E-1,1.11217745E-1,-8.410179E-1,4.4073206E-1,-4.0158898E-2,2.4749119E-2,-1.8451305E-2,-4.7763544E-3,-4.5449E-2,4.25631E-2,2.6207315E-4,-2.9126478E-2,2.866372E-2],"categories":[],"categories_nodes":[],"categories_segments":[],"categories_sizes":[],"default_left":[0,0,0,0,0,0,0,0,0,0,0,0,0,0,0],"id":66,"left_children":[1,3,5,7,9,11,13,-1,-1,-1,-1,-1,-1,-1,-1],"loss_changes":[1.5076017E0,4.753013E0,9.3468475E-1,3.9579492E0,2.6967049E-2,1.6079218E0,2.7399986E0,0E0,0E0,0E0,0E0,0E0,0E0,0E0,0E0],"parents":[2147483647,0,0,1,1,2,2,3,3,4,4,5,5,6,6],"right_children":[2,4,6,8,10,12,14,-1,-1,-1,-1,-1,-1,-1,-1],"split_conditions":[2.0964779E-2,1.8289823E-2,5.6003937E1,4.7119264E-2,4.84492E-2,8.7564275E-2,1.4620724E-1,2.4749119E-2,-1.8451305E-2,-4.7763544E-3,-4.5449E-2,4.25631E-2,2.6207315E-4,-2.9126478E-2,2.866372E-2],"split_indices":[9,9,0,3,2,3,2,0,0,0,0,0,0,0,0],"split_type":[0,0,0,0,0,0,0,0,0,0,0,0,0,0,0],"sum_hessian":[3.763411E1,2.3920483E1,1.371363E1,1.8352167E1,5.5683155E0,8.489347E0,5.2242823E0,1.0406619E1,7.945547E0,1.0125576E0,4.555758E0,3.3963406E0,5.0930066E0,2.9858906E0,2.2383914E0],"tree_param":{"num_deleted":"0","num_feature":"14","num_nodes":"15","size_leaf_vector":"1"}},{"base_weights":[-0E0,-5.426143E-1,1.3544273E-1,-7.4035907E-1,9.736552E-3,3.8898643E-2,2.6376123E-2,-4.1270908E-2,-2.489019E-3,-9.814261E-3,2.1379774E-2],"categories":[],"categories_nodes":[],"categories_segments":[],"categories_sizes":[],"default_left":[0,0,0,0,0,0,0,0,0,0,0],"id":67,"left_children":[1,3,5,7,-1,-1,9,-1,-1,-1,-1],"loss_changes":[2.7703512E0,1.4327006E0,1.8494768E0,1.459992E-1,0E0,0E0,2.5590732E0,0E0,0E0,0E0,0E0],"parents":[2147483647,0,0,1,1,2,2,3,3,6,6],"right_children":[2,4,6,8,-1,-1,10,-1,-1,-1,-1],"split_conditions":[-5.311079E-2,2.3781192E-2,2.8474718E-2,3.4862872E-2,9.736552E-3,3.8898643E-2,2.0964779E-2,-4.1270908E-2,-2.489019E-3,-9.814261E-3,2.1379774E-2],"split_indices":[8,9,2,2,0,0,9,0,0,0,0],"split_type":[0,0,0,0,0,0,0,0,0,0,0],"sum_hessian":[3.3720707E1,6.0944557E0,2.7626253E1,5.0147014E0,1.079754E0,2.407864E0,2.521839E1,3.9461548E0,1.0685467E0,1.6390163E1,8.828225E0],"tree_param":{"num_deleted":"0","num_feature":"14","num_nodes":"11","size_leaf_vector":"1"}},{"base_weights":[-1.3774594E-2,3.620815E-1,-1.17273316E-1,-1.5635196E-2,6.088759E-1,7.108833E-2,-3.398345E-2,4.331978E-2,-4.7054826E-3,3.250057E-2,-3.511785E-3],"categories":[],"categories_nodes":[],"categories_segments":[],"categories_sizes":[],"default_left":[0,0,0,0,0,0,0,0,0,0,0],"id":68,"left_children":[1,3,5,-1,7,9,-1,-1,-1,-1,-1],"loss_changes":[1.5484439E0,1.7541028E0,3.6332264E0,0E0,1.5299056E0,2.263415E0,0E0,0E0,0E0,0E0,0E0],"parents":[2147483647,0,0,1,1,2,2,4,4,5,5],"right_children":[2,4,6,-1,8,10,-1,-1,-1,-1,-1],"split_conditions":[-3.7892055E-2,-8.227685E-2,8.426109E-2,-1.5635196E-2,5.1861048E-2,4.7744778E1,-3.398345E-2,4.331978E-2,-4.7054826E-3,3.250057E-2,-3.511785E-3],"split_indices":[7,7,3,0,2,0,0,0,0,0,0],"split_type":[0,0,0,0,0,0,0,0,0,0,0],"sum_hessian":[3.792641E1,6.962402E0,3.0964006E1,1.5402005E0,5.4222016E0,2.3910503E1,7.053505E0,3.9214926E0,1.5007089E0,3.909905E0,2.0000597E1],"tree_param":{"num_deleted":"0","num_feature":"14","num_nodes":"11","size_leaf_vector":"1"}},{"base_weights":[2.5222449E-2,2.2517572E-1,-1.5804295E-1,6.2303644E-1,-1.0824209E-1,3.1661343E-2,-2.8542343E-1,4.2040955E-2,-6.38663E-3,1.2336115E-2,-2.63811E-2,-1.9470496E-2,1.5118356E-2],"categories":[],"categories_nodes":[],"categories_segments":[],"categories_sizes":[],"default_left":[0,0,0,0,0,0,0,0,0,0,0,0,0],"id":69,"left_children":[1,3,5,7,9,-1,11,-1,-1,-1,-1,-1,-1],"loss_changes":[1.5294447E0,2.8875122E0,2.3368976E0,1.8927336E0,2.039321E0,0E0,1.3858924E0,0E0,0E0,0E0,0E0,0E0,0E0],"parents":[2147483647,0,0,1,1,2,2,3,3,4,4,6,6],"right_children":[2,4,6,8,10,-1,12,-1,-1,-1,-1,-1,-1],"split_conditions":[5.2601803E1,8.7564275E-2,3.7235243E-3,1.3734356E-2,-2.867923E-2,3.1661343E-2,8.0907875E1,4.2040955E-2,-6.38663E-3,1.2336115E-2,-2.63811E-2,-1.9470496E-2,1.5118356E-2],"split_indices":[0,3,3,7,7,0,0,0,0,0,0,0,0],"split_type":[0,0,0,0,0,0,0,0,0,0,0,0,0],"sum_hessian":[3.841421E1,1.872855E1,1.9685661E1,8.218489E0,1.0510061E1,1.6859512E0,1.799971E1,6.437562E0,1.7809271E0,5.7683578E0,4.741704E0,1.6013296E1,1.9864142E0],"tree_param":{"num_deleted":"0","num_feature":"14","num_nodes":"13","size_leaf_vector":"1"}},{"base_weights":[1.5244292E-2,8.263705E-2,-4.8363307E-1,-1.4422248E-1,2.6935077E-1,-0E0,-3.032343E-2,-2.5032386E-2,7.594652E-3,1.8602073E-2,-4.510956E-3],"categories":[],"categories_nodes":[],"categories_segments":[],"categories_sizes":[],"default_left":[0,0,0,0,0,0,0,0,0,0,0],"id":70,"left_children":[1,3,5,7,9,-1,-1,-1,-1,-1,-1],"loss_changes":[1.2912785E0,1.608228E0,1.948992E-1,1.9513066E0,8.730662E-1,0E0,0E0,0E0,0E0,0E0,0E0],"parents":[2147483647,0,0,1,1,2,2,3,3,4,4],"right_children":[2,4,6,8,10,-1,-1,-1,-1,-1,-1],"split_conditions":[1.7518871E0,7.738279E-1,3.7169834E1,3.9102635E-3,4.0609095E-2,-0E0,-3.032343E-2,-2.5032386E-2,7.594652E-3,1.8602073E-2,-4.510956E-3],"split_indices":[1,1,0,8,7,0,0,0,0,0,0],"split_type":[0,0,0,0,0,0,0,0,0,0,0],"sum_hessian":[3.7509533E1,3.4501236E1,3.0082998E0,1.5246612E1,1.9254623E1,1.1113975E0,1.8969023E0,6.7550726E0,8.491539E0,1.5369416E1,3.8852067E0],"tree_param":{"num_deleted":"0","num_feature":"14","num_nodes":"11","size_leaf_vector":"1"}},{"base_weights":[2.318847E-2,4.457042E-1,-9.062261E-2,-1.5663946E-2,7.168475E-1,2.3832774E-1,-3.159821E-1,4.050249E-2,-0E0,1.9936185E-2,-2.2430731E-2,-2.3736669E-2,1.3451323E-2],"categories":[],"categories_nodes":[],"categories_segments":[],"categories_sizes":[],"default_left":[0,0,0,0,0,0,0,0,0,0,0,0,0],"id":71,"left_children":[1,3,5,-1,7,9,11,-1,-1,-1,-1,-1,-1],"loss_changes":[1.8745538E0,2.1293387E0,2.3100445E0,0E0,2.948594E-1,1.6310369E0,1.9479915E0,0E0,0E0,0E0,0E0,0E0,0E0],"parents":[2147483647,0,0,1,1,2,2,4,4,5,5,6,6],"right_children":[2,4,6,-1,8,10,12,-1,-1,-1,-1,-1,-1],"split_conditions":[-3.5730734E-2,-8.227685E-2,2.7679028E-2,-1.5663946E-2,1.8897952E0,1.6546144E0,2.3781192E-2,4.050249E-2,-0E0,1.9936185E-2,-2.2430731E-2,-2.3736669E-2,1.3451323E-2],"split_indices":[7,7,3,0,1,1,9,0,0,0,0,0,0],"split_type":[0,0,0,0,0,0,0,0,0,0,0,0,0],"sum_hessian":[3.4745808E1,6.817892E0,2.7927916E1,1.5390561E0,5.278836E0,1.0958435E1,1.696948E1,4.2580214E0,1.0208145E0,9.630322E0,1.3281124E0,1.3838747E1,3.1307333E0],"tree_param":{"num_deleted":"0","num_feature":"14","num_nodes":"13","size_leaf_vector":"1"}},{"base_weights":[-4.9276233E-2,-5.46275E-1,3.4194924E-2,1.2849634E-2,-4.2871382E-2,3.5390064E-2,-7.188727E-2,-1.7004026E-2,5.3859456E-3],"categories":[],"categories_nodes":[],"categories_segments":[],"categories_sizes":[],"default_left":[0,0,0,0,0,0,0,0,0],"id":72,"left_children":[1,3,5,-1,-1,-1,7,-1,-1],"loss_changes":[1.6116894E0,1.8421172E0,2.464307E0,0E0,0E0,0E0,1.4713006E0,0E0,0E0],"parents":[2147483647,0,0,1,1,2,2,6,6],"right_children":[2,4,6,-1,-1,-1,8,-1,-1],"split_conditions":[1.0020057E-2,2.2790618E-3,1.9962873E-2,1.2849634E-2,-4.2871382E-2,3.5390064E-2,7.327408E-1,-1.7004026E-2,5.3859456E-3],"split_indices":[3,3,3,0,0,0,1,0,0],"split_type":[0,0,0,0,0,0,0,0,0],"sum_hessian":[3.420571E1,4.067367E0,3.0138346E1,1.0290657E0,3.0383015E0,3.1994352E0,2.693891E1,1.071391E1,1.6225E1],"tree_param":{"num_deleted":"0","num_feature":"14","num_nodes":"9","size_leaf_vector":"1"}},{"base_weights":[-5.7581486E-3,3.9571086E-1,-1.296915E-1,-0E0,7.2514E-1,4.218287E-2,-6.839187E-1,-1.4775847E-2,1.8007752E-2,4.391996E-2,4.6483763E-3,2.4378216E-2,-1.41145205E-2,-4.206213E-2,-0E0],"categories":[],"categories_nodes":[],"categories_segments":[],"categories_sizes":[],"default_left":[0,0,0,0,0,0,0,0,0,0,0,0,0,0,0],"id":73,"left_children":[1,3,5,7,9,11,13,-1,-1,-1,-1,-1,-1,-1,-1],"loss_changes":[1.811902E0,1.2272911E0,2.9313717E0,6.926562E-1,1.53651E-1,3.6076264E0,8.834152E-1,0E0,0E0,0E0,0E0,0E0,0E0,0E0,0E0],"parents":[2147483647,0,0,1,1,2,2,3,3,4,4,5,5,6,6],"right_children":[2,4,6,8,10,12,14,-1,-1,-1,-1,-1,-1,-1,-1],"split_conditions":[-3.7719525E-2,-5.3789143E-2,8.426109E-2,1.3800135E-1,-4.2850494E-2,1.745138E-2,2.1785326E-2,-1.4775847E-2,1.8007752E-2,4.391996E-2,4.6483763E-3,2.4378216E-2,-1.41145205E-2,-4.206213E-2,-0E0],"split_indices":[7,7,3,3,7,9,8,0,0,0,0,0,0,0,0],"split_type":[0,0,0,0,0,0,0,0,0,0,0,0,0,0,0],"sum_hessian":[3.443832E1,6.9668317E0,2.7471489E1,3.6114647E0,3.3553672E0,2.1751108E1,5.7203813E0,2.3915124E0,1.2199523E0,1.975768E0,1.3795992E0,9.109532E0,1.2641575E1,4.520598E0,1.1997832E0],"tree_param":{"num_deleted":"0","num_feature":"14","num_nodes":"15","size_leaf_vector":"1"}},{"base_weights":[1.6150955E-2,-5.5101268E-2,3.4152754E-2,-1.9677454E-1,2.9814097E-1,-4.5188857E-4,-2.978511E-2,2.2859659E-2,-1.5859706E-2],"categories":[],"categories_nodes":[],"categories_segments":[],"categories_sizes":[],"default_left":[0,0,0,0,0,0,0,0,0],"id":74,"left_children":[1,3,-1,5,7,-1,-1,-1,-1],"loss_changes":[1.893805E0,1.7523878E0,0E0,1.7683548E0,1.2074523E0,0E0,0E0,0E0,0E0],"parents":[2147483647,0,0,1,1,3,3,4,4],"right_children":[2,4,-1,6,8,-1,-1,-1,-1],"split_conditions":[2.6609994E-2,6.9680115E1,3.4152754E-2,1.5669847E-2,8.871205E-2,-4.5188857E-4,-2.978511E-2,2.2859659E-2,-1.5859706E-2],"split_indices":[9,0,0,7,7,0,0,0,0],"split_type":[0,0,0,0,0,0,0,0,0],"sum_hessian":[3.4523064E1,3.216294E1,2.3601246E0,2.3834393E1,8.328548E0,1.7591225E1,6.2431674E0,7.182531E0,1.1460173E0],"tree_param":{"num_deleted":"0","num_feature":"14","num_nodes":"9","size_leaf_vector":"1"}},{"base_weights":[-7.136779E-3,1.759654E-1,-3.1318197E-1,2.670747E-1,-2.960073E-2,-4.5570232E-2,8.6112365E-2,1.3158632E-3,3.832772E-2,-1.8876769E-2,1.4699036E-2],"categories":[],"categories_nodes":[],"categories_segments":[],"categories_sizes":[],"default_left":[0,0,0,0,0,0,0,0,0,0,0],"id":75,"left_children":[1,3,5,7,-1,-1,9,-1,-1,-1,-1],"loss_changes":[2.1546388E0,1.808021E0,3.7716494E0,2.4767253E0,0E0,0E0,1.1067383E0,0E0,0E0,0E0,0E0],"parents":[2147483647,0,0,1,1,2,2,3,3,6,6],"right_children":[2,4,6,8,-1,-1,10,-1,-1,-1,-1],"split_conditions":[1.3875642E-2,1.6582915E-1,6.0406082E1,8.568232E-3,-2.960073E-2,-4.5570232E-2,1.13052696E-1,1.3158632E-3,3.832772E-2,-1.8876769E-2,1.4699036E-2],"split_indices":[7,2,0,8,0,0,2,0,0,0,0],"split_type":[0,0,0,0,0,0,0,0,0,0,0],"sum_hessian":[3.4985035E1,2.1879135E1,1.31059E1,2.0666182E1,1.2129525E0,4.676558E0,8.429342E0,1.5280285E1,5.385897E0,1.9324821E0,6.4968596E0],"tree_param":{"num_deleted":"0","num_feature":"14","num_nodes":"11","size_leaf_vector":"1"}},{"base_weights":[4.079803E-2,1.6066656E-1,-1.815393E-1,-1.1313184E-2,6.076685E-1,-6.602874E-1,1.355011E-1,2.9376596E-2,-1.194203E-2,-0E0,4.58221E-2,-4.281804E-2,-0E0,3.274601E-2,-2.3048673E-2],"categories":[],"categories_nodes":[],"categories_segments":[],"categories_sizes":[],"default_left":[0,0,0,0,0,0,0,0,0,0,0,0,0,0,0],"id":76,"left_children":[1,3,5,7,9,11,13,-1,-1,-1,-1,-1,-1,-1,-1],"loss_changes":[1.00859E0,2.0517192E0,2.190435E0,2.7576103E0,1.461833E0,7.4515057E-1,3.195534E0,0E0,0E0,0E0,0E0,0E0,0E0,0E0,0E0],"parents":[2147483647,0,0,1,1,2,2,3,3,4,4,5,5,6,6],"right_children":[2,4,6,8,10,12,14,-1,-1,-1,-1,-1,-1,-1,-1],"split_conditions":[4.1246828E-2,1.2122807E-2,6.9680115E1,4.7119264E-2,1.9501917E-2,2.1947913E-2,1.8289823E-2,2.9376596E-2,-1.194203E-2,-0E0,4.58221E-2,-4.281804E-2,-0E0,3.274601E-2,-2.3048673E-2],"split_indices":[8,8,0,3,9,9,9,0,0,0,0,0,0,0,0],"split_type":[0,0,0,0,0,0,0,0,0,0,0,0,0,0,0],"sum_hessian":[3.4859028E1,2.3503307E1,1.13557205E1,1.7705786E1,5.7975216E0,4.1284237E0,7.2272973E0,3.9794946E0,1.3726292E1,2.34849E0,3.4490316E0,2.8621883E0,1.2662352E0,3.963846E0,3.2634513E0],"tree_param":{"num_deleted":"0","num_feature":"14","num_nodes":"15","size_leaf_vector":"1"}},{"base_weights":[1.1190756E-1,-1.3460544E-1,2.615405E-1,-5.5170745E-1,2.2893652E-1,6.47513E-1,1.00431815E-1,-0E0,-3.6958136E-2,2.366587E-2,-1.0073975E-2,3.9049555E-2,-0E0,-3.05908E-2,1.282561E-2],"categories":[],"categories_nodes":[],"categories_segments":[],"categories_sizes":[],"default_left":[0,0,0,0,0,0,0,0,0,0,0,0,0,0,0],"id":77,"left_children":[1,3,5,7,9,11,13,-1,-1,-1,-1,-1,-1,-1,-1],"loss_changes":[1.4299662E0,2.4265897E0,1.234018E0,8.9135647E-1,1.087208E0,5.035796E-1,2.270488E0,0E0,0E0,0E0,0E0,0E0,0E0,0E0,0E0],"parents":[2147483647,0,0,1,1,2,2,3,3,4,4,5,5,6,6],"right_children":[2,4,6,8,10,12,14,-1,-1,-1,-1,-1,-1,-1,-1],"split_conditions":[7.327408E-1,3.9102635E-3,-3.7719525E-2,1.6732533E-2,7.157359E-2,2.2786507E-2,3.3958336E1,-0E0,-3.6958136E-2,2.366587E-2,-1.0073975E-2,3.9049555E-2,-0E0,-3.05908E-2,1.282561E-2],"split_indices":[1,8,7,9,8,9,0,0,0,0,0,0,0,0,0],"split_type":[0,0,0,0,0,0,0,0,0,0,0,0,0,0,0],"sum_hessian":[3.514683E1,1.282776E1,2.231907E1,5.868464E0,6.959296E0,4.8734818E0,1.744559E1,1.6320097E0,4.2364545E0,4.6399746E0,2.3193214E0,3.7066948E0,1.1667867E0,2.1182203E0,1.5327369E1],"tree_param":{"num_deleted":"0","num_feature":"14","num_nodes":"15","size_leaf_vector":"1"}},{"base_weights":[4.883669E-2,3.114803E-1,-1.304953E-1,7.333922E-1,-3.1218188E-2,3.7473285E-1,-2.6313853E-1,2.4591899E-3,5.2930135E-2,-2.6051546E-2,9.4188675E-3,-0E0,2.5222966E-2,-2.3868699E-2,1.5770381E-2],"categories":[],"categories_nodes":[],"categories_segments":[],"categories_sizes":[],"default_left":[0,0,0,0,0,0,0,0,0,0,0,0,0,0,0],"id":78,"left_children":[1,3,5,7,9,11,13,-1,-1,-1,-1,-1,-1,-1,-1],"loss_changes":[1.7601688E0,2.3756292E0,1.5721864E0,1.2902086E0,1.2438E0,2.7685E-1,2.5254607E0,0E0,0E0,0E0,0E0,0E0,0E0,0E0,0E0],"parents":[2147483647,0,0,1,1,2,2,3,3,4,4,5,5,6,6],"right_children":[2,4,6,8,10,12,14,-1,-1,-1,-1,-1,-1,-1,-1],"split_conditions":[4.7744778E1,8.692752E-2,1.5729273E-2,1.5070388E-2,1.629175E-2,5.943604E1,8.716197E-2,2.4591899E-3,5.2930135E-2,-2.6051546E-2,9.4188675E-3,-0E0,2.5222966E-2,-2.3868699E-2,1.5770381E-2],"split_indices":[0,3,9,9,9,0,8,0,0,0,0,0,0,0,0],"split_type":[0,0,0,0,0,0,0,0,0,0,0,0,0,0,0],"sum_hessian":[3.3807587E1,1.3721479E1,2.008611E1,5.6450844E0,8.076395E0,3.294006E0,1.6792103E1,2.5731957E0,3.0718887E0,2.144586E0,5.9318085E0,1.0607076E0,2.2332985E0,1.269803E1,4.094072E0],"tree_param":{"num_deleted":"0","num_feature":"14","num_nodes":"15","size_leaf_vector":"1"}},{"base_weights":[-7.76034E-2,-1.3240975E-1,2.0386538E-2,2.0125647E-1,-2.1563503E-1,-7.584472E-3,3.663444E-2,2.5158403E-3,-1.811943E-2],"categories":[],"categories_nodes":[],"categories_segments":[],"categories_sizes":[],"default_left":[0,0,0,0,0,0,0,0,0],"id":79,"left_children":[1,3,-1,5,7,-1,-1,-1,-1],"loss_changes":[9.871084E-1,1.0113516E0,0E0,1.6105133E0,1.1979581E0,0E0,0E0,0E0,0E0],"parents":[2147483647,0,0,1,1,3,3,4,4],"right_children":[2,4,-1,6,8,-1,-1,-1,-1],"split_conditions":[2.6609994E-2,1.4113708E-2,2.0386538E-2,5.932641E1,4.7744778E1,-7.584472E-3,3.663444E-2,2.5158403E-3,-1.811943E-2],"split_indices":[9,9,0,0,0,0,0,0,0],"split_type":[0,0,0,0,0,0,0,0,0],"sum_hessian":[3.4635838E1,3.2471813E1,2.1640246E0,5.578019E0,2.6893793E1,3.7698283E0,1.8081912E0,9.429039E0,1.7464754E1],"tree_param":{"num_deleted":"0","num_feature":"14","num_nodes":"9","size_leaf_vector":"1"}},{"base_weights":[-1.1217493E-2,1.8273675E-1,-1.413264E-1,-8.224914E-2,3.770555E-2,-5.9861815E-1,-0E0,1.5096813E-2,-1.8239368E-2,-1.2794685E-3,-3.3709113E-2,2.2238422E-2,-7.867671E-3],"categories":[],"categories_nodes":[],"categories_segments":[],"categories_sizes":[],"default_left":[0,0,0,0,0,0,0,0,0,0,0,0,0],"id":80,"left_children":[1,3,5,7,-1,9,11,-1,-1,-1,-1,-1,-1],"loss_changes":[9.092299E-1,2.3498685E0,1.519012E0,1.3381754E0,0E0,7.1549535E-2,1.4245255E0,0E0,0E0,0E0,0E0,0E0,0E0],"parents":[2147483647,0,0,1,1,2,2,3,3,5,5,6,6],"right_children":[2,4,6,8,-1,10,12,-1,-1,-1,-1,-1,-1],"split_conditions":[4.6998512E1,4.0981018E1,-1.7916037E-2,-4.1354902E-2,3.770555E-2,-4.388088E-2,3.6527324E-3,1.5096813E-2,-1.8239368E-2,-1.2794685E-3,-3.3709113E-2,2.2238422E-2,-7.867671E-3],"split_indices":[0,0,7,7,0,7,7,0,0,0,0,0,0],"split_type":[0,0,0,0,0,0,0,0,0,0,0,0,0],"sum_hessian":[3.332336E1,1.2518314E1,2.0805048E1,9.190216E0,3.328099E0,3.9822066E0,1.6822842E1,3.5509312E0,5.639284E0,1.0062431E0,2.9759636E0,3.895333E0,1.2927508E1],"tree_param":{"num_deleted":"0","num_feature":"14","num_nodes":"13","size_leaf_vector":"1"}},{"base_weights":[-5.756993E-2,-1.5153885E-1,3.5247332E-1,2.8112587E-1,-2.8773278E-1,-0E0,3.2407895E-2,4.0350433E-2,-7.887579E-3,-2.603582E-2,1.3920765E-3,1.938164E-2,-2.4302283E-2],"categories":[],"categories_nodes":[],"categories_segments":[],"categories_sizes":[],"default_left":[0,0,0,0,0,0,0,0,0,0,0,0,0],"id":81,"left_children":[1,3,5,7,9,11,-1,-1,-1,-1,-1,-1,-1],"loss_changes":[1.3919883E0,1.8900552E0,6.151932E-1,2.072115E0,1.8779299E0,1.1536233E0,0E0,0E0,0E0,0E0,0E0,0E0,0E0],"parents":[2147483647,0,0,1,1,2,2,3,3,4,4,5,5],"right_children":[2,4,6,8,10,12,-1,-1,-1,-1,-1,-1,-1],"split_conditions":[2.3381876E-2,1.4113708E-2,-1.2837831E-2,4.068477E-2,1.1511834E-1,-2.7169857E-2,3.2407895E-2,4.0350433E-2,-7.887579E-3,-2.603582E-2,1.3920765E-3,1.938164E-2,-2.4302283E-2],"split_indices":[9,9,8,3,2,8,0,0,0,0,0,0,0],"split_type":[0,0,0,0,0,0,0,0,0,0,0,0,0],"sum_hessian":[3.358977E1,2.8493391E1,5.09638E0,6.088032E0,2.240536E1,3.1812866E0,1.9150939E0,2.4044347E0,3.6835968E0,1.2692996E1,9.712364E0,2.0664327E0,1.1148537E0],"tree_param":{"num_deleted":"0","num_feature":"14","num_nodes":"13","size_leaf_vector":"1"}},{"base_weights":[-0E0,-7.492818E-2,2.8815357E-2,7.323596E-2,-4.6985212E-1,1.2653037E-2,-1.6485585E-2,-4.0499456E-2,1.00145405E-2],"categories":[],"categories_nodes":[],"categories_segments":[],"categories_sizes":[],"default_left":[0,0,0,0,0,0,0,0,0],"id":82,"left_children":[1,3,-1,5,7,-1,-1,-1,-1],"loss_changes":[1.5290166E0,1.9860618E0,0E0,1.8477166E0,2.4669003E0,0E0,0E0,0E0,0E0],"parents":[2147483647,0,0,1,1,3,3,4,4],"right_children":[2,4,-1,6,8,-1,-1,-1,-1],"split_conditions":[1.9282083E-1,2.0558313E-2,2.8815357E-2,6.0467987E1,6.9680115E1,1.2653037E-2,-1.6485585E-2,-4.0499456E-2,1.00145405E-2],"split_indices":[2,7,0,0,0,0,0,0,0],"split_type":[0,0,0,0,0,0,0,0,0],"sum_hessian":[3.277191E1,3.0204159E1,2.5677526E0,2.2484156E1,7.720002E0,1.6275253E1,6.2089033E0,5.111193E0,2.6088095E0],"tree_param":{"num_deleted":"0","num_feature":"14","num_nodes":"9","size_leaf_vector":"1"}},{"base_weights":[9.2132725E-2,-0E0,6.007704E-1,2.0907144E-1,-2.1109639E-1,7.096874E-4,4.1320603E-2,1.9792866E-2,-2.5940899E-2,-3.2532636E-2,4.6030926E-3],"categories":[],"categories_nodes":[],"categories_segments":[],"categories_sizes":[],"default_left":[0,0,0,0,0,0,0,0,0,0,0],"id":83,"left_children":[1,3,5,7,9,-1,-1,-1,-1,-1,-1],"loss_changes":[1.6596551E0,1.5410883E0,5.3933215E-1,2.7193017E0,2.4681711E0,0E0,0E0,0E0,0E0,0E0,0E0],"parents":[2147483647,0,0,1,1,2,2,3,3,4,4],"right_children":[2,4,6,8,10,-1,-1,-1,-1,-1,-1],"split_conditions":[2.3799134E-2,1.8289823E-2,4.4374343E-2,1.4480348E0,2.0964779E-2,7.096874E-4,4.1320603E-2,1.9792866E-2,-2.5940899E-2,-3.2532636E-2,4.6030926E-3],"split_indices":[9,9,2,1,9,0,0,0,0,0,0],"split_type":[0,0,0,0,0,0,0,0,0,0,0],"sum_hessian":[3.5903336E1,3.1925327E1,3.9780092E0,1.6415833E1,1.5509496E1,1.7942932E0,2.1837163E0,1.3826719E1,2.5891125E0,5.89808E0,9.611416E0],"tree_param":{"num_deleted":"0","num_feature":"14","num_nodes":"11","size_leaf_vector":"1"}},{"base_weights":[6.341129E-2,-1.4059539E-1,3.8819575E-1,7.2064325E-2,-6.9340295E-1,5.5678326E-1,-1.4801525E-1,-6.6401176E-3,3.1338673E-2,-4.589222E-2,-0E0,1.0193071E-2,4.1860696E-2,2.1716157E-2,-3.4944624E-2],"categories":[],"categories_nodes":[],"categories_segments":[],"categories_sizes":[],"default_left":[0,0,0,0,0,0,0,0,0,0,0,0,0,0,0],"id":84,"left_children":[1,3,5,7,9,11,13,-1,-1,-1,-1,-1,-1,-1,-1],"loss_changes":[2.4984388E0,2.8637288E0,1.521533E0,2.208494E0,1.1785316E0,6.913161E-1,1.914558E0,0E0,0E0,0E0,0E0,0E0,0E0,0E0,0E0],"parents":[2147483647,0,0,1,1,2,2,3,3,4,4,5,5,6,6],"right_children":[2,4,6,8,10,12,14,-1,-1,-1,-1,-1,-1,-1,-1],"split_conditions":[2.0964779E-2,1.8119102E-2,6.4641556E1,6.872108E1,5.215744E-2,5.685896E-3,1.9962873E-2,-6.6401176E-3,3.1338673E-2,-4.589222E-2,-0E0,1.0193071E-2,4.1860696E-2,2.1716157E-2,-3.4944624E-2],"split_indices":[9,9,0,0,7,8,3,0,0,0,0,0,0,0,0],"split_type":[0,0,0,0,0,0,0,0,0,0,0,0,0,0,0],"sum_hessian":[3.4224644E1,2.1165098E1,1.3059546E1,1.59658575E1,5.199241E0,1.0175694E1,2.8838525E0,1.2229546E1,3.736312E0,3.722434E0,1.4768072E0,5.968263E0,4.207431E0,1.3796842E0,1.5041683E0],"tree_param":{"num_deleted":"0","num_feature":"14","num_nodes":"15","size_leaf_vector":"1"}},{"base_weights":[-6.3221686E-2,-1.3219069E-1,3.0076865E-2,-0E0,-5.8840835E-1,1.8938003E-2,-6.9500403E-3,-3.9453384E-2,-8.30562E-3],"categories":[],"categories_nodes":[],"categories_segments":[],"categories_sizes":[],"default_left":[0,0,0,0,0,0,0,0,0],"id":85,"left_children":[1,3,-1,5,7,-1,-1,-1,-1],"loss_changes":[1.6766889E0,2.0779448E0,0E0,1.5562409E0,2.6690745E-1,0E0,0E0,0E0,0E0],"parents":[2147483647,0,0,1,1,3,3,4,4],"right_children":[2,4,-1,6,8,-1,-1,-1,-1],"split_conditions":[2.6609994E-2,9.472015E-2,3.0076865E-2,5.280701E-2,1.0849269E-1,1.8938003E-2,-6.9500403E-3,-3.9453384E-2,-8.30562E-3],"split_indices":[9,3,0,2,3,0,0,0,0],"split_type":[0,0,0,0,0,0,0,0,0],"sum_hessian":[3.451663E1,3.2633472E1,1.8831571E0,2.6408985E1,6.2244873E0,6.4590764E0,1.9949907E1,3.0153344E0,3.209153E0],"tree_param":{"num_deleted":"0","num_feature":"14","num_nodes":"9","size_leaf_vector":"1"}},{"base_weights":[3.1115511E-2,2.9874954E-1,-2.234478E-1,4.575378E-1,-2.992152E-1,-5.970921E-1,1.6634172E-1,-1.4286413E-3,3.814496E-2,-2.7128134E-2,2.4231146E-3,1.6705452E-2,-4.1802336E-2,2.3173118E-2,-4.686214E-3],"categories":[],"categories_nodes":[],"categories_segments":[],"categories_sizes":[],"default_left":[0,0,0,0,0,0,0,0,0,0,0,0,0,0,0],"id":86,"left_children":[1,3,5,7,9,11,13,-1,-1,-1,-1,-1,-1,-1,-1],"loss_changes":[2.1727526E0,1.7322081E0,2.5586286E0,2.1538584E0,4.7218773E-1,2.462872E0,8.1284595E-1,0E0,0E0,0E0,0E0,0E0,0E0,0E0,0E0],"parents":[2147483647,0,0,1,1,2,2,3,3,4,4,5,5,6,6],"right_children":[2,4,6,8,10,12,14,-1,-1,-1,-1,-1,-1,-1,-1],"split_conditions":[5.2601803E1,1.3213722E-2,1.2658532E-1,-5.5673525E-2,1.6048346E-2,1.43549545E-2,1.700826E-2,-1.4286413E-3,3.814496E-2,-2.7128134E-2,2.4231146E-3,1.6705452E-2,-4.1802336E-2,2.3173118E-2,-4.686214E-3],"split_indices":[0,7,2,8,9,9,3,0,0,0,0,0,0,0,0],"split_type":[0,0,0,0,0,0,0,0,0,0,0,0,0,0,0],"sum_hessian":[2.870058E1,1.4247171E1,1.4453408E1,1.1800345E1,2.446826E0,7.2342005E0,7.2192082E0,4.8246217E0,6.975724E0,1.2831582E0,1.1636678E0,1.184384E0,6.049816E0,3.1809378E0,4.03827E0],"tree_param":{"num_deleted":"0","num_feature":"14","num_nodes":"15","size_leaf_vector":"1"}},{"base_weights":[9.3065746E-2,3.7666994E-1,-1.3300163E-1,8.3377826E-1,-1.6004339E-1,-5.054837E-1,2.0211095E-1,4.7040418E-2,-0E0,2.4291677E-2,-2.0180939E-2,-0E0,-4.001352E-2,-1.0273798E-3,2.4497064E-2],"categories":[],"categories_nodes":[],"categories_segments":[],"categories_sizes":[],"default_left":[0,0,0,0,0,0,0,0,0,0,0,0,0,0,0],"id":87,"left_children":[1,3,5,7,9,11,13,-1,-1,-1,-1,-1,-1,-1,-1],"loss_changes":[2.2352219E0,4.110791E0,2.5906298E0,6.2324715E-1,1.5576681E0,1.3330593E0,8.018962E-1,0E0,0E0,0E0,0E0,0E0,0E0,0E0,0E0],"parents":[2147483647,0,0,1,1,2,2,3,3,4,4,5,5,6,6],"right_children":[2,4,6,8,10,12,14,-1,-1,-1,-1,-1,-1,-1,-1],"split_conditions":[4.7119264E-2,1.8164666E-2,2.0964779E-2,1.4006768E0,3.7235243E-3,2.922336E-2,2.369171E-3,4.7040418E-2,-0E0,2.4291677E-2,-2.0180939E-2,-0E0,-4.001352E-2,-1.0273798E-3,2.4497064E-2],"split_indices":[3,9,9,1,3,2,8,0,0,0,0,0,0,0,0],"split_type":[0,0,0,0,0,0,0,0,0,0,0,0,0,0,0],"sum_hessian":[3.1431227E1,1.3890653E1,1.7540573E1,7.2545223E0,6.6361303E0,8.228596E0,9.311978E0,6.0800657E0,1.1744567E0,1.1838865E0,5.452244E0,3.7656739E0,4.4629216E0,5.6439896E0,3.6679888E0],"tree_param":{"num_deleted":"0","num_feature":"14","num_nodes":"15","size_leaf_vector":"1"}},{"base_weights":[5.148881E-2,-3.277436E-3,4.819863E-1,3.3790216E-1,-1.1707322E-1,4.9100997E-4,2.8781867E-2,-1.6340313E-2,2.900826E-2,9.1012596E-4,-4.0416203E-2],"categories":[],"categories_nodes":[],"categories_segments":[],"categories_sizes":[],"default_left":[0,0,0,0,0,0,0,0,0,0,0],"id":88,"left_children":[1,3,5,7,9,-1,-1,-1,-1,-1,-1],"loss_changes":[9.3992513E-1,1.2868155E0,7.128835E-2,1.6456466E0,2.6220834E0,0E0,0E0,0E0,0E0,0E0,0E0],"parents":[2147483647,0,0,1,1,2,2,3,3,4,4],"right_children":[2,4,6,8,10,-1,-1,-1,-1,-1,-1],"split_conditions":[1.9282083E-1,2.8474718E-2,7.3433435E-1,7.667773E-1,1.453341E0,4.9100997E-4,2.8781867E-2,-1.6340313E-2,2.900826E-2,9.1012596E-4,-4.0416203E-2],"split_indices":[2,2,1,1,1,0,0,0,0,0,0],"split_type":[0,0,0,0,0,0,0,0,0,0,0],"sum_hessian":[3.4205284E1,3.1253351E1,2.9519305E0,6.6384697E0,2.4614882E1,1.1163646E0,1.8355659E0,1.4128792E0,5.2255907E0,2.1565706E1,3.049175E0],"tree_param":{"num_deleted":"0","num_feature":"14","num_nodes":"11","size_leaf_vector":"1"}},{"base_weights":[-7.246421E-3,3.6639827E-1,-1.0154722E-1,-8.887622E-2,3.826758E-2,-3.3164483E-2,-2.0675128E-2,1.2707355E-2,-2.6926298E-2,8.218552E-3,-1.5629744E-2],"categories":[],"categories_nodes":[],"categories_segments":[],"categories_sizes":[],"default_left":[0,0,0,0,0,0,0,0,0,0,0],"id":89,"left_children":[1,3,5,7,-1,-1,9,-1,-1,-1,-1],"loss_changes":[1.2034881E0,1.4660804E0,1.1514736E0,9.2067164E-1,0E0,0E0,1.5676059E0,0E0,0E0,0E0,0E0],"parents":[2147483647,0,0,1,1,2,2,3,3,6,6],"right_children":[2,4,6,8,-1,-1,10,-1,-1,-1,-1],"split_conditions":[-4.1322295E-2,-6.97188E-2,3.0012693E1,1.453494E-2,3.826758E-2,-3.3164483E-2,4.5013532E-2,1.2707355E-2,-2.6926298E-2,8.218552E-3,-1.5629744E-2],"split_indices":[7,7,0,2,0,0,8,0,0,0,0],"split_type":[0,0,0,0,0,0,0,0,0,0,0],"sum_hessian":[3.2575447E1,5.265024E0,2.7310423E1,2.7693014E0,2.4957228E0,1.7662604E0,2.5544163E1,1.6885518E0,1.0807496E0,1.5615725E1,9.928438E0],"tree_param":{"num_deleted":"0","num_feature":"14","num_nodes":"11","size_leaf_vector":"1"}},{"base_weights":[-0E0,5.2569162E-2,-4.241937E-1,3.4176063E-2,-2.5008176E-3,-0E0,-2.6735336E-2,9.704373E-3,-1.2268945E-2],"categories":[],"categories_nodes":[],"categories_segments":[],"categories_sizes":[],"default_left":[0,0,0,0,0,0,0,0,0],"id":90,"left_children":[1,3,5,-1,7,-1,-1,-1,-1],"loss_changes":[8.8868284E-1,1.2785653E0,1.3324285E-1,0E0,1.5796589E0,0E0,0E0,0E0,0E0],"parents":[2147483647,0,0,1,1,2,2,4,4],"right_children":[2,4,6,-1,8,-1,-1,-1,-1],"split_conditions":[1.7518871E0,3.7235243E-3,2.829139E-2,3.4176063E-2,5.5946793E1,-0E0,-2.6735336E-2,9.704373E-3,-1.2268945E-2],"split_indices":[1,3,2,0,0,0,0,0,0],"split_type":[0,0,0,0,0,0,0,0,0],"sum_hessian":[3.423818E1,3.1303204E1,2.934974E0,1.43026E0,2.9872944E1,1.1777625E0,1.7572114E0,1.6221195E1,1.365175E1],"tree_param":{"num_deleted":"0","num_feature":"14","num_nodes":"9","size_leaf_vector":"1"}},{"base_weights":[2.5098762E-2,2.8537083E-1,-9.690291E-2,5.648614E-1,-0E0,-2.4020287E-1,1.4929815E-1,-1.8728761E-3,4.164379E-2,-1.7731918E-2,1.6291162E-2,1.9316586E-3,-3.427362E-2,-1.8502181E-2,2.162244E-2],"categories":[],"categories_nodes":[],"categories_segments":[],"categories_sizes":[],"default_left":[0,0,0,0,0,0,0,0,0,0,0,0,0,0,0],"id":91,"left_children":[1,3,5,7,9,11,13,-1,-1,-1,-1,-1,-1,-1,-1],"loss_changes":[1.1279925E0,9.769856E-1,8.86429E-1,1.1717297E0,9.810231E-1,2.11592E0,1.5619737E0,0E0,0E0,0E0,0E0,0E0,0E0,0E0,0E0],"parents":[2147483647,0,0,1,1,2,2,3,3,4,4,5,5,6,6],"right_children":[2,4,6,8,10,12,14,-1,-1,-1,-1,-1,-1,-1,-1],"split_conditions":[2.7679028E-2,7.157359E-2,2.2364246E-2,5.989306E1,1.0020057E-2,1.8053843E-2,3.995903E1,-1.8728761E-3,4.164379E-2,-1.7731918E-2,1.6291162E-2,1.9316586E-3,-3.427362E-2,-1.8502181E-2,2.162244E-2],"split_indices":[3,8,9,0,3,9,0,0,0,0,0,0,0,0,0],"split_type":[0,0,0,0,0,0,0,0,0,0,0,0,0,0,0],"sum_hessian":[3.1529902E1,9.944829E0,2.1585072E1,4.4830823E0,5.4617467E0,1.418036E1,7.404712E0,1.5481033E0,2.934979E0,2.7186449E0,2.7431018E0,9.28599E0,4.8943706E0,2.2010298E0,5.2036824E0],"tree_param":{"num_deleted":"0","num_feature":"14","num_nodes":"15","size_leaf_vector":"1"}},{"base_weights":[8.636596E-2,-1.128324E-1,3.9817E-1,7.584604E-2,-6.5580076E-1,6.1021727E-2,6.2117785E-1,-2.1355864E-2,1.3148203E-2,