{"learner":{"attributes":{"scikit_learn":"{\"_estimator_type\": \"classifier\"}"},"feature_names":["volume_ratio","volatility_20d","macd_signal","bb_width","obv"],"feature_types":["float","float","float","float","float"],"gradient_booster":{"model":{"cats":{"enc":[],"feature_segments":[],"sorted_idx":[]},"gbtree_model_param":{"num_parallel_tree":"1","num_trees":"50"},"iteration_indptr":[0,1,2,3,4,5,6,7,8,9,10,11,12,13,14,15,16,17,18,19,20,21,22,23,24,25,26,27,28,29,30,31,32,33,34,35,36,37,38,39,40,41,42,43,44,45,46,47,48,49,50],"tree_info":[0,0,0,0,0,0,0,0,0,0,0,0,0,0,0,0,0,0,0,0,0,0,0,0,0,0,0,0,0,0,0,0,0,0,0,0,0,0,0,0,0,0,0,0,0,0,0,0,0,0],"trees":[{"base_weights":[-1.2346418E-1,9.568766E-2,-7.254066E-2,3.4401363E-1,-1.068589E0,-6.7541203E-3,7.885999E-1,-7.5829625E-2,-0E0,-1.9326555E-2,2.766459E-2,5.2390065E-2,-2.37584E-3,2.4450054E-2,-2.8998543E-2],"categories":[],"categories_nodes":[],"categories_segments":[],"categories_sizes":[],"default_left":[0,0,0,0,0,0,0,0,0,0,0,0,0,0,0],"id":0,"left_children":[1,3,-1,5,7,9,11,-1,13,-1,-1,-1,-1,-1,-1],"loss_changes":[1.6777775E1,1.4679673E1,0E0,6.7087193E0,4.067605E0,5.539587E0,4.3430166E0,0E0,1.6322141E0,0E0,0E0,0E0,0E0,0E0,0E0],"parents":[2147483647,0,0,1,1,3,3,4,4,5,5,6,6,8,8],"right_children":[2,4,-1,6,8,10,12,-1,14,-1,-1,-1,-1,-1,-1],"split_conditions":[1.3683327E9,2.9590672E-1,-7.254066E-2,2.5257772E-2,7.77439E8,9.2357184E8,3.38453E-2,-7.5829625E-2,1.2994578E9,-1.9326555E-2,2.766459E-2,5.2390065E-2,-2.37584E-3,2.4450054E-2,-2.8998543E-2],"split_indices":[4,3,0,1,4,4,1,0,4,0,0,0,0,0,0],"split_type":[0,0,0,0,0,0,0,0,0,0,0,0,0,0,0],"sum_hessian":[5.4529617E1,4.7867626E1,6.661989E0,4.0465416E1,7.40221E0,2.3193592E1,1.7271824E1,4.6880665E0,2.7141438E0,1.431094E1,8.882652E0,1.3077238E1,4.194586E0,1.480442E0,1.2337017E0],"tree_param":{"num_deleted":"0","num_feature":"5","num_nodes":"15","size_leaf_vector":"1"}},{"base_weights":[-4.533083E-2,1.858088E-1,-7.96074E-2,7.474806E-1,-2.8646755E-1,1.0299706E0,-1.01709224E-1,-8.597111E-1,5.613779E-1,1.7521432E-2,6.7934476E-2,-3.466913E-2,4.4158746E-2,-1.5702082E-3,-5.296917E-2,4.1575875E-2,-0E0],"categories":[],"categories_nodes":[],"categories_segments":[],"categories_sizes":[],"default_left":[0,0,0,0,0,0,0,0,0,0,0,0,0,0,0,0,0],"id":1,"left_children":[1,3,-1,5,7,9,11,13,15,-1,-1,-1,-1,-1,-1,-1,-1],"loss_changes":[2.1193123E1,1.3951633E1,0E0,6.0811625E0,1.4691454E1,3.023203E0,5.0527472E0,2.6768532E0,1.9147022E0,0E0,0E0,0E0,0E0,0E0,0E0,0E0,0E0],"parents":[2147483647,0,0,1,1,3,3,4,4,5,5,6,6,7,7,8,8],"right_children":[2,4,-1,6,8,10,12,14,16,-1,-1,-1,-1,-1,-1,-1,-1],"split_conditions":[1.368168E9,3.814296E-2,-7.96074E-2,1.2875333E9,9.2357184E8,2.3315068E-2,1.0027732E0,5.745722E-2,1.2179437E9,1.7521432E-2,6.7934476E-2,-3.466913E-2,4.4158746E-2,-1.5702082E-3,-5.296917E-2,4.1575875E-2,-0E0],"split_indices":[4,2,0,4,4,1,0,2,4,0,0,0,0,0,0,0,0],"split_type":[0,0,0,0,0,0,0,0,0,0,0,0,0,0,0,0,0],"sum_hessian":[5.574851E1,4.9536785E1,6.2117243E0,2.2421091E1,2.7115694E1,1.6761446E1,5.659646E0,1.630589E1,1.0809805E1,6.673398E0,1.0088048E1,3.9398167E0,1.7198292E0,3.6989553E0,1.2606934E1,6.8799515E0,3.9298537E0],"tree_param":{"num_deleted":"0","num_feature":"5","num_nodes":"17","size_leaf_vector":"1"}},{"base_weights":[6.445661E-2,6.1494064E-1,-3.866228E-1,8.3960396E-1,-1.3537695E-1,-1.407283E-2,-1.3396786E0,3.987146E-2,1.1604719E0,3.452653E-1,-4.420501E-2,-7.108778E-1,1.949271E-1,4.2750128E-4,-7.87481E-2,2.7109612E-2,-2.1625975E-2,6.4757206E-2,4.3830457E-3,-1.159494E-2,3.2174803E-2,8.421515E-3,-5.3203028E-2,4.734002E-2,-8.410697E-3],"categories":[],"categories_nodes":[],"categories_segments":[],"categories_sizes":[],"default_left":[0,0,0,0,0,0,0,0,0,0,0,0,0,0,0,0,0,0,0,0,0,0,0,0,0],"id":2,"left_children":[1,3,5,7,9,11,13,15,17,19,-1,21,23,-1,-1,-1,-1,-1,-1,-1,-1,-1,-1,-1,-1],"loss_changes":[1.5147725E1,4.950897E0,1.1545619E1,5.2318573E0,3.2390003E0,4.046639E0,3.254593E0,2.2518914E0,1.7462215E0,1.2425995E0,0E0,2.4548116E0,6.0433936E0,0E0,0E0,0E0,0E0,0E0,0E0,0E0,0E0,0E0,0E0,0E0,0E0],"parents":[2147483647,0,0,1,1,2,2,3,3,4,4,5,5,6,6,7,7,8,8,9,9,11,11,12,12],"right_children":[2,4,6,8,10,12,14,16,18,20,-1,22,24,-1,-1,-1,-1,-1,-1,-1,-1,-1,-1,-1,-1],"split_conditions":[4.7439255E-2,1.306406E9,3.0715972E-2,2.3315068E-2,2.7923608E-1,1.2289488E-1,6.307242E-2,4.9219513E-3,4.047972E-2,1.3320755E9,-4.420501E-2,7.6721646E-2,1.639456E-1,4.2750128E-4,-7.87481E-2,2.7109612E-2,-2.1625975E-2,6.4757206E-2,4.3830457E-3,-1.159494E-2,3.2174803E-2,8.421515E-3,-5.3203028E-2,4.734002E-2,-8.410697E-3],"split_indices":[2,4,1,1,3,3,2,2,1,4,0,3,3,0,0,0,0,0,0,0,0,0,0,0,0],"split_type":[0,0,0,0,0,0,0,0,0,0,0,0,0,0,0,0,0,0,0,0,0,0,0,0,0],"sum_hessian":[5.78827E1,2.6023218E1,3.1859484E1,2.0094494E1,5.928723E0,2.415089E1,7.708594E0,6.415122E0,1.3679373E1,3.940374E0,1.9883492E0,4.962126E0,1.9188765E1,1.2338426E0,6.4747515E0,3.206839E0,3.208283E0,1.1711866E1,1.9675057E0,1.2276045E0,2.7127693E0,1.4845272E0,3.4775982E0,5.643639E0,1.3545125E1],"tree_param":{"num_deleted":"0","num_feature":"5","num_nodes":"25","size_leaf_vector":"1"}},{"base_weights":[-5.5298064E-2,3.7908798E-1,-5.392755E-1,-2.271045E-1,6.6944104E-1,1.2573138E-2,-8.1088096E-2,-4.6289012E-1,3.6103982E-2,1.1484498E0,-3.182142E-2,3.028227E-1,-9.246103E-1,2.3858592E-2,-3.60715E-2,-0E0,6.2382128E-2,2.3980442E-2,-4.6835903E-2,-3.1343907E-2,2.9617855E-2,-5.2742627E-2,-7.852226E-3],"categories":[],"categories_nodes":[],"categories_segments":[],"categories_sizes":[],"default_left":[0,0,0,0,0,0,0,0,0,0,0,0,0,0,0,0,0,0,0,0,0,0,0],"id":3,"left_children":[1,3,5,7,9,11,-1,13,-1,15,17,19,21,-1,-1,-1,-1,-1,-1,-1,-1,-1,-1],"loss_changes":[1.3273286E1,6.140108E0,1.8236633E1,3.0484166E0,7.995491E0,6.061155E0,0E0,3.089117E0,0E0,1.3891468E0,5.6774597E0,5.2543645E0,3.0891895E-2,0E0,0E0,0E0,0E0,0E0,0E0,0E0,0E0,0E0,0E0],"parents":[2147483647,0,0,1,1,2,2,3,3,4,4,5,5,7,7,9,9,10,10,11,11,12,12],"right_children":[2,4,6,8,10,12,-1,14,-1,16,18,20,22,-1,-1,-1,-1,-1,-1,-1,-1,-1,-1],"split_conditions":[6.184357E-2,2.3619173E-2,3.0408604E-2,8.982468E8,1.2875333E9,1.2179437E9,-8.1088096E-2,-2.8334934E-2,3.6103982E-2,1.7464387E8,2.7923608E-1,3.266516E8,2.5891298E-2,2.3858592E-2,-3.60715E-2,-0E0,6.2382128E-2,2.3980442E-2,-4.6835903E-2,-3.1343907E-2,2.9617855E-2,-5.2742627E-2,-7.852226E-3],"split_indices":[2,1,1,4,4,4,0,2,0,4,3,4,1,0,0,0,0,0,0,0,0,0,0],"split_type":[0,0,0,0,0,0,0,0,0,0,0,0,0,0,0,0,0,0,0,0,0,0,0],"sum_hessian":[6.0025047E1,3.1586735E1,2.8438313E1,1.0112346E1,2.147439E1,1.9695444E1,8.742868E0,8.884546E0,1.227799E0,1.2360212E1,9.114178E0,1.5976256E1,3.719187E0,1.4759376E0,7.408609E0,1.2238609E0,1.1136352E1,6.132285E0,2.9818923E0,3.2148511E0,1.2761406E1,2.4769115E0,1.2422755E0],"tree_param":{"num_deleted":"0","num_feature":"5","num_nodes":"23","size_leaf_vector":"1"}},{"base_weights":[-7.814606E-2,4.1956964E-1,-4.406902E-1,6.443277E-1,-4.4690228E-1,-8.04355E-3,-7.347805E-2,-2.199926E-2,5.426689E-2,-5.2572228E-2,1.3484873E-1,-4.944332E-1,4.7545317E-1,1.960803E-2,-3.1032795E-2,2.2312641E-2,-1.0191559E-2,-5.1440626E-2,1.4063882E-3,3.2932762E-2,-1.1665727E-2],"categories":[],"categories_nodes":[],"categories_segments":[],"categories_sizes":[],"default_left":[0,0,0,0,0,0,0,0,0,0,0,0,0,0,0,0,0,0,0,0,0],"id":4,"left_children":[1,3,5,7,9,11,-1,13,-1,-1,15,17,19,-1,-1,-1,-1,-1,-1,-1,-1],"loss_changes":[1.0916455E1,5.4129515E0,1.5294654E1,6.403473E0,2.4810722E0,6.5480623E0,0E0,2.7987974E0,0E0,0E0,6.2600464E-1,4.1715775E0,2.1025493E0,0E0,0E0,0E0,0E0,0E0,0E0,0E0,0E0],"parents":[2147483647,0,0,1,1,2,2,3,3,4,4,5,5,7,7,10,10,11,11,12,12],"right_children":[2,4,6,8,10,12,-1,14,-1,-1,16,18,20,-1,-1,-1,-1,-1,-1,-1,-1],"split_conditions":[4.962188E-2,2.7923608E-1,3.0715972E-2,2.3717059E-2,9.082653E-1,1.0125543E0,-7.347805E-2,4.9219513E-3,5.426689E-2,-5.2572228E-2,-3.2796588E-2,2.4224622E-2,1.6248828E0,1.960803E-2,-3.1032795E-2,2.2312641E-2,-1.0191559E-2,-5.1440626E-2,1.4063882E-3,3.2932762E-2,-1.1665727E-2],"split_indices":[2,3,1,1,0,0,0,2,0,0,2,1,0,0,0,0,0,0,0,0,0],"split_type":[0,0,0,0,0,0,0,0,0,0,0,0,0,0,0,0,0,0,0,0,0],"sum_hessian":[5.743732E1,2.3874212E1,3.356311E1,1.9445536E1,4.4286766E0,2.482863E1,8.73448E0,8.131393E0,1.1314141E1,1.7464881E0,2.6821887E0,1.2566582E1,1.2262048E1,4.914668E0,3.2167258E0,1.4568026E0,1.2253861E0,5.683791E0,6.882791E0,1.0052036E1,2.2100117E0],"tree_param":{"num_deleted":"0","num_feature":"5","num_nodes":"21","size_leaf_vector":"1"}},{"base_weights":[-4.6537818E-5,1.8787313E-1,-1.110381E0,4.2158657E-1,-1.061679E0,-9.134237E-3,-6.332148E-2,2.0363252E-1,9.8261636E-1,-6.501656E-2,-9.0591535E-3,3.8863026E-2,-2.7764557E-4,-1.9199556E-2,6.2544994E-2],"categories":[],"categories_nodes":[],"categories_segments":[],"categories_sizes":[],"default_left":[0,0,0,0,0,0,0,0,0,0,0,0,0,0,0],"id":5,"left_children":[1,3,5,7,9,-1,-1,11,13,-1,-1,-1,-1,-1,-1],"loss_changes":[1.2851418E1,1.5661187E1,6.57547E-1,4.942965E0,1.1255465E0,0E0,0E0,4.2919297E0,5.2536E0,0E0,0E0,0E0,0E0,0E0,0E0],"parents":[2147483647,0,0,1,1,2,2,3,3,4,4,7,7,8,8],"right_children":[2,4,6,8,10,-1,-1,12,14,-1,-1,-1,-1,-1,-1],"split_conditions":[1.3514495E9,3.1380036E-1,4.4325944E-2,1.3959792E0,3.9462516E-1,-9.134237E-3,-6.332148E-2,8.551817E-3,1.86123E8,-6.501656E-2,-9.0591535E-3,3.8863026E-2,-2.7764557E-4,-1.9199556E-2,6.2544994E-2],"split_indices":[4,3,2,0,3,0,0,2,4,0,0,0,0,0,0],"split_type":[0,0,0,0,0,0,0,0,0,0,0,0,0,0,0],"sum_hessian":[5.770816E1,5.0266777E1,7.4413824E0,4.3318542E1,6.9482327E0,1.7248683E0,5.716514E0,3.2927494E1,1.0391049E1,4.7251453E0,2.2230878E0,7.9659333E0,2.4961561E1,1.476665E0,8.914384E0],"tree_param":{"num_deleted":"0","num_feature":"5","num_nodes":"15","size_leaf_vector":"1"}},{"base_weights":[-1.4399088E-2,2.0659263E-1,-6.631671E-2,6.186269E-1,-1.5419516E-1,1.5064408E-1,1.1364815E0,-6.8433285E-1,5.44981E-1,3.763084E-2,-1.1255609E-2,1.4446582E-2,6.5475166E-2,-1.1052301E-3,-4.466408E-2,3.6416475E-2,-1.6702129E-2],"categories":[],"categories_nodes":[],"categories_segments":[],"categories_sizes":[],"default_left":[0,0,0,0,0,0,0,0,0,0,0,0,0,0,0,0,0],"id":6,"left_children":[1,3,-1,5,7,9,11,13,15,-1,-1,-1,-1,-1,-1,-1,-1],"loss_changes":[1.6984903E1,7.5842104E0,0E0,5.213546E0,1.0704914E1,3.604902E0,6.946926E-1,2.0500293E0,2.4493268E0,0E0,0E0,0E0,0E0,0E0,0E0,0E0,0E0],"parents":[2147483647,0,0,1,1,3,3,4,4,5,5,6,6,7,7,8,8],"right_children":[2,4,-1,6,8,10,12,14,16,-1,-1,-1,-1,-1,-1,-1,-1],"split_conditions":[1.368168E9,4.7439255E-2,-6.631671E-2,1.0315963E0,8.9840966E8,7.6146726E8,2.2811307E-2,6.732772E-2,1.3446346E9,3.763084E-2,-1.1255609E-2,1.4446582E-2,6.5475166E-2,-1.1052301E-3,-4.466408E-2,3.6416475E-2,-1.6702129E-2],"split_indices":[4,2,0,0,4,4,1,2,4,0,0,0,0,0,0,0,0],"split_type":[0,0,0,0,0,0,0,0,0,0,0,0,0,0,0,0,0],"sum_hessian":[5.4893337E1,4.7930866E1,6.962472E0,2.2134607E1,2.5796257E1,1.2847206E1,9.287401E0,1.4852508E1,1.094375E1,4.563767E0,8.28344E0,2.4494638E0,6.8379374E0,4.1897264E0,1.0662781E1,9.456061E0,1.4876888E0],"tree_param":{"num_deleted":"0","num_feature":"5","num_nodes":"17","size_leaf_vector":"1"}},{"base_weights":[6.569724E-2,2.5226742E-1,-5.586487E-2,4.4334272E-1,-9.794311E-1,1.6555154E-1,7.596093E-1,-6.0459863E-2,-0E0,2.0287989E-2,-3.6043193E-2,4.3204974E-2,-7.561985E-4],"categories":[],"categories_nodes":[],"categories_segments":[],"categories_sizes":[],"default_left":[0,0,0,0,0,0,0,0,0,0,0,0,0],"id":7,"left_children":[1,3,-1,5,7,9,11,-1,-1,-1,-1,-1,-1],"loss_changes":[1.2907172E1,1.2524595E1,0E0,3.601139E0,1.8214936E0,5.9843416E0,1.8409262E0,0E0,0E0,0E0,0E0,0E0,0E0],"parents":[2147483647,0,0,1,1,3,3,4,4,5,5,6,6],"right_children":[2,4,-1,6,8,10,12,-1,-1,-1,-1,-1,-1],"split_conditions":[1.3683327E9,3.2051975E-1,-5.586487E-2,8.9840966E8,4.050602E-2,8.356223E8,2.4330251E-1,-6.0459863E-2,-0E0,2.0287989E-2,-3.6043193E-2,4.3204974E-2,-7.561985E-4],"split_indices":[4,3,0,4,1,4,3,0,0,0,0,0,0],"split_type":[0,0,0,0,0,0,0,0,0,0,0,0,0],"sum_hessian":[5.5848114E1,4.9405556E1,6.4425592E0,4.3742218E1,5.663336E0,2.4840899E1,1.890132E1,4.4454417E0,1.217894E0,2.0362026E1,4.4788733E0,1.6730026E1,2.1712923E0],"tree_param":{"num_deleted":"0","num_feature":"5","num_nodes":"13","size_leaf_vector":"1"}},{"base_weights":[8.939353E-3,5.442344E-1,-3.4251553E-1,7.175505E-1,-2.6598397E-1,5.930952E-4,-1.0874903E0,9.296745E-2,5.330592E-2,-4.256267E-2,2.448236E-2,-4.3348074E-1,3.5242376E-1,3.8331856E-3,-6.8497024E-2,3.438142E-2,-5.5064745E-3,-3.8698845E-2,3.231571E-2,-3.1797793E-2,2.9656876E-2],"categories":[],"categories_nodes":[],"categories_segments":[],"categories_sizes":[],"default_left":[0,0,0,0,0,0,0,0,0,0,0,0,0,0,0,0,0,0,0,0,0],"id":8,"left_children":[1,3,5,7,9,11,13,15,-1,-1,-1,17,19,-1,-1,-1,-1,-1,-1,-1,-1],"loss_changes":[1.0849434E1,3.6045976E0,9.031943E0,3.8748026E0,2.8830445E0,4.019253E0,4.0521097E0,1.2979156E0,0E0,0E0,0E0,5.031896E0,4.089745E0,0E0,0E0,0E0,0E0,0E0,0E0,0E0,0E0],"parents":[2147483647,0,0,1,1,2,2,3,3,4,4,5,5,6,6,7,7,11,11,12,12],"right_children":[2,4,6,8,10,12,14,16,-1,-1,-1,18,20,-1,-1,-1,-1,-1,-1,-1,-1],"split_conditions":[3.814296E-2,4.013447E-2,3.0715972E-2,2.3315068E-2,-2.0384611E-1,7.784672E-2,5.745722E-2,1.9630691E-2,5.330592E-2,-4.256267E-2,2.448236E-2,2.8803619E-2,4.516097E-1,3.8331856E-3,-6.8497024E-2,3.438142E-2,-5.5064745E-3,-3.8698845E-2,3.231571E-2,-3.1797793E-2,2.9656876E-2],"split_indices":[2,1,1,1,2,2,2,1,0,0,0,1,0,0,0,0,0,0,0,0,0],"split_type":[0,0,0,0,0,0,0,0,0,0,0,0,0,0,0,0,0,0,0,0,0],"sum_hessian":[5.446854E1,2.148753E1,3.298101E1,1.8045725E1,3.4418054E0,2.3423382E1,9.557629E0,7.349797E0,1.0695928E1,1.9817293E0,1.460076E0,1.0075764E1,1.3347617E1,1.9412587E0,7.61637E0,1.2107985E0,6.138998E0,8.124029E0,1.951735E0,1.969006E0,1.1378611E1],"tree_param":{"num_deleted":"0","num_feature":"5","num_nodes":"21","size_leaf_vector":"1"}},{"base_weights":[-1.8876972E-2,1.24152E-1,-5.3715874E-2,3.1221977E-1,-8.7131083E-1,-1.763603E-2,6.793775E-1,-6.113679E-2,-1.8260641E-1,2.9738983E-2,-1.356365E-2,-5.864557E-4,4.828481E-2,2.2010488E-2,-3.6308747E-2],"categories":[],"categories_nodes":[],"categories_segments":[],"categories_sizes":[],"default_left":[0,0,0,0,0,0,0,0,0,0,0,0,0,0,0],"id":9,"left_children":[1,3,-1,5,7,9,11,-1,13,-1,-1,-1,-1,-1,-1],"loss_changes":[8.683671E0,9.574681E0,0E0,5.352974E0,1.3449411E0,3.8747954E0,4.2948465E0,0E0,2.1254966E0,0E0,0E0,0E0,0E0,0E0,0E0],"parents":[2147483647,0,0,1,1,3,3,4,4,5,5,6,6,8,8],"right_children":[2,4,-1,6,8,10,12,-1,14,-1,-1,-1,-1,-1,-1],"split_conditions":[1.3683327E9,3.1344265E-1,-5.3715874E-2,1.0728418E0,7.77439E8,8.551817E-3,4.1306397E8,-6.113679E-2,1.2875333E9,2.9738983E-2,-1.356365E-2,-5.864557E-4,4.828481E-2,2.2010488E-2,-3.6308747E-2],"split_indices":[4,3,0,0,4,2,4,0,4,0,0,0,0,0,0],"split_type":[0,0,0,0,0,0,0,0,0,0,0,0,0,0,0],"sum_hessian":[5.3439377E1,4.806048E1,5.3788996E0,4.14584E1,6.6020784E0,2.2303806E1,1.9154594E1,3.4090314E0,3.1930473E0,5.7102246E0,1.6593582E1,5.827762E0,1.3326832E1,1.4495028E0,1.7435443E0],"tree_param":{"num_deleted":"0","num_feature":"5","num_nodes":"15","size_leaf_vector":"1"}},{"base_weights":[-1.3368798E-3,1.6916777E-1,-5.2489765E-2,3.4961E-1,-8.106735E-1,3.7320221E-3,6.9027627E-1,-0E0,-6.112815E-2,1.8300597E-2,-2.6717866E-2,4.7319636E-2,-6.148312E-3,-1.583802E-2,1.7730048E-2],"categories":[],"categories_nodes":[],"categories_segments":[],"categories_sizes":[],"default_left":[0,0,0,0,0,0,0,0,0,0,0,0,0,0,0],"id":10,"left_children":[1,3,-1,5,7,9,11,13,-1,-1,-1,-1,-1,-1,-1],"loss_changes":[1.0580642E1,9.1566305E0,0E0,4.9670696E0,2.7124429E0,4.8052335E0,4.827363E0,6.400395E-1,0E0,0E0,0E0,0E0,0E0,0E0,0E0],"parents":[2147483647,0,0,1,1,3,3,4,4,5,5,6,6,7,7],"right_children":[2,4,-1,6,8,10,12,14,-1,-1,-1,-1,-1,-1,-1],"split_conditions":[1.3683327E9,3.1344265E-1,-5.2489765E-2,2.4211243E-2,-3.2796588E-2,1.612962E-1,3.4136675E-2,-2.3504373E-1,-6.112815E-2,1.8300597E-2,-2.6717866E-2,4.7319636E-2,-6.148312E-3,-1.583802E-2,1.7730048E-2],"split_indices":[4,3,0,1,2,3,1,2,0,0,0,0,0,0,0],"split_type":[0,0,0,0,0,0,0,0,0,0,0,0,0,0,0],"sum_hessian":[5.5211395E1,4.8406544E1,6.8048525E0,4.1865696E1,6.5408487E0,2.1817715E1,2.0047981E1,2.6905894E0,3.850259E0,1.3547771E1,8.269944E0,1.5246653E1,4.8013277E0,1.4721138E0,1.2184756E0],"tree_param":{"num_deleted":"0","num_feature":"5","num_nodes":"15","size_leaf_vector":"1"}},{"base_weights":[-0E0,4.530523E-1,-3.364768E-1,5.6429762E-2,8.2311857E-1,-1.15223974E-1,-1.0159547E0,2.6786536E-1,-4.17699E-1,5.48879E-2,2.8554586E-1,-8.409168E-1,9.031819E-2,-6.9882423E-3,-5.6002762E-2,-1.1990484E-2,3.221615E-2,-3.0279607E-2,-0E0,3.957297E-2,-2.2459976E-2,-5.503834E-2,1.2076091E-3,3.8296912E-2,-1.181851E-2],"categories":[],"categories_nodes":[],"categories_segments":[],"categories_sizes":[],"default_left":[0,0,0,0,0,0,0,0,0,0,0,0,0,0,0,0,0,0,0,0,0,0,0,0,0],"id":11,"left_children":[1,3,5,7,9,11,13,15,17,-1,19,21,23,-1,-1,-1,-1,-1,-1,-1,-1,-1,-1,-1,-1],"loss_changes":[8.587191E0,3.2759018E0,4.4616776E0,1.4863771E0,1.0307636E0,4.18968E0,2.0028496E-1,2.3210921E0,3.185436E-1,0E0,2.9602368E0,1.6419649E0,5.155787E0,0E0,0E0,0E0,0E0,0E0,0E0,0E0,0E0,0E0,0E0,0E0,0E0],"parents":[2147483647,0,0,1,1,2,2,3,3,4,4,5,5,6,6,7,7,8,8,10,10,11,11,12,12],"right_children":[2,4,6,8,10,12,14,16,18,-1,20,22,24,-1,-1,-1,-1,-1,-1,-1,-1,-1,-1,-1,-1],"split_conditions":[3.814296E-2,9.796352E-1,3.38453E-2,2.7923608E-1,1.37270065E-2,1.2289488E-1,6.840961E-2,1.1919499E-1,-2.0384611E-1,5.48879E-2,1.4942326E-1,1.0315963E0,1.6051666E-1,-6.9882423E-3,-5.6002762E-2,-1.1990484E-2,3.221615E-2,-3.0279607E-2,-0E0,3.957297E-2,-2.2459976E-2,-5.503834E-2,1.2076091E-3,3.8296912E-2,-1.181851E-2],"split_indices":[2,0,1,3,2,3,2,3,2,0,3,0,3,0,0,0,0,0,0,0,0,0,0,0,0],"split_type":[0,0,0,0,0,0,0,0,0,0,0,0,0,0,0,0,0,0,0,0,0,0,0,0,0],"sum_hessian":[5.334296E1,2.2492126E1,3.0850836E1,1.1951813E1,1.0540314E1,2.48182E1,6.0326366E0,9.008773E0,2.9430404E0,5.6954427E0,4.844871E0,4.669202E0,2.0148996E1,1.2178004E0,4.814836E0,3.8414972E0,5.1672754E0,1.4822935E0,1.4607469E0,2.9618742E0,1.8829967E0,3.4541466E0,1.2150553E0,6.109465E0,1.4039532E1],"tree_param":{"num_deleted":"0","num_feature":"5","num_nodes":"25","size_leaf_vector":"1"}},{"base_weights":[-1.1792702E-1,3.4022585E-1,-4.9606988E-1,5.699967E-1,-3.2929993E-1,-1.9802544E-1,-1.1207834E0,-1.2222008E-1,9.8101705E-1,2.5617397E-1,-4.609429E-2,-7.866442E-1,2.7347894E-2,-1.8078418E-3,-6.2336266E-2,2.2240875E-2,-1.7627766E-2,5.6046892E-2,7.4422555E-3,-1.7230924E-2,3.2531153E-2,4.3780202E-4,-4.9838703E-2,3.264131E-2,-1.0688301E-2],"categories":[],"categories_nodes":[],"categories_segments":[],"categories_sizes":[],"default_left":[0,0,0,0,0,0,0,0,0,0,0,0,0,0,0,0,0,0,0,0,0,0,0,0,0],"id":12,"left_children":[1,3,5,7,9,11,13,15,17,19,-1,21,23,-1,-1,-1,-1,-1,-1,-1,-1,-1,-1,-1,-1],"loss_changes":[1.0175483E1,4.401134E0,5.3850923E0,6.1771946E0,3.086129E0,3.3399162E0,1.0196896E0,1.3636382E0,1.0321321E0,1.5283694E0,0E0,1.361031E0,3.0729985E0,0E0,0E0,0E0,0E0,0E0,0E0,0E0,0E0,0E0,0E0,0E0,0E0],"parents":[2147483647,0,0,1,1,2,2,3,3,4,4,5,5,6,6,7,7,8,8,9,9,11,11,12,12],"right_children":[2,4,6,8,10,12,14,16,18,20,-1,22,24,-1,-1,-1,-1,-1,-1,-1,-1,-1,-1,-1,-1],"split_conditions":[4.962188E-2,1.2994578E9,3.0715972E-2,2.3315068E-2,2.7923608E-1,1.299967E-1,2.3093258E8,8.348009E-2,3.073964E-2,1.3336083E9,-4.609429E-2,7.6721646E-2,1.639456E-1,-1.8078418E-3,-6.2336266E-2,2.2240875E-2,-1.7627766E-2,5.6046892E-2,7.4422555E-3,-1.7230924E-2,3.2531153E-2,4.3780202E-4,-4.9838703E-2,3.264131E-2,-1.0688301E-2],"split_indices":[2,4,1,1,3,3,4,3,2,4,0,3,3,0,0,0,0,0,0,0,0,0,0,0,0],"split_type":[0,0,0,0,0,0,0,0,0,0,0,0,0,0,0,0,0,0,0,0,0,0,0,0,0],"sum_hessian":[5.559269E1,2.4965874E1,3.0626816E1,1.8975485E1,5.9903893E0,2.2288721E1,8.338094E0,7.2808557E0,1.1694629E1,3.2718525E0,2.7185369E0,5.3825793E0,1.6906141E1,1.2335222E0,7.104572E0,1.4489008E0,5.831955E0,9.360005E0,2.3346233E0,1.1708968E0,2.1009557E0,1.2263194E0,4.15626E0,4.221983E0,1.2684159E1],"tree_param":{"num_deleted":"0","num_feature":"5","num_nodes":"25","size_leaf_vector":"1"}},{"base_weights":[-1.5178176E-2,1.3044757E-1,-9.610625E-1,-1.525509E-1,4.3840936E-1,-1.0688069E-2,-5.3976815E-2,1.4849103E-2,-7.008715E-1,-0E0,5.174271E-2,1.3020051E-2,-3.6227163E-2,-5.887943E-2,1.1091286E-3,2.2927102E-2,-2.4163647E-2],"categories":[],"categories_nodes":[],"categories_segments":[],"categories_sizes":[],"default_left":[0,0,0,0,0,0,0,0,0,0,0,0,0,0,0,0,0],"id":13,"left_children":[1,3,5,7,9,-1,-1,11,13,15,-1,-1,-1,-1,-1,-1,-1],"loss_changes":[8.148255E0,4.5300903E0,9.566021E-2,2.6237602E0,6.3104386E0,0E0,0E0,4.150534E0,2.5475943E0,3.8557525E0,0E0,0E0,0E0,0E0,0E0,0E0,0E0],"parents":[2147483647,0,0,1,1,2,2,3,3,4,4,7,7,8,8,9,9],"right_children":[2,4,6,8,10,-1,-1,12,14,16,-1,-1,-1,-1,-1,-1,-1],"split_conditions":[1.3683327E9,1.0315963E0,2.7381249E-2,1.0279046E-1,9.533394E8,-1.0688069E-2,-5.3976815E-2,1.2875333E9,1.3354413E-1,5.745722E-2,5.174271E-2,1.3020051E-2,-3.6227163E-2,-5.887943E-2,1.1091286E-3,2.2927102E-2,-2.4163647E-2],"split_indices":[4,0,1,2,4,0,0,4,2,2,0,0,0,0,0,0,0],"split_type":[0,0,0,0,0,0,0,0,0,0,0,0,0,0,0,0,0],"sum_hessian":[5.5083355E1,4.8671688E1,6.411668E0,2.5419876E1,2.3251812E1,1.6840028E0,4.727665E0,2.0313023E1,5.106853E0,1.4416984E1,8.834827E0,1.6181404E1,4.1316195E0,2.6761181E0,2.4307346E0,7.6032147E0,6.813769E0],"tree_param":{"num_deleted":"0","num_feature":"5","num_nodes":"17","size_leaf_vector":"1"}},{"base_weights":[-4.154971E-2,3.901756E-1,-3.5659575E-1,-6.345823E-2,9.891898E-1,2.1324557E-1,-5.327466E-1,-4.8948577E-1,6.9924825E-1,5.7147205E-2,3.3402067E-1,-3.0892658E-1,3.682614E-2,-9.117109E-2,-8.7772006E-1,1.0089441E-2,-4.1351285E-2,4.3754626E-2,-0E0,3.7124418E-2,-1.364954E-2,6.0630804E-3,-3.000078E-2,-4.0245272E-2,4.0884066E-2,-7.971644E-3,-5.5514317E-2],"categories":[],"categories_nodes":[],"categories_segments":[],"categories_sizes":[],"default_left":[0,0,0,0,0,0,0,0,0,0,0,0,0,0,0,0,0,0,0,0,0,0,0,0,0,0,0],"id":14,"left_children":[1,3,5,7,9,11,13,15,17,-1,19,21,-1,23,25,-1,-1,-1,-1,-1,-1,-1,-1,-1,-1,-1,-1],"loss_changes":[8.060974E0,7.025068E0,3.6929383E0,5.458E0,2.3788929E-1,2.8693736E0,3.8017106E0,2.9179983E0,7.366154E-1,0E0,1.5021243E0,8.735526E-1,0E0,9.921846E0,1.94273E0,0E0,0E0,0E0,0E0,0E0,0E0,0E0,0E0,0E0,0E0,0E0,0E0],"parents":[2147483647,0,0,1,1,2,2,3,3,4,4,5,5,6,6,7,7,8,8,10,10,11,11,13,13,14,14],"right_children":[2,4,6,8,10,12,14,16,18,-1,20,22,-1,24,26,-1,-1,-1,-1,-1,-1,-1,-1,-1,-1,-1,-1],"split_conditions":[1.6437744E-1,1.0315963E0,1.3622293E-2,1.299967E-1,9.754584E-2,-1.1655215E-1,2.8056681E-2,4.082823E-3,6.360051E-2,5.7147205E-2,2.2435652E-2,3.1380036E-1,3.682614E-2,2.4179546E-2,6.548306E-2,1.0089441E-2,-4.1351285E-2,4.3754626E-2,-0E0,3.7124418E-2,-1.364954E-2,6.0630804E-3,-3.000078E-2,-4.0245272E-2,4.0884066E-2,-7.971644E-3,-5.5514317E-2],"split_indices":[3,0,2,3,2,2,1,2,2,0,1,3,0,1,2,0,0,0,0,0,0,0,0,0,0,0,0],"split_type":[0,0,0,0,0,0,0,0,0,0,0,0,0,0,0,0,0,0,0,0,0,0,0,0,0,0,0],"sum_hessian":[5.6280994E1,2.3324957E1,3.2956036E1,1.3846333E1,9.478625E0,7.4392104E0,2.5516827E1,9.396987E0,4.449345E0,6.525266E0,2.9533591E0,3.8397799E0,3.5994306E0,1.2277486E1,1.3239341E1,3.0865474E0,6.31044E0,3.26051E0,1.188835E0,1.7622299E0,1.1911292E0,1.6255314E0,2.2142484E0,7.096288E0,5.1811976E0,4.066897E0,9.172444E0],"tree_param":{"num_deleted":"0","num_feature":"5","num_nodes":"27","size_leaf_vector":"1"}},{"base_weights":[5.2093387E-2,1.9365092E-1,-8.924945E-1,3.8238758E-1,-6.7316216E-1,-7.491668E-3,-5.0077837E-2,-0E0,7.611461E-1,-8.924003E-1,1.5750758E-2,1.6296485E-2,-2.722436E-2,-0E0,4.6235267E-2,-9.749965E-3,-5.467695E-2],"categories":[],"categories_nodes":[],"categories_segments":[],"categories_sizes":[],"default_left":[0,0,0,0,0,0,0,0,0,0,0,0,0,0,0,0,0],"id":15,"left_children":[1,3,5,7,9,-1,-1,11,13,15,-1,-1,-1,-1,-1,-1,-1],"loss_changes":[7.802964E0,8.735319E0,1.5795612E-1,6.1547236E0,2.604535E0,0E0,0E0,4.362722E0,2.6478977E0,5.9609747E-1,0E0,0E0,0E0,0E0,0E0,0E0,0E0],"parents":[2147483647,0,0,1,1,2,2,3,3,4,4,7,7,8,8,9,9],"right_children":[2,4,6,8,10,-1,-1,12,14,16,-1,-1,-1,-1,-1,-1,-1],"split_conditions":[1.3683327E9,2.9590672E-1,4.6454832E-2,2.4179546E-2,4.42604E-2,-7.491668E-3,-5.0077837E-2,1.612962E-1,2.3093258E8,3.2051975E-1,1.5750758E-2,1.6296485E-2,-2.722436E-2,-0E0,4.6235267E-2,-9.749965E-3,-5.467695E-2],"split_indices":[4,3,2,1,1,0,0,3,4,3,0,0,0,0,0,0,0],"split_type":[0,0,0,0,0,0,0,0,0,0,0,0,0,0,0,0,0],"sum_hessian":[5.5962284E1,4.9889915E1,6.07237E0,4.1847263E1,8.042651E0,1.468329E0,4.604041E0,2.1783247E1,2.0064016E1,6.866925E0,1.1757264E0,1.418932E1,7.5939283E0,3.8570528E0,1.6206964E1,2.421052E0,4.445873E0],"tree_param":{"num_deleted":"0","num_feature":"5","num_nodes":"17","size_leaf_vector":"1"}},{"base_weights":[-7.527749E-2,7.18825E-2,-5.5489786E-2,2.1782489E-1,-8.3462274E-1,-7.254176E-2,4.822151E-1,-5.6501694E-2,-0E0,1.1382398E-2,-2.8502746E-2,3.332204E-2,-4.8560984E-3],"categories":[],"categories_nodes":[],"categories_segments":[],"categories_sizes":[],"default_left":[0,0,0,0,0,0,0,0,0,0,0,0,0],"id":16,"left_children":[1,3,-1,5,7,9,11,-1,-1,-1,-1,-1,-1],"loss_changes":[8.862005E0,6.806456E0,0E0,3.5676484E0,1.965219E0,3.5871625E0,2.7686253E0,0E0,0E0,0E0,0E0,0E0,0E0],"parents":[2147483647,0,0,1,1,3,3,4,4,5,5,6,6],"right_children":[2,4,-1,6,8,10,12,-1,-1,-1,-1,-1,-1],"split_conditions":[1.3683327E9,3.2051975E-1,-5.5489786E-2,2.4056302E-2,4.0944293E-2,1.5168433E-1,3.4136675E-2,-5.6501694E-2,-0E0,1.1382398E-2,-2.8502746E-2,3.332204E-2,-4.8560984E-3],"split_indices":[4,3,0,1,1,3,1,0,0,0,0,0,0],"split_type":[0,0,0,0,0,0,0,0,0,0,0,0,0],"sum_hessian":[5.456134E1,4.8819256E1,5.7420816E0,4.322109E1,5.598168E0,2.0756851E1,2.2464237E1,3.911038E0,1.6871297E0,1.3202415E1,7.5544367E0,1.7135082E1,5.329156E0],"tree_param":{"num_deleted":"0","num_feature":"5","num_nodes":"13","size_leaf_vector":"1"}},{"base_weights":[-2.2507511E-2,1.4488201E-1,-5.5420805E-2,3.2242158E-1,-7.044065E-1,-0E0,5.9738463E-1,-3.7743025E-2,-4.957713E-2,2.068775E-2,-1.960389E-2,4.4455163E-2,1.0211098E-2,3.1168375E-2,-3.1571325E-2],"categories":[],"categories_nodes":[],"categories_segments":[],"categories_sizes":[],"default_left":[0,0,0,0,0,0,0,0,0,0,0,0,0,0,0],"id":17,"left_children":[1,3,-1,5,7,9,11,13,-1,-1,-1,-1,-1,-1,-1],"loss_changes":[1.0348585E1,7.5664806E0,0E0,3.671473E0,1.3937411E0,3.5630684E0,2.0680747E0,2.3083727E0,0E0,0E0,0E0,0E0,0E0,0E0,0E0],"parents":[2147483647,0,0,1,1,3,3,4,4,5,5,6,6,7,7],"right_children":[2,4,-1,6,8,10,12,14,-1,-1,-1,-1,-1,-1,-1],"split_conditions":[1.3683327E9,2.9590672E-1,-5.5420805E-2,9.801292E-1,3.2056294E-2,6.3755023E-1,1.639456E-1,1.2875333E9,-4.957713E-2,2.068775E-2,-1.960389E-2,4.4455163E-2,1.0211098E-2,3.1168375E-2,-3.1571325E-2],"split_indices":[4,3,0,0,2,0,3,4,0,0,0,0,0,0,0],"split_type":[0,0,0,0,0,0,0,0,0,0,0,0,0,0,0],"sum_hessian":[5.304701E1,4.6928772E1,6.118236E0,3.9779167E1,7.1496043E0,1.8966522E1,2.0812647E1,2.8729599E0,4.276644E0,9.163067E0,9.803455E0,1.0569488E1,1.0243158E1,1.1644167E0,1.7085433E0],"tree_param":{"num_deleted":"0","num_feature":"5","num_nodes":"15","size_leaf_vector":"1"}},{"base_weights":[9.4449535E-2,2.511933E-1,-4.7319416E-2,5.717594E-1,-1.5641028E-2,-1.591405E-2,6.962758E-1,-4.6845707E-1,5.263487E-1,-2.1155043E-2,4.0351585E-2,9.384401E-3,-3.21833E-2,-0E0,4.0978868E-2],"categories":[],"categories_nodes":[],"categories_segments":[],"categories_sizes":[],"default_left":[0,0,0,0,0,0,0,0,0,0,0,0,0,0,0],"id":18,"left_children":[1,3,-1,5,7,-1,9,11,13,-1,-1,-1,-1,-1,-1],"loss_changes":[9.215942E0,4.3407407E0,0E0,2.9315705E0,7.234631E0,0E0,3.1483316E0,2.1416664E0,2.1951272E0,0E0,0E0,0E0,0E0,0E0,0E0],"parents":[2147483647,0,0,1,1,3,3,4,4,6,6,7,7,8,8],"right_children":[2,4,-1,6,8,-1,10,12,14,-1,-1,-1,-1,-1,-1],"split_conditions":[1.3683327E9,4.7439255E-2,-4.7319416E-2,2.0005329E-2,8.9840966E8,-1.591405E-2,-2.3970588E-1,5.820914E-2,1.0023113E0,-2.1155043E-2,4.0351585E-2,9.384401E-3,-3.21833E-2,-0E0,4.0978868E-2],"split_indices":[4,2,0,1,4,0,2,2,0,0,0,0,0,0,0],"split_type":[0,0,0,0,0,0,0,0,0,0,0,0,0,0,0],"sum_hessian":[5.3655838E1,4.778922E1,5.8666162E0,2.12707E1,2.651852E1,2.1269426E0,1.9143757E1,1.475973E1,1.1758791E1,1.1801707E0,1.7963587E1,2.8475442E0,1.1912186E1,4.5222697E0,7.236521E0],"tree_param":{"num_deleted":"0","num_feature":"5","num_nodes":"15","size_leaf_vector":"1"}},{"base_weights":[-4.6866022E-2,3.6437201E-1,-3.2709438E-1,-3.037044E-1,8.1976354E-1,-7.3562205E-1,-3.8462915E-2,1.7994842E-2,-5.863593E-1,-9.786402E-4,9.14579E-1,2.625199E-1,-5.2545883E-2,2.4592905E-1,-4.998286E-2,-5.3213853E-2,1.695188E-2,5.0835468E-2,-0E0,-1.2414737E-2,3.294591E-2,2.1755451E-2,-2.0539034E-2],"categories":[],"categories_nodes":[],"categories_segments":[],"categories_sizes":[],"default_left":[0,0,0,0,0,0,0,0,0,0,0,0,0,0,0,0,0,0,0,0,0,0,0],"id":19,"left_children":[1,3,5,7,9,11,13,-1,15,-1,17,19,-1,21,-1,-1,-1,-1,-1,-1,-1,-1,-1],"loss_changes":[6.256275E0,7.1148853E0,3.6329277E0,2.1926744E0,1.2848644E0,4.687484E0,6.2338147E0,0E0,4.0594573E0,0E0,1.265171E0,1.1754427E0,0E0,2.4066856E0,0E0,0E0,0E0,0E0,0E0,0E0,0E0,0E0,0E0],"parents":[2147483647,0,0,1,1,2,2,3,3,4,4,5,5,6,6,8,8,10,10,11,11,13,13],"right_children":[2,4,6,8,10,12,14,-1,16,-1,18,20,-1,22,-1,-1,-1,-1,-1,-1,-1,-1,-1],"split_conditions":[1.612962E-1,8.936554E-1,5.336563E8,-1.7504568E-3,-2.2955662E-2,4.3616436E-2,1.3514495E9,1.7994842E-2,1.299967E-1,-9.786402E-4,1.3663489E9,1.7393641E-1,-5.2545883E-2,3.2051975E-1,-4.998286E-2,-5.3213853E-2,1.695188E-2,5.0835468E-2,-0E0,-1.2414737E-2,3.294591E-2,2.1755451E-2,-2.0539034E-2],"split_indices":[3,0,4,2,2,2,4,0,3,0,4,3,0,3,0,0,0,0,0,0,0,0,0],"split_type":[0,0,0,0,0,0,0,0,0,0,0,0,0,0,0,0,0,0,0,0,0,0,0],"sum_hessian":[5.1302193E1,2.0319302E1,3.0982891E1,8.260821E0,1.2058479E1,1.1578636E1,1.9404255E1,2.1337764E0,6.127045E0,1.130645E0,1.09278345E1,2.6874945E0,8.891142E0,1.5674673E1,3.7295823E0,4.034468E0,2.0925772E0,9.780369E0,1.147466E0,1.1986971E0,1.4887974E0,1.2798491E1,2.8761828E0],"tree_param":{"num_deleted":"0","num_feature":"5","num_nodes":"23","size_leaf_vector":"1"}},{"base_weights":[-2.2821657E-2,3.9495316E-1,-5.1046556E-1,5.183425E-1,-3.9595538E-1,3.0159688E-1,-8.131968E-1,-8.942371E-2,7.6960266E-1,-3.7212994E-2,1.35172E-3,8.364243E-1,-4.9199775E-1,-5.867045E-2,-3.1372315E-1,2.0796826E-2,-2.8245226E-2,1.5992325E-2,5.1238578E-2,3.1324748E-3,4.9847603E-2,-4.5896E-2,8.344206E-3,4.2024113E-2,-3.3972617E-2],"categories":[],"categories_nodes":[],"categories_segments":[],"categories_sizes":[],"default_left":[0,0,0,0,0,0,0,0,0,0,0,0,0,0,0,0,0,0,0,0,0,0,0,0,0],"id":20,"left_children":[1,3,5,7,9,11,13,15,17,-1,-1,19,21,-1,23,-1,-1,-1,-1,-1,-1,-1,-1,-1,-1],"loss_changes":[1.0651209E1,3.057294E0,6.434645E0,4.060409E0,8.218671E-1,3.8708231E0,2.4353962E0,2.4078774E0,1.3158007E0,0E0,0E0,3.38871E-1,1.4505279E0,0E0,5.0162983E0,0E0,0E0,0E0,0E0,0E0,0E0,0E0,0E0,0E0,0E0],"parents":[2147483647,0,0,1,1,2,2,3,3,4,4,5,5,6,6,7,7,8,8,11,11,12,12,14,14],"right_children":[2,4,6,8,10,12,14,16,18,-1,-1,20,22,-1,24,-1,-1,-1,-1,-1,-1,-1,-1,-1,-1],"split_conditions":[6.548306E-2,4.047972E-2,2.3020893E-2,2.2811307E-2,-2.0384611E-1,1.3464348E-1,1.0251164E0,1.13116E-2,9.6257305E-1,-3.7212994E-2,1.35172E-3,1.070009E-1,1.1104238E0,-5.867045E-2,1.1026725E0,2.0796826E-2,-2.8245226E-2,1.5992325E-2,5.1238578E-2,3.1324748E-3,4.9847603E-2,-4.5896E-2,8.344206E-3,4.2024113E-2,-3.3972617E-2],"split_indices":[2,1,1,1,2,2,0,2,0,0,0,2,0,0,0,0,0,0,0,0,0,0,0,0,0],"split_type":[0,0,0,0,0,0,0,0,0,0,0,0,0,0,0,0,0,0,0,0,0,0,0,0,0],"sum_hessian":[4.9184376E1,2.6422579E1,2.2761799E1,2.3522633E1,2.8999474E0,6.003271E0,1.6758528E1,6.930002E0,1.659263E1,1.2248801E0,1.6750674E0,3.6885257E0,2.3147452E0,8.328087E0,8.43044E0,3.246601E0,3.683401E0,7.5134883E0,9.079142E0,1.2061152E0,2.4824104E0,1.2320993E0,1.0826459E0,1.4284356E0,7.0020046E0],"tree_param":{"num_deleted":"0","num_feature":"5","num_nodes":"25","size_leaf_vector":"1"}},{"base_weights":[2.875681E-3,3.794341E-1,-2.8781718E-1,6.14308E-1,-2.8714764E-1,-3.6993604E-2,-9.98014E-1,-0E0,4.705864E-2,2.0227812E-1,-3.9030872E-2,-7.960045E-1,1.0777896E-1,-7.3303017E-3,-5.437655E-2,2.2484345E-2,-2.663123E-2,-1.4629199E-2,2.748858E-2,-0E0,-5.3971864E-2,1.5240701E-2,-1.6107766E-2],"categories":[],"categories_nodes":[],"categories_segments":[],"categories_sizes":[],"default_left":[0,0,0,0,0,0,0,0,0,0,0,0,0,0,0,0,0,0,0,0,0,0,0],"id":21,"left_children":[1,3,5,7,9,11,13,15,-1,17,-1,19,21,-1,-1,-1,-1,-1,-1,-1,-1,-1,-1],"loss_changes":[6.1169167E0,4.1762905E0,5.2865644E0,3.9252515E0,2.091739E0,2.9899259E0,1.1339712E-1,2.2628417E0,0E0,1.0843006E0,0E0,9.794564E-1,2.0003407E0,0E0,0E0,0E0,0E0,0E0,0E0,0E0,0E0,0E0,0E0],"parents":[2147483647,0,0,1,1,2,2,3,3,4,4,5,5,6,6,7,7,9,9,11,11,12,12],"right_children":[2,4,6,8,10,12,14,16,-1,18,-1,20,22,-1,-1,-1,-1,-1,-1,-1,-1,-1,-1],"split_conditions":[4.7439255E-2,1.2994578E9,3.0715972E-2,2.3315068E-2,2.7923608E-1,6.045273E-2,6.8688616E-2,4.9219513E-3,4.705864E-2,1.1255475E-1,-3.9030872E-2,3.051274E8,1.1772484E9,-7.3303017E-3,-5.437655E-2,2.2484345E-2,-2.663123E-2,-1.4629199E-2,2.748858E-2,-0E0,-5.3971864E-2,1.5240701E-2,-1.6107766E-2],"split_indices":[2,4,1,1,3,2,2,2,0,3,0,4,4,0,0,0,0,0,0,0,0,0,0],"split_type":[0,0,0,0,0,0,0,0,0,0,0,0,0,0,0,0,0,0,0,0,0,0,0],"sum_hessian":[5.2717316E1,2.3066923E1,2.965039E1,1.7365692E1,5.701232E0,2.3286081E1,6.36431E0,6.3971834E0,1.0968508E1,3.1032524E0,2.5979795E0,2.8705304E0,2.041555E1,1.1944613E0,5.1698484E0,3.4470026E0,2.950181E0,1.1405209E0,1.9627316E0,1.1532507E0,1.7172797E0,1.4617981E1,5.79757E0],"tree_param":{"num_deleted":"0","num_feature":"5","num_nodes":"23","size_leaf_vector":"1"}},{"base_weights":[-1.2518021E-1,-4.9800766E-3,-4.311594E-2,1.2113827E-1,-7.6203036E-1,-2.1327308E-1,4.3483695E-1,-5.1014252E-2,-0E0,-2.333529E-2,2.9035432E-2,-0E0,3.2381456E-2],"categories":[],"categories_nodes":[],"categories_segments":[],"categories_sizes":[],"default_left":[0,0,0,0,0,0,0,0,0,0,0,0,0],"id":22,"left_children":[1,3,-1,5,7,9,11,-1,-1,-1,-1,-1,-1],"loss_changes":[4.3182983E0,4.6005497E0,0E0,4.377233E0,1.4674797E0,4.417752E0,1.9521275E0,0E0,0E0,0E0,0E0,0E0,0E0],"parents":[2147483647,0,0,1,1,3,3,4,4,5,5,6,6],"right_children":[2,4,-1,6,8,10,12,-1,-1,-1,-1,-1,-1],"split_conditions":[1.3683327E9,3.2051975E-1,-4.311594E-2,2.4133015E-2,4.0944293E-2,1.3959792E0,4.1306397E8,-5.1014252E-2,-0E0,-2.333529E-2,2.9035432E-2,-0E0,3.2381456E-2],"split_indices":[4,3,0,1,1,0,4,0,0,0,0,0,0],"split_type":[0,0,0,0,0,0,0,0,0,0,0,0,0],"sum_hessian":[4.926736E1,4.3891693E1,5.3756647E0,3.8477463E1,5.4142323E0,1.8547728E1,1.9929735E1,3.766671E0,1.6475612E0,1.4719551E1,3.828176E0,7.114539E0,1.2815196E1],"tree_param":{"num_deleted":"0","num_feature":"5","num_nodes":"13","size_leaf_vector":"1"}},{"base_weights":[-2.4563463E-2,1.1889398E-1,-8.54937E-1,-2.8488034E-1,3.0523893E-1,-4.9922325E-2,-0E0,6.4869714E-1,-7.1371096E-1,-1.0733826E-1,4.7289523E-1,3.6675637E-4,4.1365426E-2,-4.184427E-2,3.494699E-4,-2.2142394E-2,2.1837289E-2,2.9822364E-2,-1.4265372E-2],"categories":[],"categories_nodes":[],"categories_segments":[],"categories_sizes":[],"default_left":[0,0,0,0,0,0,0,0,0,0,0,0,0,0,0,0,0,0,0],"id":23,"left_children":[1,3,5,7,9,-1,-1,11,13,15,17,-1,-1,-1,-1,-1,-1,-1,-1],"loss_changes":[6.3245244E0,3.4629936E0,1.021431E0,6.4748936E0,2.3164833E0,0E0,0E0,4.1660857E-1,1.1275091E0,2.1041834E0,2.462747E0,0E0,0E0,0E0,0E0,0E0,0E0,0E0,0E0],"parents":[2147483647,0,0,1,1,2,2,3,3,4,4,7,7,8,8,9,9,10,10],"right_children":[2,4,6,8,10,-1,-1,12,14,16,18,-1,-1,-1,-1,-1,-1,-1,-1],"split_conditions":[1.3663489E9,4.3332704E8,1.3930997E0,1.5477124E-1,1.2289488E-1,-4.9922325E-2,-0E0,5.803494E-1,1.4454956E0,1.0539919E0,1.3134872E9,3.6675637E-4,4.1365426E-2,-4.184427E-2,3.494699E-4,-2.2142394E-2,2.1837289E-2,2.9822364E-2,-1.4265372E-2],"split_indices":[4,4,0,3,3,0,0,0,0,0,4,0,0,0,0,0,0,0,0],"split_type":[0,0,0,0,0,0,0,0,0,0,0,0,0,0,0,0,0,0,0],"sum_hessian":[4.9076565E1,4.27375E1,6.339066E0,1.2906059E1,2.983144E1,5.272166E0,1.0669005E0,3.673432E0,9.232627E0,8.430927E0,2.1400513E1,1.3842357E0,2.2891965E0,7.915487E0,1.3171401E0,5.615078E0,2.8158488E0,1.890385E1,2.4966636E0],"tree_param":{"num_deleted":"0","num_feature":"5","num_nodes":"19","size_leaf_vector":"1"}},{"base_weights":[3.4732424E-2,2.2552887E-1,-5.788302E-1,3.5349262E-1,-5.917597E-1,-1.067217E0,1.818422E-1,-3.719521E-1,4.6813378E-1,-4.5475136E-2,6.438497E-3,-7.1246116E-3,-5.926755E-2,3.388181E-2,-2.556846E-2,4.3117073E-3,-4.4080522E-2,3.9096262E-2,9.570079E-3],"categories":[],"categories_nodes":[],"categories_segments":[],"categories_sizes":[],"default_left":[0,0,0,0,0,0,0,0,0,0,0,0,0,0,0,0,0,0,0],"id":24,"left_children":[1,3,5,7,9,11,13,15,17,-1,-1,-1,-1,-1,-1,-1,-1,-1,-1],"loss_changes":[6.2224903E0,4.5601234E0,5.121836E0,3.328496E0,1.6843336E0,3.5578728E-1,2.6218626E0,1.5806445E0,2.407474E0,0E0,0E0,0E0,0E0,0E0,0E0,0E0,0E0,0E0,0E0],"parents":[2147483647,0,0,1,1,2,2,3,3,4,4,5,5,6,6,7,7,8,8],"right_children":[2,4,6,8,10,12,14,16,18,-1,-1,-1,-1,-1,-1,-1,-1,-1,-1],"split_conditions":[1.2924758E9,3.1380036E-1,9.253865E-1,8.9670904E-2,7.77439E8,4.3595392E-1,6.0854256E-2,8.67378E8,1.612962E-1,-4.5475136E-2,6.438497E-3,-7.1246116E-3,-5.926755E-2,3.388181E-2,-2.556846E-2,4.3117073E-3,-4.4080522E-2,3.9096262E-2,9.570079E-3],"split_indices":[4,3,0,3,4,0,2,4,3,0,0,0,0,0,0,0,0,0,0],"split_type":[0,0,0,0,0,0,0,0,0,0,0,0,0,0,0,0,0,0,0],"sum_hessian":[5.05848E1,3.9558197E1,1.1026605E1,3.5150566E1,4.407629E0,6.507151E0,4.519453E0,4.099266E0,3.10513E1,2.9783773E0,1.4292519E0,1.3037771E0,5.203374E0,2.822779E0,1.6966743E0,2.6082304E0,1.4910357E0,1.292938E1,1.812192E1],"tree_param":{"num_deleted":"0","num_feature":"5","num_nodes":"19","size_leaf_vector":"1"}},{"base_weights":[-4.9108904E-2,7.088242E-2,-7.551399E-1,-9.394738E-2,6.0503685E-1,-4.559101E-3,-9.337884E-1,-5.3306913E-1,8.852604E-2,-1.9227905E-2,8.2042605E-1,-5.1715035E-2,-4.853237E-3,1.11188525E-2,-3.4927376E-2,1.296057E-2,-2.9802874E-2,4.7015905E-2,-0E0],"categories":[],"categories_nodes":[],"categories_segments":[],"categories_sizes":[],"default_left":[0,0,0,0,0,0,0,0,0,0,0,0,0,0,0,0,0,0,0],"id":25,"left_children":[1,3,5,7,9,-1,11,13,15,-1,17,-1,-1,-1,-1,-1,-1,-1,-1],"loss_changes":[4.760217E0,4.3225236E0,6.3528204E-1,3.1166236E0,3.0250125E0,0E0,1.3033724E-1,1.7494051E0,3.323288E0,0E0,1.143847E0,0E0,0E0,0E0,0E0,0E0,0E0,0E0,0E0],"parents":[2147483647,0,0,1,1,2,2,3,3,4,4,6,6,7,7,8,8,10,10],"right_children":[2,4,6,8,10,-1,12,14,16,-1,18,-1,-1,-1,-1,-1,-1,-1,-1],"split_conditions":[3.0107582E-1,1.3959792E0,-6.076141E-2,1.2289488E-1,1.86123E8,-4.559101E-3,1.15357116E-1,7.5067624E-2,1.3345386E9,-1.9227905E-2,1.3386853E9,-5.1715035E-2,-4.853237E-3,1.11188525E-2,-3.4927376E-2,1.296057E-2,-2.9802874E-2,4.7015905E-2,-0E0],"split_indices":[3,0,2,3,4,0,2,3,4,0,4,0,0,0,0,0,0,0,0],"split_type":[0,0,0,0,0,0,0,0,0,0,0,0,0,0,0,0,0,0,0],"sum_hessian":[5.212613E1,4.546534E1,6.6607885E0,3.540255E1,1.0062791E1,2.129922E0,4.5308666E0,9.868369E0,2.553418E1,1.4221458E0,8.640645E0,3.515356E0,1.0155106E0,1.4633706E0,8.404999E0,2.141822E1,4.11596E0,7.513256E0,1.1273892E0],"tree_param":{"num_deleted":"0","num_feature":"5","num_nodes":"19","size_leaf_vector":"1"}},{"base_weights":[2.447236E-2,3.526957E-1,-1.8910237E-1,1.2954847E-2,8.056277E-1,-8.644403E-1,1.5067528E-2,-3.6622626E-1,7.158208E-1,-0E0,9.303986E-1,-6.26869E-2,6.0296864E-3,7.0503545E-1,-2.3741437E-1,2.261575E-2,-3.2338504E-2,8.763799E-3,4.3263584E-2,5.269617E-2,1.2341413E-2,1.953688E-3,4.1067626E-2,-7.5794494E-4,-4.192127E-2],"categories":[],"categories_nodes":[],"categories_segments":[],"categories_sizes":[],"default_left":[0,0,0,0,0,0,0,0,0,0,0,0,0,0,0,0,0,0,0,0,0,0,0,0,0],"id":26,"left_children":[1,3,5,7,9,11,13,15,17,-1,19,-1,-1,21,23,-1,-1,-1,-1,-1,-1,-1,-1,-1,-1],"loss_changes":[3.8401992E0,3.1660922E0,4.6908827E0,4.2475014E0,9.384532E-1,3.4566813E0,4.928808E0,2.7812033E0,2.2322655E-2,0E0,1.358223E-2,0E0,0E0,3.7158108E-1,2.5051827E0,0E0,0E0,0E0,0E0,0E0,0E0,0E0,0E0,0E0,0E0],"parents":[2147483647,0,0,1,1,2,2,3,3,4,4,5,5,6,6,7,7,8,8,10,10,13,13,14,14],"right_children":[2,4,6,8,10,12,14,16,18,-1,20,-1,-1,22,24,-1,-1,-1,-1,-1,-1,-1,-1,-1,-1],"split_conditions":[1.612962E-1,1.299967E-1,2.4056302E-2,1.0315963E0,4.6822643E-1,2.3141785E-1,2.8184868E-2,7.686615E8,8.982468E8,-0E0,1.5207155E-1,-6.26869E-2,6.0296864E-3,1.9130339E-1,1.3514495E9,2.261575E-2,-3.2338504E-2,8.763799E-3,4.3263584E-2,5.269617E-2,1.2341413E-2,1.953688E-3,4.1067626E-2,-7.5794494E-4,-4.192127E-2],"split_indices":[3,3,1,0,0,3,1,4,4,0,3,0,0,3,4,0,0,0,0,0,0,0,0,0,0],"split_type":[0,0,0,0,0,0,0,0,0,0,0,0,0,0,0,0,0,0,0,0,0,0,0,0,0],"sum_hessian":[5.1387676E1,2.0240803E1,3.1146875E1,1.2699486E1,7.541317E0,6.331778E0,2.4815096E1,8.531048E0,4.1684375E0,1.1782554E0,6.3630614E0,4.3904696E0,1.9413085E0,6.139884E0,1.8675213E1,1.7611705E0,6.7698774E0,1.89866E0,2.2697775E0,4.453094E0,1.9099674E0,1.466561E0,4.6733227E0,1.4999108E1,3.6761045E0],"tree_param":{"num_deleted":"0","num_feature":"5","num_nodes":"25","size_leaf_vector":"1"}},{"base_weights":[-5.753115E-2,2.659206E-1,-2.6620895E-1,-1.0843884E-1,4.83829E-1,-8.66041E-2,-4.0976692E-2,2.1846168E-1,-5.309801E-1,8.275257E-1,-1.3352221E-1,-2.716192E-1,2.5260937E-1,-9.518931E-3,3.5920586E-2,-4.0013548E-2,3.7306236E-4,3.8059335E-3,4.7626134E-2,-2.3376076E-2,1.0267614E-2,-2.3262605E-2,2.9986799E-2,2.7867783E-2,-2.1410434E-2],"categories":[],"categories_nodes":[],"categories_segments":[],"categories_sizes":[],"default_left":[0,0,0,0,0,0,0,0,0,0,0,0,0,0,0,0,0,0,0,0,0,0,0,0,0],"id":27,"left_children":[1,3,5,7,9,11,-1,13,15,17,19,21,23,-1,-1,-1,-1,-1,-1,-1,-1,-1,-1,-1,-1],"loss_changes":[3.603462E0,1.8418512E0,2.9540339E0,1.4107616E0,3.2097454E0,1.7746356E0,0E0,1.4531357E0,8.0728495E-1,5.507326E-1,8.732999E-1,3.4794526E0,2.41195E0,0E0,0E0,0E0,0E0,0E0,0E0,0E0,0E0,0E0,0E0,0E0,0E0],"parents":[2147483647,0,0,1,1,2,2,3,3,4,4,5,5,7,7,8,8,9,9,10,10,11,11,12,12],"right_children":[2,4,6,8,10,12,-1,14,16,18,20,22,24,-1,-1,-1,-1,-1,-1,-1,-1,-1,-1,-1,-1],"split_conditions":[3.814296E-2,2.3717059E-2,3.2636542E-2,4.082823E-3,2.7923608E-1,2.1667479E-1,-4.0976692E-2,-2.2955662E-2,2.078304E-2,-1.1655215E-1,9.082653E-1,2.8803619E-2,2.8583072E-2,-9.518931E-3,3.5920586E-2,-4.0013548E-2,3.7306236E-4,3.8059335E-3,4.7626134E-2,-2.3376076E-2,1.0267614E-2,-2.3262605E-2,2.9986799E-2,2.7867783E-2,-2.1410434E-2],"split_indices":[2,1,1,2,3,3,0,2,2,2,0,1,1,0,0,0,0,0,0,0,0,0,0,0,0],"split_type":[0,0,0,0,0,0,0,0,0,0,0,0,0,0,0,0,0,0,0,0,0,0,0,0,0],"sum_hessian":[5.0312794E1,1.9193256E1,3.111954E1,7.001184E0,1.2192073E1,2.5076221E1,6.043317E0,4.088921E0,2.912263E0,7.711925E0,4.480148E0,1.6801037E1,8.275185E0,2.5403147E0,1.5486066E0,1.7027159E0,1.2095469E0,1.6723354E0,6.03959E0,2.266751E0,2.2133968E0,1.4506102E1,2.2949357E0,6.1072507E0,2.1679337E0],"tree_param":{"num_deleted":"0","num_feature":"5","num_nodes":"25","size_leaf_vector":"1"}},{"base_weights":[2.1486351E-2,-1.0299813E-1,5.2409846E-1,1.6197502E-3,-7.624281E-1,-1.372383E-2,6.841727E-1,7.1035855E-2,-4.0201478E-2,-0E0,-4.611587E-2,4.482201E-2,-1.2265945E-2,-5.4119956E-3,2.2805505E-2],"categories":[],"categories_nodes":[],"categories_segments":[],"categories_sizes":[],"default_left":[0,0,0,0,0,0,0,0,0,0,0,0,0,0,0],"id":28,"left_children":[1,3,5,7,9,-1,11,13,-1,-1,-1,-1,-1,-1,-1],"loss_changes":[3.2858076E0,2.976313E0,1.7015254E0,1.982761E0,6.261718E-1,0E0,2.3061666E0,2.5771801E0,0E0,0E0,0E0,0E0,0E0,0E0,0E0],"parents":[2147483647,0,0,1,1,2,2,3,3,4,4,6,6,7,7],"right_children":[2,4,6,8,10,-1,12,14,-1,-1,-1,-1,-1,-1,-1],"split_conditions":[1.3959792E0,1.3663489E9,1.9107109E8,1.3419266E0,1.9371187E-2,-1.372383E-2,3.7452236E-2,1.0315963E0,-4.0201478E-2,-0E0,-4.611587E-2,4.482201E-2,-1.2265945E-2,-5.4119956E-3,2.2805505E-2],"split_indices":[0,4,4,0,2,0,1,0,0,0,0,0,0,0,0],"split_type":[0,0,0,0,0,0,0,0,0,0,0,0,0,0,0],"sum_hessian":[4.837606E1,3.9409904E1,8.966159E0,3.504334E1,4.3665657E0,1.1095269E0,7.856632E0,3.375126E1,1.2920771E0,1.121612E0,3.2449536E0,6.6145744E0,1.2420578E0,2.341099E1,1.0340271E1],"tree_param":{"num_deleted":"0","num_feature":"5","num_nodes":"15","size_leaf_vector":"1"}},{"base_weights":[-4.4065423E-2,-2.1252687E-1,5.597787E-1,2.999929E-1,-3.6739808E-1,-1.3405277E-2,7.065087E-1,5.6488776E-1,-2.1219498E-2,3.2418396E-2,-4.462622E-1,7.8615785E-1,-0E0,3.0598218E-2,1.9641845E-3,-1.5650451E-2,-4.561253E-2,4.3455716E-2,-0E0],"categories":[],"categories_nodes":[],"categories_segments":[],"categories_sizes":[],"default_left":[0,0,0,0,0,0,0,0,0,0,0,0,0,0,0,0,0,0,0],"id":29,"left_children":[1,3,5,7,9,-1,11,13,-1,-1,15,17,-1,-1,-1,-1,-1,-1,-1],"loss_changes":[5.393713E0,3.5097919E0,1.7670557E0,2.357275E0,3.0532446E0,0E0,5.8633757E-1,4.0585756E-2,0E0,0E0,1.3062186E0,4.582019E-1,0E0,0E0,0E0,0E0,0E0,0E0,0E0],"parents":[2147483647,0,0,1,1,2,2,3,3,4,4,6,6,7,7,10,10,11,11],"right_children":[2,4,6,8,10,-1,12,14,-1,-1,16,18,-1,-1,-1,-1,-1,-1,-1],"split_conditions":[1.3959792E0,4.082823E-3,1.9107109E8,3.48523E-1,8.817379E7,-1.3405277E-2,1.3450792E9,1.3514495E9,-2.1219498E-2,3.2418396E-2,2.7445483E-1,3.0107582E-1,-0E0,3.0598218E-2,1.9641845E-3,-1.5650451E-2,-4.561253E-2,4.3455716E-2,-0E0],"split_indices":[0,2,4,3,4,0,4,4,0,0,3,3,0,0,0,0,0,0,0],"split_type":[0,0,0,0,0,0,0,0,0,0,0,0,0,0,0,0,0,0,0],"sum_hessian":[5.0451233E1,4.04654E1,9.98583E0,8.764343E0,3.170106E1,1.1113709E0,8.874459E0,6.861554E0,1.9027889E0,1.3208296E0,3.0380228E1,7.8274827E0,1.0469764E0,5.7220726E0,1.1394817E0,2.59083E1,4.471929E0,6.7384577E0,1.0890253E0],"tree_param":{"num_deleted":"0","num_feature":"5","num_nodes":"19","size_leaf_vector":"1"}},{"base_weights":[1.0466003E-2,1.640095E-1,-5.216358E-1,6.5873075E-1,-7.2250823E-3,-1.0012897E0,1.7215885E-1,1.4009745E-1,4.7858402E-2,-2.257017E-1,4.2335856E-1,-0E0,-6.2069654E-2,3.986807E-2,-2.377118E-2,2.1484865E-2,-1.9694766E-2,1.6876838E-4,-4.7276553E-2,4.555901E-2,1.0673672E-4],"categories":[],"categories_nodes":[],"categories_segments":[],"categories_sizes":[],"default_left":[0,0,0,0,0,0,0,0,0,0,0,0,0,0,0,0,0,0,0,0,0],"id":30,"left_children":[1,3,5,7,9,11,13,15,-1,17,19,-1,-1,-1,-1,-1,-1,-1,-1,-1,-1],"loss_changes":[4.3648562E0,3.7254114E0,4.3763056E0,1.3140116E0,3.1750069E0,1.6730456E0,3.0475106E0,1.2036545E0,0E0,3.976698E0,2.1163707E0,0E0,0E0,0E0,0E0,0E0,0E0,0E0,0E0,0E0,0E0],"parents":[2147483647,0,0,1,1,2,2,3,3,4,4,5,5,6,6,7,7,9,9,10,10],"right_children":[2,4,6,8,10,12,14,16,-1,18,20,-1,-1,-1,-1,-1,-1,-1,-1,-1,-1],"split_conditions":[1.2994578E9,1.2787991E-2,9.082653E-1,1.1918289E-1,9.533394E8,4.59724E-1,1.9023697E-1,1.1322569E-1,4.7858402E-2,8.5644186E8,1.612962E-1,-0E0,-6.2069654E-2,3.986807E-2,-2.377118E-2,2.1484865E-2,-1.9694766E-2,1.6876838E-4,-4.7276553E-2,4.555901E-2,1.0673672E-4],"split_indices":[4,2,0,3,4,0,3,3,0,4,3,0,0,0,0,0,0,0,0,0,0],"split_type":[0,0,0,0,0,0,0,0,0,0,0,0,0,0,0,0,0,0,0,0,0],"sum_hessian":[5.1229637E1,4.0854244E1,1.0375393E1,9.706973E0,3.114727E1,5.9117627E0,4.46363E0,4.5953493E0,5.1116233E0,2.1444584E1,9.702685E0,1.504168E0,4.4075947E0,2.2516763E0,2.2119539E0,3.4122777E0,1.1830719E0,1.718939E1,4.255195E0,3.467448E0,6.235237E0],"tree_param":{"num_deleted":"0","num_feature":"5","num_nodes":"21","size_leaf_vector":"1"}},{"base_weights":[2.5295516E-2,-2.4689612E-1,3.5197723E-1,-3.8704057E-3,-8.719151E-1,-1.7705461E-1,5.931249E-1,-4.3652514E-1,4.3638316E-1,1.4774142E-3,-5.4363977E-2,2.737992E-1,-5.074591E-1,4.240415E-2,-0E0,6.2348233E-3,-3.286634E-2,4.1184135E-2,-9.004989E-3,-9.3210945E-3,3.716096E-2,5.9757195E-4,-4.2691465E-2,-2.1439644E-2,1.6340144E-2],"categories":[],"categories_nodes":[],"categories_segments":[],"categories_sizes":[],"default_left":[0,0,0,0,0,0,0,0,0,0,0,0,0,0,0,0,0,0,0,0,0,0,0,0,0],"id":31,"left_children":[1,3,5,7,9,11,13,15,17,-1,-1,19,21,-1,23,-1,-1,-1,-1,-1,-1,-1,-1,-1,-1],"loss_changes":[4.6987996E0,4.1403866E0,3.3275514E0,4.517812E0,1.7597857E0,1.5170845E0,2.7628179E0,1.7393906E0,3.1049712E0,0E0,0E0,1.2483618E0,1.2038412E0,0E0,1.1342344E0,0E0,0E0,0E0,0E0,0E0,0E0,0E0,0E0,0E0,0E0],"parents":[2147483647,0,0,1,1,2,2,3,3,4,4,5,5,6,6,7,7,8,8,11,11,12,12,14,14],"right_children":[2,4,6,8,10,12,14,16,18,-1,-1,20,22,-1,24,-1,-1,-1,-1,-1,-1,-1,-1,-1,-1],"split_conditions":[1.0315963E0,1.2994578E9,4.1306397E8,2.4211243E-2,4.59724E-1,2.1184294E8,1.357244E-1,1.13116E-2,7.0585735E-2,1.4774142E-3,-5.4363977E-2,2.8803619E-2,4.962188E-2,4.240415E-2,1.2596245E0,6.2348233E-3,-3.286634E-2,4.1184135E-2,-9.004989E-3,-9.3210945E-3,3.716096E-2,5.9757195E-4,-4.2691465E-2,-2.1439644E-2,1.6340144E-2],"split_indices":[0,4,4,1,0,4,2,2,2,0,0,1,2,0,0,0,0,0,0,0,0,0,0,0,0],"split_type":[0,0,0,0,0,0,0,0,0,0,0,0,0,0,0,0,0,0,0,0,0,0,0,0,0],"sum_hessian":[4.964067E1,2.694456E1,2.2696112E1,2.0718052E1,6.2265077E0,6.9714327E0,1.572468E1,1.068473E1,1.0033322E1,1.271183E0,4.9553246E0,2.8009949E0,4.170438E0,1.0766216E1,4.958463E0,2.94539E0,7.7393394E0,6.051682E0,3.9816399E0,1.6558435E0,1.1451513E0,2.0168428E0,2.153595E0,2.1887856E0,2.7696779E0],"tree_param":{"num_deleted":"0","num_feature":"5","num_nodes":"25","size_leaf_vector":"1"}},{"base_weights":[-5.5184425E-3,9.147123E-2,-6.502789E-1,1.9407059E-1,-6.2479E-1,-4.759918E-2,1.7464373E-2,-7.721456E-2,5.5843425E-1,-0E0,-4.059931E-2,-1.2627858E-2,2.6025748E-2,3.175528E-3,3.7612595E-2],"categories":[],"categories_nodes":[],"categories_segments":[],"categories_sizes":[],"default_left":[0,0,0,0,0,0,0,0,0,0,0,0,0,0,0],"id":32,"left_children":[1,3,5,7,9,-1,-1,11,13,-1,-1,-1,-1,-1,-1],"loss_changes":[3.3278408E0,3.3666046E0,2.7281327E0,4.1464996E0,5.2692175E-1,0E0,0E0,2.671103E0,1.463552E0,0E0,0E0,0E0,0E0,0E0,0E0],"parents":[2147483647,0,0,1,1,2,2,3,3,4,4,7,7,8,8],"right_children":[2,4,6,8,10,-1,-1,12,14,-1,-1,-1,-1,-1,-1],"split_conditions":[3.064764E-1,1.3683327E9,4.4350352E-2,2.5257772E-2,2.7381249E-2,-4.759918E-2,1.7464373E-2,2.1667479E-1,3.5493363E8,-0E0,-4.059931E-2,-1.2627858E-2,2.6025748E-2,3.175528E-3,3.7612595E-2],"split_indices":[3,4,1,1,1,0,0,3,4,0,0,0,0,0,0],"split_type":[0,0,0,0,0,0,0,0,0,0,0,0,0,0,0],"sum_hessian":[4.8501617E1,4.3008904E1,5.4927144E0,3.882089E1,4.1880145E0,4.427753E0,1.0649614E0,2.2615702E1,1.6205185E1,1.52114E0,2.6668744E0,1.8414623E1,4.2010794E0,5.411092E0,1.0794094E1],"tree_param":{"num_deleted":"0","num_feature":"5","num_nodes":"15","size_leaf_vector":"1"}},{"base_weights":[-6.465574E-2,5.444515E-2,-3.939208E-2,-1.9338886E-1,3.5257524E-1,2.4712071E-1,-4.3668994E-1,8.44431E-1,-0E0,-1.1553385E-2,3.3375632E-2,-3.276435E-2,9.075451E-3,-0E0,5.164053E-2,-3.367744E-2,1.2743692E-2],"categories":[],"categories_nodes":[],"categories_segments":[],"categories_sizes":[],"default_left":[0,0,0,0,0,0,0,0,0,0,0,0,0,0,0,0,0],"id":33,"left_children":[1,3,-1,5,7,9,11,13,15,-1,-1,-1,-1,-1,-1,-1,-1],"loss_changes":[4.477047E0,3.362301E0,0E0,2.8213587E0,3.717661E0,2.2019615E0,2.5153322E0,1.400188E0,2.6192007E0,0E0,0E0,0E0,0E0,0E0,0E0,0E0,0E0],"parents":[2147483647,0,0,1,1,3,3,4,4,5,5,6,6,7,7,8,8],"right_children":[2,4,-1,6,8,10,12,14,16,-1,-1,-1,-1,-1,-1,-1,-1],"split_conditions":[3.1344265E-1,1.0170456E0,-3.939208E-2,5.586838E-1,1.639456E-1,4.133072E-1,2.1463907E-1,1.1135172E0,1.7773014E-1,-1.1553385E-2,3.3375632E-2,-3.276435E-2,9.075451E-3,-0E0,5.164053E-2,-3.367744E-2,1.2743692E-2],"split_indices":[3,0,0,0,3,0,3,0,3,0,0,0,0,0,0,0,0],"split_type":[0,0,0,0,0,0,0,0,0,0,0,0,0,0,0,0,0],"sum_hessian":[4.8028893E1,4.2191006E1,5.8378854E0,2.2960339E1,1.9230669E1,7.8684726E0,1.5091866E1,7.32765E0,1.190302E1,3.7746527E0,4.09382E0,1.1321927E1,3.7699378E0,1.6139255E0,5.713724E0,2.7476454E0,9.155374E0],"tree_param":{"num_deleted":"0","num_feature":"5","num_nodes":"17","size_leaf_vector":"1"}},{"base_weights":[3.7522696E-2,5.255863E-1,-1.02037966E-1,-1.0919475E-1,3.6988284E-2,-0E0,-4.5531552E-2,2.729469E-2,-3.6454093E-2,1.359897E-1,-3.7245788E-2,-1.8992927E-2,1.5275798E-2],"categories":[],"categories_nodes":[],"categories_segments":[],"categories_sizes":[],"default_left":[0,0,0,0,0,0,0,0,0,0,0,0,0],"id":34,"left_children":[1,3,5,7,-1,9,-1,-1,-1,11,-1,-1,-1],"loss_changes":[3.6314218E0,1.862226E0,3.4103792E0,2.2856598E0,0E0,3.8940628E0,0E0,0E0,0E0,3.0424712E0,0E0,0E0,0E0],"parents":[2147483647,0,0,1,1,2,2,3,3,5,5,9,9],"right_children":[2,4,6,8,-1,10,-1,-1,-1,12,-1,-1,-1],"split_conditions":[5.414635E-3,-2.0384611E-1,3.064764E-1,3.48523E-1,3.6988284E-2,1.3663489E9,-4.5531552E-2,2.729469E-2,-3.6454093E-2,1.299967E-1,-3.7245788E-2,-1.8992927E-2,1.5275798E-2],"split_indices":[2,2,3,3,0,4,0,0,0,3,0,0,0],"split_type":[0,0,0,0,0,0,0,0,0,0,0,0,0],"sum_hessian":[4.9388844E1,1.0378345E1,3.9010498E1,2.5682044E0,7.81014E0,3.588925E1,3.1212475E0,1.1788357E0,1.3893688E0,3.1470459E1,4.418791E0,7.0320244E0,2.4438435E1],"tree_param":{"num_deleted":"0","num_feature":"5","num_nodes":"13","size_leaf_vector":"1"}},{"base_weights":[7.285215E-2,8.335179E-1,-1.3126148E-1,5.1126845E-2,7.233935E-2,2.225992E-1,-3.840639E-1,2.8415566E-2,-1.7339198E-2,-2.2004138E-1,6.8888336E-1,-1.9963779E-1,-4.7593962E-2,-2.1390576E-2,2.3915276E-2,4.2681564E-2,1.2301864E-2,-2.5116349E-2,7.4790716E-3],"categories":[],"categories_nodes":[],"categories_segments":[],"categories_sizes":[],"default_left":[0,0,0,0,0,0,0,0,0,0,0,0,0,0,0,0,0,0,0],"id":35,"left_children":[1,3,5,-1,7,9,11,-1,-1,13,15,17,-1,-1,-1,-1,-1,-1,-1],"loss_changes":[7.683814E0,1.175971E0,3.6100836E0,0E0,1.1520373E0,3.7656324E0,1.9322028E0,0E0,0E0,1.6720898E0,1.0052681E-1,2.2768636E0,0E0,0E0,0E0,0E0,0E0,0E0,0E0],"parents":[2147483647,0,0,1,1,2,2,4,4,5,5,6,6,9,9,10,10,11,11],"right_children":[2,4,6,-1,8,10,12,-1,-1,14,16,18,-1,-1,-1,-1,-1,-1,-1],"split_conditions":[5.414635E-3,4.0187623E-2,1.639456E-1,5.1126845E-2,1.2994578E9,1.2604524E-1,1.270074E9,2.8415566E-2,-1.7339198E-2,2.7040623E-2,1.286659E-1,4.8847626E8,-4.7593962E-2,-2.1390576E-2,2.3915276E-2,4.2681564E-2,1.2301864E-2,-2.5116349E-2,7.4790716E-3],"split_indices":[2,1,3,0,4,3,4,0,0,1,2,4,0,0,0,0,0,0,0],"split_type":[0,0,0,0,0,0,0,0,0,0,0,0,0,0,0,0,0,0,0],"sum_hessian":[4.6027653E1,8.966574E0,3.7061077E1,6.559821E0,2.406752E0,1.5188718E1,2.187236E1,1.0763292E0,1.3304229E0,7.9782434E0,7.210474E0,1.8306147E1,3.566214E0,6.817425E0,1.1608187E0,3.912074E0,3.2984002E0,9.760875E0,8.545272E0],"tree_param":{"num_deleted":"0","num_feature":"5","num_nodes":"19","size_leaf_vector":"1"}},{"base_weights":[-1.7714435E-2,3.224558E-1,-2.7176914E-1,-1.0099856E-1,8.149859E-1,-5.768145E-1,-2.4823794E-2,1.5818484E-1,-5.0109614E-2,-0E0,9.2624956E-1,-6.901135E-1,7.677494E-3,5.858775E-1,-2.9400003E-1,2.4454525E-2,-1.03307115E-2,5.1957745E-2,8.070675E-3,-1.6181447E-2,-5.8379084E-2,4.657211E-2,-5.6299362E-3,6.591461E-3,-3.3636004E-2],"categories":[],"categories_nodes":[],"categories_segments":[],"categories_sizes":[],"default_left":[0,0,0,0,0,0,0,0,0,0,0,0,0,0,0,0,0,0,0,0,0,0,0,0,0],"id":36,"left_children":[1,3,5,7,9,11,13,15,-1,-1,17,19,-1,21,23,-1,-1,-1,-1,-1,-1,-1,-1,-1,-1],"loss_changes":[4.1888146E0,4.535965E0,1.9744847E0,3.238482E0,8.9674664E-1,1.2707262E0,3.0693886E0,1.4803064E0,0E0,0E0,2.569089E-1,1.063035E0,0E0,1.6761009E0,2.3927584E0,0E0,0E0,0E0,0E0,0E0,0E0,0E0,0E0,0E0,0E0],"parents":[2147483647,0,0,1,1,2,2,3,3,4,4,5,5,6,6,7,7,10,10,11,11,13,13,14,14],"right_children":[2,4,6,8,10,12,14,16,-1,-1,18,20,-1,22,24,-1,-1,-1,-1,-1,-1,-1,-1,-1,-1],"split_conditions":[1.6437744E-1,1.2604524E-1,2.1667479E-1,1.18884966E-1,5.15785E-1,1.7832073E0,2.4331963E-1,4.4325944E-2,-5.0109614E-2,-0E0,1.5860748E-1,1.3017422E0,7.677494E-3,1.215773E9,4.2567696E-2,2.4454525E-2,-1.03307115E-2,5.1957745E-2,8.070675E-3,-1.6181447E-2,-5.8379084E-2,4.657211E-2,-5.6299362E-3,6.591461E-3,-3.3636004E-2],"split_indices":[3,3,3,3,0,0,3,2,0,0,3,0,0,4,2,0,0,0,0,0,0,0,0,0,0],"split_type":[0,0,0,0,0,0,0,0,0,0,0,0,0,0,0,0,0,0,0,0,0,0,0,0,0],"sum_hessian":[4.5565662E1,1.8971888E1,2.6593775E1,1.0624114E1,8.347774E0,1.0638594E1,1.5955181E1,9.039215E0,1.584899E0,1.178551E0,7.169223E0,9.518519E0,1.1200742E0,4.1138725E0,1.1841309E1,4.759289E0,4.279926E0,5.550384E0,1.6188389E0,7.0459347E0,2.4725847E0,2.6090865E0,1.5047861E0,5.7856956E0,6.055613E0],"tree_param":{"num_deleted":"0","num_feature":"5","num_nodes":"25","size_leaf_vector":"1"}},{"base_weights":[-2.1235242E-2,2.2306488E-1,-2.016803E-1,-1.5202758E-1,7.161335E-1,-9.3274534E-1,5.091843E-2,-4.5503086E-1,3.3377558E-1,5.0612193E-2,1.7394342E-1,-5.822262E-2,-3.2107625E-3,4.015855E-2,-2.1213078E-1,6.321723E-3,-4.383552E-2,-3.9104945E-3,3.717846E-2,-3.4075882E-2,3.4306668E-2,-1.6162327E-3,-3.396778E-2],"categories":[],"categories_nodes":[],"categories_segments":[],"categories_sizes":[],"default_left":[0,0,0,0,0,0,0,0,0,0,0,0,0,0,0,0,0,0,0,0,0,0,0],"id":37,"left_children":[1,3,5,7,9,11,13,15,17,-1,19,-1,-1,-1,21,-1,-1,-1,-1,-1,-1,-1,-1],"loss_changes":[2.2095153E0,4.1462507E0,5.6514096E0,2.1497102E0,1.0293264E0,1.2108884E0,4.918503E0,2.480836E0,1.1596303E0,0E0,3.076068E0,0E0,0E0,0E0,1.3374338E0,0E0,0E0,0E0,0E0,0E0,0E0,0E0,0E0],"parents":[2147483647,0,0,1,1,2,2,3,3,4,4,5,5,6,6,7,7,8,8,10,10,14,14],"right_children":[2,4,6,8,10,12,14,16,18,-1,20,-1,-1,-1,22,-1,-1,-1,-1,-1,-1,-1,-1],"split_conditions":[1.612962E-1,1.1919499E-1,2.4056302E-2,1.0315963E0,2.3572246E-2,2.3141785E-1,2.7711138E-2,7.0854336E-1,8.982468E8,5.0612193E-2,2.4133015E-2,-5.822262E-2,-3.2107625E-3,4.015855E-2,1.3506742E9,6.321723E-3,-4.383552E-2,-3.9104945E-3,3.717846E-2,-3.4075882E-2,3.4306668E-2,-1.6162327E-3,-3.396778E-2],"split_indices":[3,3,1,0,1,3,1,0,4,0,1,0,0,0,4,0,0,0,0,0,0,0,0],"split_type":[0,0,0,0,0,0,0,0,0,0,0,0,0,0,0,0,0,0,0,0,0,0,0],"sum_hessian":[4.7188217E1,1.9425648E1,2.7762568E1,1.1391594E1,8.034054E0,6.295413E0,2.1467154E1,7.327819E0,4.063775E0,4.1165476E0,3.9175067E0,4.3843927E0,1.91102E0,4.960826E0,1.6506329E1,3.3224106E0,4.0054083E0,2.3883362E0,1.675439E0,1.1351696E0,2.7823372E0,1.3386517E1,3.119812E0],"tree_param":{"num_deleted":"0","num_feature":"5","num_nodes":"23","size_leaf_vector":"1"}},{"base_weights":[-3.6363147E-2,-2.6694718E-1,2.3772469E-1,1.32704275E-2,-5.0887847E-1,4.685533E-1,-4.432966E-1,2.671374E-1,-5.063846E-1,-4.933851E-2,-7.0760584E-1,1.2546574E-1,7.9833704E-1,2.523054E-2,-4.1830618E-2,-7.208779E-3,4.00677E-2,8.307803E-3,-4.342976E-2,-2.0039966E-2,2.7892306E-2,-4.0528852E-2,-3.9224834E-3,-2.6845897E-3,2.1467144E-2,4.834266E-2,1.340191E-2],"categories":[],"categories_nodes":[],"categories_segments":[],"categories_sizes":[],"default_left":[0,0,0,0,0,0,0,0,0,0,0,0,0,0,0,0,0,0,0,0,0,0,0,0,0,0,0],"id":38,"left_children":[1,3,5,7,9,11,13,15,17,19,21,23,25,-1,-1,-1,-1,-1,-1,-1,-1,-1,-1,-1,-1,-1,-1],"loss_changes":[3.3322623E0,2.066439E0,4.051181E0,2.062059E0,1.249609E0,1.7798452E0,3.1473808E0,2.711156E0,1.5758702E0,1.7381899E0,4.1960573E-1,7.2152245E-1,1.6442442E-1,0E0,0E0,0E0,0E0,0E0,0E0,0E0,0E0,0E0,0E0,0E0,0E0,0E0,0E0],"parents":[2147483647,0,0,1,1,2,2,3,3,4,4,5,5,6,6,7,7,8,8,9,9,10,10,11,11,12,12],"right_children":[2,4,6,8,10,12,14,16,18,20,22,24,26,-1,-1,-1,-1,-1,-1,-1,-1,-1,-1,-1,-1,-1,-1],"split_conditions":[1.0170456E0,4.919235E-2,3.2636542E-2,1.2994578E9,5.586838E-1,9.533394E8,1.9840082E-2,2.5257772E-2,4.59724E-1,4.837264E-1,9.5200276E-1,2.5667801E-2,1.3464348E-1,2.523054E-2,-4.1830618E-2,-7.208779E-3,4.00677E-2,8.307803E-3,-4.342976E-2,-2.0039966E-2,2.7892306E-2,-4.0528852E-2,-3.9224834E-3,-2.6845897E-3,2.1467144E-2,4.834266E-2,1.340191E-2],"split_indices":[0,2,1,4,0,4,2,1,0,0,0,1,2,0,0,0,0,0,0,0,0,0,0,0,0,0,0],"split_type":[0,0,0,0,0,0,0,0,0,0,0,0,0,0,0,0,0,0,0,0,0,0,0,0,0,0,0],"sum_hessian":[4.9626793E1,2.7369884E1,2.2256908E1,1.2955351E1,1.4414535E1,1.7191568E1,5.0653396E0,9.451689E0,3.5036619E0,5.2207694E0,9.193765E0,9.73793E0,7.453639E0,1.2118306E0,3.8535092E0,5.747372E0,3.7043169E0,1.317365E0,2.1862967E0,3.8382792E0,1.38249E0,7.255818E0,1.9379473E0,6.489001E0,3.2489295E0,4.4329677E0,3.0206711E0],"tree_param":{"num_deleted":"0","num_feature":"5","num_nodes":"27","size_leaf_vector":"1"}},{"base_weights":[-0E0,1.05416216E-1,-3.6313176E-1,-8.829928E-2,3.6128184E-1,1.444023E-1,-8.713761E-1,-3.6652264E-1,4.014886E-1,4.836469E-1,-2.6208502E-1,4.248762E-2,-3.2644685E-2,-4.899754E-2,-4.2803735E-3,-2.7259812E-3,-5.019138E-2,-1.0521896E-2,3.0146861E-2,4.2242754E-2,1.4272955E-2,1.75317E-4,-2.2966718E-2],"categories":[],"categories_nodes":[],"categories_segments":[],"categories_sizes":[],"default_left":[0,0,0,0,0,0,0,0,0,0,0,0,0,0,0,0,0,0,0,0,0,0,0],"id":39,"left_children":[1,3,5,7,9,11,13,15,17,19,21,-1,-1,-1,-1,-1,-1,-1,-1,-1,-1,-1,-1],"loss_changes":[1.9236262E0,2.0649989E0,3.2363672E0,3.3881676E0,1.5922263E0,4.650342E0,1.7564726E-1,2.8679397E0,1.3652524E0,5.3429866E-1,2.835102E-1,0E0,0E0,0E0,0E0,0E0,0E0,0E0,0E0,0E0,0E0,0E0,0E0],"parents":[2147483647,0,0,1,1,2,2,3,3,4,4,5,5,6,6,7,7,8,8,9,9,10,10],"right_children":[2,4,6,8,10,12,14,16,18,20,22,-1,-1,-1,-1,-1,-1,-1,-1,-1,-1,-1,-1],"split_conditions":[3.4136675E-2,2.4224622E-2,4.2567696E-2,1.1581693E0,1.368168E9,1.2875333E9,1.14255324E-1,1.286659E-1,3.119579E8,5.15785E-1,5.09604E-2,4.248762E-2,-3.2644685E-2,-4.899754E-2,-4.2803735E-3,-2.7259812E-3,-5.019138E-2,-1.0521896E-2,3.0146861E-2,4.2242754E-2,1.4272955E-2,1.75317E-4,-2.2966718E-2],"split_indices":[1,1,2,0,4,4,2,2,4,0,2,0,0,0,0,0,0,0,0,0,0,0,0],"split_type":[0,0,0,0,0,0,0,0,0,0,0,0,0,0,0,0,0,0,0,0,0,0,0],"sum_hessian":[4.7846466E1,3.8095394E1,9.751074E0,2.1795067E1,1.6300325E1,5.2193384E0,4.531736E0,1.4400646E1,7.3944216E0,1.4174883E1,2.1254427E0,2.8500874E0,2.369251E0,3.432264E0,1.0994718E0,1.0971508E1,3.4291377E0,1.5689098E0,5.825512E0,2.930461E0,1.1244422E1,1.1015815E0,1.0238612E0],"tree_param":{"num_deleted":"0","num_feature":"5","num_nodes":"23","size_leaf_vector":"1"}},{"base_weights":[7.413396E-2,1.937171E-1,-3.1543788E-1,-0E0,3.979358E-1,2.694091E-1,-7.95557E-1,3.6197603E-1,-2.3090015E-1,4.5785144E-2,1.9458836E-1,4.249687E-2,-2.7356535E-2,1.4112227E-7,-4.9064063E-2,-4.6260925E-3,3.3952694E-2,1.0904572E-2,-2.7585192E-2,-3.7718292E-2,2.2403955E-2],"categories":[],"categories_nodes":[],"categories_segments":[],"categories_sizes":[],"default_left":[0,0,0,0,0,0,0,0,0,0,0,0,0,0,0,0,0,0,0,0,0],"id":40,"left_children":[1,3,5,7,9,11,13,15,17,-1,19,-1,-1,-1,-1,-1,-1,-1,-1,-1,-1],"loss_changes":[2.3407824E0,1.5357803E0,3.6950955E0,1.9036539E0,1.4964182E0,3.6876907E0,1.2245445E0,1.4874192E0,2.256219E0,0E0,4.228217E0,0E0,0E0,0E0,0E0,0E0,0E0,0E0,0E0,0E0,0E0],"parents":[2147483647,0,0,1,1,2,2,3,3,4,4,5,5,6,6,7,7,8,8,10,10],"right_children":[2,4,6,8,10,12,14,16,18,-1,20,-1,-1,-1,-1,-1,-1,-1,-1,-1,-1],"split_conditions":[3.4136675E-2,1.0170456E0,4.2567696E-2,5.586838E-1,1.1026725E0,1.2875333E9,2.3093258E8,4.3258408E-1,7.686615E8,4.5785144E-2,1.1581693E0,4.249687E-2,-2.7356535E-2,1.4112227E-7,-4.9064063E-2,-4.6260925E-3,3.3952694E-2,1.0904572E-2,-2.7585192E-2,-3.7718292E-2,2.2403955E-2],"split_indices":[1,0,2,0,0,4,4,0,4,0,0,0,0,0,0,0,0,0,0,0,0],"split_type":[0,0,0,0,0,0,0,0,0,0,0,0,0,0,0,0,0,0,0,0,0],"sum_hessian":[4.730129E1,3.7161636E1,1.0139653E1,1.9801172E1,1.7360464E1,4.6802487E0,5.459404E0,7.3533845E0,1.2447788E1,3.1363573E0,1.4224106E1,2.8427484E0,1.8375005E0,1.1133631E0,4.3460407E0,3.1992056E0,4.154179E0,5.127811E0,7.3199773E0,2.2074745E0,1.2016631E1],"tree_param":{"num_deleted":"0","num_feature":"5","num_nodes":"21","size_leaf_vector":"1"}},{"base_weights":[-7.695864E-2,-1.9862331E-1,4.3469432E-1,2.9745251E-2,-2.5336447E-1,7.3707783E-1,-0E0,-5.030027E-1,-4.3998256E-2,3.916871E-3,4.0996052E-2,2.0693047E-2,-2.3164898E-2,1.815324E-2,-3.2254916E-2,1.1650729E-2,-3.3850245E-2],"categories":[],"categories_nodes":[],"categories_segments":[],"categories_sizes":[],"default_left":[0,0,0,0,0,0,0,0,0,0,0,0,0,0,0,0,0],"id":41,"left_children":[1,3,5,-1,7,9,11,13,15,-1,-1,-1,-1,-1,-1,-1,-1],"loss_changes":[3.0129995E0,1.8684229E0,1.224847E0,0E0,1.8501406E0,2.1639585E-2,1.2943326E0,2.4766088E0,4.3261604E0,0E0,0E0,0E0,0E0,0E0,0E0,0E0,0E0],"parents":[2147483647,0,0,1,1,2,2,4,4,5,5,6,6,7,7,8,8],"right_children":[2,4,6,-1,8,10,12,14,16,-1,-1,-1,-1,-1,-1,-1,-1],"split_conditions":[1.3959792E0,8.817379E7,1.6953796E-1,2.9745251E-2,2.4224622E-2,1.0696153E-1,1.5269442E0,7.5067624E-2,2.7923608E-1,3.916871E-3,4.0996052E-2,2.0693047E-2,-2.3164898E-2,1.815324E-2,-3.2254916E-2,1.1650729E-2,-3.3850245E-2],"split_indices":[0,4,3,0,1,3,0,3,3,0,0,0,0,0,0,0,0],"split_type":[0,0,0,0,0,0,0,0,0,0,0,0,0,0,0,0,0],"sum_hessian":[4.5579502E1,3.7880566E1,7.6989336E0,1.2535883E0,3.662698E1,3.9540007E0,3.7449327E0,1.5311393E1,2.1315586E1,1.0374191E0,2.9165816E0,2.0382583E0,1.7066743E0,1.6309141E0,1.3680478E1,1.5266591E1,6.048995E0],"tree_param":{"num_deleted":"0","num_feature":"5","num_nodes":"17","size_leaf_vector":"1"}},{"base_weights":[-5.107027E-2,1.847094E-2,-6.211844E-1,-1.4628689E-1,2.875349E-1,-0E0,-4.0313207E-2,-3.5702172E-1,2.6265764E-1,6.692084E-1,4.5466047E-2,-2.5984883E-2,2.8394673E-2,3.688287E-2,-3.2369908E-2,-0E0,4.299352E-2,-2.6658494E-2,2.1787753E-2],"categories":[],"categories_nodes":[],"categories_segments":[],"categories_sizes":[],"default_left":[0,0,0,0,0,0,0,0,0,0,0,0,0,0,0,0,0,0,0],"id":42,"left_children":[1,3,5,7,9,-1,-1,11,13,15,17,-1,-1,-1,-1,-1,-1,-1,-1],"loss_changes":[2.135715E0,2.1331918E0,5.862458E-1,2.667362E0,1.5169239E0,0E0,0E0,3.4667633E0,5.2463202E0,7.3019886E-1,3.3158047E0,0E0,0E0,0E0,0E0,0E0,0E0,0E0,0E0],"parents":[2147483647,0,0,1,1,2,2,3,3,4,4,7,7,8,8,9,9,10,10],"right_children":[2,4,6,8,10,-1,-1,12,14,16,18,-1,-1,-1,-1,-1,-1,-1,-1],"split_conditions":[1.3683327E9,9.533394E8,2.7381249E-2,2.1667479E-1,1.612962E-1,-0E0,-4.0313207E-2,2.8935831E-2,3.1344265E-1,7.5202453E-1,2.4056302E-2,-2.5984883E-2,2.8394673E-2,3.688287E-2,-3.2369908E-2,-0E0,4.299352E-2,-2.6658494E-2,2.1787753E-2],"split_indices":[4,4,1,3,3,0,0,1,3,0,1,0,0,0,0,0,0,0,0],"split_type":[0,0,0,0,0,0,0,0,0,0,0,0,0,0,0,0,0,0,0],"sum_hessian":[4.889449E1,4.4559784E1,4.3347044E0,2.7600267E1,1.6959518E1,1.4694521E0,2.8652523E0,1.8662657E1,8.937612E0,5.2339897E0,1.1725528E1,1.6613964E1,2.048692E0,6.2035947E0,2.734017E0,1.6676332E0,3.5663567E0,4.2955065E0,7.430022E0],"tree_param":{"num_deleted":"0","num_feature":"5","num_nodes":"19","size_leaf_vector":"1"}},{"base_weights":[-4.005405E-4,3.49638E-1,-2.3689279E-1,-0E0,4.2903755E-2,2.6470172E-1,-3.8826895E-1,3.15477E-2,-2.6555324E-1,-9.235094E-2,6.145285E-1,-5.052883E-2,-1.992E-1,1.1926921E-2,-3.1461902E-2,1.7950013E-2,-2.6561335E-2,3.6416065E-2,1.8568529E-3,-2.4490235E-2,8.0181006E-4],"categories":[],"categories_nodes":[],"categories_segments":[],"categories_sizes":[],"default_left":[0,0,0,0,0,0,0,0,0,0,0,0,0,0,0,0,0,0,0,0,0],"id":43,"left_children":[1,3,5,7,-1,9,11,-1,13,15,17,-1,19,-1,-1,-1,-1,-1,-1,-1,-1],"loss_changes":[3.9245636E0,3.494213E0,2.365291E0,2.288009E0,0E0,1.0965319E0,2.166263E0,0E0,2.142811E0,1.2345979E0,7.878077E-2,0E0,1.3438387E0,0E0,0E0,0E0,0E0,0E0,0E0,0E0,0E0],"parents":[2147483647,0,0,1,1,2,2,3,3,5,5,6,6,8,8,9,9,10,10,12,12],"right_children":[2,4,6,8,-1,10,12,-1,14,16,18,-1,20,-1,-1,-1,-1,-1,-1,-1,-1],"split_conditions":[1.6437744E-1,1.299967E-1,1.3622293E-2,7.778588E-2,4.2903755E-2,-1.1655215E-1,1.822459E-1,3.15477E-2,8.347689E8,1.2994578E9,-1.9962221E-2,-5.052883E-2,5.3324976E8,1.1926921E-2,-3.1461902E-2,1.7950013E-2,-2.6561335E-2,3.6416065E-2,1.8568529E-3,-2.4490235E-2,8.0181006E-4],"split_indices":[3,3,2,3,0,2,3,0,4,4,2,0,4,0,0,0,0,0,0,0,0],"split_type":[0,0,0,0,0,0,0,0,0,0,0,0,0,0,0,0,0,0,0,0,0],"sum_hessian":[4.4680336E1,1.7384995E1,2.729534E1,1.1003836E1,6.381159E0,5.761171E0,2.153417E1,2.4699054E0,8.53393E0,3.11457E0,2.6466007E0,3.25272E0,1.8281448E1,3.5624151E0,4.971515E0,1.4453869E0,1.669183E0,1.5939742E0,1.0526266E0,7.3599763E0,1.09214735E1],"tree_param":{"num_deleted":"0","num_feature":"5","num_nodes":"21","size_leaf_vector":"1"}},{"base_weights":[-0E0,2.4784133E-1,-1.7573243E-1,-2.4746902E-1,8.801823E-1,-5.9439564E-1,-6.547475E-3,-5.696113E-1,3.0568326E-1,9.7163296E-1,5.4653566E-3,-5.2257866E-2,1.7698081E-1,4.4463962E-1,-2.973357E-1,5.041594E-3,-4.290169E-2,-8.398532E-3,3.6837727E-2,6.5461355E-3,5.1815815E-2,2.6992247E-2,-1.2192053E-2,-3.7205878E-3,4.132626E-2,-2.9385695E-2,1.5109504E-4],"categories":[],"categories_nodes":[],"categories_segments":[],"categories_sizes":[],"default_left":[0,0,0,0,0,0,0,0,0,0,0,0,0,0,0,0,0,0,0,0,0,0,0,0,0,0,0],"id":44,"left_children":[1,3,5,7,9,11,13,15,17,19,-1,-1,21,23,25,-1,-1,-1,-1,-1,-1,-1,-1,-1,-1,-1,-1],"loss_changes":[2.2249188E0,7.1151037E0,1.9804618E0,2.6163616E0,3.188367E-1,3.303053E0,3.1913328E0,2.0056512E0,1.4229784E0,1.887846E-2,0E0,0E0,8.895024E-1,2.0980191E0,1.4433113E0,0E0,0E0,0E0,0E0,0E0,0E0,0E0,0E0,0E0,0E0,0E0,0E0],"parents":[2147483647,0,0,1,1,2,2,3,3,4,4,5,5,6,6,7,7,8,8,9,9,12,12,13,13,14,14],"right_children":[2,4,6,8,10,12,14,16,18,20,-1,-1,22,24,26,-1,-1,-1,-1,-1,-1,-1,-1,-1,-1,-1,-1],"split_conditions":[1.639456E-1,1.1919499E-1,2.4027895E-2,1.0315963E0,1.5860748E-1,2.3500194E-1,2.8625961E-2,6.445174E-1,8.982468E8,1.2604524E-1,5.4653566E-3,-5.2257866E-2,1.1771361E9,2.06722E-1,3.562347E-2,5.041594E-3,-4.290169E-2,-8.398532E-3,3.6837727E-2,6.5461355E-3,5.1815815E-2,2.6992247E-2,-1.2192053E-2,-3.7205878E-3,4.132626E-2,-2.9385695E-2,1.5109504E-4],"split_indices":[3,3,1,0,3,3,1,0,4,3,0,0,4,3,1,0,0,0,0,0,0,0,0,0,0,0,0],"split_type":[0,0,0,0,0,0,0,0,0,0,0,0,0,0,0,0,0,0,0,0,0,0,0,0,0,0,0],"sum_hessian":[4.8009304E1,1.976988E1,2.8239424E1,1.1420741E1,8.349139E0,6.702189E0,2.1537235E1,7.4177547E0,4.002986E0,6.8825583E0,1.4665809E0,4.057839E0,2.6443503E0,7.860096E0,1.3677138E1,2.316105E0,5.1016498E0,2.1224382E0,1.880548E0,1.0366714E0,5.845887E0,1.4473474E0,1.197003E0,3.621638E0,4.2384577E0,6.562999E0,7.11414E0],"tree_param":{"num_deleted":"0","num_feature":"5","num_nodes":"27","size_leaf_vector":"1"}},{"base_weights":[-2.4781397E-2,1.5626714E-1,-2.563122E-1,5.5585116E-1,-9.3755804E-2,3.4415537E-1,-5.2215683E-1,-9.414821E-3,7.802797E-1,3.1559333E-1,-3.3937296E-1,3.31387E-2,-1.7591855E-1,-5.615404E-2,-2.1210508E-1,2.2868093E-3,4.420232E-2,4.0848892E-2,-8.463115E-3,-3.6099117E-2,-6.660873E-4,-2.6881797E-2,1.1408932E-2,1.9933974E-2,-3.887739E-2],"categories":[],"categories_nodes":[],"categories_segments":[],"categories_sizes":[],"default_left":[0,0,0,0,0,0,0,0,0,0,0,0,0,0,0,0,0,0,0,0,0,0,0,0,0],"id":45,"left_children":[1,3,5,7,9,11,13,-1,15,17,19,-1,21,-1,23,-1,-1,-1,-1,-1,-1,-1,-1,-1,-1],"loss_changes":[2.1095061E0,2.929553E0,3.8645792E0,2.2014623E0,1.9714264E0,1.5176622E0,2.4092789E0,0E0,4.4449234E-1,2.0892193E0,1.3672774E0,0E0,8.016607E-1,0E0,4.964606E0,0E0,0E0,0E0,0E0,0E0,0E0,0E0,0E0,0E0,0E0],"parents":[2147483647,0,0,1,1,2,2,3,3,4,4,5,5,6,6,8,8,9,9,10,10,12,12,14,14],"right_children":[2,4,6,8,10,12,14,-1,16,18,20,-1,22,-1,24,-1,-1,-1,-1,-1,-1,-1,-1,-1,-1],"split_conditions":[6.732772E-2,7.6146726E8,2.2972925E-2,2.3315068E-2,-2.9966542E-2,1.1313009E9,2.4133015E-2,-9.414821E-3,1.555774E8,1.2875333E9,2.1474363E-2,3.31387E-2,2.0782305E-2,-5.615404E-2,2.8625961E-2,2.2868093E-3,4.420232E-2,4.0848892E-2,-8.463115E-3,-3.6099117E-2,-6.660873E-4,-2.6881797E-2,1.1408932E-2,1.9933974E-2,-3.887739E-2],"split_indices":[2,4,1,1,2,4,1,0,4,4,1,0,1,0,1,0,0,0,0,0,0,0,0,0,0],"split_type":[0,0,0,0,0,0,0,0,0,0,0,0,0,0,0,0,0,0,0,0,0,0,0,0,0],"sum_hessian":[4.6913628E1,2.6115816E1,2.0797813E1,9.653238E0,1.6462578E1,6.015754E0,1.4782059E1,2.0862176E0,7.5670204E0,5.707969E0,1.0754608E1,3.7136219E0,2.3021324E0,3.4728265E0,1.1309233E1,1.4427345E0,6.124286E0,2.5038097E0,3.2041595E0,3.8278644E0,6.9267435E0,1.2143632E0,1.087769E0,5.4792705E0,5.829962E0],"tree_param":{"num_deleted":"0","num_feature":"5","num_nodes":"25","size_leaf_vector":"1"}},{"base_weights":[-3.124026E-2,-2.771988E-1,2.9887193E-1,9.62839E-2,-4.7723976E-1,7.516795E-1,-0E0,-2.2711544E-1,4.748769E-1,-0E0,-6.6882485E-1,4.9136672E-2,3.4620363E-2,-2.5537381E-2,1.51736E-1,-3.5563372E-2,1.3474015E-2,3.6226895E-2,-5.232694E-4,2.043095E-2,-2.9296309E-2,-1.2936023E-2,-4.3947328E-2,-5.7462417E-3,1.2131129E-2,1.7965486E-2,-2.7291415E-2],"categories":[],"categories_nodes":[],"categories_segments":[],"categories_sizes":[],"default_left":[0,0,0,0,0,0,0,0,0,0,0,0,0,0,0,0,0,0,0,0,0,0,0,0,0,0,0],"id":46,"left_children":[1,3,5,7,9,11,13,15,17,19,21,-1,23,-1,25,-1,-1,-1,-1,-1,-1,-1,-1,-1,-1,-1,-1],"loss_changes":[3.9150488E0,2.2303321E0,2.7085981E0,1.5133593E0,1.6014442E0,1.0722494E0,1.167066E0,1.9302347E0,8.411423E-1,2.098196E0,5.6364536E-1,0E0,1.8299231E-1,0E0,1.9799049E0,0E0,0E0,0E0,0E0,0E0,0E0,0E0,0E0,0E0,0E0,0E0,0E0],"parents":[2147483647,0,0,1,1,2,2,3,3,4,4,5,5,6,6,7,7,8,8,9,9,10,10,12,12,14,14],"right_children":[2,4,6,8,10,12,14,16,18,20,22,-1,24,-1,26,-1,-1,-1,-1,-1,-1,-1,-1,-1,-1,-1,-1],"split_conditions":[1.0315963E0,5.586838E-1,1.639456E-1,4.133072E-1,5.414635E-3,9.754584E-2,1.736061E-1,1.822459E-1,6.360051E-2,1.2875333E9,8.548791E8,4.9136672E-2,1.5243445E-1,-2.5537381E-2,1.5269442E0,-3.5563372E-2,1.3474015E-2,3.6226895E-2,-5.232694E-4,2.043095E-2,-2.9296309E-2,-1.2936023E-2,-4.3947328E-2,-5.7462417E-3,1.2131129E-2,1.7965486E-2,-2.7291415E-2],"split_indices":[0,0,3,0,2,2,3,3,2,4,4,0,3,0,0,0,0,0,0,0,0,0,0,0,0,0,0],"split_type":[0,0,0,0,0,0,0,0,0,0,0,0,0,0,0,0,0,0,0,0,0,0,0,0,0,0,0],"sum_hessian":[4.524135E1,2.6410109E1,1.883124E1,9.134303E0,1.7275806E1,6.5079603E0,1.2323279E1,4.965011E0,4.1692924E0,5.6360116E0,1.1639794E1,4.290713E0,2.2172477E0,1.9235957E0,1.0399684E1,2.389601E0,2.57541E0,2.5370507E0,1.6322416E0,3.4145331E0,2.2214785E0,5.3997035E0,6.240091E0,1.120994E0,1.0962536E0,8.796261E0,1.6034229E0],"tree_param":{"num_deleted":"0","num_feature":"5","num_nodes":"27","size_leaf_vector":"1"}},{"base_weights":[2.2688645E-3,2.5881484E-1,-3.0751875E-1,6.0621566E-1,-0E0,2.828006E-1,-5.7405907E-1,4.14749E-2,7.323231E-2,-2.0122297E-1,3.6019556E-2,6.528925E-1,-1.6321914E-2,-8.12772E-1,-1.5512505E-1,1.8022204E-2,-6.0864E-3,1.3456426E-2,-2.268318E-2,3.8638934E-3,3.9149616E-2,-4.6268683E-2,-0E0,3.2986205E-2,-2.78633E-2],"categories":[],"categories_nodes":[],"categories_segments":[],"categories_sizes":[],"default_left":[0,0,0,0,0,0,0,0,0,0,0,0,0,0,0,0,0,0,0,0,0,0,0,0,0],"id":47,"left_children":[1,3,5,7,9,11,13,-1,15,17,-1,19,-1,21,23,-1,-1,-1,-1,-1,-1,-1,-1,-1,-1],"loss_changes":[3.5333388E0,2.2588978E0,3.424557E0,9.963074E-1,2.4454024E0,1.9509559E0,1.0575376E0,0E0,3.9663634E-1,1.8124981E0,0E0,1.1347985E-1,0E0,7.838335E-1,2.9510689E0,0E0,0E0,0E0,0E0,0E0,0E0,0E0,0E0,0E0,0E0],"parents":[2147483647,0,0,1,1,2,2,3,3,4,4,5,5,6,6,8,8,9,9,11,11,13,13,14,14],"right_children":[2,4,6,8,10,12,14,-1,16,18,-1,20,-1,22,24,-1,-1,-1,-1,-1,-1,-1,-1,-1,-1],"split_conditions":[6.448831E-2,7.6146726E8,2.3020893E-2,1.1238911E0,1.3700402E0,1.1313009E9,9.1898304E8,4.14749E-2,2.6579843E8,6.445174E-1,3.6019556E-2,1.070009E-1,-1.6321914E-2,1.4755588E0,1.0543779E9,1.8022204E-2,-6.0864E-3,1.3456426E-2,-2.268318E-2,3.8638934E-3,3.9149616E-2,-4.6268683E-2,-0E0,3.2986205E-2,-2.78633E-2],"split_indices":[2,4,1,0,0,4,4,0,4,0,0,2,0,0,4,0,0,0,0,0,0,0,0,0,0],"split_type":[0,0,0,0,0,0,0,0,0,0,0,0,0,0,0,0,0,0,0,0,0,0,0,0,0],"sum_hessian":[4.1579006E1,2.3232101E1,1.8346903E1,9.1547165E0,1.4077386E1,5.4452314E0,1.2901672E1,5.5992746E0,3.5554416E0,1.1911707E1,2.1656795E0,3.5248215E0,1.9204097E0,7.0162153E0,5.885457E0,1.3375812E0,2.2178602E0,3.8489175E0,8.062789E0,1.3739908E0,2.1508307E0,5.9851203E0,1.0310948E0,1.4629604E0,4.422497E0],"tree_param":{"num_deleted":"0","num_feature":"5","num_nodes":"25","size_leaf_vector":"1"}},{"base_weights":[-5.7118326E-2,3.5977658E-2,-5.633451E-1,2.275482E-1,-1.7853808E-1,-3.501531E-2,3.245003E-4,-2.9407308E-1,4.9794433E-1,5.5817664E-1,-5.862398E-1,7.5139194E-3,-2.08915E-2,3.944218E-2,-2.2135812E-3,4.5982003E-2,-1.2548555E-3,-5.1460832E-2,-1.2450644E-2],"categories":[],"categories_nodes":[],"categories_segments":[],"categories_sizes":[],"default_left":[0,0,0,0,0,0,0,0,0,0,0,0,0,0,0,0,0,0,0],"id":48,"left_children":[1,3,5,7,9,-1,-1,11,13,15,17,-1,-1,-1,-1,-1,-1,-1,-1],"loss_changes":[2.2813785E0,1.6952175E0,7.305651E-1,3.368154E0,6.2021375E0,0E0,0E0,5.99336E-1,2.6178582E0,1.7654793E0,1.3220916E0,0E0,0E0,0E0,0E0,0E0,0E0,0E0,0E0],"parents":[2147483647,0,0,1,1,2,2,3,3,4,4,7,7,8,8,9,9,10,10],"right_children":[2,4,6,8,10,-1,-1,12,14,16,18,-1,-1,-1,-1,-1,-1,-1,-1],"split_conditions":[3.064764E-1,6.548306E-2,4.42604E-2,2.3315068E-2,2.3020893E-2,-3.501531E-2,3.245003E-4,-2.8652688E-2,1.306406E9,1.1313009E9,2.4224622E-2,7.5139194E-3,-2.08915E-2,3.944218E-2,-2.2135812E-3,4.5982003E-2,-1.2548555E-3,-5.1460832E-2,-1.2450644E-2],"split_indices":[3,2,1,1,1,0,0,2,4,4,1,0,0,0,0,0,0,0,0],"split_type":[0,0,0,0,0,0,0,0,0,0,0,0,0,0,0,0,0,0,0],"sum_hessian":[4.4025333E1,3.8029884E1,5.9954476E0,2.0533716E1,1.749617E1,4.8397393E0,1.1557083E0,6.7128854E0,1.382083E1,5.8610716E0,1.1635098E1,1.0402663E0,5.6726193E0,8.79102E0,5.02981E0,3.296218E0,2.5648534E0,3.4422853E0,8.192813E0],"tree_param":{"num_deleted":"0","num_feature":"5","num_nodes":"19","size_leaf_vector":"1"}},{"base_weights":[1.1555932E-1,-2.2454215E-3,6.0753185E-1,7.741364E-2,-3.0365473E-2,3.6134165E-2,-1.7288147E-3,-2.596224E-1,1.9005013E-1,6.502221E-3,-2.5816718E-2,3.3627406E-2,-0E0],"categories":[],"categories_nodes":[],"categories_segments":[],"categories_sizes":[],"default_left":[0,0,0,0,0,0,0,0,0,0,0,0,0],"id":49,"left_children":[1,3,5,7,-1,-1,-1,9,11,-1,-1,-1,-1],"loss_changes":[2.9290621E0,2.1154354E0,8.9134955E-1,1.4490013E0,0E0,0E0,0E0,1.1136281E0,2.5772278E0,0E0,0E0,0E0,0E0],"parents":[2147483647,0,0,1,1,2,2,3,3,7,7,8,8],"right_children":[2,4,6,8,-1,-1,-1,10,12,-1,-1,-1,-1],"split_conditions":[1.3778517E0,1.3663489E9,1.3450792E9,1.2289488E-1,-3.0365473E-2,3.6134165E-2,-1.7288147E-3,8.635612E-2,1.612962E-1,6.502221E-3,-2.5816718E-2,3.3627406E-2,-0E0],"split_indices":[0,4,4,3,0,0,0,3,3,0,0,0,0],"split_type":[0,0,0,0,0,0,0,0,0,0,0,0,0],"sum_hessian":[4.6914745E1,3.872784E1,8.186906E0,3.508615E1,3.6416879E0,7.0464826E0,1.1404232E0,7.853498E0,2.7232655E1,3.1035802E0,4.7499175E0,6.4921656E0,2.074049E1],"tree_param":{"num_deleted":"0","num_feature":"5","num_nodes":"13","size_leaf_vector":"1"}}]},"name":"gbtree"},"learner_model_param":{"base_score":"[5.5709344E-1]","boost_from_average":"1","num_class":"0","num_feature":"5","num_target":"1"},"objective":{"name":"binary:logistic","reg_loss_param":{"scale_pos_weight":"1"}}},"version":[3,3,0]}