{"learner":{"attributes":{"scikit_learn":"{\"_estimator_type\": \"classifier\"}"},"feature_names":["rsi","volume_ratio","close_to_support","close_to_resistance","sentiment_1d","sentiment_3d","sentiment_5d","price_momentum_5d","price_momentum_10d","volatility_20d","pe_ratio","debt_to_equity","eps_growth","operating_margin"],"feature_types":["float","float","float","float","float","float","float","float","float","float","float","float","float","float"],"gradient_booster":{"model":{"cats":{"enc":[],"feature_segments":[],"sorted_idx":[]},"gbtree_model_param":{"num_parallel_tree":"1","num_trees":"100"},"iteration_indptr":[0,1,2,3,4,5,6,7,8,9,10,11,12,13,14,15,16,17,18,19,20,21,22,23,24,25,26,27,28,29,30,31,32,33,34,35,36,37,38,39,40,41,42,43,44,45,46,47,48,49,50,51,52,53,54,55,56,57,58,59,60,61,62,63,64,65,66,67,68,69,70,71,72,73,74,75,76,77,78,79,80,81,82,83,84,85,86,87,88,89,90,91,92,93,94,95,96,97,98,99,100],"tree_info":[0,0,0,0,0,0,0,0,0,0,0,0,0,0,0,0,0,0,0,0,0,0,0,0,0,0,0,0,0,0,0,0,0,0,0,0,0,0,0,0,0,0,0,0,0,0,0,0,0,0,0,0,0,0,0,0,0,0,0,0,0,0,0,0,0,0,0,0,0,0,0,0,0,0,0,0,0,0,0,0,0,0,0,0,0,0,0,0,0,0,0,0,0,0,0,0,0,0,0,0],"trees":[{"base_weights":[9.517244E-2,6.8768185E-1,-1.6489269E-1,-7.539097E-1,1.1359696E0,-4.220428E-1,1.3811179E-1,-4.729589E-3,-5.37316E-2,7.205245E-2,-1.2042455E-2,4.2578094E-3,-3.1864643E-2,6.0855966E-2,-1.1452484E-2],"categories":[],"categories_nodes":[],"categories_segments":[],"categories_sizes":[],"default_left":[0,0,0,0,0,0,0,0,0,0,0,0,0,0,0],"id":0,"left_children":[1,3,5,7,9,11,13,-1,-1,-1,-1,-1,-1,-1,-1],"loss_changes":[8.833248E0,1.2649115E1,3.227841E0,6.580837E-1,6.652973E0,2.6083467E0,8.119635E0,0E0,0E0,0E0,0E0,0E0,0E0,0E0,0E0],"parents":[2147483647,0,0,1,1,2,2,3,3,4,4,5,5,6,6],"right_children":[2,4,6,8,10,12,14,-1,-1,-1,-1,-1,-1,-1,-1],"split_conditions":[2.0561608E-2,1.6194057E-2,5.3664597E1,1.546055E-2,7.1755454E-2,-8.573299E-2,7.212159E-3,-4.729589E-3,-5.37316E-2,7.205245E-2,-1.2042455E-2,4.2578094E-3,-3.1864643E-2,6.0855966E-2,-1.1452484E-2],"split_indices":[9,9,0,9,8,8,8,0,0,0,0,0,0,0,0],"split_type":[0,0,0,0,0,0,0,0,0,0,0,0,0,0,0],"sum_hessian":[5.404249E1,1.5967098E1,3.807539E1,3.4390674E0,1.2528031E1,2.0634403E1,1.7440985E1,1.9651814E0,1.473886E0,1.0317202E1,2.210829E0,6.1411915E0,1.4493213E1,3.684715E0,1.3756269E1],"tree_param":{"num_deleted":"0","num_feature":"14","num_nodes":"15","size_leaf_vector":"1"}},{"base_weights":[-0E0,2.4261884E-1,-6.0313904E-1,4.3943405E-1,-2.768616E-1,-9.606659E-1,6.8329424E-1,-2.5495473E-2,2.7305583E-2,-5.6219656E-2,4.7938675E-3,-6.292519E-2,-2.483625E-3,4.4348735E-2,-0E0],"categories":[],"categories_nodes":[],"categories_segments":[],"categories_sizes":[],"default_left":[0,0,0,0,0,0,0,0,0,0,0,0,0,0,0],"id":1,"left_children":[1,3,5,7,9,11,13,-1,-1,-1,-1,-1,-1,-1,-1],"loss_changes":[8.624577E0,4.4534187E0,8.859213E0,3.556665E0,4.168248E0,3.456315E0,4.5622516E-1,0E0,0E0,0E0,0E0,0E0,0E0,0E0,0E0],"parents":[2147483647,0,0,1,1,2,2,3,3,4,4,5,5,6,6],"right_children":[2,4,6,8,10,12,14,-1,-1,-1,-1,-1,-1,-1,-1],"split_conditions":[6.8151794E-2,1.2010889E0,3.029859E-1,2.254274E1,1.2864258E0,3.0071815E-2,8.186346E1,-2.5495473E-2,2.7305583E-2,-5.6219656E-2,4.7938675E-3,-6.292519E-2,-2.483625E-3,4.4348735E-2,-0E0],"split_indices":[8,1,2,0,1,3,0,0,0,0,0,0,0,0,0],"split_type":[0,0,0,0,0,0,0,0,0,0,0,0,0,0,0],"sum_hessian":[5.545533E1,3.9954834E1,1.5500494E1,2.942336E1,1.0531474E1,1.2548359E1,2.9521346E0,2.210151E0,2.721321E1,2.4568403E0,8.074635E0,8.859968E0,3.688391E0,1.7220784E0,1.230056E0],"tree_param":{"num_deleted":"0","num_feature":"14","num_nodes":"15","size_leaf_vector":"1"}},{"base_weights":[-2.8699E-2,8.1966555E-1,-1.9140056E-1,-0E0,9.9293387E-1,-8.984847E-1,-5.9418585E-3,6.095171E-2,9.76052E-3,-6.591325E-2,6.814986E-3,1.20340325E-2,-1.5351109E-2],"categories":[],"categories_nodes":[],"categories_segments":[],"categories_sizes":[],"default_left":[0,0,0,0,0,0,0,0,0,0,0,0,0],"id":2,"left_children":[1,3,5,-1,7,9,11,-1,-1,-1,-1,-1,-1],"loss_changes":[8.236141E0,1.3064966E0,6.4746304E0,0E0,7.742648E-1,4.990679E0,3.2419853E0,0E0,0E0,0E0,0E0,0E0,0E0],"parents":[2147483647,0,0,1,1,2,2,4,4,5,5,6,6],"right_children":[2,4,6,-1,8,10,12,-1,-1,-1,-1,-1,-1],"split_conditions":[2.5994522E-2,2.254274E1,5.31283E-2,-0E0,2.1324024E-2,1.2374009E-1,2.706513E-2,6.095171E-2,9.76052E-3,-6.591325E-2,6.814986E-3,1.20340325E-2,-1.5351109E-2],"split_indices":[2,0,2,0,9,3,9,0,0,0,0,0,0],"split_type":[0,0,0,0,0,0,0,0,0,0,0,0,0],"sum_hessian":[5.7374554E1,8.060287E0,4.9314266E1,1.7202908E0,6.339997E0,8.824473E0,4.048979E1,4.12727E0,2.2127264E0,6.122936E0,2.7015378E0,2.2058092E1,1.84317E1],"tree_param":{"num_deleted":"0","num_feature":"14","num_nodes":"13","size_leaf_vector":"1"}},{"base_weights":[-8.8932335E-2,6.577618E-1,-2.1980436E-1,5.2961674E-2,-0E0,-1.1190611E0,3.0981144E-2,-2.6160616E-2,3.3819463E-2,-6.572224E-2,-1.2318059E-2,2.0050604E-2,-1.0329865E-2],"categories":[],"categories_nodes":[],"categories_segments":[],"categories_sizes":[],"default_left":[0,0,0,0,0,0,0,0,0,0,0,0,0],"id":3,"left_children":[1,3,5,-1,7,9,11,-1,-1,-1,-1,-1,-1],"loss_changes":[6.100747E0,2.559969E0,1.230032E1,0E0,2.251208E0,1.222209E0,3.9432561E0,0E0,0E0,0E0,0E0,0E0,0E0],"parents":[2147483647,0,0,1,1,2,2,4,4,5,5,6,6],"right_children":[2,4,6,-1,8,10,12,-1,-1,-1,-1,-1,-1],"split_conditions":[2.5994522E-2,-6.1234206E-2,5.8111418E-2,5.2961674E-2,3.8917088E1,2.7415164E-2,3.6184218E-2,-2.6160616E-2,3.3819463E-2,-6.572224E-2,-1.2318059E-2,2.0050604E-2,-1.0329865E-2],"split_indices":[2,8,2,0,0,9,8,0,0,0,0,0,0],"split_type":[0,0,0,0,0,0,0,0,0,0,0,0,0],"sum_hessian":[5.96071E1,7.7607455E0,5.1846355E1,4.3527455E0,3.4079998E0,1.0347361E1,4.1498997E1,2.203197E0,1.2048029E0,7.646895E0,2.7004652E0,1.6152016E1,2.534698E1],"tree_param":{"num_deleted":"0","num_feature":"14","num_nodes":"13","size_leaf_vector":"1"}},{"base_weights":[2.9575773E-2,7.398935E-1,-1.293529E-1,5.740411E-2,-0E0,-9.625217E-1,1.0059463E-1,-3.6686312E-2,2.8526187E-2,8.439416E-3,-5.9434053E-2,2.9277772E-2,-1.39937075E-2],"categories":[],"categories_nodes":[],"categories_segments":[],"categories_sizes":[],"default_left":[0,0,0,0,0,0,0,0,0,0,0,0,0],"id":4,"left_children":[1,3,5,-1,7,9,11,-1,-1,-1,-1,-1,-1],"loss_changes":[6.8808417E0,3.1483922E0,9.692134E0,0E0,2.9571967E0,3.2972698E0,7.5984526E0,0E0,0E0,0E0,0E0,0E0,0E0],"parents":[2147483647,0,0,1,1,2,2,4,4,5,5,6,6],"right_children":[2,4,6,-1,8,10,12,-1,-1,-1,-1,-1,-1],"split_conditions":[2.5994522E-2,-6.0181566E-2,5.5167496E-2,5.740411E-2,3.595617E1,1.9612413E-2,3.6184218E-2,-3.6686312E-2,2.8526187E-2,8.439416E-3,-5.9434053E-2,2.9277772E-2,-1.39937075E-2],"split_indices":[2,8,2,0,0,9,8,0,0,0,0,0,0],"split_type":[0,0,0,0,0,0,0,0,0,0,0,0,0],"sum_hessian":[5.7098473E1,9.667152E0,4.743132E1,5.526642E0,4.14051E0,9.413696E0,3.8017624E1,1.4737315E0,2.6667788E0,1.484418E0,7.929278E0,1.6589321E1,2.1428305E1],"tree_param":{"num_deleted":"0","num_feature":"14","num_nodes":"13","size_leaf_vector":"1"}},{"base_weights":[-1.8716656E-2,6.6888654E-1,-1.8051833E-1,5.309394E-2,-7.5323194E-2,-1.0148766E0,3.0277878E-2,-2.9899476E-2,3.3082426E-2,-7.463522E-2,2.6797503E-3,1.06293E-2,-2.1150751E-2],"categories":[],"categories_nodes":[],"categories_segments":[],"categories_sizes":[],"default_left":[0,0,0,0,0,0,0,0,0,0,0,0,0],"id":5,"left_children":[1,3,5,-1,7,9,11,-1,-1,-1,-1,-1,-1],"loss_changes":[6.68445E0,3.6471543E0,8.939666E0,0E0,2.568075E0,5.619298E0,3.459432E0,0E0,0E0,0E0,0E0,0E0,0E0],"parents":[2147483647,0,0,1,1,2,2,4,4,5,5,6,6],"right_children":[2,4,6,-1,8,10,12,-1,-1,-1,-1,-1,-1],"split_conditions":[2.8863557E-2,-4.627068E-2,5.31283E-2,5.309394E-2,3.8283512E1,1.2374009E-1,6.064606E-2,-2.9899476E-2,3.3082426E-2,-7.463522E-2,2.6797503E-3,1.06293E-2,-2.1150751E-2],"split_indices":[2,8,2,0,0,3,7,0,0,0,0,0,0],"split_type":[0,0,0,0,0,0,0,0,0,0,0,0,0],"sum_hessian":[5.7832016E1,9.88538E0,4.7946636E1,6.2260637E0,3.6593156E0,8.707659E0,3.9238976E1,2.4652205E0,1.1940953E0,5.734683E0,2.9729757E0,2.8866867E1,1.037211E1],"tree_param":{"num_deleted":"0","num_feature":"14","num_nodes":"13","size_leaf_vector":"1"}},{"base_weights":[3.8161353E-4,-6.4216875E-2,1.2497997E-1,8.8091713E-1,-1.1400932E-1,5.0952233E-2,-1.498099E-3,-1.1566129E-2,3.898911E-2],"categories":[],"categories_nodes":[],"categories_segments":[],"categories_sizes":[],"default_left":[0,0,0,0,0,0,0,0,0],"id":6,"left_children":[1,-1,3,5,7,-1,-1,-1,-1],"loss_changes":[9.017572E0,0E0,9.845005E0,1.8866224E0,4.4863906E0,0E0,0E0,0E0,0E0],"parents":[2147483647,0,0,2,2,3,3,4,4],"right_children":[2,-1,4,6,8,-1,-1,-1,-1],"split_conditions":[1.6194057E-2,-6.4216875E-2,2.016526E-2,7.1755454E-2,5.3015273E-2,5.0952233E-2,-1.498099E-3,-1.1566129E-2,3.898911E-2],"split_indices":[9,0,9,8,9,0,0,0,0],"split_type":[0,0,0,0,0,0,0,0,0],"sum_hessian":[5.47782E1,3.4666889E0,5.131151E1,1.1558653E1,3.9752857E1,1.00726595E1,1.485993E0,3.632113E1,3.4317248E0],"tree_param":{"num_deleted":"0","num_feature":"14","num_nodes":"9","size_leaf_vector":"1"}},{"base_weights":[8.6218745E-2,5.3642637E-1,-1.279794E-1,-6.661099E-1,9.583095E-1,-2.7394676E-1,7.489494E-1,-0E0,-5.5073496E-2,5.35776E-2,-0E0,-5.1677315E-3,-5.9989374E-2,4.5942534E-2,-0E0],"categories":[],"categories_nodes":[],"categories_segments":[],"categories_sizes":[],"default_left":[0,0,0,0,0,0,0,0,0,0,0,0,0,0,0],"id":7,"left_children":[1,3,5,7,9,11,13,-1,-1,-1,-1,-1,-1,-1,-1],"loss_changes":[5.7216883E0,1.0706432E1,5.3094516E0,1.7046418E0,1.4282217E0,5.149047E0,6.3814855E-1,0E0,0E0,0E0,0E0,0E0,0E0,0E0,0E0],"parents":[2147483647,0,0,1,1,2,2,3,3,4,4,5,5,6,6],"right_children":[2,4,6,8,10,12,14,-1,-1,-1,-1,-1,-1,-1,-1],"split_conditions":[2.063084E-2,1.6194057E-2,5.3015273E-2,1.546055E-2,7.1755454E-2,4.7389843E-2,6.230245E-2,-0E0,-5.5073496E-2,5.35776E-2,-0E0,-5.1677315E-3,-5.9989374E-2,4.5942534E-2,-0E0],"split_indices":[9,9,9,9,8,9,9,0,0,0,0,0,0,0,0],"split_type":[0,0,0,0,0,0,0,0,0,0,0,0,0,0,0],"sum_hessian":[5.5917942E1,1.7600956E1,3.8316986E1,4.222558E0,1.3378398E1,3.39289E1,4.388086E0,2.224677E0,1.997881E0,1.1643697E1,1.7347012E0,3.0240383E1,3.6885166E0,3.167757E0,1.2203288E0],"tree_param":{"num_deleted":"0","num_feature":"14","num_nodes":"15","size_leaf_vector":"1"}},{"base_weights":[-0E0,8.008375E-1,-1.4978184E-1,5.7991613E-2,2.0389404E-2,-4.8522246E-1,1.3239892E-1,3.4173578E-2,-2.5967712E-2,2.9238162E-3,-4.3891154E-2,5.6096893E-2,-3.477752E-3],"categories":[],"categories_nodes":[],"categories_segments":[],"categories_sizes":[],"default_left":[0,0,0,0,0,0,0,0,0,0,0,0,0],"id":8,"left_children":[1,3,5,-1,7,9,11,-1,-1,-1,-1,-1,-1],"loss_changes":[7.0092363E0,2.3144765E0,4.7647414E0,0E0,2.2152843E0,5.115836E0,5.7704587E0,0E0,0E0,0E0,0E0,0E0,0E0],"parents":[2147483647,0,0,1,1,2,2,4,4,5,5,6,6],"right_children":[2,4,6,-1,8,10,12,-1,-1,-1,-1,-1,-1],"split_conditions":[2.5994522E-2,-6.1234206E-2,5.3664597E1,5.7991613E-2,2.0238398E-2,2.3068693E-2,1.2950299E-2,3.4173578E-2,-2.5967712E-2,2.9238162E-3,-4.3891154E-2,5.6096893E-2,-3.477752E-3],"split_indices":[2,8,0,0,9,9,8,0,0,0,0,0,0],"split_type":[0,0,0,0,0,0,0,0,0,0,0,0,0],"sum_hessian":[5.4804348E1,7.729863E0,4.7074482E1,4.619522E0,3.1103413E0,2.1338236E1,2.5736246E1,1.3827398E0,1.7276014E0,9.269034E0,1.2069202E1,3.3718717E0,2.2364376E1],"tree_param":{"num_deleted":"0","num_feature":"14","num_nodes":"13","size_leaf_vector":"1"}},{"base_weights":[4.690554E-2,8.2514876E-1,-1.1785907E-1,5.998038E-2,-1.2903729E-2,4.3120107E-1,-3.5654438E-1,3.7375975E-2,-2.4563728E-2,3.338744E-2,-2.4262344E-2],"categories":[],"categories_nodes":[],"categories_segments":[],"categories_sizes":[],"default_left":[0,0,0,0,0,0,0,0,0,0,0],"id":9,"left_children":[1,3,5,-1,-1,7,9,-1,-1,-1,-1],"loss_changes":[7.4056745E0,4.749085E0,6.363959E0,0E0,0E0,4.8740144E0,4.9019985E0,0E0,0E0,0E0,0E0],"parents":[2147483647,0,0,1,1,2,2,5,5,6,6],"right_children":[2,4,6,-1,-1,8,10,-1,-1,-1,-1],"split_conditions":[-5.072308E-2,4.7389843E-2,2.016526E-2,5.998038E-2,-1.2903729E-2,7.1755454E-2,8.443948E-3,3.7375975E-2,-2.4563728E-2,3.338744E-2,-2.4262344E-2],"split_indices":[7,9,9,0,0,8,3,0,0,0,0],"split_type":[0,0,0,0,0,0,0,0,0,0,0],"sum_hessian":[5.4013607E1,8.599032E0,4.5414574E1,6.407498E0,2.191534E0,1.3140054E1,3.227452E1,1.0158116E1,2.9819376E0,2.727887E0,2.9546633E1],"tree_param":{"num_deleted":"0","num_feature":"14","num_nodes":"11","size_leaf_vector":"1"}},{"base_weights":[-9.072179E-2,-2.0650904E-1,5.1928557E-2,3.0788976E-1,-4.2347243E-1,-3.351096E-2,3.7240077E-2,1.5788613E-2,-2.937277E-2],"categories":[],"categories_nodes":[],"categories_segments":[],"categories_sizes":[],"default_left":[0,0,0,0,0,0,0,0,0],"id":10,"left_children":[1,3,-1,5,7,-1,-1,-1,-1],"loss_changes":[7.6328006E0,6.1650114E0,0E0,7.772543E0,4.985011E0,0E0,0E0,0E0,0E0],"parents":[2147483647,0,0,1,1,3,3,4,4],"right_children":[2,4,-1,6,8,-1,-1,-1,-1],"split_conditions":[5.3015273E-2,2.016526E-2,5.1928557E-2,1.6194057E-2,-5.072308E-2,-3.351096E-2,3.7240077E-2,1.5788613E-2,-2.937277E-2],"split_indices":[9,9,0,9,7,0,0,0,0],"split_type":[0,0,0,0,0,0,0,0,0],"sum_hessian":[5.5685925E1,5.1779716E1,3.9062095E0,1.4900844E1,3.6878872E1,4.2122297E0,1.0688613E1,6.221935E0,3.0656939E1],"tree_param":{"num_deleted":"0","num_feature":"14","num_nodes":"9","size_leaf_vector":"1"}},{"base_weights":[-0E0,6.7635113E-1,-1.3428874E-1,4.905123E-2,-0E0,-6.8815076E-1,-0E0,-2.9003728E-2,2.5024554E-2,-4.566985E-2,9.400262E-3,2.0248944E-2,-1.624587E-2],"categories":[],"categories_nodes":[],"categories_segments":[],"categories_sizes":[],"default_left":[0,0,0,0,0,0,0,0,0,0,0,0,0],"id":11,"left_children":[1,3,5,-1,7,9,11,-1,-1,-1,-1,-1,-1],"loss_changes":[5.118664E0,1.9254332E0,3.5938563E0,0E0,1.7078371E0,2.260148E0,5.459054E0,0E0,0E0,0E0,0E0,0E0,0E0],"parents":[2147483647,0,0,1,1,2,2,4,4,5,5,6,6],"right_children":[2,4,6,-1,8,10,12,-1,-1,-1,-1,-1,-1],"split_conditions":[2.3970986E-2,-6.0181566E-2,5.31283E-2,4.905123E-2,-3.4285706E-2,1.481638E-1,3.8860638E-2,-2.9003728E-2,2.5024554E-2,-4.566985E-2,9.400262E-3,2.0248944E-2,-1.624587E-2],"split_indices":[2,8,2,0,7,3,8,0,0,0,0,0,0],"split_type":[0,0,0,0,0,0,0,0,0,0,0,0,0],"sum_hessian":[5.4171967E1,7.802441E0,4.6369526E1,4.9222608E0,2.8801801E0,7.9120913E0,3.8457436E1,1.2315849E0,1.6485951E0,6.4248686E0,1.4872229E0,1.7021593E1,2.1435843E1],"tree_param":{"num_deleted":"0","num_feature":"14","num_nodes":"13","size_leaf_vector":"1"}},{"base_weights":[7.336447E-2,4.933623E-1,-9.876469E-2,-4.2603627E-1,7.818614E-1,-2.939397E-1,3.8754517E-1,-0E0,-3.9807342E-2,5.669243E-3,4.7958158E-2,-4.590459E-2,6.96778E-3,-2.901845E-2,3.669706E-2],"categories":[],"categories_nodes":[],"categories_segments":[],"categories_sizes":[],"default_left":[0,0,0,0,0,0,0,0,0,0,0,0,0,0,0],"id":12,"left_children":[1,3,5,7,9,11,13,-1,-1,-1,-1,-1,-1,-1,-1],"loss_changes":[4.3442883E0,5.198099E0,4.1427927E0,8.383732E-1,1.278492E0,8.7717495E0,4.825401E0,0E0,0E0,0E0,0E0,0E0,0E0,0E0,0E0],"parents":[2147483647,0,0,1,1,2,2,3,3,4,4,5,5,6,6],"right_children":[2,4,6,8,10,12,14,-1,-1,-1,-1,-1,-1,-1,-1],"split_conditions":[2.0561608E-2,1.6194057E-2,1.3376065E-1,1.546055E-2,2.5671225E-2,5.3664597E1,2.4165829E1,-0E0,-3.9807342E-2,5.669243E-3,4.7958158E-2,-4.590459E-2,6.96778E-3,-2.901845E-2,3.669706E-2],"split_indices":[9,9,3,9,3,0,0,0,0,0,0,0,0,0,0],"split_type":[0,0,0,0,0,0,0,0,0,0,0,0,0,0,0],"sum_hessian":[5.6489403E1,1.5945267E1,4.0544136E1,3.4720566E0,1.247321E1,2.9649326E1,1.0894808E1,2.225608E0,1.2464485E0,3.366783E0,9.106427E0,1.1650433E1,1.7998896E1,2.452206E0,8.442602E0],"tree_param":{"num_deleted":"0","num_feature":"14","num_nodes":"15","size_leaf_vector":"1"}},{"base_weights":[7.1639754E-2,8.349569E-1,-1.6528461E-2,-0E0,5.1615454E-2,-9.8507416E-1,1.3254517E-1,-6.0217198E-2,-0E0,1.8603643E-2,-1.1576295E-2],"categories":[],"categories_nodes":[],"categories_segments":[],"categories_sizes":[],"default_left":[0,0,0,0,0,0,0,0,0,0,0],"id":13,"left_children":[1,3,5,-1,-1,7,9,-1,-1,-1,-1],"loss_changes":[4.057788E0,1.0380077E0,7.9942656E0,0E0,0E0,1.7892928E0,4.2495856E0,0E0,0E0,0E0,0E0],"parents":[2147483647,0,0,1,1,2,2,5,5,6,6],"right_children":[2,4,6,-1,-1,8,10,-1,-1,-1,-1],"split_conditions":[1.5923584E-2,2.1303143E1,3.595617E1,-0E0,5.1615454E-2,1.2304531E0,2.7012445E-2,-6.0217198E-2,-0E0,1.8603643E-2,-1.1576295E-2],"split_indices":[2,0,0,0,0,1,9,0,0,0,0],"split_type":[0,0,0,0,0,0,0,0,0,0,0],"sum_hessian":[5.605399E1,4.723507E0,5.1330482E1,1.1780568E0,3.54545E0,5.903639E0,4.542684E1,4.6867733E0,1.2168652E0,2.771145E1,1.7715391E1],"tree_param":{"num_deleted":"0","num_feature":"14","num_nodes":"11","size_leaf_vector":"1"}},{"base_weights":[-2.5900446E-2,8.987615E-1,-1.4099908E-1,5.4285288E-2,-0E0,7.627236E-1,-2.2411041E-1,2.8377425E-4,4.8314467E-2,-3.3828925E-2,-4.536599E-3],"categories":[],"categories_nodes":[],"categories_segments":[],"categories_sizes":[],"default_left":[0,0,0,0,0,0,0,0,0,0,0],"id":14,"left_children":[1,3,5,-1,-1,7,9,-1,-1,-1,-1],"loss_changes":[6.3093405E0,1.018259E0,4.1961517E0,0E0,0E0,5.1805687E-1,2.8148487E0,0E0,0E0,0E0,0E0],"parents":[2147483647,0,0,1,1,2,2,5,5,6,6],"right_children":[2,4,6,-1,-1,8,10,-1,-1,-1,-1],"split_conditions":[-6.663584E-2,2.0599413E-1,3.8694888E-1,5.4285288E-2,-0E0,3.1861424E-2,5.659294E-1,2.8377425E-4,4.8314467E-2,-3.3828925E-2,-4.536599E-3],"split_indices":[7,3,1,0,0,9,1,0,0,0,0],"split_type":[0,0,0,0,0,0,0,0,0,0,0],"sum_hessian":[5.742101E1,5.0334525E0,5.2387554E1,3.8410506E0,1.1924018E0,3.1764014E0,4.9211155E1,1.2080487E0,1.9683527E0,9.471606E0,3.9739548E1],"tree_param":{"num_deleted":"0","num_feature":"14","num_nodes":"11","size_leaf_vector":"1"}},{"base_weights":[5.2661453E-3,-2.4367416E-1,3.4264565E-1,5.502479E-1,-5.141252E-1,4.863855E-2,1.1114059E-1,4.589122E-2,-4.238235E-3,2.0239167E-2,-3.1405747E-2,-6.817938E-3,4.0337373E-2],"categories":[],"categories_nodes":[],"categories_segments":[],"categories_sizes":[],"default_left":[0,0,0,0,0,0,0,0,0,0,0,0,0],"id":15,"left_children":[1,3,5,7,9,-1,11,-1,-1,-1,-1,-1,-1],"loss_changes":[5.0898046E0,7.806257E0,3.4082797E0,2.449614E0,3.215692E0,0E0,3.8993294E0,0E0,0E0,0E0,0E0,0E0,0E0],"parents":[2147483647,0,0,1,1,2,2,3,3,4,4,6,6],"right_children":[2,4,6,8,10,-1,12,-1,-1,-1,-1,-1,-1],"split_conditions":[5.5510853E1,2.5994522E-2,3.7967633E-2,-6.0181566E-2,-7.6032326E-2,4.863855E-2,1.4491389E0,4.589122E-2,-4.238235E-3,2.0239167E-2,-3.1405747E-2,-6.817938E-3,4.0337373E-2],"split_indices":[0,2,8,8,7,0,1,0,0,0,0,0,0],"split_type":[0,0,0,0,0,0,0,0,0,0,0,0,0],"sum_hessian":[5.7375156E1,3.291337E1,2.4461788E1,7.7808805E0,2.5132488E1,5.049879E0,1.941191E1,4.7045584E0,3.076322E0,2.1576717E0,2.2974817E1,1.4995055E1,4.416854E0],"tree_param":{"num_deleted":"0","num_feature":"14","num_nodes":"13","size_leaf_vector":"1"}},{"base_weights":[2.1329742E-2,5.5599123E-1,-1.02237575E-1,-1.7338077E-2,8.152387E-1,-1.9551481E-1,7.7664953E-1,-1.3922097E-2,5.2293546E-2,1.6478052E-2,-2.163841E-2,1.5034318E-3,4.8616778E-2],"categories":[],"categories_nodes":[],"categories_segments":[],"categories_sizes":[],"default_left":[0,0,0,0,0,0,0,0,0,0,0,0,0],"id":16,"left_children":[1,3,5,-1,7,9,11,-1,-1,-1,-1,-1,-1],"loss_changes":[4.0147896E0,3.1961923E0,4.0597E0,0E0,2.9893465E0,5.8334117E0,4.447651E-1,0E0,0E0,0E0,0E0,0E0,0E0],"parents":[2147483647,0,0,1,1,2,2,4,4,5,5,6,6],"right_children":[2,4,6,-1,8,10,12,-1,-1,-1,-1,-1,-1],"split_conditions":[-4.5282375E-2,5.04487E-1,3.029859E-1,-1.7338077E-2,-1.390785E-1,2.016526E-2,7.810557E-2,-1.3922097E-2,5.2293546E-2,1.6478052E-2,-2.163841E-2,1.5034318E-3,4.8616778E-2],"split_indices":[7,1,2,0,7,9,7,0,0,0,0,0,0],"split_type":[0,0,0,0,0,0,0,0,0,0,0,0,0],"sum_hessian":[5.660453E1,9.944617E0,4.6659912E1,1.933602E0,8.011016E0,4.344312E1,3.2167904E0,1.1899635E0,6.821052E0,1.3076458E1,3.0366663E1,1.2396836E0,1.9771067E0],"tree_param":{"num_deleted":"0","num_feature":"14","num_nodes":"13","size_leaf_vector":"1"}},{"base_weights":[3.6340192E-2,-7.702844E-1,1.1392122E-1,2.7204177E-3,-5.594159E-2,6.776859E-1,-5.6864023E-2,4.328289E-2,-1.1131219E-2,2.1902194E-2,-8.649881E-3],"categories":[],"categories_nodes":[],"categories_segments":[],"categories_sizes":[],"default_left":[0,0,0,0,0,0,0,0,0,0,0],"id":17,"left_children":[1,3,5,-1,-1,7,9,-1,-1,-1,-1],"loss_changes":[3.5641193E0,1.7310066E0,5.3316174E0,0E0,0E0,2.587884E0,2.4838786E0,0E0,0E0,0E0,0E0],"parents":[2147483647,0,0,1,1,2,2,5,5,6,6],"right_children":[2,4,6,-1,-1,8,10,-1,-1,-1,-1],"split_conditions":[1.6194057E-2,1.5305158E-2,2.0238398E-2,2.7204177E-3,-5.594159E-2,7.1755454E-2,-5.2243806E-2,4.328289E-2,-1.1131219E-2,2.1902194E-2,-8.649881E-3],"split_indices":[9,3,9,0,0,8,7,0,0,0,0],"split_type":[0,0,0,0,0,0,0,0,0,0,0],"sum_hessian":[5.5448463E1,3.46378E0,5.1984684E1,1.2346151E0,2.2291648E0,1.1323758E1,4.0660923E1,9.599418E0,1.7243403E0,6.6104083E0,3.4050518E1],"tree_param":{"num_deleted":"0","num_feature":"14","num_nodes":"11","size_leaf_vector":"1"}},{"base_weights":[-9.1837775E-3,-8.281364E-1,6.610407E-2,-5.5912435E-2,-0E0,6.688129E-1,-1.1079677E-1,4.5212086E-2,-1.0705362E-2,2.8644962E-2,-1.326848E-2],"categories":[],"categories_nodes":[],"categories_segments":[],"categories_sizes":[],"default_left":[0,0,0,0,0,0,0,0,0,0,0],"id":18,"left_children":[1,3,5,-1,-1,7,9,-1,-1,-1,-1],"loss_changes":[3.8048575E0,1.0863686E0,6.001169E0,0E0,0E0,3.0823302E0,4.7033186E0,0E0,0E0,0E0,0E0],"parents":[2147483647,0,0,1,1,2,2,5,5,6,6],"right_children":[2,4,6,-1,-1,8,10,-1,-1,-1,-1],"split_conditions":[1.6194057E-2,2.7511736E-2,2.016526E-2,-5.5912435E-2,-0E0,7.151436E-2,-5.216195E-2,4.5212086E-2,-1.0705362E-2,2.8644962E-2,-1.326848E-2],"split_indices":[9,7,9,0,0,8,7,0,0,0,0],"split_type":[0,0,0,0,0,0,0,0,0,0,0],"sum_hessian":[5.6406258E1,3.7097774E0,5.269648E1,2.2259965E0,1.4837809E0,1.1267412E1,4.1429066E1,9.045694E0,2.2217185E0,6.652184E0,3.4776882E1],"tree_param":{"num_deleted":"0","num_feature":"14","num_nodes":"11","size_leaf_vector":"1"}},{"base_weights":[-5.8084995E-2,7.187908E-1,-2.1104072E-1,8.269496E-1,-0E0,-8.927508E-1,-4.8642964E-3,5.1485028E-2,6.410442E-3,-6.0183275E-2,-0E0,2.2799235E-2,-1.4124565E-2],"categories":[],"categories_nodes":[],"categories_segments":[],"categories_sizes":[],"default_left":[0,0,0,0,0,0,0,0,0,0,0,0,0],"id":19,"left_children":[1,3,5,7,-1,9,11,-1,-1,-1,-1,-1,-1],"loss_changes":[6.6816683E0,7.3449516E-1,6.4858494E0,7.0735073E-1,0E0,3.1151714E0,5.043382E0,0E0,0E0,0E0,0E0,0E0,0E0],"parents":[2147483647,0,0,1,1,2,2,3,3,5,5,6,6],"right_children":[2,4,6,8,-1,10,12,-1,-1,-1,-1,-1,-1],"split_conditions":[2.5994522E-2,4.543886E-2,5.31283E-2,-4.627068E-2,-0E0,1.3098294E-1,2.7274638E-2,5.1485028E-2,6.410442E-3,-6.0183275E-2,-0E0,2.2799235E-2,-1.4124565E-2],"split_indices":[2,9,2,8,0,3,8,0,0,0,0,0,0],"split_type":[0,0,0,0,0,0,0,0,0,0,0,0,0],"sum_hessian":[5.366965E1,7.700672E0,4.596898E1,6.5253735E0,1.1752989E0,9.289315E0,3.6679665E1,4.285236E0,2.240137E0,6.5854597E0,2.7038558E0,1.3156459E1,2.3523207E1],"tree_param":{"num_deleted":"0","num_feature":"14","num_nodes":"13","size_leaf_vector":"1"}},{"base_weights":[-2.811189E-2,-5.064648E-2,5.6702886E-2,7.6354873E-1,-1.5434106E-1,-0E0,4.2521715E-2,2.5239075E-2,-1.6613742E-2],"categories":[],"categories_nodes":[],"categories_segments":[],"categories_sizes":[],"default_left":[0,0,0,0,0,0,0,0,0],"id":20,"left_children":[1,-1,3,5,7,-1,-1,-1,-1],"loss_changes":[4.704852E0,0E0,7.762856E0,7.274952E-1,4.856921E0,0E0,0E0,0E0,0E0],"parents":[2147483647,0,0,2,2,3,3,4,4],"right_children":[2,-1,4,6,8,-1,-1,-1,-1],"split_conditions":[1.6194057E-2,-5.064648E-2,2.0238398E-2,-3.6069077E-2,-5.216195E-2,-0E0,4.2521715E-2,2.5239075E-2,-1.6613742E-2],"split_indices":[9,0,9,7,7,0,0,0,0],"split_type":[0,0,0,0,0,0,0,0,0],"sum_hessian":[5.150619E1,2.969538E0,4.8536655E1,1.0474689E1,3.8061966E1,1.3159394E0,9.15875E0,7.2662225E0,3.0795744E1],"tree_param":{"num_deleted":"0","num_feature":"14","num_nodes":"9","size_leaf_vector":"1"}},{"base_weights":[3.75091E-2,5.963692E-1,-6.252613E-2,8.04425E-1,-0E0,-4.6947565E-2,2.9717835E-2,4.3610055E-2,4.685949E-3,-2.747958E-2,2.8898105E-2,-3.5941682E-3,3.4505665E-2],"categories":[],"categories_nodes":[],"categories_segments":[],"categories_sizes":[],"default_left":[0,0,0,0,0,0,0,0,0,0,0,0,0],"id":21,"left_children":[1,3,5,7,9,-1,11,-1,-1,-1,-1,-1,-1],"loss_changes":[3.3559706E0,1.0616078E0,4.22561E0,4.6162605E-3,1.738682E0,0E0,3.286846E0,0E0,0E0,0E0,0E0,0E0,0E0],"parents":[2147483647,0,0,1,1,2,2,3,3,4,4,6,6],"right_children":[2,4,6,8,10,-1,12,-1,-1,-1,-1,-1,-1],"split_conditions":[2.5994522E-2,-4.627068E-2,3.1735657E1,1.18537E0,3.688853E1,-4.6947565E-2,1.4279646E-1,4.3610055E-2,4.685949E-3,-2.747958E-2,2.8898105E-2,-3.5941682E-3,3.4505665E-2],"split_indices":[2,8,0,1,0,0,3,0,0,0,0,0,0],"split_type":[0,0,0,0,0,0,0,0,0,0,0,0,0],"sum_hessian":[5.5618855E1,7.6178164E0,4.8001038E1,5.15186E0,2.4659564E0,3.4663486E0,4.453469E1,4.1352463E0,1.0166137E0,1.2248842E0,1.2410723E0,3.949266E1,5.0420294E0],"tree_param":{"num_deleted":"0","num_feature":"14","num_nodes":"13","size_leaf_vector":"1"}},{"base_weights":[3.13172E-2,4.916828E-1,-1.3288328E-1,-5.3160477E-1,8.2840556E-1,-3.4949356E-1,4.7188228E-1,3.1058094E-3,-4.269834E-2,1.6298968E-3,4.8444428E-2,-4.085078E-2,-6.915699E-3,4.3089837E-2,-9.298916E-3],"categories":[],"categories_nodes":[],"categories_segments":[],"categories_sizes":[],"default_left":[0,0,0,0,0,0,0,0,0,0,0,0,0,0,0],"id":22,"left_children":[1,3,5,7,9,11,13,-1,-1,-1,-1,-1,-1,-1,-1],"loss_changes":[4.247105E0,5.826378E0,5.5438757E0,1.0869341E0,1.0809412E0,2.7012818E0,3.2245095E0,0E0,0E0,0E0,0E0,0E0,0E0,0E0,0E0],"parents":[2147483647,0,0,1,1,2,2,3,3,4,4,5,5,6,6],"right_children":[2,4,6,8,10,12,14,-1,-1,-1,-1,-1,-1,-1,-1],"split_conditions":[2.0561608E-2,1.6194057E-2,1.3803416E-1,1.546055E-2,-3.6069077E-2,2.2777997E-2,-2.5167858E-2,3.1058094E-3,-4.269834E-2,1.6298968E-3,4.8444428E-2,-4.085078E-2,-6.915699E-3,4.3089837E-2,-9.298916E-3],"split_indices":[9,9,3,9,7,9,7,0,0,0,0,0,0,0,0],"split_type":[0,0,0,0,0,0,0,0,0,0,0,0,0,0,0],"sum_hessian":[5.2438602E1,1.3320001E1,3.9118603E1,2.935878E0,1.0384123E1,2.9512058E1,9.6065445E0,1.2409185E0,1.6949596E0,2.0489511E0,8.335172E0,7.549106E0,2.1962952E1,5.9305315E0,3.6760132E0],"tree_param":{"num_deleted":"0","num_feature":"14","num_nodes":"15","size_leaf_vector":"1"}},{"base_weights":[3.4785196E-2,-4.4780023E-2,1.1795774E-1,5.5428594E-1,-1.0705507E-1,-3.1250815E-3,6.0489696E-2,-3.656278E-2,6.3987926E-4],"categories":[],"categories_nodes":[],"categories_segments":[],"categories_sizes":[],"default_left":[0,0,0,0,0,0,0,0,0],"id":23,"left_children":[1,-1,3,5,7,-1,-1,-1,-1],"loss_changes":[4.1552906E0,0E0,5.1639576E0,7.548601E0,2.7355444E0,0E0,0E0,0E0,0E0],"parents":[2147483647,0,0,2,2,3,3,4,4],"right_children":[2,-1,4,6,8,-1,-1,-1,-1],"split_conditions":[2.4165829E1,-4.4780023E-2,7.846554E-1,5.630552E-1,8.777687E-1,-3.1250815E-3,6.0489696E-2,-3.656278E-2,6.3987926E-4],"split_indices":[0,0,1,1,1,0,0,0,0],"split_type":[0,0,0,0,0,0,0,0,0],"sum_hessian":[5.216009E1,2.88059E0,4.9279503E1,1.6322304E1,3.29572E1,8.951466E0,7.370838E0,4.3449883E0,2.861221E1],"tree_param":{"num_deleted":"0","num_feature":"14","num_nodes":"9","size_leaf_vector":"1"}},{"base_weights":[9.2864654E-4,3.6590728E-1,-1.1762805E-1,-2.3890808E-2,5.2855337E-1,-7.651269E-1,4.1517287E-2,4.6752594E-4,3.9239947E-2,-3.789415E-3,-5.2428406E-2,3.6385935E-2,-1.4848047E-3],"categories":[],"categories_nodes":[],"categories_segments":[],"categories_sizes":[],"default_left":[0,0,0,0,0,0,0,0,0,0,0,0,0],"id":24,"left_children":[1,3,5,-1,7,9,11,-1,-1,-1,-1,-1,-1],"loss_changes":[2.520516E0,2.3669121E0,4.5921354E0,0E0,1.5590546E0,1.3653569E0,1.9042461E0,0E0,0E0,0E0,0E0,0E0,0E0],"parents":[2147483647,0,0,1,1,2,2,4,4,5,5,6,6],"right_children":[2,4,6,-1,8,10,12,-1,-1,-1,-1,-1,-1],"split_conditions":[-3.8461573E-2,-1.793194E-1,3.8917088E1,-2.3890808E-2,9.319305E-2,1.1087569E-1,4.1413492E-1,4.6752594E-4,3.9239947E-2,-3.789415E-3,-5.2428406E-2,3.6385935E-2,-1.4848047E-3],"split_indices":[7,7,0,0,3,3,1,0,0,0,0,0,0],"split_type":[0,0,0,0,0,0,0,0,0,0,0,0,0],"sum_hessian":[5.4110397E1,1.2913481E1,4.119692E1,1.4185364E0,1.1494945E1,7.248952E0,3.3947964E1,4.570159E0,6.924785E0,2.8716633E0,4.3772883E0,2.1557424E0,3.1792223E1],"tree_param":{"num_deleted":"0","num_feature":"14","num_nodes":"13","size_leaf_vector":"1"}},{"base_weights":[5.767797E-2,1.1481076E-1,-4.083729E-2,-6.229371E-1,1.8141402E-1,-4.9372625E-2,5.387264E-3,3.3487108E-2,2.6815446E-4],"categories":[],"categories_nodes":[],"categories_segments":[],"categories_sizes":[],"default_left":[0,0,0,0,0,0,0,0,0],"id":25,"left_children":[1,3,-1,5,7,-1,-1,-1,-1],"loss_changes":[2.8706758E0,2.8064175E0,0E0,1.5825938E0,4.354131E0,0E0,0E0,0E0,0E0],"parents":[2147483647,0,0,1,1,3,3,4,4],"right_children":[2,4,-1,6,8,-1,-1,-1,-1],"split_conditions":[1.1395492E-1,1.6194057E-2,-4.083729E-2,2.7511736E-2,2.0561608E-2,-4.9372625E-2,5.387264E-3,3.3487108E-2,2.6815446E-4],"split_indices":[7,9,0,7,9,0,0,0,0],"split_type":[0,0,0,0,0,0,0,0,0],"sum_hessian":[5.595607E1,5.396209E1,1.9939816E0,3.1821308E0,5.0779957E1,1.953959E0,1.2281718E0,1.20402975E1,3.873966E1],"tree_param":{"num_deleted":"0","num_feature":"14","num_nodes":"9","size_leaf_vector":"1"}},{"base_weights":[6.959756E-2,7.4420905E-1,-7.926905E-3,4.526098E-2,-0E0,-8.0651544E-2,7.4363023E-1,2.0163662E-3,-3.932046E-2,2.9090755E-3,4.5937285E-2],"categories":[],"categories_nodes":[],"categories_segments":[],"categories_sizes":[],"default_left":[0,0,0,0,0,0,0,0,0,0,0],"id":26,"left_children":[1,3,5,-1,-1,7,9,-1,-1,-1,-1],"loss_changes":[3.1084394E0,6.250942E-1,2.7913673E0,0E0,0E0,4.3695707E0,2.6203918E-1,0E0,0E0,0E0,0E0],"parents":[2147483647,0,0,1,1,2,2,5,5,6,6],"right_children":[2,4,6,-1,-1,8,10,-1,-1,-1,-1],"split_conditions":[1.5923584E-2,-6.0181566E-2,3.029859E-1,4.526098E-2,-0E0,1.00666545E-1,7.810557E-2,2.0163662E-3,-3.932046E-2,2.9090755E-3,4.5937285E-2],"split_indices":[2,8,2,0,0,8,7,0,0,0,0],"split_type":[0,0,0,0,0,0,0,0,0,0,0],"sum_hessian":[5.495118E1,4.6002765E0,5.0350903E1,3.3860202E0,1.2142564E0,4.7372078E1,2.978827E0,4.1405396E1,5.966683E0,1.2452111E0,1.7336159E0],"tree_param":{"num_deleted":"0","num_feature":"14","num_nodes":"11","size_leaf_vector":"1"}},{"base_weights":[1.7965904E-2,2.1867113E-1,-2.521846E-1,-1.4915101E-1,4.3016434E-1,-4.9277583E-1,5.645823E-1,1.9454367E-2,-3.103368E-2,-2.2760838E-2,3.1421356E-2,-1.2048571E-2,-6.437593E-2,4.490416E-2,-1.3167384E-2],"categories":[],"categories_nodes":[],"categories_segments":[],"categories_sizes":[],"default_left":[0,0,0,0,0,0,0,0,0,0,0,0,0,0,0],"id":27,"left_children":[1,3,5,7,9,11,13,-1,-1,-1,-1,-1,-1,-1,-1],"loss_changes":[3.11599E0,2.7503867E0,5.1526628E0,3.6978602E0,4.314256E0,3.1634645E0,2.1410828E0,0E0,0E0,0E0,0E0,0E0,0E0,0E0,0E0],"parents":[2147483647,0,0,1,1,2,2,3,3,4,4,5,5,6,6],"right_children":[2,4,6,8,10,12,14,-1,-1,-1,-1,-1,-1,-1,-1],"split_conditions":[2.706513E-2,5.5167496E-2,5.3015273E-2,2.1669725E-2,1.6194057E-2,4.7389843E-2,6.3611485E-2,1.9454367E-2,-3.103368E-2,-2.2760838E-2,3.1421356E-2,-1.2048571E-2,-6.437593E-2,4.490416E-2,-1.3167384E-2],"split_indices":[9,2,9,2,9,9,9,0,0,0,0,0,0,0,0],"split_type":[0,0,0,0,0,0,0,0,0,0,0,0,0,0,0],"sum_hessian":[5.456676E1,3.1896091E1,2.2670671E1,1.1460631E1,2.043546E1,1.8160961E1,4.50971E0,5.2760997E0,6.1845317E0,3.1986146E0,1.7236845E1,1.5466922E1,2.694039E0,3.2963598E0,1.2133499E0],"tree_param":{"num_deleted":"0","num_feature":"14","num_nodes":"15","size_leaf_vector":"1"}},{"base_weights":[2.8625041E-2,2.5254664E-1,-2.5138807E-1,-6.4524984E-1,4.6625993E-1,-4.322571E-1,4.495881E-1,-0E0,-4.036077E-2,-2.94108E-3,2.8099382E-2,3.311513E-3,-4.430145E-2,-7.7506932E-3,4.670788E-2],"categories":[],"categories_nodes":[],"categories_segments":[],"categories_sizes":[],"default_left":[0,0,0,0,0,0,0,0,0,0,0,0,0,0,0],"id":28,"left_children":[1,3,5,7,9,11,13,-1,-1,-1,-1,-1,-1,-1,-1],"loss_changes":[3.4810193E0,6.3918467E0,3.3749285E0,7.925067E-1,1.4676437E0,4.8540716E0,1.9850273E0,0E0,0E0,0E0,0E0,0E0,0E0,0E0,0E0],"parents":[2147483647,0,0,1,1,2,2,3,3,4,4,5,5,6,6],"right_children":[2,4,6,8,10,12,14,-1,-1,-1,-1,-1,-1,-1,-1],"split_conditions":[2.706513E-2,5.630552E-1,5.3015273E-2,4.1413492E-1,1.6389737E-2,7.212159E-3,-8.22217E-2,-0E0,-4.036077E-2,-2.94108E-3,2.8099382E-2,3.311513E-3,-4.430145E-2,-7.7506932E-3,4.670788E-2],"split_indices":[9,1,9,1,9,8,8,0,0,0,0,0,0,0,0],"split_type":[0,0,0,0,0,0,0,0,0,0,0,0,0,0,0],"sum_hessian":[5.2495266E1,2.9647814E1,2.2847452E1,4.9381723E0,2.4709642E1,1.8845257E1,4.002196E0,1.1081531E0,3.830019E0,3.5771973E0,2.1132444E1,9.380598E0,9.464659E0,2.0508027E0,1.9513932E0],"tree_param":{"num_deleted":"0","num_feature":"14","num_nodes":"15","size_leaf_vector":"1"}},{"base_weights":[-3.6834866E-2,5.594639E-1,-1.311338E-1,4.271933E-2,4.8468374E-2,-7.479004E-1,4.1442398E-2,-1.33376345E-2,2.1893738E-2,-5.5886306E-2,-0E0,2.3524715E-2,-8.408944E-3],"categories":[],"categories_nodes":[],"categories_segments":[],"categories_sizes":[],"default_left":[0,0,0,0,0,0,0,0,0,0,0,0,0],"id":29,"left_children":[1,3,5,-1,7,9,11,-1,-1,-1,-1,-1,-1],"loss_changes":[3.2109556E0,9.2275906E-1,5.5562267E0,0E0,7.824678E-1,3.2745252E0,3.8286252E0,0E0,0E0,0E0,0E0,0E0,0E0],"parents":[2147483647,0,0,1,1,2,2,4,4,5,5,6,6],"right_children":[2,4,6,-1,8,10,12,-1,-1,-1,-1,-1,-1],"split_conditions":[2.5994522E-2,-6.1234206E-2,5.5167496E-2,4.271933E-2,1.3655554E-1,1.2181E-1,2.5531901E-2,-1.33376345E-2,2.1893738E-2,-5.5886306E-2,-0E0,2.3524715E-2,-8.408944E-3],"split_indices":[2,8,2,0,3,3,8,0,0,0,0,0,0],"split_type":[0,0,0,0,0,0,0,0,0,0,0,0,0],"sum_hessian":[5.5170033E1,6.2333355E0,4.8936695E1,3.0649757E0,3.1683598E0,9.859242E0,3.9077454E1,1.7282324E0,1.4401273E0,6.2069435E0,3.652299E0,1.2526212E1,2.655124E1],"tree_param":{"num_deleted":"0","num_feature":"14","num_nodes":"13","size_leaf_vector":"1"}},{"base_weights":[-1.1317909E-2,-6.6153795E-2,6.53138E-1,6.993655E-2,-8.1750005E-1,2.5299962E-3,4.0597107E-2,-6.4432556E-3,1.7110422E-2,2.2136016E-2,-5.718058E-2],"categories":[],"categories_nodes":[],"categories_segments":[],"categories_sizes":[],"default_left":[0,0,0,0,0,0,0,0,0,0,0],"id":30,"left_children":[1,3,5,7,9,-1,-1,-1,-1,-1,-1],"loss_changes":[2.0281456E0,5.797005E0,1.6903329E-1,2.6641016E0,4.4688654E0,0E0,0E0,0E0,0E0,0E0,0E0],"parents":[2147483647,0,0,1,1,2,2,3,3,4,4],"right_children":[2,4,6,8,10,-1,-1,-1,-1,-1,-1],"split_conditions":[3.029859E-1,6.885546E-2,8.039426E-2,9.74886E-2,4.5372972E-1,2.5299962E-3,4.0597107E-2,-6.4432556E-3,1.7110422E-2,2.2136016E-2,-5.718058E-2],"split_indices":[2,7,7,2,1,0,0,0,0,0,0],"split_type":[0,0,0,0,0,0,0,0,0,0,0],"sum_hessian":[5.5606422E1,5.2892956E1,2.7134671E0,4.57081E1,7.1848583E0,1.2412498E0,1.4722172E0,2.6450521E1,1.9257578E1,1.2406934E0,5.9441648E0],"tree_param":{"num_deleted":"0","num_feature":"14","num_nodes":"11","size_leaf_vector":"1"}},{"base_weights":[-4.2039637E-2,5.66677E-1,-1.4515838E-1,4.1249696E-2,-2.401225E-2,-8.04634E-1,2.9222114E-2,-1.5030265E-2,9.987318E-3,-5.560398E-2,-5.7735164E-3,-1.2303836E-2,1.2767988E-2],"categories":[],"categories_nodes":[],"categories_segments":[],"categories_sizes":[],"default_left":[0,0,0,0,0,0,0,0,0,0,0,0,0],"id":31,"left_children":[1,3,5,-1,7,9,11,-1,-1,-1,-1,-1,-1],"loss_changes":[3.5518277E0,1.430696E0,5.863322E0,0E0,3.3899462E-1,1.8096333E0,2.600131E0,0E0,0E0,0E0,0E0,0E0,0E0],"parents":[2147483647,0,0,1,1,2,2,4,4,5,5,6,6],"right_children":[2,4,6,-1,8,10,12,-1,-1,-1,-1,-1,-1],"split_conditions":[2.5994522E-2,-4.627068E-2,5.31283E-2,4.1249696E-2,1.8069467E-2,1.2181E-1,3.0071815E-2,-1.5030265E-2,9.987318E-3,-5.560398E-2,-5.7735164E-3,-1.2303836E-2,1.2767988E-2],"split_indices":[2,8,2,0,2,3,3,0,0,0,0,0,0],"split_type":[0,0,0,0,0,0,0,0,0,0,0,0,0],"sum_hessian":[5.4462067E1,6.631762E0,4.7830307E1,4.435602E0,2.1961598E0,9.108637E0,3.872167E1,1.1514693E0,1.0446905E0,5.4614854E0,3.6471517E0,1.7004185E1,2.1717484E1],"tree_param":{"num_deleted":"0","num_feature":"14","num_nodes":"13","size_leaf_vector":"1"}},{"base_weights":[-8.194382E-2,-7.501644E-1,3.4635894E-2,7.5261976E-4,-1.035134E0,-3.5130095E-2,3.979287E-2,2.2797897E-2,-1.828116E-2,-5.5390834E-3,-5.7133365E-2,-1.5068603E-2,7.846238E-3],"categories":[],"categories_nodes":[],"categories_segments":[],"categories_sizes":[],"default_left":[0,0,0,0,0,0,0,0,0,0,0,0,0],"id":32,"left_children":[1,3,5,7,9,11,-1,-1,-1,-1,-1,-1,-1],"loss_changes":[4.450659E0,2.018529E0,2.7344358E0,8.740856E-1,1.8835783E-1,2.4015439E0,0E0,0E0,0E0,0E0,0E0,0E0,0E0],"parents":[2147483647,0,0,1,1,2,2,3,3,4,4,5,5],"right_children":[2,4,6,8,10,12,-1,-1,-1,-1,-1,-1,-1],"split_conditions":[3.4298958E1,-4.056313E-2,1.7451155E-1,1.6962698E-1,1.03630215E-1,5.3664597E1,3.979287E-2,2.2797897E-2,-1.828116E-2,-5.5390834E-3,-5.7133365E-2,-1.5068603E-2,7.846238E-3],"split_indices":[0,7,3,3,3,0,0,0,0,0,0,0,0],"split_type":[0,0,0,0,0,0,0,0,0,0,0,0,0],"sum_hessian":[5.3294945E1,6.960665E0,4.633428E1,2.1333447E0,4.8273206E0,4.3514236E1,2.820042E0,1.0312221E0,1.1021225E0,1.0142308E0,3.8130894E0,1.8313774E1,2.5200462E1],"tree_param":{"num_deleted":"0","num_feature":"14","num_nodes":"13","size_leaf_vector":"1"}},{"base_weights":[-7.3879063E-3,-8.300914E-2,6.2836033E-1,-3.4943144E-4,-4.7052525E-2,-0E0,4.700088E-2,3.7267715E-2,-5.341068E-3],"categories":[],"categories_nodes":[],"categories_segments":[],"categories_sizes":[],"default_left":[0,0,0,0,0,0,0,0,0],"id":33,"left_children":[1,3,5,7,-1,-1,-1,-1,-1],"loss_changes":[2.5832894E0,3.3717237E0,9.8935366E-1,3.7632623E0,0E0,0E0,0E0,0E0,0E0],"parents":[2147483647,0,0,1,1,2,2,3,3],"right_children":[2,4,6,8,-1,-1,-1,-1,-1],"split_conditions":[5.3015273E-2,4.7389843E-2,-8.22217E-2,-5.216195E-2,-4.7052525E-2,-0E0,4.700088E-2,3.7267715E-2,-5.341068E-3],"split_indices":[9,9,8,7,0,0,0,0,0],"split_type":[0,0,0,0,0,0,0,0,0],"sum_hessian":[5.2874672E1,4.8700558E1,4.1741166E0,4.6002583E1,2.6979747E0,2.0190895E0,2.1550272E0,4.3883677E0,4.1614216E1],"tree_param":{"num_deleted":"0","num_feature":"14","num_nodes":"9","size_leaf_vector":"1"}},{"base_weights":[5.2601613E-2,-1.0493599E-2,4.415986E-2,1.3082932E-1,-7.880159E-1,-2.2221958E-2,9.800535E-3,-4.6726648E-2,-0E0],"categories":[],"categories_nodes":[],"categories_segments":[],"categories_sizes":[],"default_left":[0,0,0,0,0,0,0,0,0],"id":34,"left_children":[1,3,-1,5,7,-1,-1,-1,-1],"loss_changes":[3.1331863E0,6.1627564E0,0E0,1.8180187E0,1.1187277E0,0E0,0E0,0E0,0E0],"parents":[2147483647,0,0,1,1,3,3,4,4],"right_children":[2,4,-1,6,8,-1,-1,-1,-1],"split_conditions":[3.029859E-1,6.885546E-2,4.415986E-2,1.6194057E-2,5.0439555E-2,-2.2221958E-2,9.800535E-3,-4.6726648E-2,-0E0],"split_indices":[2,7,0,9,9,0,0,0,0],"split_type":[0,0,0,0,0,0,0,0,0],"sum_hessian":[5.469032E1,5.198184E1,2.7084806E0,4.4824825E1,7.157011E0,3.3614762E0,4.146335E1,5.9362507E0,1.2207605E0],"tree_param":{"num_deleted":"0","num_feature":"14","num_nodes":"9","size_leaf_vector":"1"}},{"base_weights":[4.2059045E-2,-6.668272E-1,1.01849E-1,-4.4257347E-3,-3.9386015E-2,4.059615E-2,3.6162402E-2,-9.995424E-4,2.7298598E-2],"categories":[],"categories_nodes":[],"categories_segments":[],"categories_sizes":[],"default_left":[0,0,0,0,0,0,0,0,0],"id":35,"left_children":[1,3,5,-1,-1,-1,7,-1,-1],"loss_changes":[2.2522018E0,6.2663555E-3,2.1561408E0,0E0,0E0,0E0,1.5052345E0,0E0,0E0],"parents":[2147483647,0,0,1,1,2,2,6,6],"right_children":[2,4,6,-1,-1,-1,8,-1,-1],"split_conditions":[-1.2749472E-1,2.2163862E1,-6.663584E-2,-4.4257347E-3,-3.9386015E-2,4.059615E-2,2.6785395E-1,-9.995424E-4,2.7298598E-2],"split_indices":[8,0,7,0,0,0,2,0,0],"split_type":[0,0,0,0,0,0,0,0,0],"sum_hessian":[5.190009E1,2.5921812E0,4.9307907E1,1.1834693E0,1.4087118E0,2.474364E0,4.683354E1,4.313166E1,3.7018828E0],"tree_param":{"num_deleted":"0","num_feature":"14","num_nodes":"9","size_leaf_vector":"1"}},{"base_weights":[2.2764297E-2,6.4363575E-1,-4.546206E-2,4.0912207E-2,-0E0,-5.0215185E-1,1.1462497E-1,-4.291449E-2,1.1065298E-2,2.1192865E-2,-1.4247467E-2],"categories":[],"categories_nodes":[],"categories_segments":[],"categories_sizes":[],"default_left":[0,0,0,0,0,0,0,0,0,0,0],"id":36,"left_children":[1,3,5,-1,-1,7,9,-1,-1,-1,-1],"loss_changes":[2.3721595E0,6.4620566E-1,3.6795902E0,0E0,0E0,3.783564E0,4.719405E0,0E0,0E0,0E0,0E0],"parents":[2147483647,0,0,1,1,2,2,5,5,6,6],"right_children":[2,4,6,-1,-1,8,10,-1,-1,-1,-1],"split_conditions":[1.7824084E-2,-6.1234206E-2,5.5167496E-2,4.0912207E-2,-0E0,1.3376065E-1,2.7012445E-2,-4.291449E-2,1.1065298E-2,2.1192865E-2,-1.4247467E-2],"split_indices":[2,8,2,0,0,3,9,0,0,0,0],"split_type":[0,0,0,0,0,0,0,0,0,0,0],"sum_hessian":[5.0639843E1,4.0514684E0,4.658837E1,2.9001374E0,1.1513308E0,1.1584575E1,3.50038E1,7.7609634E0,3.823611E0,1.9963406E1,1.5040394E1],"tree_param":{"num_deleted":"0","num_feature":"14","num_nodes":"11","size_leaf_vector":"1"}},{"base_weights":[5.0105218E-2,5.5019706E-1,-3.0777395E-2,4.3809026E-2,-0E0,1.8221347E-1,-3.9747113E-1,-1.6151851E-2,1.5442163E-2,-9.117956E-3,3.0443633E-2,-3.0818203E-2,1.6086748E-2],"categories":[],"categories_nodes":[],"categories_segments":[],"categories_sizes":[],"default_left":[0,0,0,0,0,0,0,0,0,0,0,0,0],"id":37,"left_children":[1,3,5,-1,7,9,11,-1,-1,-1,-1,-1,-1],"loss_changes":[2.3061247E0,1.5615191E0,3.8538349E0,0E0,5.7701564E-1,5.0222473E0,3.226776E0,0E0,0E0,0E0,0E0,0E0,0E0],"parents":[2147483647,0,0,1,1,2,2,4,4,5,5,6,6],"right_children":[2,4,6,-1,8,10,12,-1,-1,-1,-1,-1,-1],"split_conditions":[2.3402024E-2,-6.0181566E-2,7.334338E-2,4.3809026E-2,1.4764656E-1,2.8559802E-2,5.3015273E-2,-1.6151851E-2,1.5442163E-2,-9.117956E-3,3.0443633E-2,-3.0818203E-2,1.6086748E-2],"split_indices":[2,8,3,0,3,3,9,0,0,0,0,0,0],"split_type":[0,0,0,0,0,0,0,0,0,0,0,0,0],"sum_hessian":[5.231727E1,6.4160924E0,4.5901176E1,3.6555195E0,2.7605727E0,2.9168264E1,1.6732912E1,1.5715777E0,1.1889949E0,1.5938891E1,1.3229373E1,1.3206148E1,3.526763E0],"tree_param":{"num_deleted":"0","num_feature":"14","num_nodes":"13","size_leaf_vector":"1"}},{"base_weights":[-6.057574E-2,5.1154065E-1,-1.5900357E-1,3.816943E-2,7.5222636E-3,-7.3273313E-1,1.9088787E-3,2.995844E-2,-2.1008033E-2,4.5079906E-3,-4.5283686E-2,2.0808807E-2,-7.1363496E-3],"categories":[],"categories_nodes":[],"categories_segments":[],"categories_sizes":[],"default_left":[0,0,0,0,0,0,0,0,0,0,0,0,0],"id":38,"left_children":[1,3,5,-1,7,9,11,-1,-1,-1,-1,-1,-1],"loss_changes":[3.2879138E0,9.1536474E-1,4.8084984E0,0E0,1.5798123E0,1.8983765E0,2.5792243E0,0E0,0E0,0E0,0E0,0E0,0E0],"parents":[2147483647,0,0,1,1,2,2,4,4,5,5,6,6],"right_children":[2,4,6,-1,8,10,12,-1,-1,-1,-1,-1,-1],"split_conditions":[2.5994522E-2,2.1324024E-2,5.31283E-2,3.816943E-2,1.1711321E-2,1.9612413E-2,1.3333638E-3,2.995844E-2,-2.1008033E-2,4.5079906E-3,-4.5283686E-2,2.0808807E-2,-7.1363496E-3],"split_indices":[2,9,2,0,2,9,8,0,0,0,0,0,0],"split_type":[0,0,0,0,0,0,0,0,0,0,0,0,0],"sum_hessian":[5.597275E1,6.9937334E0,4.897902E1,3.8841724E0,3.1095607E0,9.83282E0,3.91462E1,1.2485435E0,1.8610173E0,1.6314616E0,8.201359E0,9.759534E0,2.9386665E1],"tree_param":{"num_deleted":"0","num_feature":"14","num_nodes":"13","size_leaf_vector":"1"}},{"base_weights":[2.2220828E-2,6.4717907E-1,-3.282818E-2,2.0144528E-3,3.8378328E-2,-6.05466E-1,9.85315E-2,1.1348338E-2,-4.1963447E-2,3.6607917E-2,-2.5091793E-3],"categories":[],"categories_nodes":[],"categories_segments":[],"categories_sizes":[],"default_left":[0,0,0,0,0,0,0,0,0,0,0],"id":39,"left_children":[1,3,5,-1,-1,7,9,-1,-1,-1,-1],"loss_changes":[2.0475748E0,1.4423823E-1,4.0797105E0,0E0,0E0,2.3817875E0,4.248855E0,0E0,0E0,0E0,0E0],"parents":[2147483647,0,0,1,1,2,2,5,5,6,6],"right_children":[2,4,6,-1,-1,8,10,-1,-1,-1,-1],"split_conditions":[3.8694888E-1,3.1861424E-2,5.659294E-1,2.0144528E-3,3.8378328E-2,2.8863557E-2,7.846554E-1,1.1348338E-2,-4.1963447E-2,3.6607917E-2,-2.5091793E-3],"split_indices":[1,9,1,0,0,2,1,0,0,0,0],"split_type":[0,0,0,0,0,0,0,0,0,0,0],"sum_hessian":[5.3518982E1,3.3205113E0,5.019847E1,1.1560413E0,2.16447E0,8.640508E0,4.1557964E1,1.7167219E0,6.9237857E0,7.0367327E0,3.4521233E1],"tree_param":{"num_deleted":"0","num_feature":"14","num_nodes":"11","size_leaf_vector":"1"}},{"base_weights":[3.7320456E-3,4.3461226E-2,-6.3903555E-2,-1.3554467E-1,5.650939E-1,-2.1610023E-5,-3.3603344E-2,3.8193326E-2,-0E0],"categories":[],"categories_nodes":[],"categories_segments":[],"categories_sizes":[],"default_left":[0,0,0,0,0,0,0,0,0],"id":40,"left_children":[1,-1,3,5,7,-1,-1,-1,-1],"loss_changes":[3.4973056E0,0E0,2.4048562E0,3.4046881E0,7.5788E-1,0E0,0E0,0E0,0E0],"parents":[2147483647,0,0,2,2,3,3,4,4],"right_children":[2,-1,4,6,8,-1,-1,-1,-1],"split_conditions":[3.8694888E-1,4.3461226E-2,5.3015273E-2,3.49998E-2,1.1743357E0,-2.1610023E-5,-3.3603344E-2,3.8193326E-2,-0E0],"split_indices":[1,0,9,9,1,0,0,0,0],"split_type":[0,0,0,0,0,0,0,0,0],"sum_hessian":[5.40693E1,2.8448677E0,5.122443E1,4.732856E1,3.8958702E0,3.9304485E1,8.0240755E0,2.7518992E0,1.1439711E0],"tree_param":{"num_deleted":"0","num_feature":"14","num_nodes":"9","size_leaf_vector":"1"}},{"base_weights":[-8.068351E-2,4.0368548E-1,-1.6056693E-1,-1.4070325E-2,6.142031E-1,-6.4395356E-1,-1.1798467E-2,3.9531134E-2,5.2511296E-3,-5.9936946E-4,-5.0774205E-2,-2.6851404E-2,6.987465E-3],"categories":[],"categories_nodes":[],"categories_segments":[],"categories_sizes":[],"default_left":[0,0,0,0,0,0,0,0,0,0,0,0,0],"id":41,"left_children":[1,3,5,-1,7,9,11,-1,-1,-1,-1,-1,-1],"loss_changes":[2.127848E0,1.4334801E0,3.2773862E0,0E0,2.864554E-1,2.3231616E0,3.233393E0,0E0,0E0,0E0,0E0,0E0,0E0],"parents":[2147483647,0,0,1,1,2,2,4,4,5,5,6,6],"right_children":[2,4,6,-1,8,10,12,-1,-1,-1,-1,-1,-1],"split_conditions":[2.5994522E-2,2.254274E1,5.5167496E-2,-1.4070325E-2,2.1324024E-2,7.6949865E-1,6.2706834E-1,3.9531134E-2,5.2511296E-3,-5.9936946E-4,-5.0774205E-2,-2.6851404E-2,6.987465E-3],"split_indices":[2,0,2,0,9,1,1,0,0,0,0,0,0],"split_type":[0,0,0,0,0,0,0,0,0,0,0,0,0],"sum_hessian":[5.2236885E1,6.1801376E0,4.6056747E1,1.110634E0,5.069504E0,9.347411E0,3.670934E1,2.8575392E0,2.2119644E0,4.2333226E0,5.1140885E0,7.6613045E0,2.9048033E1],"tree_param":{"num_deleted":"0","num_feature":"14","num_nodes":"13","size_leaf_vector":"1"}},{"base_weights":[-3.5324037E-2,-3.9524775E-2,8.447669E-3,4.161223E-2,-5.3817753E-2,-1.2382097E-2,7.328526E-3],"categories":[],"categories_nodes":[],"categories_segments":[],"categories_sizes":[],"default_left":[0,0,0,0,0,0,0],"id":42,"left_children":[1,-1,3,-1,5,-1,-1],"loss_changes":[2.0377452E0,0E0,3.0309246E0,0E0,2.0974689E0,0E0,0E0],"parents":[2147483647,0,0,2,2,4,4],"right_children":[2,-1,4,-1,6,-1,-1],"split_conditions":[-1.869937E-1,-3.9524775E-2,-6.663584E-2,4.161223E-2,5.5510853E1,-1.2382097E-2,7.328526E-3],"split_indices":[8,0,7,0,0,0,0],"split_type":[0,0,0,0,0,0,0],"sum_hessian":[5.5112045E1,1.8677958E0,5.324425E1,2.6638162E0,5.0580433E1,2.6038866E1,2.4541567E1],"tree_param":{"num_deleted":"0","num_feature":"14","num_nodes":"7","size_leaf_vector":"1"}},{"base_weights":[6.483527E-2,2.6827577E-1,-1.8610863E-1,-3.650097E-2,3.8813657E-1,-3.4082475E-1,3.0905414E-2,2.3900608E-2,-1.3140303E-2,-2.2933342E-2,1.761637E-2],"categories":[],"categories_nodes":[],"categories_segments":[],"categories_sizes":[],"default_left":[0,0,0,0,0,0,0,0,0,0,0],"id":43,"left_children":[1,3,5,-1,7,9,-1,-1,-1,-1,-1],"loss_changes":[2.7706385E0,3.950982E0,3.239666E0,0E0,1.8682389E0,1.9998689E0,0E0,0E0,0E0,0E0,0E0],"parents":[2147483647,0,0,1,1,2,2,4,4,5,5],"right_children":[2,4,6,-1,8,10,-1,-1,-1,-1,-1],"split_conditions":[3.6184218E-2,-1.2749472E-1,3.029859E-1,-3.650097E-2,1.5466971E0,3.7280764E-2,3.0905414E-2,2.3900608E-2,-1.3140303E-2,-2.2933342E-2,1.761637E-2],"split_indices":[8,8,2,0,1,9,0,0,0,0,0],"split_type":[0,0,0,0,0,0,0,0,0,0,0],"sum_hessian":[5.0981873E1,2.8538815E1,2.2443056E1,2.0618296E0,2.6476984E1,1.975547E1,2.6875856E0,2.3884933E1,2.5920513E0,1.7565199E1,2.1902716E0],"tree_param":{"num_deleted":"0","num_feature":"14","num_nodes":"11","size_leaf_vector":"1"}},{"base_weights":[-7.95012E-2,2.2461724E-1,-1.8907262E-1,5.4706204E-1,-5.9116644E-1,4.811237E-1,-2.760383E-1,-2.3238383E-2,3.7470233E-2,-5.55604E-2,1.7995367E-2,-1.1968969E-2,4.0663548E-2,-2.791571E-2,1.3441584E-3],"categories":[],"categories_nodes":[],"categories_segments":[],"categories_sizes":[],"default_left":[0,0,0,0,0,0,0,0,0,0,0,0,0,0,0],"id":44,"left_children":[1,3,5,7,9,11,13,-1,-1,-1,-1,-1,-1,-1,-1],"loss_changes":[1.9574382E0,4.503735E0,2.677971E0,3.0215263E0,3.1650755E0,1.6627858E0,3.5050054E0,0E0,0E0,0E0,0E0,0E0,0E0,0E0,0E0],"parents":[2147483647,0,0,1,1,2,2,3,3,4,4,5,5,6,6],"right_children":[2,4,6,8,10,12,14,-1,-1,-1,-1,-1,-1,-1,-1],"split_conditions":[2.016526E-2,7.1755454E-2,-7.401029E-2,1.4795857E-2,1.3560864E0,-1.390785E-1,5.3664597E1,-2.3238383E-2,3.7470233E-2,-5.55604E-2,1.7995367E-2,-1.1968969E-2,4.0663548E-2,-2.791571E-2,1.3441584E-3],"split_indices":[9,8,7,9,1,7,0,0,0,0,0,0,0,0,0],"split_type":[0,0,0,0,0,0,0,0,0,0,0,0,0,0,0],"sum_hessian":[5.554352E1,1.38108635E1,4.173266E1,1.0428275E1,3.3825884E0,3.7483008E0,3.7984356E1,1.2489548E0,9.17932E0,2.1595113E0,1.2230772E0,1.1249126E0,2.6233883E0,1.9349348E1,1.863501E1],"tree_param":{"num_deleted":"0","num_feature":"14","num_nodes":"15","size_leaf_vector":"1"}},{"base_weights":[2.5321035E-2,-3.971855E-2,6.983446E-2,-1.1608984E-1,2.794618E-1,1.5492643E-2,-2.2267787E-2,3.840832E-2,-6.4715385E-3],"categories":[],"categories_nodes":[],"categories_segments":[],"categories_sizes":[],"default_left":[0,0,0,0,0,0,0,0,0],"id":45,"left_children":[1,-1,3,5,7,-1,-1,-1,-1],"loss_changes":[1.9608607E0,0E0,2.1932602E0,4.339318E0,5.5554767E0,0E0,0E0,0E0,0E0],"parents":[2147483647,0,0,2,2,3,3,4,4],"right_children":[2,-1,4,6,8,-1,-1,-1,-1],"split_conditions":[1.4104484E-2,-3.971855E-2,5.3664597E1,2.3068693E-2,6.440281E-2,1.5492643E-2,-2.2267787E-2,3.840832E-2,-6.4715385E-3],"split_indices":[9,0,0,9,8,0,0,0,0],"split_type":[0,0,0,0,0,0,0,0,0],"sum_hessian":[5.393179E1,1.2449611E0,5.268683E1,2.7771103E1,2.4915724E1,1.1881745E1,1.58893585E1,1.0972566E1,1.3943157E1],"tree_param":{"num_deleted":"0","num_feature":"14","num_nodes":"9","size_leaf_vector":"1"}},{"base_weights":[7.787013E-2,6.164537E-1,-1.1063972E-2,3.6953032E-2,-0E0,-4.8093766E-1,1.1937044E-1,-3.909431E-2,6.5677958E-3,2.227556E-2,-1.1764046E-2],"categories":[],"categories_nodes":[],"categories_segments":[],"categories_sizes":[],"default_left":[0,0,0,0,0,0,0,0,0,0,0],"id":46,"left_children":[1,3,5,-1,-1,7,9,-1,-1,-1,-1],"loss_changes":[2.6733816E0,6.8944407E-1,3.0208943E0,0E0,0E0,2.270498E0,4.528186E0,0E0,0E0,0E0,0E0],"parents":[2147483647,0,0,1,1,2,2,5,5,6,6],"right_children":[2,4,6,-1,-1,8,10,-1,-1,-1,-1],"split_conditions":[2.5994522E-2,4.543886E-2,5.5167496E-2,3.6953032E-2,-0E0,1.2181E-1,2.7012445E-2,-3.909431E-2,6.5677958E-3,2.227556E-2,-1.1764046E-2],"split_indices":[2,9,2,0,0,3,9,0,0,0,0],"split_type":[0,0,0,0,0,0,0,0,0,0,0],"sum_hessian":[5.1572136E1,6.3667407E0,4.52054E1,5.235359E0,1.1313813E0,9.279542E0,3.5925854E1,6.162019E0,3.1175232E0,1.8808771E1,1.7117083E1],"tree_param":{"num_deleted":"0","num_feature":"14","num_nodes":"11","size_leaf_vector":"1"}},{"base_weights":[-1.53345885E-2,3.4731336E-2,-9.3851514E-2,5.134861E-2,-3.470402E-1,-2.756286E-2,1.5985472E-2,-3.1370122E-2,2.0701205E-2],"categories":[],"categories_nodes":[],"categories_segments":[],"categories_sizes":[],"default_left":[0,0,0,0,0,0,0,0,0],"id":47,"left_children":[1,-1,3,5,7,-1,-1,-1,-1],"loss_changes":[2.745768E0,0E0,1.7875615E0,5.105466E0,4.1804233E0,0E0,0E0,0E0,0E0],"parents":[2147483647,0,0,2,2,3,3,4,4],"right_children":[2,-1,4,6,8,-1,-1,-1,-1],"split_conditions":[1.5923584E-2,3.4731336E-2,2.8322292E-2,5.5167496E-2,5.3015273E-2,-2.756286E-2,1.5985472E-2,-3.1370122E-2,2.0701205E-2],"split_indices":[2,0,9,2,9,0,0,0,0],"split_type":[0,0,0,0,0,0,0,0,0],"sum_hessian":[4.8158016E1,3.3698523E0,4.4788166E1,2.8722233E1,1.6065931E1,8.133006E0,2.0589228E1,1.2125386E1,3.9405446E0],"tree_param":{"num_deleted":"0","num_feature":"14","num_nodes":"9","size_leaf_vector":"1"}},{"base_weights":[8.429916E-3,4.2856693E-2,-6.819682E-2,-4.4879898E-1,6.032939E-2,-3.7984386E-2,1.1801757E-2,-1.5150592E-2,1.49676595E-2],"categories":[],"categories_nodes":[],"categories_segments":[],"categories_sizes":[],"default_left":[0,0,0,0,0,0,0,0,0],"id":48,"left_children":[1,-1,3,5,7,-1,-1,-1,-1],"loss_changes":[3.6855412E0,0E0,2.5490067E0,3.1658661E0,3.4420753E0,0E0,0E0,0E0,0E0],"parents":[2147483647,0,0,2,2,3,3,4,4],"right_children":[2,-1,4,6,8,-1,-1,-1,-1],"split_conditions":[1.5098099E-2,4.2856693E-2,5.8111418E-2,1.3376065E-1,2.7350402E-2,-3.7984386E-2,1.1801757E-2,-1.5150592E-2,1.49676595E-2],"split_indices":[2,0,2,3,3,0,0,0,0],"split_type":[0,0,0,0,0,0,0,0,0],"sum_hessian":[5.1397015E1,3.2070966E0,4.818992E1,1.1614474E1,3.6575443E1,8.076251E0,3.5382228E0,1.4022096E1,2.2553349E1],"tree_param":{"num_deleted":"0","num_feature":"14","num_nodes":"9","size_leaf_vector":"1"}},{"base_weights":[-3.2657105E-2,-1.11117765E-1,7.862301E-1,9.235826E-2,-4.1059485E-1,4.8423156E-2,1.8797526E-3,-3.922952E-3,4.3322314E-2,-2.6588658E-2,1.0814084E-2],"categories":[],"categories_nodes":[],"categories_segments":[],"categories_sizes":[],"default_left":[0,0,0,0,0,0,0,0,0,0,0],"id":49,"left_children":[1,3,5,7,9,-1,-1,-1,-1,-1,-1],"loss_changes":[3.6327264E0,3.3617423E0,4.1428924E-1,4.556736E0,1.9213934E0,0E0,0E0,0E0,0E0,0E0,0E0],"parents":[2147483647,0,0,1,1,2,2,3,3,4,4],"right_children":[2,4,6,8,10,-1,-1,-1,-1,-1,-1],"split_conditions":[2.936158E-1,3.8860638E-2,8.247362E1,5.537087E1,3.5047445E-2,4.8423156E-2,1.8797526E-3,-3.922952E-3,4.3322314E-2,-2.6588658E-2,1.0814084E-2],"split_indices":[2,8,0,0,9,0,0,0,0,0,0],"split_type":[0,0,0,0,0,0,0,0,0,0,0],"sum_hessian":[5.5102E1,5.1690075E1,3.411927E0,3.099826E1,2.0691814E1,2.174901E0,1.2370261E0,2.6287106E1,4.7111554E0,1.7797983E1,2.8938313E0],"tree_param":{"num_deleted":"0","num_feature":"14","num_nodes":"11","size_leaf_vector":"1"}},{"base_weights":[6.3397855E-2,4.1501008E-2,-0E0,4.421278E-1,-1.11435056E-1,-1.7336698E-2,3.0940631E-2,2.9273575E-2,-1.1129965E-2],"categories":[],"categories_nodes":[],"categories_segments":[],"categories_sizes":[],"default_left":[0,0,0,0,0,0,0,0,0],"id":50,"left_children":[1,-1,3,5,7,-1,-1,-1,-1],"loss_changes":[2.566276E0,0E0,2.5474162E0,1.8268154E0,3.3236802E0,0E0,0E0,0E0,0E0],"parents":[2147483647,0,0,2,2,3,3,4,4],"right_children":[2,-1,4,6,8,-1,-1,-1,-1],"split_conditions":[3.8694888E-1,4.1501008E-2,1.4996096E-2,1.2713361E-1,-6.411602E-2,-1.7336698E-2,3.0940631E-2,2.9273575E-2,-1.1129965E-2],"split_indices":[1,0,3,2,7,0,0,0,0],"split_type":[0,0,0,0,0,0,0,0,0],"sum_hessian":[5.12556E1,2.5327787E0,4.872282E1,8.9072E0,3.981562E1,1.1586113E0,7.748589E0,4.349386E0,3.5466232E1],"tree_param":{"num_deleted":"0","num_feature":"14","num_nodes":"9","size_leaf_vector":"1"}},{"base_weights":[-0E0,1.9188024E-1,-1.7721462E-1,1.1016392E-2,4.851432E-2,-2.628962E-1,2.6008734E-2,7.881498E-3,-2.9123878E-2,-4.561204E-3,-2.9063571E-2],"categories":[],"categories_nodes":[],"categories_segments":[],"categories_sizes":[],"default_left":[0,0,0,0,0,0,0,0,0,0,0],"id":51,"left_children":[1,3,5,7,-1,9,-1,-1,-1,-1,-1],"loss_changes":[1.7498215E0,3.2629945E0,1.7537601E0,1.9458815E0,0E0,1.157831E0,0E0,0E0,0E0,0E0,0E0],"parents":[2147483647,0,0,1,1,2,2,3,3,5,5],"right_children":[2,4,6,8,-1,10,-1,-1,-1,-1,-1],"split_conditions":[7.212159E-3,5.3664597E1,3.391988E-1,4.736E1,4.851432E-2,1.00666545E-1,2.6008734E-2,7.881498E-3,-2.9123878E-2,-4.561204E-3,-2.9063571E-2],"split_indices":[8,0,2,0,0,8,0,0,0,0,0],"split_type":[0,0,0,0,0,0,0,0,0,0,0],"sum_hessian":[4.8463158E1,2.3184982E1,2.5278175E1,2.0256516E1,2.9284678E0,2.3599995E1,1.678181E0,1.7397358E1,2.859157E0,1.6994383E1,6.605612E0],"tree_param":{"num_deleted":"0","num_feature":"14","num_nodes":"11","size_leaf_vector":"1"}},{"base_weights":[-4.6875615E-2,7.247417E-1,-1.2685257E-1,7.812081E-4,4.6521492E-2,-1.9042765E-1,3.409968E-2,-5.846877E-4,-5.0902944E-2],"categories":[],"categories_nodes":[],"categories_segments":[],"categories_sizes":[],"default_left":[0,0,0,0,0,0,0,0,0],"id":52,"left_children":[1,3,5,-1,-1,7,-1,-1,-1],"loss_changes":[3.239595E0,5.023413E-1,2.6063187E0,0E0,0E0,6.6773834E0,0E0,0E0,0E0],"parents":[2147483647,0,0,1,1,2,2,5,5],"right_children":[2,4,6,-1,-1,8,-1,-1,-1],"split_conditions":[4.1413492E-1,3.782506E1,3.029859E-1,7.812081E-4,4.6521492E-2,8.643903E-2,3.409968E-2,-5.846877E-4,-5.0902944E-2],"split_indices":[1,0,2,0,0,8,0,0,0],"split_type":[0,0,0,0,0,0,0,0,0],"sum_hessian":[5.0698772E1,3.3908002E0,4.7307972E1,1.3439093E0,2.046891E0,4.5153072E1,2.1549E0,3.8583492E1,6.56958E0],"tree_param":{"num_deleted":"0","num_feature":"14","num_nodes":"9","size_leaf_vector":"1"}},{"base_weights":[-2.9779842E-2,-8.1489034E-2,3.28131E-2,8.412029E-2,-3.1848815E-1,-1.5353158E-2,1.2458845E-2,-2.2513581E-2,1.8617053E-2],"categories":[],"categories_nodes":[],"categories_segments":[],"categories_sizes":[],"default_left":[0,0,0,0,0,0,0,0,0],"id":53,"left_children":[1,3,-1,5,7,-1,-1,-1,-1],"loss_changes":[1.8636965E0,2.103284E0,0E0,2.1002026E0,2.26454E0,0E0,0E0,0E0,0E0],"parents":[2147483647,0,0,1,1,3,3,4,4],"right_children":[2,4,-1,6,8,-1,-1,-1,-1],"split_conditions":[3.391988E-1,3.6184218E-2,3.28131E-2,3.595617E1,1.4491389E0,-1.5353158E-2,1.2458845E-2,-2.2513581E-2,1.8617053E-2],"split_indices":[2,8,0,0,1,0,0,0,0],"split_type":[0,0,0,0,0,0,0,0,0],"sum_hessian":[5.2015194E1,4.9869705E1,2.145486E0,2.9429077E1,2.044063E1,7.9901724E0,2.1438904E1,1.7847794E1,2.5928366E0],"tree_param":{"num_deleted":"0","num_feature":"14","num_nodes":"9","size_leaf_vector":"1"}},{"base_weights":[7.878641E-2,-3.953738E-1,1.6628864E-1,2.3842739E-1,-7.649609E-1,2.5095555E-1,-6.4030373E-1,-1.4688367E-2,3.2939654E-2,-0E0,-5.026857E-2,8.782581E-3,4.67774E-2,-4.3987785E-2,-0E0],"categories":[],"categories_nodes":[],"categories_segments":[],"categories_sizes":[],"default_left":[0,0,0,0,0,0,0,0,0,0,0,0,0,0,0],"id":54,"left_children":[1,3,5,7,9,11,13,-1,-1,-1,-1,-1,-1,-1,-1],"loss_changes":[2.239255E0,2.3226378E0,3.2977684E0,1.258325E0,8.684099E-1,1.7398727E0,7.576308E-1,0E0,0E0,0E0,0E0,0E0,0E0,0E0,0E0],"parents":[2147483647,0,0,1,1,2,2,3,3,4,4,5,5,6,6],"right_children":[2,4,6,8,10,12,14,-1,-1,-1,-1,-1,-1,-1,-1],"split_conditions":[3.400851E1,-4.056313E-2,1.9430243E0,-1.390785E-1,1.1101564E-1,2.936158E-1,2.986301E0,-1.4688367E-2,3.2939654E-2,-0E0,-5.026857E-2,8.782581E-3,4.67774E-2,-4.3987785E-2,-0E0],"split_indices":[0,7,1,7,3,2,1,0,0,0,0,0,0,0,0],"split_type":[0,0,0,0,0,0,0,0,0,0,0,0,0,0,0],"sum_hessian":[5.119821E1,6.797945E0,4.4400265E1,2.5006993E0,4.297246E0,4.1341923E1,3.058345E0,1.0929549E0,1.4077444E0,1.581896E0,2.71535E0,3.920631E1,2.1356106E0,1.8935441E0,1.1648011E0],"tree_param":{"num_deleted":"0","num_feature":"14","num_nodes":"15","size_leaf_vector":"1"}},{"base_weights":[-2.9977474E-3,3.6855605E-1,-1.2756303E-1,5.7798773E-1,-3.3774075E-1,-2.1804503E-1,5.4126906E-1,-2.1096362E-2,3.89367E-2,-4.665949E-2,1.9034019E-2,-1.48077E-2,3.124537E-2,-0E0,4.2054936E-2],"categories":[],"categories_nodes":[],"categories_segments":[],"categories_sizes":[],"default_left":[0,0,0,0,0,0,0,0,0,0,0,0,0,0,0],"id":55,"left_children":[1,3,5,7,9,11,13,-1,-1,-1,-1,-1,-1,-1,-1],"loss_changes":[2.606764E0,2.4121876E0,2.7350488E0,2.887055E0,2.3249435E0,2.813003E0,8.1008816E-1,0E0,0E0,0E0,0E0,0E0,0E0,0E0,0E0],"parents":[2147483647,0,0,1,1,2,2,3,3,4,4,5,5,6,6],"right_children":[2,4,6,8,10,12,14,-1,-1,-1,-1,-1,-1,-1,-1],"split_conditions":[2.016526E-2,7.1755454E-2,5.3015273E-2,1.4795857E-2,1.2713361E-1,3.029859E-1,-4.9313188E-2,-2.1096362E-2,3.89367E-2,-4.665949E-2,1.9034019E-2,-1.48077E-2,3.124537E-2,-0E0,4.2054936E-2],"split_indices":[9,8,9,9,2,2,8,0,0,0,0,0,0,0,0],"split_type":[0,0,0,0,0,0,0,0,0,0,0,0,0,0,0],"sum_hessian":[5.434033E1,1.250291E1,4.1837418E1,1.0072013E1,2.4308972E0,3.8005863E1,3.831553E0,1.2411053E0,8.830908E0,1.2362369E0,1.1946602E0,3.5890476E1,2.1153867E0,1.9785318E0,1.8530213E0],"tree_param":{"num_deleted":"0","num_feature":"14","num_nodes":"15","size_leaf_vector":"1"}},{"base_weights":[3.4600865E-2,-5.254643E-1,1.4093284E-1,7.3589705E-2,-3.8903836E-2,2.0306918E-1,-2.8372575E-2,-1.41037395E-2,2.3486024E-2,2.129389E-2,-1.0329831E-3],"categories":[],"categories_nodes":[],"categories_segments":[],"categories_sizes":[],"default_left":[0,0,0,0,0,0,0,0,0,0,0],"id":56,"left_children":[1,3,5,7,-1,9,-1,-1,-1,-1,-1],"loss_changes":[3.1962948E0,1.5114889E0,2.1294875E0,7.510315E-1,0E0,2.275331E0,0E0,0E0,0E0,0E0,0E0],"parents":[2147483647,0,0,1,1,2,2,3,3,5,5],"right_children":[2,4,6,8,-1,10,-1,-1,-1,-1,-1],"split_conditions":[3.4298958E1,-4.056313E-2,1.9430243E0,-1.390785E-1,-3.8903836E-2,3.6184218E-2,-2.8372575E-2,-1.41037395E-2,2.3486024E-2,2.129389E-2,-1.0329831E-3],"split_indices":[0,7,1,7,0,8,0,0,0,0,0],"split_type":[0,0,0,0,0,0,0,0,0,0,0],"sum_hessian":[5.159769E1,6.989506E0,4.4608185E1,2.153625E0,4.8358808E0,4.2254173E1,2.3540137E0,1.0963106E0,1.0573144E0,2.093946E1,2.131471E1],"tree_param":{"num_deleted":"0","num_feature":"14","num_nodes":"11","size_leaf_vector":"1"}},{"base_weights":[-1.8433494E-3,3.2629963E-2,-7.124706E-2,-6.1058354E-1,-0E0,-0E0,-3.9403807E-2,4.7004535E-3,-2.415442E-2],"categories":[],"categories_nodes":[],"categories_segments":[],"categories_sizes":[],"default_left":[0,0,0,0,0,0,0,0,0],"id":57,"left_children":[1,-1,3,5,7,-1,-1,-1,-1],"loss_changes":[2.2606893E0,0E0,1.872193E0,7.122607E-1,2.009878E0,0E0,0E0,0E0,0E0],"parents":[2147483647,0,0,2,2,3,3,4,4],"right_children":[2,-1,4,6,8,-1,-1,-1,-1],"split_conditions":[1.5098099E-2,3.2629963E-2,3.595617E1,-2.9764997E-2,8.039426E-2,-0E0,-3.9403807E-2,4.7004535E-3,-2.415442E-2],"split_indices":[2,0,0,7,7,0,0,0,0],"split_type":[0,0,0,0,0,0,0,0,0],"sum_hessian":[4.929652E1,3.2418046E0,4.6054714E1,4.1693077E0,4.1885406E1,1.1192961E0,3.0500116E0,3.6200863E1,5.6845455E0],"tree_param":{"num_deleted":"0","num_feature":"14","num_nodes":"9","size_leaf_vector":"1"}},{"base_weights":[-2.2424817E-2,4.1620085E-1,-1.0195983E-1,-1.8615503E-2,6.871653E-1,-5.8474046E-1,1.2946723E-2,4.3290075E-2,7.436212E-3,-3.5713878E-2,5.347439E-3,1.722867E-2,-1.2938306E-2],"categories":[],"categories_nodes":[],"categories_segments":[],"categories_sizes":[],"default_left":[0,0,0,0,0,0,0,0,0,0,0,0,0],"id":58,"left_children":[1,3,5,-1,7,9,11,-1,-1,-1,-1,-1,-1],"loss_changes":[1.901202E0,2.2138355E0,2.7720556E0,0E0,2.6486564E-1,1.0906727E0,3.7250445E0,0E0,0E0,0E0,0E0,0E0,0E0],"parents":[2147483647,0,0,1,1,2,2,4,4,5,5,6,6],"right_children":[2,4,6,-1,8,10,12,-1,-1,-1,-1,-1,-1],"split_conditions":[-5.216195E-2,-1.793194E-1,3.9050655E1,-1.8615503E-2,3.8861626E1,1.8096171E-2,3.8860638E-2,4.3290075E-2,7.436212E-3,-3.5713878E-2,5.347439E-3,1.722867E-2,-1.2938306E-2],"split_indices":[7,7,0,0,0,7,8,0,0,0,0,0,0],"split_type":[0,0,0,0,0,0,0,0,0,0,0,0,0],"sum_hessian":[5.2974316E1,6.770707E0,4.620361E1,1.3993744E0,5.3713326E0,8.03823E0,3.816538E1,3.0695515E0,2.3017814E0,6.9725895E0,1.0656404E0,1.7338053E1,2.0827326E1],"tree_param":{"num_deleted":"0","num_feature":"14","num_nodes":"13","size_leaf_vector":"1"}},{"base_weights":[-0E0,5.559306E-1,-5.5717632E-2,-2.1814578E-3,3.8629994E-2,-6.570557E-1,6.432173E-2,-6.61678E-4,-3.7474018E-2,4.070476E-2,-4.492069E-3],"categories":[],"categories_nodes":[],"categories_segments":[],"categories_sizes":[],"default_left":[0,0,0,0,0,0,0,0,0,0,0],"id":59,"left_children":[1,3,5,-1,-1,7,9,-1,-1,-1,-1],"loss_changes":[1.7009957E0,8.456801E-1,3.813734E0,0E0,0E0,3.5522437E-1,5.2282434E0,0E0,0E0,0E0,0E0],"parents":[2147483647,0,0,1,1,2,2,5,5,6,6],"right_children":[2,4,6,-1,-1,8,10,-1,-1,-1,-1],"split_conditions":[4.1413492E-1,4.2191307E1,5.659294E-1,-2.1814578E-3,3.8629994E-2,3.6299267E1,7.846554E-1,-6.61678E-4,-3.7474018E-2,4.070476E-2,-4.492069E-3],"split_indices":[1,0,1,0,0,0,1,0,0,0,0],"split_type":[0,0,0,0,0,0,0,0,0,0,0],"sum_hessian":[5.2311234E1,3.498407E0,4.8812824E1,1.0016277E0,2.4967792E0,7.2832E0,4.1529625E1,1.4012077E0,5.881992E0,6.208885E0,3.532074E1],"tree_param":{"num_deleted":"0","num_feature":"14","num_nodes":"11","size_leaf_vector":"1"}},{"base_weights":[6.205982E-2,1.277048E-1,-6.5504634E-1,2.6164643E-2,7.655596E-1,-0E0,-4.2709306E-2,-8.2077E-3,2.1268528E-2,5.45482E-2,-0E0],"categories":[],"categories_nodes":[],"categories_segments":[],"categories_sizes":[],"default_left":[0,0,0,0,0,0,0,0,0,0,0],"id":60,"left_children":[1,3,5,7,9,-1,-1,-1,-1,-1,-1],"loss_changes":[2.5453157E0,3.092545E0,5.6074715E-1,3.6157112E0,1.7992947E0,0E0,0E0,0E0,0E0,0E0,0E0],"parents":[2147483647,0,0,1,1,2,2,3,3,4,4],"right_children":[2,4,6,8,10,-1,-1,-1,-1,-1,-1],"split_conditions":[1.9551319E0,1.4694426E0,4.4950287E1,3.151665E-2,4.0286798E-2,-0E0,-4.2709306E-2,-8.2077E-3,2.1268528E-2,5.45482E-2,-0E0],"split_indices":[1,1,0,9,3,0,0,0,0,0,0],"split_type":[0,0,0,0,0,0,0,0,0,0,0],"sum_hessian":[5.2144955E1,4.9156837E1,2.9881175E0,4.402377E1,5.133067E0,1.0801975E0,1.9079201E0,3.007021E1,1.3953559E1,3.278021E0,1.8550459E0],"tree_param":{"num_deleted":"0","num_feature":"14","num_nodes":"11","size_leaf_vector":"1"}},{"base_weights":[2.6877554E-2,3.3847746E-2,-2.6640436E-2,-9.460701E-2,5.9831405E-1,1.3122734E-3,-3.5713624E-2,2.7839253E-3,3.5191055E-2],"categories":[],"categories_nodes":[],"categories_segments":[],"categories_sizes":[],"default_left":[0,0,0,0,0,0,0,0,0],"id":61,"left_children":[1,-1,3,5,7,-1,-1,-1,-1],"loss_changes":[2.002032E0,0E0,2.114517E0,3.671879E0,6.616819E-2,0E0,0E0,0E0,0E0],"parents":[2147483647,0,0,2,2,3,3,4,4],"right_children":[2,-1,4,6,8,-1,-1,-1,-1],"split_conditions":[-6.663584E-2,3.3847746E-2,2.728337E-1,6.885546E-2,6.400794E-2,1.3122734E-3,-3.5713624E-2,2.7839253E-3,3.5191055E-2],"split_indices":[7,0,2,7,7,0,0,0,0],"split_type":[0,0,0,0,0,0,0,0,0],"sum_hessian":[5.1528835E1,2.8746128E0,4.8654224E1,4.5318577E1,3.3356462E0,3.8854546E1,6.464033E0,1.2245954E0,2.1110508E0],"tree_param":{"num_deleted":"0","num_feature":"14","num_nodes":"9","size_leaf_vector":"1"}},{"base_weights":[-4.4193108E-2,5.645097E-1,-1.0949197E-1,3.6813084E-2,-0E0,4.548438E-1,-1.6264854E-1,3.1530287E-4,2.7186278E-2,-3.1276997E-2,-5.138285E-4],"categories":[],"categories_nodes":[],"categories_segments":[],"categories_sizes":[],"default_left":[0,0,0,0,0,0,0,0,0,0,0],"id":62,"left_children":[1,3,5,-1,-1,7,9,-1,-1,-1,-1],"loss_changes":[2.0499716E0,5.157628E-1,1.495209E0,0E0,0E0,5.273813E-2,3.0639937E0,0E0,0E0,0E0,0E0],"parents":[2147483647,0,0,1,1,2,2,5,5,6,6],"right_children":[2,4,6,-1,-1,8,10,-1,-1,-1,-1],"split_conditions":[-6.442768E-2,2.0599413E-1,3.7261447E-1,3.6813084E-2,-0E0,-1.4501777E-2,6.2706834E-1,3.1530287E-4,2.7186278E-2,-3.1276997E-2,-5.138285E-4],"split_indices":[7,3,1,0,0,7,1,0,0,0,0],"split_type":[0,0,0,0,0,0,0,0,0,0,0],"sum_hessian":[5.0031693E1,3.4394517E0,4.659224E1,2.3551857E0,1.0842661E0,2.7112122E0,4.3881027E1,1.0862259E0,1.6249863E0,9.38864E0,3.4492386E1],"tree_param":{"num_deleted":"0","num_feature":"14","num_nodes":"11","size_leaf_vector":"1"}},{"base_weights":[-0E0,1.3854197E-1,-2.955034E-1,-3.724435E-2,2.0743792E-1,-5.5312204E-1,5.162428E-1,3.954393E-2,1.0257929E-3,-4.0018808E-2,2.1072226E-2,-0E0,4.0189434E-2],"categories":[],"categories_nodes":[],"categories_segments":[],"categories_sizes":[],"default_left":[0,0,0,0,0,0,0,0,0,0,0,0,0],"id":63,"left_children":[1,3,5,-1,7,9,11,-1,-1,-1,-1,-1,-1],"loss_changes":[2.2230036E0,2.3249016E0,4.097449E0,0E0,3.622062E0,4.0042E0,8.73631E-1,0E0,0E0,0E0,0E0,0E0,0E0],"parents":[2147483647,0,0,1,1,2,2,4,4,5,5,6,6],"right_children":[2,4,6,-1,8,10,12,-1,-1,-1,-1,-1,-1],"split_conditions":[6.8151794E-2,1.4104484E-2,2.8491622E-1,-3.724435E-2,2.0089809E-2,3.5047445E-2,6.400794E-2,3.954393E-2,1.0257929E-3,-4.0018808E-2,2.1072226E-2,-0E0,4.0189434E-2],"split_indices":[8,9,2,0,9,9,7,0,0,0,0,0,0],"split_type":[0,0,0,0,0,0,0,0,0,0,0,0,0],"sum_hessian":[5.066609E1,3.4655865E1,1.6010223E1,1.2324176E0,3.3423447E1,1.2703031E1,3.307193E0,6.6743164E0,2.674913E1,1.0509917E1,2.193113E0,1.4720141E0,1.835179E0],"tree_param":{"num_deleted":"0","num_feature":"14","num_nodes":"13","size_leaf_vector":"1"}},{"base_weights":[3.8581558E-2,-3.647598E-2,8.1111945E-2,5.176704E-1,-6.315093E-2,3.4867596E-2,-1.2844846E-2,-1.3859348E-2,8.349049E-3],"categories":[],"categories_nodes":[],"categories_segments":[],"categories_sizes":[],"default_left":[0,0,0,0,0,0,0,0,0],"id":64,"left_children":[1,-1,3,5,7,-1,-1,-1,-1],"loss_changes":[1.7173195E0,0E0,3.4523273E0,2.2455363E0,2.0875459E0,0E0,0E0,0E0,0E0],"parents":[2147483647,0,0,2,2,3,3,4,4],"right_children":[2,-1,4,6,8,-1,-1,-1,-1],"split_conditions":[1.4104484E-2,-3.647598E-2,2.0238398E-2,8.005678E-2,5.287437E1,3.4867596E-2,-1.2844846E-2,-1.3859348E-2,8.349049E-3],"split_indices":[9,0,9,8,0,0,0,0,0],"split_type":[0,0,0,0,0,0,0,0,0],"sum_hessian":[5.2322132E1,1.2271874E0,5.1094944E1,1.2070824E1,3.902412E1,1.0128899E1,1.9419259E0,2.0510513E1,1.8513605E1],"tree_param":{"num_deleted":"0","num_feature":"14","num_nodes":"9","size_leaf_vector":"1"}},{"base_weights":[4.0093604E-2,5.7614917E-1,-2.5433738E-2,-1.7333409E-2,4.8319653E-2,-2.7419373E-1,2.0289913E-1,-0E0,-3.9879414E-3,4.62108E-3,-2.7231414E-2,4.6155773E-2,1.6777957E-3],"categories":[],"categories_nodes":[],"categories_segments":[],"categories_sizes":[],"default_left":[0,0,0,0,0,0,0,0,0,0,0,0,0],"id":65,"left_children":[1,3,5,7,-1,9,11,-1,-1,-1,-1,-1,-1],"loss_changes":[1.9323237E0,1.5995076E0,2.7543147E0,1.5108146E-2,0E0,2.4900556E0,2.7905273E0,0E0,0E0,0E0,0E0,0E0,0E0],"parents":[2147483647,0,0,1,1,2,2,3,3,5,5,6,6],"right_children":[2,4,6,8,-1,10,12,-1,-1,-1,-1,-1,-1],"split_conditions":[4.3982792E-1,3.1861424E-2,5.3664597E1,3.7261447E-1,4.8319653E-2,-5.077507E-2,7.212159E-3,-0E0,-3.9879414E-3,4.62108E-3,-2.7231414E-2,4.6155773E-2,1.6777957E-3],"split_indices":[1,9,0,1,0,8,8,0,0,0,0,0,0],"split_type":[0,0,0,0,0,0,0,0,0,0,0,0,0],"sum_hessian":[4.9749355E1,4.478203E0,4.5271152E1,2.1418118E0,2.336391E0,2.1941433E1,2.3329721E1,1.0948668E0,1.0469451E0,9.419577E0,1.2521855E1,2.9453585E0,2.0384363E1],"tree_param":{"num_deleted":"0","num_feature":"14","num_nodes":"13","size_leaf_vector":"1"}},{"base_weights":[-3.1659875E-2,-8.811673E-2,5.064843E-1,-1.2896334E-2,-3.7755355E-2,4.5517307E-2,-1.3148688E-2,1.3719487E-2,-9.446932E-3],"categories":[],"categories_nodes":[],"categories_segments":[],"categories_sizes":[],"default_left":[0,0,0,0,0,0,0,0,0],"id":66,"left_children":[1,3,5,7,-1,-1,-1,-1,-1],"loss_changes":[1.6111474E0,2.345728E0,2.0340605E0,2.4287958E0,0E0,0E0,0E0,0E0,0E0],"parents":[2147483647,0,0,1,1,2,2,3,3],"right_children":[2,4,6,8,-1,-1,-1,-1,-1],"split_conditions":[5.3015273E-2,4.7389843E-2,6.3611485E-2,4.981413E1,-3.7755355E-2,4.5517307E-2,-1.3148688E-2,1.3719487E-2,-9.446932E-3],"split_indices":[9,9,9,0,0,0,0,0,0],"split_type":[0,0,0,0,0,0,0,0,0],"sum_hessian":[5.2080414E1,4.8607067E1,3.4733455E0,4.5324425E1,3.2826424E0,2.268147E0,1.2051985E0,1.647103E1,2.8853397E1],"tree_param":{"num_deleted":"0","num_feature":"14","num_nodes":"9","size_leaf_vector":"1"}},{"base_weights":[-9.92597E-3,-4.0593017E-2,5.691663E-2,-3.3187892E-2,7.2367024E-1,-1.9730953E-2,1.1113539E-2,-7.779664E-3,5.088377E-2],"categories":[],"categories_nodes":[],"categories_segments":[],"categories_sizes":[],"default_left":[0,0,0,0,0,0,0,0,0],"id":67,"left_children":[1,-1,3,5,7,-1,-1,-1,-1],"loss_changes":[2.8390448E0,0E0,2.9537175E0,4.037345E0,1.9191341E0,0E0,0E0,0E0,0E0],"parents":[2147483647,0,0,2,2,3,3,4,4],"right_children":[2,-1,4,6,8,-1,-1,-1,-1],"split_conditions":[-1.0940245E-1,-4.0593017E-2,1.4764656E-1,9.74886E-2,2.5352095E1,-1.9730953E-2,1.1113539E-2,-7.779664E-3,5.088377E-2],"split_indices":[8,0,3,2,0,0,0,0,0],"split_type":[0,0,0,0,0,0,0,0,0],"sum_hessian":[4.7354073E1,2.5872493E0,4.4766823E1,4.04287E1,4.3381243E0,1.6727657E1,2.3701042E1,1.0935678E0,3.2445564E0],"tree_param":{"num_deleted":"0","num_feature":"14","num_nodes":"9","size_leaf_vector":"1"}},{"base_weights":[-1.0791759E-2,-2.3451816E-1,9.062395E-2,1.6054173E-1,-6.193338E-1,-8.983139E-2,5.0320476E-1,3.401121E-2,-3.868394E-3,-3.783021E-3,-3.5554416E-2,2.7064813E-2,-1.0663514E-2,3.3501353E-2,-1.4852801E-2],"categories":[],"categories_nodes":[],"categories_segments":[],"categories_sizes":[],"default_left":[0,0,0,0,0,0,0,0,0,0,0,0,0,0,0],"id":68,"left_children":[1,3,5,7,9,11,13,-1,-1,-1,-1,-1,-1,-1,-1],"loss_changes":[1.3245434E0,3.0393653E0,3.0389318E0,1.438089E0,2.5531006E-1,2.283171E0,2.0245204E0,0E0,0E0,0E0,0E0,0E0,0E0,0E0,0E0],"parents":[2147483647,0,0,1,1,2,2,3,3,4,4,5,5,6,6],"right_children":[2,4,6,8,10,12,14,-1,-1,-1,-1,-1,-1,-1,-1],"split_conditions":[3.0071815E-2,1.5305158E-2,5.3664597E1,3.9269436E-2,5.3127827E1,6.0127888E-2,7.4025604E1,3.401121E-2,-3.868394E-3,-3.783021E-3,-3.5554416E-2,2.7064813E-2,-1.0663514E-2,3.3501353E-2,-1.4852801E-2],"split_indices":[3,3,0,7,0,3,0,0,0,0,0,0,0,0,0],"split_type":[0,0,0,0,0,0,0,0,0,0,0,0,0,0,0],"sum_hessian":[5.420384E1,1.690789E1,3.7295948E1,8.51781E0,8.39008E0,2.6426239E1,1.0869706E1,2.0631115E0,6.4546986E0,1.9214609E0,6.4686193E0,3.2273357E0,2.3198904E1,9.403483E0,1.4662226E0],"tree_param":{"num_deleted":"0","num_feature":"14","num_nodes":"15","size_leaf_vector":"1"}},{"base_weights":[-1.785068E-2,4.397639E-1,-1.1306625E-1,-1.5496904E-2,6.2183607E-1,-3.0388678E-3,-8.738177E-1,3.9612614E-2,-5.9119393E-3,-1.2969822E-2,7.749052E-3,-7.4016512E-3,-5.4965544E-2],"categories":[],"categories_nodes":[],"categories_segments":[],"categories_sizes":[],"default_left":[0,0,0,0,0,0,0,0,0,0,0,0,0],"id":69,"left_children":[1,3,5,-1,7,9,11,-1,-1,-1,-1,-1,-1],"loss_changes":[2.4185033E0,1.6439117E0,3.7819378E0,0E0,1.3261323E0,1.8263556E0,4.4663382E-1,0E0,0E0,0E0,0E0,0E0,0E0],"parents":[2147483647,0,0,1,1,2,2,4,4,5,5,6,6],"right_children":[2,4,6,-1,8,10,12,-1,-1,-1,-1,-1,-1],"split_conditions":[1.3325087E-2,1.2915054E-1,7.4025604E1,-1.5496904E-2,1.1683845E-1,5.8111418E-2,9.029424E-1,3.9612614E-2,-5.9119393E-3,-1.2969822E-2,7.749052E-3,-7.4016512E-3,-5.4965544E-2],"split_indices":[3,2,0,0,7,2,1,0,0,0,0,0,0],"split_type":[0,0,0,0,0,0,0,0,0,0,0,0,0],"sum_hessian":[5.37937E1,7.968406E0,4.5825294E1,1.1365696E0,6.8318367E0,4.1580414E1,4.24488E0,5.6868267E0,1.1450099E0,1.59720745E1,2.560834E1,1.8054463E0,2.439434E0],"tree_param":{"num_deleted":"0","num_feature":"14","num_nodes":"13","size_leaf_vector":"1"}},{"base_weights":[4.6010308E-2,1.0649494E-1,-6.33461E-1,-3.7046134E-1,1.9374302E-1,-3.393091E-3,-4.0786307E-2,9.902127E-3,-3.3641037E-2,2.2073641E-2,-0E0],"categories":[],"categories_nodes":[],"categories_segments":[],"categories_sizes":[],"default_left":[0,0,0,0,0,0,0,0,0,0,0],"id":70,"left_children":[1,3,5,7,9,-1,-1,-1,-1,-1,-1],"loss_changes":[2.2573545E0,2.2397695E0,1.9834495E-1,1.7069279E0,2.14432E0,0E0,0E0,0E0,0E0,0E0,0E0],"parents":[2147483647,0,0,1,1,2,2,3,3,4,4],"right_children":[2,4,6,8,10,-1,-1,-1,-1,-1,-1],"split_conditions":[1.9551319E0,3.4298958E1,1.39726E-1,-4.056313E-2,7.212159E-3,-3.393091E-3,-4.0786307E-2,9.902127E-3,-3.3641037E-2,2.2073641E-2,-0E0],"split_indices":[1,0,2,7,8,0,0,0,0,0,0],"split_type":[0,0,0,0,0,0,0,0,0,0,0],"sum_hessian":[5.3528973E1,5.0585266E1,2.94371E0,6.7150273E0,4.3870235E1,1.4865344E0,1.4571756E0,2.281445E0,4.433582E0,1.8240316E1,2.5629921E1],"tree_param":{"num_deleted":"0","num_feature":"14","num_nodes":"11","size_leaf_vector":"1"}},{"base_weights":[2.2363886E-2,-3.9343295E-1,1.4066702E-1,2.7235603E-2,-6.7489487E-1,7.9151815E-1,-7.657962E-3,1.8014265E-2,-4.484226E-2,4.8653528E-2,1.0590882E-2,-3.5176404E-2,6.567636E-3],"categories":[],"categories_nodes":[],"categories_segments":[],"categories_sizes":[],"default_left":[0,0,0,0,0,0,0,0,0,0,0,0,0],"id":71,"left_children":[1,3,5,-1,7,9,11,-1,-1,-1,-1,-1,-1],"loss_changes":[2.5574248E0,3.585119E0,4.1664157E0,0E0,2.796667E0,2.9117537E-1,3.637223E0,0E0,0E0,0E0,0E0,0E0,0E0],"parents":[2147483647,0,0,1,1,2,2,4,4,5,5,6,6],"right_children":[2,4,6,-1,8,10,12,-1,-1,-1,-1,-1,-1],"split_conditions":[6.013785E-1,2.8863557E-2,7.8575313E-1,2.7235603E-2,3.6015725E-1,2.794489E-2,8.8631994E-1,1.8014265E-2,-4.484226E-2,4.8653528E-2,1.0590882E-2,-3.5176404E-2,6.567636E-3],"split_indices":[1,2,1,0,1,9,1,0,0,0,0,0,0],"split_type":[0,0,0,0,0,0,0,0,0,0,0,0,0],"sum_hessian":[4.983075E1,9.890357E0,3.994039E1,1.794745E0,8.095612E0,6.455859E0,3.3484535E1,1.1051531E0,6.990459E0,3.8783562E0,2.577503E0,4.800604E0,2.868393E1],"tree_param":{"num_deleted":"0","num_feature":"14","num_nodes":"13","size_leaf_vector":"1"}},{"base_weights":[-4.7764104E-2,7.8568436E-2,-3.374537E-1,4.408478E-1,-1.2633567E-1,1.9379534E-1,-7.3704106E-1,3.704425E-2,-7.349472E-3,-1.7713385E-2,1.6562276E-2,-1.7051259E-2,3.230939E-2,-4.6933252E-2,7.4814134E-3],"categories":[],"categories_nodes":[],"categories_segments":[],"categories_sizes":[],"default_left":[0,0,0,0,0,0,0,0,0,0,0,0,0,0,0],"id":72,"left_children":[1,3,5,7,9,11,13,-1,-1,-1,-1,-1,-1,-1,-1],"loss_changes":[1.9544533E0,2.8322763E0,3.7664328E0,2.7086406E0,2.675789E0,2.3117905E0,2.1178193E0,0E0,0E0,0E0,0E0,0E0,0E0,0E0,0E0],"parents":[2147483647,0,0,1,1,2,2,3,3,4,4,5,5,6,6],"right_children":[2,4,6,8,10,12,14,-1,-1,-1,-1,-1,-1,-1,-1],"split_conditions":[6.8151794E-2,6.477664E-2,1.4798737E-2,1.2010889E0,1.481638E-1,2.7019906E-1,5.0198127E-2,3.704425E-2,-7.349472E-3,-1.7713385E-2,1.6562276E-2,-1.7051259E-2,3.230939E-2,-4.6933252E-2,7.4814134E-3],"split_indices":[8,3,3,1,3,2,3,0,0,0,0,0,0,0,0],"split_type":[0,0,0,0,0,0,0,0,0,0,0,0,0,0,0],"sum_hessian":[4.940295E1,3.468133E1,1.4721617E1,1.2257818E1,2.2423513E1,6.436426E0,8.285191E0,8.082258E0,4.1755595E0,1.548555E1,6.9379644E0,2.9161303E0,3.5202959E0,6.8623323E0,1.422858E0],"tree_param":{"num_deleted":"0","num_feature":"14","num_nodes":"15","size_leaf_vector":"1"}},{"base_weights":[3.7677206E-2,-5.0411004E-1,1.7344718E-1,2.0564947E-2,-7.268869E-1,7.2057444E-1,1.1640568E-2,-4.142266E-2,-4.4201998E-4,4.58621E-2,-0E0,1.0976906E-2,-1.5149034E-2],"categories":[],"categories_nodes":[],"categories_segments":[],"categories_sizes":[],"default_left":[0,0,0,0,0,0,0,0,0,0,0,0,0],"id":73,"left_children":[1,3,5,-1,7,9,11,-1,-1,-1,-1,-1,-1],"loss_changes":[3.803956E0,2.6067846E0,3.5640857E0,0E0,4.765272E-1,1.4160652E0,2.32422E0,0E0,0E0,0E0,0E0,0E0,0E0],"parents":[2147483647,0,0,1,1,2,2,4,4,5,5,6,6],"right_children":[2,4,6,-1,8,10,12,-1,-1,-1,-1,-1,-1],"split_conditions":[5.659294E-1,3.718834E-1,7.846554E-1,2.0564947E-2,4.6978522E-2,8.583987E-2,2.706513E-2,-4.142266E-2,-4.4201998E-4,4.58621E-2,-0E0,1.0976906E-2,-1.5149034E-2],"split_indices":[1,1,1,0,9,8,9,0,0,0,0,0,0],"split_type":[0,0,0,0,0,0,0,0,0,0,0,0,0],"sum_hessian":[4.9329437E1,8.774088E0,4.055535E1,1.2931817E0,7.480906E0,7.791942E0,3.276341E1,6.1077967E0,1.373109E0,5.9176326E0,1.8743097E0,2.038336E1,1.2380048E1],"tree_param":{"num_deleted":"0","num_feature":"14","num_nodes":"13","size_leaf_vector":"1"}},{"base_weights":[8.783469E-2,-3.4694263E-1,1.6722755E-1,2.689693E-1,-3.7149318E-2,3.7431866E-1,-4.7366258E-2,-1.3307037E-2,3.3501223E-2,2.823033E-2,-1.744133E-2,6.326539E-3,-1.83892E-2],"categories":[],"categories_nodes":[],"categories_segments":[],"categories_sizes":[],"default_left":[0,0,0,0,0,0,0,0,0,0,0,0,0],"id":74,"left_children":[1,3,5,7,-1,9,11,-1,-1,-1,-1,-1,-1],"loss_changes":[1.8151976E0,2.3436117E0,2.0747628E0,1.213298E0,0E0,3.5513916E0,1.3867116E0,0E0,0E0,0E0,0E0,0E0,0E0],"parents":[2147483647,0,0,1,1,2,2,3,3,5,5,6,6],"right_children":[2,4,6,8,-1,10,12,-1,-1,-1,-1,-1,-1],"split_conditions":[3.4298958E1,-4.056313E-2,3.8860638E-2,-1.390785E-1,-3.7149318E-2,1.3179439E0,2.6926799E-2,-1.3307037E-2,3.3501223E-2,2.823033E-2,-1.744133E-2,6.326539E-3,-1.83892E-2],"split_indices":[0,7,8,7,0,1,9,0,0,0,0,0,0],"split_type":[0,0,0,0,0,0,0,0,0,0,0,0,0],"sum_hessian":[4.9606735E1,6.490255E0,4.3116478E1,2.530779E0,3.9594758E0,2.1847929E1,2.126855E1,1.0867245E0,1.4440545E0,1.7775831E1,4.0720983E0,1.397015E1,7.298401E0],"tree_param":{"num_deleted":"0","num_feature":"14","num_nodes":"13","size_leaf_vector":"1"}},{"base_weights":[-7.2340876E-2,-1.1256772E-1,3.1049585E-2,4.687268E-1,-1.6595857E-1,-0E0,2.905848E-2,-3.3138169E-3,-3.3790734E-2],"categories":[],"categories_nodes":[],"categories_segments":[],"categories_sizes":[],"default_left":[0,0,0,0,0,0,0,0,0],"id":75,"left_children":[1,3,-1,5,7,-1,-1,-1,-1],"loss_changes":[1.4536991E0,1.6295927E0,0E0,1.4451832E-1,2.2166276E0,0E0,0E0,0E0,0E0],"parents":[2147483647,0,0,1,1,3,3,4,4],"right_children":[2,4,-1,6,8,-1,-1,-1,-1],"split_conditions":[3.391988E-1,3.7261447E-1,3.1049585E-2,3.1861424E-2,6.885546E-2,-0E0,2.905848E-2,-3.3138169E-3,-3.3790734E-2],"split_indices":[2,1,0,9,7,0,0,0,0],"split_type":[0,0,0,0,0,0,0,0,0],"sum_hessian":[5.050782E1,4.9198284E1,1.3095369E0,2.841935E0,4.635635E1,1.0897187E0,1.7522163E0,4.0521267E1,5.8350825E0],"tree_param":{"num_deleted":"0","num_feature":"14","num_nodes":"9","size_leaf_vector":"1"}},{"base_weights":[-5.7618916E-2,-1.1515208E-1,3.2891106E-2,-1.5185606E-2,-5.867728E-1,-5.381835E-3,2.7174184E-2,-3.5591047E-2,-0E0],"categories":[],"categories_nodes":[],"categories_segments":[],"categories_sizes":[],"default_left":[0,0,0,0,0,0,0,0,0],"id":76,"left_children":[1,3,-1,5,7,-1,-1,-1,-1],"loss_changes":[2.1285286E0,2.189771E0,0E0,2.1984673E0,7.2766876E-1,0E0,0E0,0E0,0E0],"parents":[2147483647,0,0,1,1,3,3,4,4],"right_children":[2,4,-1,6,8,-1,-1,-1,-1],"split_conditions":[3.029859E-1,6.885546E-2,3.2891106E-2,4.7474775E-2,5.0439555E-2,-5.381835E-3,2.7174184E-2,-3.5591047E-2,-0E0],"split_indices":[2,7,0,7,9,0,0,0,0],"split_type":[0,0,0,0,0,0,0,0,0],"sum_hessian":[5.0087856E1,4.778341E1,2.3044493E0,4.105385E1,6.729559E0,3.6570923E1,4.482926E0,5.5282245E0,1.2013342E0],"tree_param":{"num_deleted":"0","num_feature":"14","num_nodes":"9","size_leaf_vector":"1"}},{"base_weights":[1.22458614E-1,6.005656E-1,-2.0862471E-2,-3.794643E-2,7.9612887E-1,-2.2225039E-1,2.5688782E-1,1.3825136E-2,-2.4359493E-2,4.425045E-2,6.143344E-3,-2.3820063E-2,6.160527E-3,3.991272E-2,2.036078E-3],"categories":[],"categories_nodes":[],"categories_segments":[],"categories_sizes":[],"default_left":[0,0,0,0,0,0,0,0,0,0,0,0,0,0,0],"id":77,"left_children":[1,3,5,7,9,11,13,-1,-1,-1,-1,-1,-1,-1,-1],"loss_changes":[3.7329524E0,1.7556925E0,2.4016194E0,8.260425E-1,2.2558355E-1,2.3795695E0,1.8586802E0,0E0,0E0,0E0,0E0,0E0,0E0,0E0,0E0],"parents":[2147483647,0,0,1,1,2,2,3,3,4,4,5,5,6,6],"right_children":[2,4,6,8,10,12,14,-1,-1,-1,-1,-1,-1,-1,-1],"split_conditions":[2.016526E-2,1.6194057E-2,5.5510853E1,1.546055E-2,4.6494253E-2,1.3803416E-1,3.7967633E-2,1.3825136E-2,-2.4359493E-2,4.425045E-2,6.143344E-3,-2.3820063E-2,6.160527E-3,3.991272E-2,2.036078E-3],"split_indices":[9,9,0,9,7,3,8,0,0,0,0,0,0,0,0],"split_type":[0,0,0,0,0,0,0,0,0,0,0,0,0,0,0],"sum_hessian":[5.101124E1,1.0982959E1,4.002828E1,2.6188147E0,8.364144E0,2.3795048E1,1.6233232E1,1.6179236E0,1.000891E0,6.709562E0,1.654582E0,1.3715287E1,1.007976E1,3.2156296E0,1.3017602E1],"tree_param":{"num_deleted":"0","num_feature":"14","num_nodes":"15","size_leaf_vector":"1"}},{"base_weights":[-6.6734344E-2,4.7083185E-3,-3.0099383E-1,2.9591337E-2,-6.195933E-2,-4.8600367E-1,2.1474179E-2,-2.8687347E-2,1.8034645E-3,-3.4713015E-2,2.0422405E-2],"categories":[],"categories_nodes":[],"categories_segments":[],"categories_sizes":[],"default_left":[0,0,0,0,0,0,0,0,0,0,0],"id":78,"left_children":[1,3,5,-1,7,9,-1,-1,-1,-1,-1],"loss_changes":[9.2167425E-1,1.734986E0,2.0394359E0,0E0,2.0031056E0,2.540466E0,0E0,0E0,0E0,0E0,0E0],"parents":[2147483647,0,0,1,1,2,2,4,4,5,5],"right_children":[2,4,6,-1,8,10,-1,-1,-1,-1,-1],"split_conditions":[3.6199506E-2,-6.347883E-2,2.529874E-1,2.9591337E-2,4.1061752E1,5.2745277E1,2.1474179E-2,-2.8687347E-2,1.8034645E-3,-3.4713015E-2,2.0422405E-2],"split_indices":[9,8,3,0,0,0,0,0,0,0,0],"split_type":[0,0,0,0,0,0,0,0,0,0,0],"sum_hessian":[4.9903275E1,3.8712982E1,1.1190291E1,3.04865E0,3.5664333E1,9.547883E0,1.6424078E0,4.8908963E0,3.0773438E1,8.198367E0,1.3495164E0],"tree_param":{"num_deleted":"0","num_feature":"14","num_nodes":"11","size_leaf_vector":"1"}},{"base_weights":[2.1787344E-2,3.16022E-2,-3.0164488E-2,-5.5329293E-1,8.012859E-2,8.304806E-3,-3.535269E-2,1.3041724E-2,-8.233278E-3],"categories":[],"categories_nodes":[],"categories_segments":[],"categories_sizes":[],"default_left":[0,0,0,0,0,0,0,0,0],"id":79,"left_children":[1,-1,3,5,7,-1,-1,-1,-1],"loss_changes":[1.7762969E0,0E0,2.955509E0,1.2730739E0,1.8970145E0,0E0,0E0,0E0,0E0],"parents":[2147483647,0,0,2,2,3,3,4,4],"right_children":[2,-1,4,6,8,-1,-1,-1,-1],"split_conditions":[-6.663584E-2,3.16022E-2,3.9050655E1,4.3982792E-1,1.0714537E0,8.304806E-3,-3.535269E-2,1.3041724E-2,-8.233278E-3],"split_indices":[7,0,0,1,1,0,0,0,0],"split_type":[0,0,0,0,0,0,0,0,0],"sum_hessian":[4.9828716E1,2.8972063E0,4.6931507E1,7.4385233E0,3.9492985E1,1.0596694E0,6.378854E0,2.3134172E1,1.6358812E1],"tree_param":{"num_deleted":"0","num_feature":"14","num_nodes":"9","size_leaf_vector":"1"}},{"base_weights":[-1.13080524E-1,3.6589056E-1,-1.705533E-1,3.298686E-2,-1.2394339E-2,2.8774542E-1,-2.3394717E-1,-1.2488934E-2,3.708033E-2,-7.6901647E-3,-3.7190106E-2],"categories":[],"categories_nodes":[],"categories_segments":[],"categories_sizes":[],"default_left":[0,0,0,0,0,0,0,0,0,0,0],"id":80,"left_children":[1,3,5,-1,-1,7,9,-1,-1,-1,-1],"loss_changes":[1.439257E0,1.3184353E0,1.4356538E0,0E0,0E0,1.8196418E0,1.3606868E0,0E0,0E0,0E0,0E0],"parents":[2147483647,0,0,1,1,2,2,5,5,6,6],"right_children":[2,4,6,-1,-1,8,10,-1,-1,-1,-1],"split_conditions":[-6.411602E-2,2.2106522E-1,8.24715E-3,3.298686E-2,-1.2394339E-2,7.845703E1,7.8405655E1,-1.2488934E-2,3.708033E-2,-7.6901647E-3,-3.7190106E-2],"split_indices":[7,3,3,0,0,0,0,0,0,0,0],"split_type":[0,0,0,0,0,0,0,0,0,0,0],"sum_hessian":[4.8802555E1,3.9933197E0,4.4809235E1,2.844867E0,1.1484526E0,4.416593E0,4.0392643E1,2.1289845E0,2.2876084E0,3.6932068E1,3.4605768E0],"tree_param":{"num_deleted":"0","num_feature":"14","num_nodes":"11","size_leaf_vector":"1"}},{"base_weights":[-3.8770135E-2,-4.4624E-1,6.170903E-2,1.0731193E-2,-6.5382755E-1,5.2873915E-1,-5.5774085E-2,6.9503374E-3,-4.2777184E-2,3.4125756E-2,-8.12387E-3,2.0440778E-2,-9.859129E-3],"categories":[],"categories_nodes":[],"categories_segments":[],"categories_sizes":[],"default_left":[0,0,0,0,0,0,0,0,0,0,0,0,0],"id":81,"left_children":[1,3,5,-1,7,9,11,-1,-1,-1,-1,-1,-1],"loss_changes":[2.2157934E0,1.7676728E0,2.4445095E0,0E0,1.7212763E0,1.2196953E0,2.3510962E0,0E0,0E0,0E0,0E0,0E0,0E0],"parents":[2147483647,0,0,1,1,2,2,4,4,5,5,6,6],"right_children":[2,4,6,-1,8,10,12,-1,-1,-1,-1,-1,-1],"split_conditions":[5.659294E-1,3.7261447E-1,7.846554E-1,1.0731193E-2,2.8863557E-2,7.958694E-2,1.5305158E-2,6.9503374E-3,-4.2777184E-2,3.4125756E-2,-8.12387E-3,2.0440778E-2,-9.859129E-3],"split_indices":[1,1,1,0,2,7,3,0,0,0,0,0,0],"split_type":[0,0,0,0,0,0,0,0,0,0,0,0,0],"sum_hessian":[4.9732716E1,9.210492E0,4.052222E1,1.9591525E0,7.2513394E0,7.431471E0,3.309075E1,1.3642105E0,5.887129E0,6.33119E0,1.1002809E0,6.729728E0,2.6361023E1],"tree_param":{"num_deleted":"0","num_feature":"14","num_nodes":"13","size_leaf_vector":"1"}},{"base_weights":[-7.650337E-3,2.8943393E-1,-1.1559489E-1,-2.3214689E-1,5.017593E-1,-4.118511E-1,2.7070405E-2,4.8209666E-3,-2.8554631E-2,3.3520896E-2,-3.6621343E-3,-3.9353054E-2,3.8814128E-3,1.041286E-2,-2.5424032E-2],"categories":[],"categories_nodes":[],"categories_segments":[],"categories_sizes":[],"default_left":[0,0,0,0,0,0,0,0,0,0,0,0,0,0,0],"id":82,"left_children":[1,3,5,7,9,11,13,-1,-1,-1,-1,-1,-1,-1,-1],"loss_changes":[1.657957E0,1.7330978E0,1.7477238E0,6.9908386E-1,1.2018301E0,2.6703646E0,2.75428E0,0E0,0E0,0E0,0E0,0E0,0E0,0E0,0E0],"parents":[2147483647,0,0,1,1,2,2,3,3,4,4,5,5,6,6],"right_children":[2,4,6,8,10,12,14,-1,-1,-1,-1,-1,-1,-1,-1],"split_conditions":[2.0089809E-2,1.6194057E-2,6.445521E-2,1.546055E-2,6.990957E-2,1.3655554E-1,1.3348739E0,4.8209666E-3,-2.8554631E-2,3.3520896E-2,-3.6621343E-3,-3.9353054E-2,3.8814128E-3,1.041286E-2,-2.5424032E-2],"split_indices":[9,9,2,9,8,3,1,0,0,0,0,0,0,0,0],"split_type":[0,0,0,0,0,0,0,0,0,0,0,0,0,0,0],"sum_hessian":[4.9719498E1,1.2084856E1,3.763464E1,3.1832256E0,8.90163E0,1.1768342E1,2.5866299E1,1.861735E0,1.3214906E0,6.9592648E0,1.942365E0,6.3768435E0,5.391499E0,2.029147E1,5.574829E0],"tree_param":{"num_deleted":"0","num_feature":"14","num_nodes":"15","size_leaf_vector":"1"}},{"base_weights":[7.548952E-2,3.0297345E-1,-7.180867E-2,-3.451303E-2,4.2301023E-1,-2.0401712E-1,3.7545758E-1,2.8521327E-2,-3.357536E-3,9.71321E-4,-3.5771374E-2,2.8510233E-2,-1.1944337E-2],"categories":[],"categories_nodes":[],"categories_segments":[],"categories_sizes":[],"default_left":[0,0,0,0,0,0,0,0,0,0,0,0,0],"id":83,"left_children":[1,3,5,-1,7,9,11,-1,-1,-1,-1,-1,-1],"loss_changes":[1.8402151E0,2.945516E0,2.007422E0,0E0,1.6230619E0,3.1845193E0,1.1819252E0,0E0,0E0,0E0,0E0,0E0,0E0],"parents":[2147483647,0,0,1,1,2,2,4,4,5,5,6,6],"right_children":[2,4,6,-1,8,10,12,-1,-1,-1,-1,-1,-1],"split_conditions":[2.2523329E-2,1.4104484E-2,2.360212E-1,-3.451303E-2,7.1755454E-2,3.8860638E-2,1.5640272E0,2.8521327E-2,-3.357536E-3,9.71321E-4,-3.5771374E-2,2.8510233E-2,-1.1944337E-2],"split_indices":[9,9,2,0,8,8,1,0,0,0,0,0,0],"split_type":[0,0,0,0,0,0,0,0,0,0,0,0,0],"sum_hessian":[5.106504E1,1.9980343E1,3.1084698E1,1.2063912E0,1.877395E1,2.4967457E1,6.11724E0,1.4558014E1,4.215936E0,1.8107805E1,6.8596506E0,4.973852E0,1.1433879E0],"tree_param":{"num_deleted":"0","num_feature":"14","num_nodes":"13","size_leaf_vector":"1"}},{"base_weights":[1.413332E-1,-3.4790486E-2,2.0651373E-1,3.8753584E-2,1.3302022E-1,1.0675392E-2,-1.9127006E-2],"categories":[],"categories_nodes":[],"categories_segments":[],"categories_sizes":[],"default_left":[0,0,0,0,0,0,0],"id":84,"left_children":[1,-1,3,-1,5,-1,-1],"loss_changes":[2.9315867E0,0E0,1.7205102E0,0E0,1.9855179E0,0E0,0E0],"parents":[2147483647,0,0,2,2,4,4],"right_children":[2,-1,4,-1,6,-1,-1],"split_conditions":[1.6194057E-2,-3.4790486E-2,1.8163985E-2,3.8753584E-2,1.5640272E0,1.0675392E-2,-1.9127006E-2],"split_indices":[9,0,9,0,1,0,0],"split_type":[0,0,0,0,0,0,0],"sum_hessian":[5.0069363E1,2.3468356E0,4.7722527E1,3.512069E0,4.4210457E1,3.933616E1,4.8742986E0],"tree_param":{"num_deleted":"0","num_feature":"14","num_nodes":"7","size_leaf_vector":"1"}},{"base_weights":[5.617219E-3,-4.3947227E-2,3.402887E-2,1.7140289E-1,-1.9688384E-1,-3.3168633E-2,1.4071481E-2,-3.3679542E-3,-4.0489014E-2],"categories":[],"categories_nodes":[],"categories_segments":[],"categories_sizes":[],"default_left":[0,0,0,0,0,0,0,0,0],"id":85,"left_children":[1,3,-1,5,7,-1,-1,-1,-1],"loss_changes":[1.9326799E0,1.7076365E0,0E0,2.1404722E0,2.1695437E0,0E0,0E0,0E0,0E0],"parents":[2147483647,0,0,1,1,3,3,4,4],"right_children":[2,4,-1,6,8,-1,-1,-1,-1],"split_conditions":[3.029859E-1,2.2523329E-2,3.402887E-2,1.4104484E-2,1.5284427E0,-3.3168633E-2,1.4071481E-2,-3.3679542E-3,-4.0489014E-2],"split_indices":[2,9,0,9,1,0,0,0,0],"split_type":[0,0,0,0,0,0,0,0,0],"sum_hessian":[5.1124146E1,4.865712E1,2.4670253E0,1.9587336E1,2.9069784E1,1.1908438E0,1.8396492E1,2.5641981E1,3.4278033E0],"tree_param":{"num_deleted":"0","num_feature":"14","num_nodes":"9","size_leaf_vector":"1"}},{"base_weights":[-1.3627474E-2,-2.4898124E-1,2.4295484E-1,2.2281794E-2,-3.4974328E-1,-1.738734E-1,6.637645E-1,8.767696E-4,-2.8227642E-2,1.4120407E-2,-3.947642E-2,3.9924648E-2,-7.879297E-3],"categories":[],"categories_nodes":[],"categories_segments":[],"categories_sizes":[],"default_left":[0,0,0,0,0,0,0,0,0,0,0,0,0],"id":86,"left_children":[1,3,5,-1,7,9,11,-1,-1,-1,-1,-1,-1],"loss_changes":[2.8001375E0,1.9320797E0,4.096409E0,0E0,1.9011009E0,3.7803912E0,1.5787225E0,0E0,0E0,0E0,0E0,0E0,0E0],"parents":[2147483647,0,0,1,1,2,2,4,4,5,5,6,6],"right_children":[2,4,6,-1,8,10,12,-1,-1,-1,-1,-1,-1],"split_conditions":[5.3664597E1,1.1711321E-2,2.3354566E-2,2.2281794E-2,2.3068693E-2,8.029718E-2,8.186346E1,8.767696E-4,-2.8227642E-2,1.4120407E-2,-3.947642E-2,3.9924648E-2,-7.879297E-3],"split_indices":[0,2,9,0,9,8,0,0,0,0,0,0,0],"split_type":[0,0,0,0,0,0,0,0,0,0,0,0,0],"sum_hessian":[4.334687E1,2.3038443E1,2.0308426E1,2.0167613E0,2.1021683E1,1.0405911E1,9.9025135E0,7.9224586E0,1.3099223E1,6.256267E0,4.149644E0,8.752123E0,1.1503911E0],"tree_param":{"num_deleted":"0","num_feature":"14","num_nodes":"13","size_leaf_vector":"1"}},{"base_weights":[9.916227E-5,-2.5274748E-1,1.1073324E-1,-5.4100093E-2,1.3365564E-2,5.314236E-1,-1.1062316E-2,2.209551E-2,-1.6262244E-2,-1.5942937E-2,4.3083888E-2,-1.6763784E-2,8.225344E-3],"categories":[],"categories_nodes":[],"categories_segments":[],"categories_sizes":[],"default_left":[0,0,0,0,0,0,0,0,0,0,0,0,0],"id":87,"left_children":[1,3,5,-1,7,9,11,-1,-1,-1,-1,-1,-1],"loss_changes":[1.404944E0,3.555685E0,1.9673475E0,0E0,2.080327E0,2.914608E0,1.7771726E0,0E0,0E0,0E0,0E0,0E0,0E0],"parents":[2147483647,0,0,1,1,2,2,4,4,5,5,6,6],"right_children":[2,4,6,-1,8,10,12,-1,-1,-1,-1,-1,-1],"split_conditions":[2.6534468E-2,1.1909563E-1,2.016526E-2,-5.4100093E-2,1.00666545E-1,1.6194057E-2,5.5167496E-2,2.209551E-2,-1.6262244E-2,-1.5942937E-2,4.3083888E-2,-1.6763784E-2,8.225344E-3],"split_indices":[3,2,9,0,8,9,2,0,0,0,0,0,0],"split_type":[0,0,0,0,0,0,0,0,0,0,0,0,0],"sum_hessian":[4.8238773E1,1.3545923E1,3.4692852E1,2.3562083E0,1.1189715E1,7.0250535E0,2.7667797E1,4.997692E0,6.1920233E0,1.8103178E0,5.214736E0,9.640298E0,1.8027498E1],"tree_param":{"num_deleted":"0","num_feature":"14","num_nodes":"13","size_leaf_vector":"1"}},{"base_weights":[4.035387E-2,3.826716E-1,-6.32909E-2,-2.948308E-1,6.551243E-1,-2.8630707E-1,1.8441673E-1,-0E0,-2.4853406E-2,4.615093E-2,7.3767877E-3,2.818324E-3,-2.680409E-2,1.6886404E-2,-2.3136448E-2],"categories":[],"categories_nodes":[],"categories_segments":[],"categories_sizes":[],"default_left":[0,0,0,0,0,0,0,0,0,0,0,0,0,0,0],"id":88,"left_children":[1,3,5,7,9,11,13,-1,-1,-1,-1,-1,-1,-1,-1],"loss_changes":[1.93237E0,2.6991928E0,2.335657E0,2.5555515E-1,9.016037E-1,2.0510464E0,2.1604245E0,0E0,0E0,0E0,0E0,0E0,0E0,0E0,0E0],"parents":[2147483647,0,0,1,1,2,2,3,3,4,4,5,5,6,6],"right_children":[2,4,6,8,10,12,14,-1,-1,-1,-1,-1,-1,-1,-1],"split_conditions":[2.016526E-2,1.6194057E-2,5.3664597E1,1.5430523E-2,4.736E1,3.8489216E1,8.247362E1,-0E0,-2.4853406E-2,4.615093E-2,7.3767877E-3,2.818324E-3,-2.680409E-2,1.6886404E-2,-2.3136448E-2],"split_indices":[9,9,0,9,0,0,0,0,0,0,0,0,0,0,0],"split_type":[0,0,0,0,0,0,0,0,0,0,0,0,0,0,0],"sum_hessian":[5.0140167E1,1.116288E1,3.8977287E1,2.9557083E0,8.207171E0,2.0812784E1,1.8164505E1,1.8538097E0,1.1018984E0,4.310504E0,3.8966682E0,8.92672E0,1.1886065E1,1.5515145E1,2.6493597E0],"tree_param":{"num_deleted":"0","num_feature":"14","num_nodes":"15","size_leaf_vector":"1"}},{"base_weights":[7.476634E-2,-1.6739379E-1,2.1465027E-1,3.412416E-1,-4.238271E-1,6.276708E-1,-4.130298E-2,3.2464318E-2,-0E0,-0E0,-3.361105E-2,4.2281773E-2,-2.3922304E-2,-1.2758742E-2,3.0149369E-2],"categories":[],"categories_nodes":[],"categories_segments":[],"categories_sizes":[],"default_left":[0,0,0,0,0,0,0,0,0,0,0,0,0,0,0],"id":89,"left_children":[1,3,5,7,9,11,13,-1,-1,-1,-1,-1,-1,-1,-1],"loss_changes":[1.7400465E0,2.6389513E0,3.5976796E0,7.2397286E-1,1.3526001E0,3.777738E0,3.0835652E0,0E0,0E0,0E0,0E0,0E0,0E0,0E0,0E0],"parents":[2147483647,0,0,1,1,2,2,3,3,4,4,5,5,6,6],"right_children":[2,4,6,8,10,12,14,-1,-1,-1,-1,-1,-1,-1,-1],"split_conditions":[6.445521E-2,2.5994522E-2,3.8860638E-2,-6.0181566E-2,7.6949865E-1,6.6560656E-2,1.4491389E0,3.2464318E-2,-0E0,-0E0,-3.361105E-2,4.2281773E-2,-2.3922304E-2,-1.2758742E-2,3.0149369E-2],"split_indices":[2,2,8,8,1,7,1,0,0,0,0,0,0,0,0],"split_type":[0,0,0,0,0,0,0,0,0,0,0,0,0,0,0],"sum_hessian":[4.7997646E1,1.6942638E1,3.1055008E1,5.25109E0,1.1691549E1,1.1347311E1,1.9707697E1,2.0820844E0,3.1690059E0,4.9544477E0,6.7371016E0,9.925503E0,1.421808E0,1.5709329E1,3.9983687E0],"tree_param":{"num_deleted":"0","num_feature":"14","num_nodes":"15","size_leaf_vector":"1"}},{"base_weights":[-3.5386845E-2,-2.2073896E-1,1.3280511E-1,-0E0,-8.379421E-1,3.217886E-1,-2.111492E-1,-1.576793E-2,1.7648375E-2,-6.1784047E-3,-4.948996E-2,-1.946752E-2,2.787442E-2,-2.572892E-2,1.684663E-2],"categories":[],"categories_nodes":[],"categories_segments":[],"categories_sizes":[],"default_left":[0,0,0,0,0,0,0,0,0,0,0,0,0,0,0],"id":90,"left_children":[1,3,5,7,9,11,13,-1,-1,-1,-1,-1,-1,-1,-1],"loss_changes":[1.6180178E0,3.554181E0,1.8495784E0,2.3552065E0,3.3029985E-1,3.393412E0,1.9492915E0,0E0,0E0,0E0,0E0,0E0,0E0,0E0,0E0],"parents":[2147483647,0,0,1,1,2,2,3,3,4,4,5,5,6,6],"right_children":[2,4,6,8,10,12,14,-1,-1,-1,-1,-1,-1,-1,-1],"split_conditions":[9.74886E-2,4.981413E1,1.00666545E-1,8.777687E-1,7.523532E-1,5.1655937E1,2.936158E-1,-1.576793E-2,1.7648375E-2,-6.1784047E-3,-4.948996E-2,-1.946752E-2,2.787442E-2,-2.572892E-2,1.684663E-2],"split_indices":[2,0,8,1,1,0,2,0,0,0,0,0,0,0,0],"split_type":[0,0,0,0,0,0,0,0,0,0,0,0,0,0,0],"sum_hessian":[4.8426907E1,2.3380949E1,2.5045958E1,1.8092451E1,5.2884965E0,1.660215E1,8.443808E0,9.3461685E0,8.746284E0,1.634937E0,3.6535594E0,3.6781838E0,1.2923966E1,5.7288194E0,2.7149885E0],"tree_param":{"num_deleted":"0","num_feature":"14","num_nodes":"15","size_leaf_vector":"1"}},{"base_weights":[6.103544E-2,-3.1671014E-2,1.0330212E-1,3.350835E-1,-4.0519662E-2,-0E0,2.57655E-2,-6.2960247E-3,2.8182128E-2],"categories":[],"categories_nodes":[],"categories_segments":[],"categories_sizes":[],"default_left":[0,0,0,0,0,0,0,0,0],"id":91,"left_children":[1,-1,3,5,7,-1,-1,-1,-1],"loss_changes":[1.388835E0,0E0,1.6265465E0,1.149162E0,1.5383267E0,0E0,0E0,0E0,0E0],"parents":[2147483647,0,0,2,2,3,3,4,4],"right_children":[2,-1,4,6,8,-1,-1,-1,-1],"split_conditions":[1.4104484E-2,-3.1671014E-2,2.2523329E-2,5.31283E-2,3.029859E-1,-0E0,2.57655E-2,-6.2960247E-3,2.8182128E-2],"split_indices":[9,0,9,2,2,0,0,0,0],"split_type":[0,0,0,0,0,0,0,0,0],"sum_hessian":[4.6084225E1,1.1688217E0,4.49154E1,1.6967163E1,2.7948238E1,6.3310637E0,1.06361E1,2.5817266E1,2.1309724E0],"tree_param":{"num_deleted":"0","num_feature":"14","num_nodes":"9","size_leaf_vector":"1"}},{"base_weights":[-3.6698375E-2,1.1478209E-1,-3.7615106E-1,2.4557461E-1,-4.8770204E-1,-6.635777E-1,1.1486231E-1,-6.23724E-3,2.7934013E-2,-0E0,-3.7567247E-2,-4.0195554E-2,6.4808275E-3,2.8418884E-2,-1.1429447E-2],"categories":[],"categories_nodes":[],"categories_segments":[],"categories_sizes":[],"default_left":[0,0,0,0,0,0,0,0,0,0,0,0,0,0,0],"id":92,"left_children":[1,3,5,7,9,11,13,-1,-1,-1,-1,-1,-1,-1,-1],"loss_changes":[2.6061468E0,2.8271947E0,2.439025E0,3.5979815E0,8.0252063E-1,1.4463215E0,1.3246081E0,0E0,0E0,0E0,0E0,0E0,0E0,0E0,0E0],"parents":[2147483647,0,0,1,1,2,2,3,3,4,4,5,5,6,6],"right_children":[2,4,6,8,10,12,14,-1,-1,-1,-1,-1,-1,-1,-1],"split_conditions":[6.8151794E-2,4.7389843E-2,2.360212E-1,2.1828042E-2,9.417307E-2,1.4491389E0,9.461493E-1,-6.23724E-3,2.7934013E-2,-0E0,-3.7567247E-2,-4.0195554E-2,6.4808275E-3,2.8418884E-2,-1.1429447E-2],"split_indices":[8,9,2,9,2,1,1,0,0,0,0,0,0,0,0],"split_type":[0,0,0,0,0,0,0,0,0,0,0,0,0,0,0],"sum_hessian":[4.6907005E1,3.271263E1,1.4194374E1,2.7880617E1,4.8320146E0,8.877731E0,5.3166428E0,1.2894053E1,1.4986563E1,2.2424972E0,2.589517E0,7.740199E0,1.1375321E0,2.1188064E0,3.1978364E0],"tree_param":{"num_deleted":"0","num_feature":"14","num_nodes":"15","size_leaf_vector":"1"}},{"base_weights":[2.2148898E-2,-2.930333E-2,3.302748E-2,-3.2816038E-1,7.108128E-2,-4.8935823E-2,-0E0,3.0360362E-2,-2.0267114E-3],"categories":[],"categories_nodes":[],"categories_segments":[],"categories_sizes":[],"default_left":[0,0,0,0,0,0,0,0,0],"id":93,"left_children":[1,3,-1,5,7,-1,-1,-1,-1],"loss_changes":[1.7885966E0,1.5013057E0,0E0,2.75391E0,2.3066418E0,0E0,0E0,0E0,0E0],"parents":[2147483647,0,0,1,1,3,3,4,4],"right_children":[2,4,-1,6,8,-1,-1,-1,-1],"split_conditions":[3.029859E-1,2.5671225E-2,3.302748E-2,6.0022907E1,3.959564E-2,-4.8935823E-2,-0E0,3.0360362E-2,-2.0267114E-3],"split_indices":[2,3,0,0,3,0,0,0,0],"split_type":[0,0,0,0,0,0,0,0,0],"sum_hessian":[4.822466E1,4.5662346E1,2.5623145E0,1.1126427E1,3.453592E1,2.7944992E0,8.331927E0,5.1121573E0,2.9423761E1],"tree_param":{"num_deleted":"0","num_feature":"14","num_nodes":"9","size_leaf_vector":"1"}},{"base_weights":[-3.454804E-2,5.22349E-1,-1.3018963E-1,-2.758372E-3,7.1488E-1,7.515364E-2,-4.6956828E-1,4.537617E-2,4.0053627E-3,-3.8485974E-3,3.152677E-2,2.450337E-3,-2.8197149E-2],"categories":[],"categories_nodes":[],"categories_segments":[],"categories_sizes":[],"default_left":[0,0,0,0,0,0,0,0,0,0,0,0,0],"id":94,"left_children":[1,3,5,-1,7,9,11,-1,-1,-1,-1,-1,-1],"loss_changes":[2.666855E0,9.990699E-1,3.1884394E0,0E0,4.0474916E-1,2.570507E0,9.817281E-1,0E0,0E0,0E0,0E0,0E0,0E0],"parents":[2147483647,0,0,1,1,2,2,4,4,5,5,6,6],"right_children":[2,4,6,-1,8,10,12,-1,-1,-1,-1,-1,-1],"split_conditions":[1.129699E-2,7.497591E-2,3.8860638E-2,-2.758372E-3,1.636601E-1,5.3450096E1,4.9911043E-1,4.537617E-2,4.0053627E-3,-3.8485974E-3,3.152677E-2,2.450337E-3,-2.8197149E-2],"split_indices":[3,8,8,0,8,0,1,0,0,0,0,0,0],"split_type":[0,0,0,0,0,0,0,0,0,0,0,0,0],