{"learner":{"attributes":{"scikit_learn":"{\"_estimator_type\": \"classifier\"}"},"feature_names":["rsi","close_to_support","price_momentum_5d","price_momentum_10d","volatility_20d","ma20_ma50_ratio","macd","macd_signal","macd_hist","bb_upper","bb_lower","bb_width","obv","ichimoku_tenkan","ichimoku_kijun","ichimoku_senkou_a","ichimoku_senkou_b"],"feature_types":["float","float","float","float","float","float","float","float","float","float","float","float","float","float","float","float","float"],"gradient_booster":{"model":{"cats":{"enc":[],"feature_segments":[],"sorted_idx":[]},"gbtree_model_param":{"num_parallel_tree":"1","num_trees":"50"},"iteration_indptr":[0,1,2,3,4,5,6,7,8,9,10,11,12,13,14,15,16,17,18,19,20,21,22,23,24,25,26,27,28,29,30,31,32,33,34,35,36,37,38,39,40,41,42,43,44,45,46,47,48,49,50],"tree_info":[0,0,0,0,0,0,0,0,0,0,0,0,0,0,0,0,0,0,0,0,0,0,0,0,0,0,0,0,0,0,0,0,0,0,0,0,0,0,0,0,0,0,0,0,0,0,0,0,0,0],"trees":[{"base_weights":[-7.833243E-2,-3.8320553E-1,1.0048658E0,-6.335578E-1,5.71355E-1,-1.1062668E-2,1.234571E0,-8.1617945E-1,4.026426E-2,-2.7741813E-3,7.5263697E-1,-0E0,7.0378326E-2,2.3224635E-2,-5.049851E-2,5.288113E-2,7.4886926E-3],"categories":[],"categories_nodes":[],"categories_segments":[],"categories_sizes":[],"default_left":[0,0,0,0,0,0,0,0,0,0,0,0,0,0,0,0,0],"id":0,"left_children":[1,3,5,7,9,-1,11,13,-1,-1,15,-1,-1,-1,-1,-1,-1],"loss_changes":[1.5263757E1,9.212957E0,3.462739E0,8.759994E0,1.1281862E0,0E0,1.623045E0,7.542164E0,0E0,0E0,7.4769473E-1,0E0,0E0,0E0,0E0,0E0,0E0],"parents":[2147483647,0,0,1,1,2,2,3,3,4,4,6,6,7,7,10,10],"right_children":[2,4,6,8,10,-1,12,14,-1,-1,16,-1,-1,-1,-1,-1,-1],"split_conditions":[6.1188778E1,1.5293193E7,4.1084427E-2,2.2150416E-2,1.0820477E-2,-1.1062668E-2,9.133787E6,6.5708484E2,4.026426E-2,-2.7741813E-3,5.966635E-2,-0E0,7.0378326E-2,2.3224635E-2,-5.049851E-2,5.288113E-2,7.4886926E-3],"split_indices":[0,12,1,4,1,0,12,10,0,0,11,0,0,0,0,0,0],"split_type":[0,0,0,0,0,0,0,0,0,0,0,0,0,0,0,0,0],"sum_hessian":[4.3347904E1,3.472758E1,8.620321E0,2.807762E1,6.6499624E0,1.2314745E0,7.388847E0,2.561467E1,2.462949E0,1.4777694E0,5.172193E0,1.2314745E0,6.1573725E0,2.9555387E0,2.265913E1,2.462949E0,2.709244E0],"tree_param":{"num_deleted":"0","num_feature":"17","num_nodes":"17","size_leaf_vector":"1"}},{"base_weights":[-0E0,-7.809897E-1,2.3019794E-1,-1.0616395E0,1.4648897E-2,7.4138397E-1,-2.3792684E-1,-6.6689774E-2,-0E0,1.5450804E-1,1.0278369E0,-1.2187048E0,6.971471E-1,4.701893E-2,-3.17125E-2,-0E0,5.989037E-2,-7.526546E-2,1.7242556E-2,-2.6538221E-2,5.151583E-2],"categories":[],"categories_nodes":[],"categories_segments":[],"categories_sizes":[],"default_left":[0,1,1,0,0,0,0,0,0,1,0,0,0,0,0,0,0,0,0,0,0],"id":1,"left_children":[1,3,5,7,-1,9,11,-1,-1,13,15,17,19,-1,-1,-1,-1,-1,-1,-1,-1],"loss_changes":[8.42212E0,3.8268147E0,9.095477E0,2.7308683E0,0E0,2.5526457E0,1.9697462E1,0E0,0E0,5.853379E0,1.9149818E0,5.6708946E0,5.451148E0,0E0,0E0,0E0,0E0,0E0,0E0,0E0,0E0],"parents":[2147483647,0,0,1,1,2,2,3,3,5,5,6,6,9,9,10,10,11,11,12,12],"right_children":[2,4,6,8,-1,10,12,-1,-1,14,16,18,20,-1,-1,-1,-1,-1,-1,-1,-1],"split_conditions":[-9.247645E0,7.732625E2,7.2280005E2,5.7371486E-2,1.4648897E-2,-2.3300368E-2,1.4753132E7,-6.6689774E-2,-0E0,7.054125E2,8.759482E6,1.1113651E1,-1.8909091E-2,4.701893E-2,-3.17125E-2,-0E0,5.989037E-2,-7.526546E-2,1.7242556E-2,-2.6538221E-2,5.151583E-2],"split_indices":[7,15,16,1,0,2,12,0,0,15,12,6,2,0,0,0,0,0,0,0,0],"split_type":[0,0,0,0,0,0,0,0,0,0,0,0,0,0,0,0,0,0,0,0,0],"sum_hessian":[4.4120853E1,9.138466E0,3.4982388E1,7.4064517E0,1.7320138E0,1.6507767E1,1.8474623E1,5.677664E0,1.7287879E0,6.400955E0,1.0106811E1,8.899274E0,9.575349E0,3.188926E0,3.2120295E0,1.7256099E0,8.381201E0,7.6760287E0,1.2232454E0,1.7256129E0,7.8497357E0],"tree_param":{"num_deleted":"0","num_feature":"17","num_nodes":"21","size_leaf_vector":"1"}},{"base_weights":[2.092615E-2,-2.3625757E-1,8.33258E-1,-4.318917E-1,5.157541E-2,3.7424516E-2,6.1848897E-2,7.131128E-2,-9.5833796E-1,6.717245E-1,-4.6985094E-2,2.0801593E-2,-5.770197E-2,7.283342E-3,-6.30545E-2,4.318515E-2,2.0974955E-4],"categories":[],"categories_nodes":[],"categories_segments":[],"categories_sizes":[],"default_left":[0,0,0,1,0,0,0,0,0,0,0,0,0,0,0,0,0],"id":2,"left_children":[1,3,5,7,-1,9,-1,11,13,15,-1,-1,-1,-1,-1,-1,-1],"loss_changes":[1.0188482E1,9.604634E0,3.4566936E0,8.976149E0,0E0,4.4100413E0,0E0,8.169922E0,5.960515E0,3.8991427E-1,0E0,0E0,0E0,0E0,0E0,0E0,0E0],"parents":[2147483647,0,0,1,1,2,2,3,3,5,5,7,7,8,8,9,9],"right_children":[2,4,6,8,-1,10,-1,12,14,16,-1,-1,-1,-1,-1,-1,-1],"split_conditions":[2.0754522E-2,7.517048E2,7.1819995E2,7.35825E2,5.157541E-2,7.392987E2,6.1848897E-2,8.1880905E-2,-9.895265E0,6.6682336E2,-4.6985094E-2,2.0801593E-2,-5.770197E-2,7.283342E-3,-6.30545E-2,4.318515E-2,2.0974955E-4],"split_indices":[3,10,13,16,0,9,0,8,7,10,0,0,0,0,0,0,0],"split_type":[0,0,0,0,0,0,0,0,0,0,0,0,0,0,0,0,0],"sum_hessian":[4.528277E1,3.501468E1,1.0268087E1,3.1327202E1,3.6874783E0,4.174177E0,6.09391E0,1.6485992E1,1.4841208E1,2.9395084E0,1.2346689E0,1.3766955E1,2.7190373E0,3.219344E0,1.1621864E1,1.707894E0,1.2316146E0],"tree_param":{"num_deleted":"0","num_feature":"17","num_nodes":"17","size_leaf_vector":"1"}},{"base_weights":[6.640544E-2,-1.6641037E-1,5.8519907E-2,7.6534826E-1,-5.097807E-1,-3.333382E-2,1.0888524E0,-1.1752002E0,1.6388088E-1,-0E0,6.101458E-2,-6.6401295E-2,6.0440977E-3,4.122774E-2,-4.41804E-2],"categories":[],"categories_nodes":[],"categories_segments":[],"categories_sizes":[],"default_left":[0,0,0,0,0,0,0,1,1,0,0,0,0,0,0],"id":3,"left_children":[1,3,-1,5,7,-1,9,11,13,-1,-1,-1,-1,-1,-1],"loss_changes":[1.3259695E1,1.4030384E1,0E0,6.6408815E0,1.47826805E1,0E0,1.3090439E0,3.725092E0,1.2852673E1,0E0,0E0,0E0,0E0,0E0,0E0],"parents":[2147483647,0,0,1,1,3,3,4,4,6,6,7,7,8,8],"right_children":[2,4,-1,6,8,-1,10,12,14,-1,-1,-1,-1,-1,-1],"split_conditions":[6.1881985E1,7.2555005E2,5.8519907E-2,9.703511E-1,7.23325E2,-3.333382E-2,4.916549E-3,1.0005677E0,1.0016278E0,-0E0,6.101458E-2,-6.6401295E-2,6.0440977E-3,4.122774E-2,-4.41804E-2],"split_indices":[0,16,0,5,13,0,1,5,5,0,0,0,0,0,0],"split_type":[0,0,0,0,0,0,0,0,0,0,0,0,0,0,0],"sum_hessian":[4.817085E1,4.068394E1,7.486908E0,1.0302246E1,3.0381697E1,1.491323E0,8.810923E0,1.4871896E1,1.5509801E1,1.2225044E0,7.5884185E0,1.3408225E1,1.4636712E0,9.823856E0,5.6859446E0],"tree_param":{"num_deleted":"0","num_feature":"17","num_nodes":"15","size_leaf_vector":"1"}},{"base_weights":[-3.4375273E-2,-5.31595E-1,4.8304898E-1,4.326869E-1,-1.2179481E0,-2.900552E-1,9.5328385E-1,-6.2442315E-1,9.9481755E-1,-1.4023132E0,8.030499E-3,-8.8436204E-1,5.409148E-1,1.1574085E0,-2.6236052E-2,-0E0,-4.942488E-2,-1.1335791E-2,6.470465E-2,-8.2624415E-3,-7.45791E-2,-3.1780151E-3,-5.903696E-2,-1.1416825E-2,4.726174E-2,1.2341352E-3,6.891418E-2],"categories":[],"categories_nodes":[],"categories_segments":[],"categories_sizes":[],"default_left":[0,0,0,0,0,0,1,0,0,0,0,0,0,0,0,0,0,0,0,0,0,0,0,0,0,0,0],"id":4,"left_children":[1,3,5,7,9,11,13,15,17,19,-1,21,23,25,-1,-1,-1,-1,-1,-1,-1,-1,-1,-1,-1,-1,-1],"loss_changes":[1.2388631E1,1.728481E1,9.066587E0,7.6908846E0,4.382002E0,5.651658E0,5.5876904E0,1.0897784E0,3.5950937E0,7.8478813E-1,0E0,1.2085013E0,1.9906622E0,3.1306572E0,0E0,0E0,0E0,0E0,0E0,0E0,0E0,0E0,0E0,0E0,0E0,0E0,0E0],"parents":[2147483647,0,0,1,1,2,2,3,3,4,4,5,5,6,6,7,7,8,8,9,9,11,11,12,12,13,13],"right_children":[2,4,6,8,10,12,14,16,18,20,-1,22,24,26,-1,-1,-1,-1,-1,-1,-1,-1,-1,-1,-1,-1,-1],"split_conditions":[7.18325E2,7.356E2,-8.2173785E-3,6.7585E2,3.3743992E-2,7.66E2,7.777625E2,7.1451245E2,2.6E1,-2.020138E0,8.030499E-3,9.889635E-1,7.6961255E2,7.092125E2,-2.6236052E-2,-0E0,-4.942488E-2,-1.1335791E-2,6.470465E-2,-8.2624415E-3,-7.45791E-2,-3.1780151E-3,-5.903696E-2,-1.1416825E-2,4.726174E-2,1.2341352E-3,6.891418E-2],"split_indices":[13,16,3,13,2,14,15,15,0,8,0,5,15,15,0,0,0,0,0,0,0,0,0,0,0,0,0],"split_type":[0,0,0,0,0,0,0,0,0,0,0,0,0,0,0,0,0,0,0,0,0,0,0,0,0,0,0],"sum_hessian":[4.5118633E1,2.3184704E1,2.1933931E1,9.749819E0,1.3434885E1,8.352E0,1.358193E1,3.2034974E0,6.546321E0,1.1955249E1,1.4796367E0,4.9535456E0,3.398455E0,1.2338558E1,1.243372E0,1.7113675E0,1.4921299E0,1.2282885E0,5.3180327E0,1.2432814E0,1.0711967E1,1.9764279E0,2.9771175E0,1.2253525E0,2.1731024E0,2.433226E0,9.905333E0],"tree_param":{"num_deleted":"0","num_feature":"17","num_nodes":"27","size_leaf_vector":"1"}},{"base_weights":[-4.9103135E-3,-2.0518951E-1,5.614635E-2,-3.6355782E-1,4.8276726E-2,4.7432968E-1,-5.788173E-1,-2.3561483E-2,4.7407452E-2,-5.2296877E-2,-2.1137907E-3],"categories":[],"categories_nodes":[],"categories_segments":[],"categories_sizes":[],"default_left":[0,0,0,0,0,0,0,0,0,0,0],"id":5,"left_children":[1,3,-1,5,-1,7,9,-1,-1,-1,-1],"loss_changes":[1.1090464E1,8.286613E0,0E0,7.4090905E0,0E0,4.5919137E0,7.645714E0,0E0,0E0,0E0,0E0],"parents":[2147483647,0,0,1,1,3,3,5,5,6,6],"right_children":[2,4,-1,6,-1,8,10,-1,-1,-1,-1],"split_conditions":[6.571912E1,7.517048E2,5.614635E-2,7.1785E2,4.8276726E-2,6.72525E2,7.23325E2,-2.3561483E-2,4.7407452E-2,-5.2296877E-2,-2.1137907E-3],"split_indices":[0,10,0,16,0,13,13,0,0,0,0],"split_type":[0,0,0,0,0,0,0,0,0,0,0],"sum_hessian":[4.6880905E1,4.1003937E1,5.8769684E0,3.7179543E1,3.824395E0,7.0404644E0,3.0139076E1,2.2120895E0,4.828375E0,1.5151292E1,1.4987785E1],"tree_param":{"num_deleted":"0","num_feature":"17","num_nodes":"11","size_leaf_vector":"1"}},{"base_weights":[1.7981343E-2,-2.1312644E-1,8.0134535E-1,-5.221543E-1,4.365682E-1,-1.52533995E-2,1.0497057E0,3.7086684E-1,-1.0874408E0,1.0150337E0,-2.4618657E-1,5.957861E-2,2.8420899E-3,-4.6644855E-2,4.509357E-2,-7.03564E-2,-1.2968709E-2,7.46848E-3,5.841574E-2,-6.361997E-2,3.9250832E-2],"categories":[],"categories_nodes":[],"categories_segments":[],"categories_sizes":[],"default_left":[0,0,0,0,1,0,0,0,0,0,0,0,0,0,0,0,0,0,0,0,0],"id":6,"left_children":[1,3,5,7,9,-1,11,13,15,17,19,-1,-1,-1,-1,-1,-1,-1,-1,-1,-1],"loss_changes":[8.534409E0,7.5456915E0,3.5917845E0,1.3443577E1,5.3257294E0,0E0,9.572582E-1,8.684095E0,3.3332996E0,4.0705967E-1,8.600771E0,0E0,0E0,0E0,0E0,0E0,0E0,0E0,0E0,0E0,0E0],"parents":[2147483647,0,0,1,1,2,2,3,3,4,4,6,6,7,7,8,8,9,9,10,10],"right_children":[2,4,6,8,10,-1,12,14,16,18,20,-1,-1,-1,-1,-1,-1,-1,-1,-1,-1],"split_conditions":[2.0111766E-2,7.6225E2,5.612378E1,7.406E2,1.0003146E0,-1.52533995E-2,5.3991795E-2,9.7413164E-1,7.406E2,9.991179E-1,-1.3304368E-2,5.957861E-2,2.8420899E-3,-4.6644855E-2,4.509357E-2,-7.03564E-2,-1.2968709E-2,7.46848E-3,5.841574E-2,-6.361997E-2,3.9250832E-2],"split_indices":[3,14,0,16,5,0,2,5,14,5,3,0,0,0,0,0,0,0,0,0,0],"split_type":[0,0,0,0,0,0,0,0,0,0,0,0,0,0,0,0,0,0,0,0,0],"sum_hessian":[4.3575752E1,3.4294727E1,9.281026E0,2.3648565E1,1.0646161E1,1.4910076E0,7.7900186E0,9.229773E0,1.4418794E1,5.5266304E0,5.1195307E0,6.3771677E0,1.4128507E0,2.2336402E0,6.9961324E0,9.471658E0,4.947135E0,1.4731939E0,4.0534368E0,2.4873347E0,2.632196E0],"tree_param":{"num_deleted":"0","num_feature":"17","num_nodes":"21","size_leaf_vector":"1"}},{"base_weights":[-4.35382E-2,-3.091345E-1,9.4889456E-1,-5.35928E-1,5.631296E-1,3.6612794E-2,6.068432E-2,-5.1327985E-2,-1.0820988E0,-0E0,8.524769E-1,1.6733743E-2,-1.0333846E-2,1.9281406E-2,-3.7028946E-2,-7.200295E-2,-9.643828E-3,2.0698665E-2,-1.9064825E-2,2.4864633E-4,5.264929E-2],"categories":[],"categories_nodes":[],"categories_segments":[],"categories_sizes":[],"default_left":[0,0,0,1,0,0,0,0,0,0,0,0,0,0,0,0,0,0,0,0,0],"id":7,"left_children":[1,3,5,7,9,11,-1,13,15,17,19,-1,-1,-1,-1,-1,-1,-1,-1,-1,-1],"loss_changes":[1.2395899E1,7.856888E0,2.0719337E0,7.8094616E0,1.2784667E0,4.1513768E-1,0E0,5.9275594E0,3.7619743E0,9.3507314E-1,6.933818E-1,0E0,0E0,0E0,0E0,0E0,0E0,0E0,0E0,0E0,0E0],"parents":[2147483647,0,0,1,1,2,2,3,3,4,4,5,5,7,7,8,8,9,9,10,10],"right_children":[2,4,6,8,10,12,-1,14,16,18,20,-1,-1,-1,-1,-1,-1,-1,-1,-1,-1],"split_conditions":[6.1188778E1,1.5293193E7,1.5803125E-2,7.2280005E2,-1.3413817E-2,-1.9250523E-3,6.068432E-2,-6.081185E-1,4.809436E1,8.416482E-3,3.6157665E1,1.6733743E-2,-1.0333846E-2,1.9281406E-2,-3.7028946E-2,-7.200295E-2,-9.643828E-3,2.0698665E-2,-1.9064825E-2,2.4864633E-4,5.264929E-2],"split_indices":[0,12,3,16,2,3,0,8,0,4,0,0,0,0,0,0,0,0,0,0,0],"split_type":[0,0,0,0,0,0,0,0,0,0,0,0,0,0,0,0,0,0,0,0,0],"sum_hessian":[4.4343952E1,3.5955715E1,8.388234E0,2.9177164E1,6.778552E0,2.441005E0,5.9472294E0,1.6523521E1,1.2653643E1,2.9068322E0,3.8717196E0,1.2132475E0,1.2277575E0,1.0339384E1,6.1841383E0,8.198998E0,4.4546447E0,1.4359659E0,1.4708663E0,1.2256881E0,2.6460316E0],"tree_param":{"num_deleted":"0","num_feature":"17","num_nodes":"21","size_leaf_vector":"1"}},{"base_weights":[-1.8228315E-3,-1.7873156E-1,7.377314E-1,-3.1755108E-1,4.240513E-2,-1.5561722E-2,5.353644E-2,3.734192E-1,-6.1386794E-1,-2.4368105E-2,3.3054695E-2,-6.250166E-2,6.7734285E-3],"categories":[],"categories_nodes":[],"categories_segments":[],"categories_sizes":[],"default_left":[0,0,0,0,0,0,0,0,0,0,0,0,0],"id":8,"left_children":[1,3,5,7,-1,-1,-1,9,11,-1,-1,-1,-1],"loss_changes":[6.032273E0,5.7290535E0,3.7422514E0,7.5226364E0,0E0,0E0,0E0,3.2871764E0,1.2463225E1,0E0,0E0,0E0,0E0],"parents":[2147483647,0,0,1,1,2,2,3,3,7,7,8,8],"right_children":[2,4,6,8,-1,-1,-1,10,12,-1,-1,-1,-1],"split_conditions":[6.1188778E1,7.517048E2,7.3321704E2,7.356167E2,4.240513E-2,-1.5561722E-2,5.353644E-2,9.703511E-1,7.6835E2,-2.4368105E-2,3.3054695E-2,-6.250166E-2,6.7734285E-3],"split_indices":[0,10,9,9,0,0,0,5,15,0,0,0,0],"split_type":[0,0,0,0,0,0,0,0,0,0,0,0,0],"sum_hessian":[4.3949253E1,3.6601685E1,7.347567E0,3.3327038E1,3.2746468E0,1.6493677E0,5.6981993E0,9.682806E0,2.3644234E1,1.9904698E0,7.692336E0,1.2390055E1,1.1254178E1],"tree_param":{"num_deleted":"0","num_feature":"17","num_nodes":"13","size_leaf_vector":"1"}},{"base_weights":[-5.798813E-2,-2.1561863E-1,5.487625E-2,-7.457371E-1,6.9656484E-2,-1.1538206E0,-5.382896E-3,8.1392556E-1,-1.1055317E-1,-1.8048635E-2,-6.856885E-2,-4.6204545E-2,3.510379E-2,-0E0,5.058248E-2,-2.4853578E-2,1.9656269E-2],"categories":[],"categories_nodes":[],"categories_segments":[],"categories_sizes":[],"default_left":[0,0,0,0,1,0,0,0,0,0,0,0,0,0,0,0,0],"id":9,"left_children":[1,3,-1,5,7,9,11,13,15,-1,-1,-1,-1,-1,-1,-1,-1],"loss_changes":[8.214043E0,6.2965302E0,0E0,4.1236744E0,3.9344532E0,4.8620415E-1,5.446817E0,8.382189E-1,4.804401E0,0E0,0E0,0E0,0E0,0E0,0E0,0E0,0E0],"parents":[2147483647,0,0,1,1,3,3,4,4,5,5,6,6,7,7,8,8],"right_children":[2,4,-1,6,8,10,12,14,16,-1,-1,-1,-1,-1,-1,-1,-1],"split_conditions":[1.6204357E7,5.9775807E-2,5.487625E-2,1.3935272E7,6.95E2,5.1787656E-2,4.594832E-2,-9.6019945E0,1.1693973E7,-1.8048635E-2,-6.856885E-2,-4.6204545E-2,3.510379E-2,-0E0,5.058248E-2,-2.4853578E-2,1.9656269E-2],"split_indices":[12,11,0,12,14,11,11,6,12,0,0,0,0,0,0,0,0],"split_type":[0,0,0,0,0,0,0,0,0,0,0,0,0,0,0,0,0],"sum_hessian":[4.2615913E1,3.8726223E1,3.889693E0,1.2947041E1,2.577918E1,7.632278E0,5.3147626E0,4.213275E0,2.1565905E1,2.7001505E0,4.932128E0,2.2353346E0,3.079428E0,1.1960174E0,3.0172577E0,1.2437915E1,9.127991E0],"tree_param":{"num_deleted":"0","num_feature":"17","num_nodes":"17","size_leaf_vector":"1"}},{"base_weights":[-5.2550923E-2,-8.003841E-1,1.8243212E-1,-1.125854E0,4.3393835E-2,6.710049E-3,5.4579116E-2,-0E0,-6.736002E-2,3.5806507E-2,-2.4371272E-2,6.600092E-1,-4.3919504E-1,-1.7721705E-2,4.3555535E-2,-3.844784E-2,2.5743622E-2],"categories":[],"categories_nodes":[],"categories_segments":[],"categories_sizes":[],"default_left":[0,0,0,0,0,1,0,0,0,0,0,0,0,0,0,0,0],"id":10,"left_children":[1,3,5,7,9,11,-1,-1,-1,-1,-1,13,15,-1,-1,-1,-1],"loss_changes":[8.311354E0,3.3996239E0,5.4444256E0,1.9152899E0,2.1496525E0,9.644376E0,0E0,0E0,0E0,0E0,0E0,3.46703E0,6.7539597E0,0E0,0E0,0E0,0E0],"parents":[2147483647,0,0,1,1,2,2,3,3,4,4,5,5,11,11,12,12],"right_children":[2,4,6,8,10,12,-1,-1,-1,-1,-1,14,16,-1,-1,-1,-1],"split_conditions":[-9.247645E0,-6.9187395E-3,1.5940849E7,6.5877515E2,1.9437652E-2,9.889635E-1,5.4579116E-2,-0E0,-6.736002E-2,3.5806507E-2,-2.4371272E-2,5.531871E-2,9.962687E-2,-1.7721705E-2,4.3555535E-2,-3.844784E-2,2.5743622E-2],"split_indices":[7,3,12,10,1,5,0,0,0,0,0,11,1,0,0,0,0],"split_type":[0,0,0,0,0,0,0,0,0,0,0,0,0,0,0,0,0],"sum_hessian":[4.3846985E1,9.82401E0,3.4022976E1,6.898596E0,2.925414E0,2.9962776E1,4.060199E0,1.4777911E0,5.4208045E0,1.2254523E0,1.6999619E0,1.204453E1,1.7918247E1,1.7360598E0,1.0308471E1,1.3687866E1,4.2303805E0],"tree_param":{"num_deleted":"0","num_feature":"17","num_nodes":"17","size_leaf_vector":"1"}},{"base_weights":[-3.5668347E-2,-5.5795443E-1,1.7821322E-1,-8.405175E-1,3.9076578E-2,6.452754E-1,-2.632917E-1,-1.0568559E0,1.9667927E-2,-0E0,8.2804126E-1,1.3641079E-1,-9.510698E-1,-6.5204866E-2,-3.133367E-4,2.9475663E-2,-4.151931E-2,5.766153E-2,7.2317E-3,-3.408489E-2,4.3675583E-2,-6.72185E-2,1.5247772E-2],"categories":[],"categories_nodes":[],"categories_segments":[],"categories_sizes":[],"default_left":[0,1,1,0,0,0,0,1,0,1,1,0,0,0,0,0,0,0,0,0,0,0,0],"id":11,"left_children":[1,3,5,7,-1,9,11,13,-1,15,17,19,21,-1,-1,-1,-1,-1,-1,-1,-1,-1,-1],"loss_changes":[5.069408E0,6.0061007E0,6.8540726E0,3.8993702E0,0E0,2.0247746E0,5.060104E0,2.4693956E0,0E0,3.14312E0,2.309351E0,8.135756E0,4.1125417E0,0E0,0E0,0E0,0E0,0E0,0E0,0E0,0E0,0E0,0E0],"parents":[2147483647,0,0,1,1,2,2,3,3,5,5,6,6,7,7,9,9,10,10,11,11,12,12],"right_children":[2,4,6,8,-1,10,12,14,-1,16,18,20,22,-1,-1,-1,-1,-1,-1,-1,-1,-1,-1],"split_conditions":[-7.927384E0,7.769625E2,7.2280005E2,2.9252399E-2,3.9076578E-2,-3.3097174E0,1.0015811E0,9.752774E-1,1.9667927E-2,9.9389446E-1,7.2025E2,-1.4804364E0,7.828563E0,-6.5204866E-2,-3.133367E-4,2.9475663E-2,-4.151931E-2,5.766153E-2,7.2317E-3,-3.408489E-2,4.3675583E-2,-6.72185E-2,1.5247772E-2],"split_indices":[7,15,16,2,0,8,5,5,0,5,15,7,6,0,0,0,0,0,0,0,0,0,0],"split_type":[0,0,0,0,0,0,0,0,0,0,0,0,0,0,0,0,0,0,0,0,0,0,0],"sum_hessian":[4.1866055E1,1.1734104E1,3.0131948E1,1.0274733E1,1.4593716E0,1.4525891E1,1.5606057E1,9.062988E0,1.2117441E0,3.3406858E0,1.1185205E1,1.0446674E1,5.159383E0,6.8893547E0,2.1736336E0,2.093535E0,1.2471509E0,6.681875E0,4.5033307E0,4.8761005E0,5.570574E0,3.9699857E0,1.189397E0],"tree_param":{"num_deleted":"0","num_feature":"17","num_nodes":"23","size_leaf_vector":"1"}},{"base_weights":[4.926883E-2,-4.0002728E-1,4.3281004E-1,1.8474966E-1,-8.098137E-1,2.2188105E-2,1.1335125E0,7.6152265E-1,-3.5825306E-1,-1.2655399E0,3.242227E-1,-8.735022E-1,4.3119374E-1,6.4296536E-2,-0E0,4.7751322E-2,-0E0,-4.5230564E-2,1.4188296E-2,-1.0628079E-2,-7.117095E-2,-8.488253E-3,3.970682E-2,-5.6665726E-2,-0E0,-6.777869E-3,4.128752E-2],"categories":[],"categories_nodes":[],"categories_segments":[],"categories_sizes":[],"default_left":[0,1,0,0,0,0,0,1,0,0,0,0,0,0,0,0,0,0,0,0,0,0,0,0,0,0,0],"id":12,"left_children":[1,3,5,7,9,11,13,15,17,19,21,23,25,-1,-1,-1,-1,-1,-1,-1,-1,-1,-1,-1,-1,-1,-1],"loss_changes":[8.089867E0,5.488964E0,7.054629E0,3.5770462E0,7.568924E0,6.982183E0,1.4216509E0,7.145951E-1,2.5853403E0,8.4307003E-1,1.4461535E0,1.1954093E0,3.2909744E0,0E0,0E0,0E0,0E0,0E0,0E0,0E0,0E0,0E0,0E0,0E0,0E0,0E0,0E0],"parents":[2147483647,0,0,1,1,2,2,3,3,4,4,5,5,6,6,7,7,8,8,9,9,10,10,11,11,12,12],"right_children":[2,4,6,8,10,12,14,16,18,20,22,24,26,-1,-1,-1,-1,-1,-1,-1,-1,-1,-1,-1,-1,-1,-1],"split_conditions":[-1.1939302E-2,7.162875E2,7.297E2,1.2366355E-1,1.5293193E7,-3.282658E0,7.777625E2,7.0795E2,-2.8407644E-2,2.6494574E1,-1.3413817E-2,2.991622E-2,1.6812525E0,6.4296536E-2,-0E0,4.7751322E-2,-0E0,-4.5230564E-2,1.4188296E-2,-1.0628079E-2,-7.117095E-2,-8.488253E-3,3.970682E-2,-5.6665726E-2,-0E0,-6.777869E-3,4.128752E-2],"split_indices":[3,15,14,11,12,6,15,14,2,0,2,3,8,0,0,0,0,0,0,0,0,0,0,0,0,0,0],"split_type":[0,0,0,0,0,0,0,0,0,0,0,0,0,0,0,0,0,0,0,0,0,0,0,0,0,0,0],"sum_hessian":[4.390067E1,1.9947456E1,2.395321E1,8.357187E0,1.159027E1,1.6258448E1,7.6947637E0,3.938463E0,4.4187236E0,8.269494E0,3.320776E0,4.4094963E0,1.1848951E1,6.5039945E0,1.1907692E0,2.7413712E0,1.1970918E0,2.2240548E0,2.194669E0,1.7022991E0,6.5671954E0,1.8785123E0,1.4422636E0,2.9412827E0,1.4682137E0,5.0593386E0,6.7896132E0],"tree_param":{"num_deleted":"0","num_feature":"17","num_nodes":"27","size_leaf_vector":"1"}},{"base_weights":[-8.445399E-2,-2.506055E-1,4.2750694E-2,-5.286293E-1,2.3157133E-1,2.2820689E-1,-9.1296214E-1,4.6531852E-2,-9.803899E-2,-3.3102408E-2,3.460909E-2,-5.972578E-2,-1.1309213E-2,-2.432192E-2,4.274332E-2],"categories":[],"categories_nodes":[],"categories_segments":[],"categories_sizes":[],"default_left":[0,0,0,0,1,0,0,0,0,0,0,0,0,0,0],"id":13,"left_children":[1,3,-1,5,7,9,11,-1,13,-1,-1,-1,-1,-1,-1],"loss_changes":[7.227156E0,5.5505257E0,0E0,7.963371E0,3.8194659E0,4.710245E0,2.7152042E0,0E0,4.8184004E0,0E0,0E0,0E0,0E0,0E0,0E0],"parents":[2147483647,0,0,1,1,3,3,4,4,5,5,6,6,8,8],"right_children":[2,4,-1,6,8,10,12,-1,14,-1,-1,-1,-1,-1,-1],"split_conditions":[6.571912E1,7.443E2,4.2750694E-2,7.356E2,9.7439617E-1,9.017461E-3,5.292282E1,4.6531852E-2,7.517048E2,-3.3102408E-2,3.460909E-2,-5.972578E-2,-1.1309213E-2,-2.432192E-2,4.274332E-2],"split_indices":[0,14,0,16,5,4,0,0,10,0,0,0,0,0,0],"split_type":[0,0,0,0,0,0,0,0,0,0,0,0,0,0,0],"sum_hessian":[4.351539E1,3.809141E1,5.423977E0,2.433189E1,1.3759522E1,8.224666E0,1.6107224E1,3.7268689E0,1.0032654E1,2.4507868E0,5.773879E0,1.0430808E1,5.676415E0,7.7982802E0,2.2343733E0],"tree_param":{"num_deleted":"0","num_feature":"17","num_nodes":"15","size_leaf_vector":"1"}},{"base_weights":[3.7130065E-2,-1.9928247E-1,8.670112E-1,-3.4262696E-1,4.6716906E-2,-0E0,4.889978E-2,6.119914E-2,-7.062626E-1,3.2929335E-2,-2.9430259E-2,-5.235566E-2,-0E0],"categories":[],"categories_nodes":[],"categories_segments":[],"categories_sizes":[],"default_left":[0,0,0,1,0,0,0,0,0,0,0,0,0],"id":14,"left_children":[1,3,5,7,-1,-1,-1,9,11,-1,-1,-1,-1],"loss_changes":[9.370209E0,6.3166056E0,1.0765386E0,5.1551156E0,0E0,0E0,0E0,7.2442827E0,4.2348995E0,0E0,0E0,0E0,0E0],"parents":[2147483647,0,0,1,1,2,2,3,3,7,7,8,8],"right_children":[2,4,6,8,-1,-1,-1,10,12,-1,-1,-1,-1],"split_conditions":[5.80568E1,7.517048E2,4.3864585E-2,7.16025E2,4.6716906E-2,-0E0,4.889978E-2,2.711236E-2,-1.1939302E-2,3.2929335E-2,-2.9430259E-2,-5.235566E-2,-0E0],"split_indices":[0,10,11,15,0,0,0,1,3,0,0,0,0],"split_type":[0,0,0,0,0,0,0,0,0,0,0,0,0],"sum_hessian":[4.425817E1,3.5145027E1,9.113145E0,3.2285625E1,2.8594015E0,1.1465878E0,7.966557E0,1.5627955E1,1.665767E1,8.29218E0,7.3357754E0,1.0622867E1,6.034803E0],"tree_param":{"num_deleted":"0","num_feature":"17","num_nodes":"13","size_leaf_vector":"1"}},{"base_weights":[-6.714041E-2,-5.0407195E-1,3.8115558E-1,2.4703981E-1,-9.006926E-1,-1.312497E-1,7.6406133E-1,-5.341154E-1,8.0407816E-1,-1.0982562E0,1.45451175E-2,-5.5597033E-2,6.130377E-1,9.531126E-1,-2.2222968E-2,-0E0,-3.7410613E-2,-0E0,5.1176198E-2,-6.162375E-2,-0E0,-0E0,5.133104E-2,5.4643046E-2,3.879479E-3],"categories":[],"categories_nodes":[],"categories_segments":[],"categories_sizes":[],"default_left":[0,0,0,0,0,0,1,0,0,0,0,0,0,0,0,0,0,0,0,0,0,0,0,0,0],"id":15,"left_children":[1,3,5,7,9,11,13,15,17,19,-1,-1,21,23,-1,-1,-1,-1,-1,-1,-1,-1,-1,-1,-1],"loss_changes":[9.30218E0,7.6479664E0,4.844678E0,4.7604523E0,4.4726906E0,9.161037E0,3.882576E0,6.118275E-1,1.2911692E0,2.253357E0,0E0,0E0,1.8572488E0,1.1711903E0,0E0,0E0,0E0,0E0,0E0,0E0,0E0,0E0,0E0,0E0,0E0],"parents":[2147483647,0,0,1,1,2,2,3,3,4,4,5,5,6,6,7,7,8,8,9,9,12,12,13,13],"right_children":[2,4,6,8,10,12,14,16,18,20,-1,-1,22,24,-1,-1,-1,-1,-1,-1,-1,-1,-1,-1,-1],"split_conditions":[7.23325E2,7.356E2,-8.2173785E-3,-6.9358845E0,9.3645245E-2,7.66425E2,7.777625E2,2.8684086E1,-3.7771028E-2,1.5239452E7,1.45451175E-2,-5.5597033E-2,7.990866E2,3.0043134E-2,-2.2222968E-2,-0E0,-3.7410613E-2,-0E0,5.1176198E-2,-6.162375E-2,-0E0,-0E0,5.133104E-2,5.4643046E-2,3.879479E-3],"split_indices":[13,16,3,7,1,15,15,0,2,12,0,0,9,2,0,0,0,0,0,0,0,0,0,0,0],"split_type":[0,0,0,0,0,0,0,0,0,0,0,0,0,0,0,0,0,0,0,0,0,0,0,0,0],"sum_hessian":[4.4393642E1,2.26132E1,2.1780441E1,7.8356524E0,1.4777548E1,9.513276E0,1.2267165E1,3.1379192E0,4.697733E0,1.292067E1,1.8568778E0,3.9009945E0,5.612281E0,1.1025003E1,1.242162E0,1.181586E0,1.9563332E0,1.1402155E0,3.5575175E0,1.1434274E1,1.4863961E0,2.8140209E0,2.7982602E0,8.989357E0,2.035646E0],"tree_param":{"num_deleted":"0","num_feature":"17","num_nodes":"25","size_leaf_vector":"1"}},{"base_weights":[3.6082912E-2,-2.5825587E-1,3.8649812E-1,4.269037E-1,-7.0575565E-1,-1.8438585E-1,8.4111893E-1,-3.8454342E-1,8.2355815E-1,-9.615224E-1,4.48603E-1,-9.033422E-1,3.9514053E-1,-0E0,1.0282582E0,-3.9922368E-2,7.927145E-3,-3.0531955E-3,5.4930426E-2,9.006253E-3,-5.5550825E-2,3.5188895E-2,-0E0,-1.0236152E-3,-5.5198926E-2,-3.0943288E-2,4.4600297E-2,-2.5718788E-2,2.674073E-2,5.7008784E-2,-0E0],"categories":[],"categories_nodes":[],"categories_segments":[],"categories_sizes":[],"default_left":[0,0,0,0,0,0,0,0,0,0,0,0,0,0,0,0,0,0,0,0,0,0,0,0,0,0,0,0,0,0,0],"id":16,"left_children":[1,3,5,7,9,11,13,15,17,19,21,23,25,27,29,-1,-1,-1,-1,-1,-1,-1,-1,-1,-1,-1,-1,-1,-1,-1,-1],"loss_changes":[4.8982296E0,8.318702E0,6.0257406E0,4.046413E0,5.5185213E0,5.0978227E0,2.0047379E0,1.3092872E0,2.2333899E0,2.8487158E0,5.685014E-1,6.9575024E-1,4.317446E0,1.4509542E0,9.8558426E-1,0E0,0E0,0E0,0E0,0E0,0E0,0E0,0E0,0E0,0E0,0E0,0E0,0E0,0E0,0E0,0E0],"parents":[2147483647,0,0,1,1,2,2,3,3,4,4,5,5,6,6,7,7,8,8,9,9,10,10,11,11,12,12,13,13,14,14],"right_children":[2,4,6,8,10,12,14,16,18,20,22,24,26,28,30,-1,-1,-1,-1,-1,-1,-1,-1,-1,-1,-1,-1,-1,-1,-1,-1],"split_conditions":[7.23325E2,7.356E2,-8.2173785E-3,-8.334316E0,9.120691E-2,7.66425E2,7.092125E2,6.72525E2,-3.7771028E-2,-1.9393803E1,-1.7144579E0,7.9641046E2,-9.628384E0,1.261194E-1,7.777625E2,-3.9922368E-2,7.927145E-3,-3.0531955E-3,5.4930426E-2,9.006253E-3,-5.5550825E-2,3.5188895E-2,-0E0,-1.0236152E-3,-5.5198926E-2,-3.0943288E-2,4.4600297E-2,-2.5718788E-2,2.674073E-2,5.7008784E-2,-0E0],"split_indices":[13,16,3,7,1,15,15,13,2,6,6,9,7,1,15,0,0,0,0,0,0,0,0,0,0,0,0,0,0,0,0],"split_type":[0,0,0,0,0,0,0,0,0,0,0,0,0,0,0,0,0,0,0,0,0,0,0,0,0,0,0,0,0,0,0],"sum_hessian":[4.42904E1,2.3975452E1,2.0314947E1,9.323107E0,1.4652347E1,9.206149E0,1.1108798E1,2.9105322E0,6.412575E0,1.2341681E1,2.3106658E0,3.8887563E0,5.3173933E0,2.27581E0,8.832988E0,1.460442E0,1.4500904E0,1.6252522E0,4.7873225E0,1.2384876E0,1.1103193E1,1.19608E0,1.1145859E0,1.210781E0,2.6779754E0,1.4951819E0,3.8222113E0,1.207861E0,1.067949E0,7.6621556E0,1.1708326E0],"tree_param":{"num_deleted":"0","num_feature":"17","num_nodes":"31","size_leaf_vector":"1"}},{"base_weights":[1.34474365E-2,-2.816027E-1,4.504723E-1,4.3609485E-2,-9.837672E-1,-5.2565265E-1,6.7182493E-1,4.7222075E-1,-3.4249163E-1,-6.2566586E-2,-0E0,-3.8443055E-2,-0E0,1.1147424E-1,8.7807053E-1,-1.2138643E-2,3.958583E-2,-3.578787E-2,3.7215643E-2,3.9862283E-2,-3.6623638E-2,4.931481E-2,-0E0],"categories":[],"categories_nodes":[],"categories_segments":[],"categories_sizes":[],"default_left":[0,0,0,1,0,0,0,0,0,0,0,0,0,0,0,0,0,0,0,0,0,0,0],"id":17,"left_children":[1,3,5,7,9,11,13,15,17,-1,-1,-1,-1,19,21,-1,-1,-1,-1,-1,-1,-1,-1],"loss_changes":[5.8976884E0,6.3988943E0,4.574338E0,3.5183868E0,2.2808704E0,6.013979E-1,1.5013976E0,2.7242186E0,5.237608E0,0E0,0E0,0E0,0E0,4.5215716E0,9.578781E-1,0E0,0E0,0E0,0E0,0E0,0E0,0E0,0E0],"parents":[2147483647,0,0,1,1,2,2,3,3,4,4,5,5,6,6,7,7,8,8,13,13,14,14],"right_children":[2,4,6,8,10,12,14,16,18,-1,-1,-1,-1,20,22,-1,-1,-1,-1,-1,-1,-1,-1],"split_conditions":[4.9261086E1,-7.037451E-1,9.028621E6,7.160625E2,1.4678759E7,1.4795558E-2,7.183E2,2.6E1,7.5594574E2,-6.2566586E-2,-0E0,-3.8443055E-2,-0E0,9.827945E-1,1.3877645E1,-1.2138643E-2,3.958583E-2,-3.578787E-2,3.7215643E-2,3.9862283E-2,-3.6623638E-2,4.931481E-2,-0E0],"split_indices":[0,8,12,15,12,3,13,0,10,0,0,0,0,5,6,0,0,0,0,0,0,0,0],"split_type":[0,0,0,0,0,0,0,0,0,0,0,0,0,0,0,0,0,0,0,0,0,0,0],"sum_hessian":[4.250067E1,2.541677E1,1.70839E1,1.8138027E1,7.2787437E0,2.6097493E0,1.4474151E1,8.682736E0,9.45529E0,5.382556E0,1.8961877E0,1.4382955E0,1.1714537E0,4.7767115E0,9.697439E0,2.5995264E0,6.08321E0,7.556227E0,1.8990629E0,2.8118532E0,1.9648583E0,8.359568E0,1.3378717E0],"tree_param":{"num_deleted":"0","num_feature":"17","num_nodes":"23","size_leaf_vector":"1"}},{"base_weights":[1.6756976E-2,-3.202279E-1,3.879253E-1,2.5180134E-1,-6.5820414E-1,-5.2538896E-1,6.4002967E-1,-4.829026E-1,4.4557724E-2,5.4202404E-2,-9.8087245E-1,-4.4417687E-2,1.0345055E-3,1.7770088E-1,1.0280011E0,3.886732E-3,-4.6034295E-2,-2.9990992E-2,2.2268001E-2,-6.0832836E-2,1.3284261E-2,-3.0283762E-2,4.7575828E-2,-0E0,5.878825E-2],"categories":[],"categories_nodes":[],"categories_segments":[],"categories_sizes":[],"default_left":[0,1,0,0,0,0,0,0,0,0,0,0,0,0,0,0,0,0,0,0,0,0,0,0,0],"id":18,"left_children":[1,3,5,7,9,11,13,15,-1,17,19,-1,-1,21,23,-1,-1,-1,-1,-1,-1,-1,-1,-1,-1],"loss_changes":[5.4837265E0,4.7148695E0,5.3771696E0,5.090496E0,3.688356E0,1.233487E0,2.5977697E0,1.539812E0,0E0,1.8716682E0,3.767541E0,0E0,0E0,6.9756584E0,1.253603E0,0E0,0E0,0E0,0E0,0E0,0E0,0E0,0E0,0E0,0E0],"parents":[2147483647,0,0,1,1,2,2,3,3,4,4,5,5,6,6,7,7,9,9,10,10,13,13,14,14],"right_children":[2,4,6,8,10,12,14,16,-1,18,20,-1,-1,22,24,-1,-1,-1,-1,-1,-1,-1,-1,-1,-1],"split_conditions":[1.2491317E7,7.054125E2,1.0820477E-2,1.867332E6,3.9724804E1,9.972914E-1,9.201548E-3,-1.5635691E1,4.4557724E-2,9.703511E-1,6.0821335E1,-4.4417687E-2,1.0345055E-3,1.5239452E7,-1.5593743E0,3.886732E-3,-4.6034295E-2,-2.9990992E-2,2.2268001E-2,-6.0832836E-2,1.3284261E-2,-3.0283762E-2,4.7575828E-2,-0E0,5.878825E-2],"split_indices":[12,15,1,12,0,5,4,7,0,5,0,0,0,12,8,0,0,0,0,0,0,0,0,0,0],"split_type":[0,0,0,0,0,0,0,0,0,0,0,0,0,0,0,0,0,0,0,0,0,0,0,0,0],"sum_hessian":[4.0744408E1,2.1181074E1,1.9563335E1,7.788923E0,1.3392151E1,3.7086036E0,1.5854732E1,3.6494467E0,4.1394763E0,4.3706226E0,9.021528E0,1.8830544E0,1.8255492E0,8.467235E0,7.3874974E0,1.9408052E0,1.7086415E0,1.1448833E0,3.2257392E0,7.7517247E0,1.2698035E0,4.2411532E0,4.226081E0,1.1866803E0,6.200817E0],"tree_param":{"num_deleted":"0","num_feature":"17","num_nodes":"25","size_leaf_vector":"1"}},{"base_weights":[7.716005E-2,-2.820141E-1,4.9426937E-1,7.264058E-2,-6.8656576E-1,1.0277356E0,-1.1415555E-1,5.33777E-1,-3.430286E-1,-5.3021647E-2,2.3446815E-1,5.420695E-2,6.1795567E-3,-5.9943116E-1,3.5607997E-2,-1.615855E-2,4.5582797E-2,-4.4886474E-2,2.0064984E-2,3.027114E-2,-1.3437602E-2,-5.455635E-2,1.4879945E-2],"categories":[],"categories_nodes":[],"categories_segments":[],"categories_sizes":[],"default_left":[0,0,1,0,0,0,0,0,0,0,1,0,0,0,0,0,0,0,0,0,0,0,0],"id":19,"left_children":[1,3,5,7,9,11,13,15,17,-1,19,-1,-1,21,-1,-1,-1,-1,-1,-1,-1,-1,-1],"loss_changes":[6.4622145E0,3.4935584E0,6.8448124E0,2.8686745E0,4.3735147E0,1.1704445E-1,4.832494E0,2.8705049E0,3.8179424E0,0E0,1.1121788E0,0E0,0E0,3.9929483E0,0E0,0E0,0E0,0E0,0E0,0E0,0E0,0E0,0E0],"parents":[2147483647,0,0,1,1,2,2,3,3,4,4,5,5,6,6,7,7,8,8,10,10,13,13],"right_children":[2,4,6,8,10,12,14,16,18,-1,20,-1,-1,22,-1,-1,-1,-1,-1,-1,-1,-1,-1],"split_conditions":[7.23325E2,7.3653784E2,1.0016278E0,-7.037451E-1,6.773851E-2,2.4875782E0,5.78968E1,-3.1580232E-2,2.0754522E-2,-5.3021647E-2,9.690972E-1,5.420695E-2,6.1795567E-3,7.7025E2,3.5607997E-2,-1.615855E-2,4.5582797E-2,-4.4886474E-2,2.0064984E-2,3.027114E-2,-1.3437602E-2,-5.455635E-2,1.4879945E-2],"split_indices":[13,9,5,8,1,7,0,2,3,0,5,0,0,13,0,0,0,0,0,0,0,0,0],"split_type":[0,0,0,0,0,0,0,0,0,0,0,0,0,0,0,0,0,0,0,0,0,0,0],"sum_hessian":[3.9955677E1,2.1472218E1,1.848346E1,1.1834052E1,9.638165E0,9.4727335E0,9.010725E0,5.6362424E0,6.1978097E0,6.848383E0,2.7897823E0,8.427198E0,1.0455351E0,6.0888095E0,2.9219158E0,1.6292803E0,4.006962E0,3.5280986E0,2.6697109E0,1.65936E0,1.1304222E0,3.8673577E0,2.2214518E0],"tree_param":{"num_deleted":"0","num_feature":"17","num_nodes":"23","size_leaf_vector":"1"}},{"base_weights":[-0E0,-1.9523482E-1,6.7070603E-1,-4.448305E-1,4.2472202E-1,-1.2710701E-2,8.7385726E-1,-3.3264983E-2,-1.0618389E0,7.677385E-1,-0E0,-0E0,5.2125007E-2,-3.2130413E-2,1.8142024E-2,-5.868107E-2,-2.1606472E-3,-0E0,4.8076097E-2,-1.6086273E-2,1.725E-2],"categories":[],"categories_nodes":[],"categories_segments":[],"categories_sizes":[],"default_left":[0,0,0,1,0,0,0,0,0,0,0,0,0,0,0,0,0,0,0,0,0],"id":20,"left_children":[1,3,5,7,9,-1,11,13,15,17,19,-1,-1,-1,-1,-1,-1,-1,-1,-1,-1],"loss_changes":[5.292671E0,5.185307E0,2.1639247E0,5.703134E0,1.545881E0,0E0,1.3407731E0,4.2331843E0,7.249327E-1,8.265395E-1,7.787268E-1,0E0,0E0,0E0,0E0,0E0,0E0,0E0,0E0,0E0,0E0],"parents":[2147483647,0,0,1,1,2,2,3,3,4,4,6,6,7,7,8,8,9,9,10,10],"right_children":[2,4,6,8,10,-1,12,14,16,18,20,-1,-1,-1,-1,-1,-1,-1,-1,-1,-1],"split_conditions":[6.0821335E1,1.4652328E7,4.3391075E-2,7.2280005E2,5.994118E-2,-1.2710701E-2,9.028621E6,-8.334316E0,6.4282737E0,-1.8564545E-2,-1.1037359E-3,-0E0,5.2125007E-2,-3.2130413E-2,1.8142024E-2,-5.868107E-2,-2.1606472E-3,-0E0,4.8076097E-2,-1.6086273E-2,1.725E-2],"split_indices":[0,12,11,16,11,0,12,7,7,2,2,0,0,0,0,0,0,0,0,0,0],"split_type":[0,0,0,0,0,0,0,0,0,0,0,0,0,0,0,0,0,0,0,0,0],"sum_hessian":[3.7736176E1,3.0152685E1,7.5834904E0,2.2029781E1,8.122903E0,1.1204977E0,6.4629927E0,1.4357714E1,7.6720686E0,4.0677304E0,4.055173E0,1.134247E0,5.328746E0,5.4875145E0,8.870199E0,6.5308027E0,1.1412656E0,1.1240574E0,2.943673E0,2.4319587E0,1.6232144E0],"tree_param":{"num_deleted":"0","num_feature":"17","num_nodes":"21","size_leaf_vector":"1"}},{"base_weights":[2.8765662E-2,-1.3353573E-1,6.200989E-1,2.3285833E-1,-6.602912E-1,-7.257607E-3,5.452873E-2,-3.8901213E-1,4.1245908E-1,-9.9676293E-1,-0E0,-3.1243145E-2,2.6374087E-2,-4.0162172E-2,1.9656384E-2,-3.3522726E-3,3.5326377E-2,-5.7786386E-2,3.1824547E-4,2.8943766E-2,-2.1430938E-2],"categories":[],"categories_nodes":[],"categories_segments":[],"categories_sizes":[],"default_left":[0,1,0,0,0,0,0,0,0,0,0,0,0,0,0,0,0,0,0,0,0],"id":21,"left_children":[1,3,5,7,9,11,-1,13,15,17,19,-1,-1,-1,-1,-1,-1,-1,-1,-1,-1],"loss_changes":[4.3137546E0,6.960164E0,3.0956218E0,2.6118197E0,3.214769E0,2.3206408E0,0E0,2.2632265E0,2.6549568E0,1.7881079E0,1.984539E0,0E0,0E0,0E0,0E0,0E0,0E0,0E0,0E0,0E0,0E0],"parents":[2147483647,0,0,1,1,2,2,3,3,4,4,5,5,7,7,8,8,9,9,10,10],"right_children":[2,4,6,8,10,12,-1,14,16,18,20,-1,-1,-1,-1,-1,-1,-1,-1,-1,-1],"split_conditions":[1.5293193E7,7.2555005E2,-6.1939065E-3,-9.879757E0,4.849624E1,7.2784045E2,5.452873E-2,2.9252399E-2,-1.9346844E-2,7.769625E2,-9.152051E-4,-3.1243145E-2,2.6374087E-2,-4.0162172E-2,1.9656384E-2,-3.3522726E-3,3.5326377E-2,-5.7786386E-2,3.1824547E-4,2.8943766E-2,-2.1430938E-2],"split_indices":[12,16,2,7,0,10,0,2,2,15,2,0,0,0,0,0,0,0,0,0,0],"split_type":[0,0,0,0,0,0,0,0,0,0,0,0,0,0,0,0,0,0,0,0,0],"sum_hessian":[4.1138897E1,3.29251E1,8.213799E0,1.9687992E1,1.3237105E1,3.9707532E0,4.2430468E0,3.770393E0,1.59176E1,8.202632E0,5.0344734E0,1.8988526E0,2.0719006E0,2.6056454E0,1.1647474E0,6.232635E0,9.684964E0,7.0557103E0,1.1469216E0,1.8589966E0,3.1754768E0],"tree_param":{"num_deleted":"0","num_feature":"17","num_nodes":"21","size_leaf_vector":"1"}},{"base_weights":[-3.6147017E-2,-3.307375E-1,3.7030977E-1,2.4051945E-1,-6.217148E-1,-4.972802E-2,5.0117444E-2,-5.3750867E-1,4.3332726E-2,-8.2675886E-1,2.4621982E-2,-3.3734152E-1,5.3635013E-1,-3.918838E-2,-0E0,2.1490573E-3,-5.770417E-2,-3.784352E-2,9.273424E-3,-0E0,3.7165236E-2],"categories":[],"categories_nodes":[],"categories_segments":[],"categories_sizes":[],"default_left":[0,1,0,0,0,0,0,0,0,0,0,0,0,0,0,0,0,0,0,0,0],"id":22,"left_children":[1,3,5,7,9,11,-1,13,-1,15,-1,17,19,-1,-1,-1,-1,-1,-1,-1,-1],"loss_changes":[4.9730697E0,4.3408356E0,4.8469853E0,5.174421E0,4.505065E0,2.1881008E0,0E0,5.3733766E-1,0E0,4.5275383E0,0E0,2.2847507E0,4.931929E-1,0E0,0E0,0E0,0E0,0E0,0E0,0E0,0E0],"parents":[2147483647,0,0,1,1,2,2,3,3,4,4,5,5,7,7,9,9,11,11,12,12],"right_children":[2,4,6,8,10,12,-1,14,-1,16,-1,18,20,-1,-1,-1,-1,-1,-1,-1,-1],"split_conditions":[1.2504864E7,7.054125E2,3.847185E-2,1.867332E6,6.0821335E1,7.69925E2,5.0117444E-2,5.7371486E-2,4.3332726E-2,7.360881E2,2.4621982E-2,8.936336E-3,9.5869E-3,-3.918838E-2,-0E0,2.1490573E-3,-5.770417E-2,-3.784352E-2,9.273424E-3,-0E0,3.7165236E-2],"split_indices":[12,15,1,12,0,15,0,1,0,9,0,4,1,0,0,0,0,0,0,0,0],"split_type":[0,0,0,0,0,0,0,0,0,0,0,0,0,0,0,0,0,0,0,0,0],"sum_hessian":[3.8564632E1,2.2806501E1,1.5758131E1,7.552311E0,1.5254191E1,1.0106886E1,5.6512446E0,3.3199177E0,4.232393E0,1.3361611E1,1.8925799E0,7.4357243E0,2.6711621E0,1.6416459E0,1.6782718E0,3.8428152E0,9.518796E0,3.9650073E0,3.470717E0,1.1067072E0,1.5644549E0],"tree_param":{"num_deleted":"0","num_feature":"17","num_nodes":"21","size_leaf_vector":"1"}},{"base_weights":[1.8912513E-2,-1.1265877E-1,4.0885616E-2,5.2683705E-1,-2.2798897E-1,-4.7842483E-3,4.553193E-2,-7.970687E-1,-3.764323E-2,-5.5258762E-2,1.4101021E-2,-1.2723676E-2,3.5720102E-2],"categories":[],"categories_nodes":[],"categories_segments":[],"categories_sizes":[],"default_left":[0,0,0,0,0,0,0,0,0,0,0,0,0],"id":23,"left_children":[1,3,-1,5,7,-1,-1,9,11,-1,-1,-1,-1],"loss_changes":[4.4997096E0,2.7446768E0,0E0,1.6375667E0,3.1955562E0,0E0,0E0,3.1412935E0,4.3242764E0,0E0,0E0,0E0,0E0],"parents":[2147483647,0,0,1,1,3,3,4,4,7,7,8,8],"right_children":[2,4,-1,6,8,-1,-1,10,12,-1,-1,-1,-1],"split_conditions":[6.1881985E1,6.577431E2,4.0885616E-2,6.72525E2,-2.7513646E-2,-4.7842483E-3,4.553193E-2,2.442343E-2,7.9583954E2,-5.5258762E-2,1.4101021E-2,-1.2723676E-2,3.5720102E-2],"split_indices":[0,10,0,13,2,0,0,4,9,0,0,0,0],"split_type":[0,0,0,0,0,0,0,0,0,0,0,0,0],"sum_hessian":[3.8657475E1,3.408188E1,4.575596E0,4.1246724E0,2.9957209E1,1.8038238E0,2.3208485E0,6.046864E0,2.3910343E1,4.8197784E0,1.2270854E0,1.9536068E1,4.3742757E0],"tree_param":{"num_deleted":"0","num_feature":"17","num_nodes":"13","size_leaf_vector":"1"}},{"base_weights":[9.807786E-2,-8.110147E-2,7.021096E-1,-2.9976416E-1,4.0507385E-1,-1.53612215E-2,9.145542E-1,5.944143E-1,-4.8128876E-1,-1.0059877E-2,6.1880404E-1,-0E0,5.310441E-2,1.7059278E-3,3.551019E-2,-3.0090455E-2,2.8193781E-2,-1.872349E-2,4.6325233E-2],"categories":[],"categories_nodes":[],"categories_segments":[],"categories_sizes":[],"default_left":[0,0,0,1,0,0,0,0,0,0,0,0,0,0,0,0,0,0,0],"id":24,"left_children":[1,3,5,7,9,-1,11,13,15,-1,17,-1,-1,-1,-1,-1,-1,-1,-1],"loss_changes":[4.6121984E0,3.611979E0,2.6264791E0,4.2268467E0,1.6210871E0,0E0,9.8526525E-1,1.039418E-1,3.108879E0,0E0,3.173516E0,0E0,0E0,0E0,0E0,0E0,0E0,0E0,0E0],"parents":[2147483647,0,0,1,1,2,2,3,3,4,4,6,6,7,7,8,8,10,10],"right_children":[2,4,6,8,10,-1,12,14,16,-1,18,-1,-1,-1,-1,-1,-1,-1,-1],"split_conditions":[5.80568E1,1.4678759E7,9.037218E6,6.88475E2,-1.6839646E-2,-1.53612215E-2,7.1819995E2,7.0089655E2,7.5594574E2,-1.0059877E-2,6.958154E2,-0E0,5.310441E-2,1.7059278E-3,3.551019E-2,-3.0090455E-2,2.8193781E-2,-1.872349E-2,4.6325233E-2],"split_indices":[0,12,12,14,2,0,13,9,10,0,10,0,0,0,0,0,0,0,0],"split_type":[0,0,0,0,0,0,0,0,0,0,0,0,0,0,0,0,0,0,0],"sum_hessian":[3.9178036E1,3.0961224E1,8.216814E0,2.2036552E1,8.924671E0,1.1486927E0,7.068121E0,2.9569888E0,1.9079563E1,2.105204E0,6.8194675E0,1.3416188E0,5.726502E0,1.1348426E0,1.8221463E0,1.7849007E1,1.2305572E0,1.3821949E0,5.4372725E0],"tree_param":{"num_deleted":"0","num_feature":"17","num_nodes":"19","size_leaf_vector":"1"}},{"base_weights":[-1.2084258E-1,-2.5089103E-1,4.1765977E-2,-3.458756E-1,3.7580997E-2,4.9964035E-1,-4.695791E-1,-7.586423E-3,4.0021554E-2,-3.464313E-2,1.7330196E-3],"categories":[],"categories_nodes":[],"categories_segments":[],"categories_sizes":[],"default_left":[0,0,0,1,0,0,0,0,0,0,0],"id":25,"left_children":[1,3,-1,5,-1,7,9,-1,-1,-1,-1],"loss_changes":[5.472303E0,3.9919276E0,0E0,4.1678514E0,0E0,1.3276267E0,3.8669472E0,0E0,0E0,0E0,0E0],"parents":[2147483647,0,0,1,1,3,3,5,5,6,6],"right_children":[2,4,-1,6,-1,8,10,-1,-1,-1,-1],"split_conditions":[4.632039E-2,7.5594574E2,4.1765977E-2,6.88475E2,3.7580997E-2,-6.9358845E0,1.4678759E7,-7.586423E-3,4.0021554E-2,-3.464313E-2,1.7330196E-3],"split_indices":[3,10,0,14,0,7,12,0,0,0,0],"split_type":[0,0,0,0,0,0,0,0,0,0,0],"sum_hessian":[4.0920086E1,3.717893E1,3.74116E0,3.5040905E1,2.1380231E0,3.6841786E0,3.1356726E1,1.1886245E0,2.495554E0,2.1619064E1,9.737661E0],"tree_param":{"num_deleted":"0","num_feature":"17","num_nodes":"11","size_leaf_vector":"1"}},{"base_weights":[1.1393722E-2,-1.1991216E-1,5.837071E-1,-8.2911354E-1,1.01407625E-1,-5.909159E-2,4.5364507E-2,-9.9138594E-1,-0E0,7.961718E-1,-1.847306E-1,-3.2813944E-2,2.8680569E-2,-9.011223E-3,-5.6210082E-2,-0E0,4.9397793E-2,-2.2964824E-2,3.0795882E-2],"categories":[],"categories_nodes":[],"categories_segments":[],"categories_sizes":[],"default_left":[0,0,0,0,0,0,0,0,0,0,0,0,0,0,0,0,0,0,0],"id":26,"left_children":[1,3,5,7,9,11,-1,13,-1,15,17,-1,-1,-1,-1,-1,-1,-1,-1],"loss_changes":[3.3459718E0,5.770877E0,1.9884806E0,1.2004743E0,5.8743258E0,2.0925229E0,0E0,2.232256E-1,0E0,1.4063368E0,4.948181E0,0E0,0E0,0E0,0E0,0E0,0E0,0E0,0E0],"parents":[2147483647,0,0,1,1,2,2,3,3,4,4,5,5,7,7,9,9,10,10],"right_children":[2,4,6,8,10,12,-1,14,-1,16,18,-1,-1,-1,-1,-1,-1,-1,-1],"split_conditions":[1.5293193E7,9.090754E-3,-1.3413817E-2,2.3471557E-2,7.2280005E2,7.6961255E2,4.5364507E-2,-1.6405135E-2,-0E0,-3.1282039E0,1.2491317E7,-3.2813944E-2,2.8680569E-2,-9.011223E-3,-5.6210082E-2,-0E0,4.9397793E-2,-2.2964824E-2,3.0795882E-2],"split_indices":[12,4,2,3,16,15,0,2,0,8,12,0,0,0,0,0,0,0,0],"split_type":[0,0,0,0,0,0,0,0,0,0,0,0,0,0,0,0,0,0,0],"sum_hessian":[4.039357E1,3.3535725E1,6.857845E0,7.2114735E0,2.632425E1,2.49986E0,4.3579845E0,5.814468E0,1.3970057E0,7.102974E0,1.9221277E1,1.4198868E0,1.0799732E0,1.527381E0,4.287087E0,1.5750301E0,5.5279436E0,1.4975165E1,4.2461114E0],"tree_param":{"num_deleted":"0","num_feature":"17","num_nodes":"19","size_leaf_vector":"1"}},{"base_weights":[-4.5518205E-2,-1.9260764E-1,3.9861884E-2,3.2059613E-1,-4.3225655E-1,-3.1053957E-1,7.3648244E-1,-9.0005326E-1,1.14599675E-1,1.3700329E-2,-3.0401984E-2,5.0130527E-2,1.2638093E-3,-5.1956166E-2,-0E0,-2.7196893E-2,1.7473852E-2],"categories":[],"categories_nodes":[],"categories_segments":[],"categories_sizes":[],"default_left":[0,0,0,0,0,0,0,0,0,0,0,0,0,0,0,0,0],"id":27,"left_children":[1,3,-1,5,7,9,11,13,15,-1,-1,-1,-1,-1,-1,-1,-1],"loss_changes":[5.0065374E0,4.540379E0,0E0,3.5127234E0,6.654566E0,1.2787089E0,1.2174854E0,1.90094E0,2.1896772E0,0E0,0E0,0E0,0E0,0E0,0E0,0E0,0E0],"parents":[2147483647,0,0,1,1,3,3,4,4,5,5,6,6,7,7,8,8],"right_children":[2,4,-1,6,8,10,12,14,16,-1,-1,-1,-1,-1,-1,-1,-1],"split_conditions":[6.1881985E1,7.356E2,3.9861884E-2,9.352218E6,7.297E2,2.7495432E1,7.346097E2,1.5239452E7,-1.2601441E1,1.3700329E-2,-3.0401984E-2,5.0130527E-2,1.2638093E-3,-5.1956166E-2,-0E0,-2.7196893E-2,1.7473852E-2],"split_indices":[0,16,0,12,14,0,9,12,6,0,0,0,0,0,0,0,0],"split_type":[0,0,0,0,0,0,0,0,0,0,0,0,0,0,0,0,0],"sum_hessian":[3.8005596E1,3.3545303E1,4.4602923E0,1.0251242E1,2.3294062E1,4.031789E0,6.2194533E0,1.2229509E1,1.1064552E1,1.1730653E0,2.8587234E0,3.8740144E0,2.3454387E0,1.05609665E1,1.6685425E0,2.1660955E0,8.898458E0],"tree_param":{"num_deleted":"0","num_feature":"17","num_nodes":"17","size_leaf_vector":"1"}},{"base_weights":[-4.318936E-2,-4.4677445E-1,3.1069648E-1,-1.9379841E-1,-5.3627457E-2,-2.554621E-1,6.2069887E-1,-3.9728444E-2,2.0744641E-1,3.0266305E-2,-5.745645E-1,7.732515E-1,-1.9507363E-2,-2.4083642E-2,2.4121022E-2,-4.36469E-2,1.6412286E-2,-0E0,4.6577413E-2],"categories":[],"categories_nodes":[],"categories_segments":[],"categories_sizes":[],"default_left":[0,1,0,0,0,0,1,0,0,0,0,0,0,0,0,0,0,0,0],"id":28,"left_children":[1,3,5,7,-1,9,11,-1,13,-1,15,17,-1,-1,-1,-1,-1,-1,-1],"loss_changes":[5.7530994E0,2.4314146E0,4.0325136E0,4.1101108E0,0E0,2.8055344E0,2.7447305E0,0E0,2.3015165E0,0E0,2.4300983E0,1.7869811E0,0E0,0E0,0E0,0E0,0E0,0E0,0E0],"parents":[2147483647,0,0,1,1,2,2,3,3,5,5,6,6,8,8,10,10,11,11],"right_children":[2,4,6,8,-1,10,12,-1,14,-1,16,18,-1,-1,-1,-1,-1,-1,-1],"split_conditions":[-1.1939302E-2,1.0015811E0,7.1435E2,-9.676544E0,-5.3627457E-2,7.1785E2,7.777625E2,-3.9728444E-2,4.514173E-3,3.0266305E-2,9.120691E-2,7.092125E2,-1.9507363E-2,-2.4083642E-2,2.4121022E-2,-4.36469E-2,1.6412286E-2,-0E0,4.6577413E-2],"split_indices":[3,5,13,7,0,16,15,0,1,0,1,15,0,0,0,0,0,0,0],"split_type":[0,0,0,0,0,0,0,0,0,0,0,0,0,0,0,0,0,0,0],"sum_hessian":[3.713289E1,1.7428352E1,1.9704536E1,1.4037634E1,3.3907187E0,6.836944E0,1.2867592E1,5.2319975E0,8.805636E0,1.3156725E0,5.521271E0,1.1658554E1,1.2090377E0,1.9824564E0,6.8231797E0,4.3535957E0,1.1676757E0,2.032817E0,9.625737E0],"tree_param":{"num_deleted":"0","num_feature":"17","num_nodes":"19","size_leaf_vector":"1"}},{"base_weights":[2.1206087E-2,-2.224763E-1,2.808213E-1,3.366933E-1,-5.924031E-1,-1.4668764E-1,6.0086215E-1,-2.6692048E-2,7.223134E-1,-9.277691E-1,2.8737504E-2,-5.441696E-1,3.7102584E-2,7.452826E-1,-1.1357592E-2,-1.5294465E-2,5.133448E-2,-5.6117665E-2,-0E0,2.8292133E-2,-3.8063597E-2,-4.0405583E-2,7.442977E-3,4.431401E-2,-2.8242418E-3],"categories":[],"categories_nodes":[],"categories_segments":[],"categories_sizes":[],"default_left":[0,0,0,0,0,0,1,0,0,0,0,0,0,0,0,0,0,0,0,0,0,0,0,0,0],"id":29,"left_children":[1,3,5,7,9,11,13,-1,15,17,19,21,-1,23,-1,-1,-1,-1,-1,-1,-1,-1,-1,-1,-1],"loss_changes":[2.6596406E0,4.749247E0,3.0427415E0,3.7073102E0,3.0439854E0,4.0143275E0,1.8341208E0,0E0,2.861747E0,1.7725053E0,3.1526911E0,1.7327602E0,0E0,1.4924703E0,0E0,0E0,0E0,0E0,0E0,0E0,0E0,0E0,0E0,0E0,0E0],"parents":[2147483647,0,0,1,1,2,2,3,3,4,4,5,5,6,6,8,8,9,9,10,10,11,11,13,13],"right_children":[2,4,6,8,10,12,14,-1,16,18,20,22,-1,24,-1,-1,-1,-1,-1,-1,-1,-1,-1,-1,-1],"split_conditions":[7.23325E2,7.356E2,-9.027778E-3,6.7585E2,5.482985E-2,7.76125E2,1.0385411E0,-2.6692048E-2,-2.5207182E-2,1.5239452E7,-3.0954359E0,1.5697181E7,3.7102584E-2,7.777625E2,-1.1357592E-2,-1.5294465E-2,5.133448E-2,-5.6117665E-2,-0E0,2.8292133E-2,-3.8063597E-2,-4.0405583E-2,7.442977E-3,4.431401E-2,-2.8242418E-3],"split_indices":[13,16,3,13,1,15,5,0,2,12,7,12,0,15,0,0,0,0,0,0,0,0,0,0,0],"split_type":[0,0,0,0,0,0,0,0,0,0,0,0,0,0,0,0,0,0,0,0,0,0,0,0,0],"sum_hessian":[3.8874805E1,1.9766037E1,1.9108768E1,7.7083898E0,1.2057647E1,8.261144E0,1.0847624E1,2.0301476E0,5.678242E0,7.5582867E0,4.4993596E0,6.2655296E0,1.9956138E0,9.5698805E0,1.2777437E0,1.1451876E0,4.5330544E0,6.0967703E0,1.4615165E0,3.0824668E0,1.4168929E0,4.5660424E0,1.6994872E0,8.2163105E0,1.3535702E0],"tree_param":{"num_deleted":"0","num_feature":"17","num_nodes":"25","size_leaf_vector":"1"}},{"base_weights":[7.5986885E-2,-5.086733E-2,5.330036E-1,2.9119426E-1,-5.459422E-1,3.4721073E-2,4.1667443E-2,-2.536867E-1,4.969865E-1,-7.744177E-1,1.6319461E-2,3.4425814E-2,-2.5792329E-2,1.39699625E-2,-4.0906966E-2,5.08867E-2,-3.246008E-4,-4.956238E-2,5.744064E-3],"categories":[],"categories_nodes":[],"categories_segments":[],"categories_sizes":[],"default_left":[0,1,0,0,0,0,0,0,0,0,0,0,0,0,0,0,0,0,0],"id":30,"left_children":[1,3,5,7,9,11,-1,13,15,17,-1,-1,-1,-1,-1,-1,-1,-1,-1],"loss_changes":[2.4646945E0,5.785129E0,1.1592405E0,2.4727402E0,3.2632413E0,2.4657354E0,0E0,2.3134344E0,4.208055E0,2.609373E0,0E0,0E0,0E0,0E0,0E0,0E0,0E0,0E0,0E0],"parents":[2147483647,0,0,1,1,2,2,3,3,4,4,5,5,7,7,8,8,9,9],"right_children":[2,4,6,8,10,12,-1,14,16,18,-1,-1,-1,-1,-1,-1,-1,-1,-1],"split_conditions":[1.5293193E7,7.2555005E2,-6.1939065E-3,-2.8508132E-2,2.3471557E-2,8.387121E-3,4.1667443E-2,-3.9410904E-2,6.068785E-2,7.769625E2,1.6319461E-2,3.4425814E-2,-2.5792329E-2,1.39699625E-2,-4.0906966E-2,5.08867E-2,-3.246008E-4,-4.956238E-2,5.744064E-3],"split_indices":[12,16,2,2,3,4,0,2,8,15,0,0,0,0,0,0,0,0,0],"split_type":[0,0,0,0,0,0,0,0,0,0,0,0,0,0,0,0,0,0,0],"sum_hessian":[3.8648663E1,3.0952576E1,7.696087E0,1.8431479E1,1.2521096E1,3.7740762E0,3.9220107E0,4.6907415E0,1.3740738E1,1.0237414E1,2.2836826E0,1.7195493E0,2.0545268E0,2.6197543E0,2.0709872E0,6.1966624E0,7.5440755E0,8.273176E0,1.9642376E0],"tree_param":{"num_deleted":"0","num_feature":"17","num_nodes":"19","size_leaf_vector":"1"}},{"base_weights":[1.0789591E-1,7.6004726E-1,1.3711762E-3,-0E0,4.7268644E-2,-2.6531488E-1,2.884079E-1,-0E0,-8.6999476E-1,-8.889776E-2,7.7869105E-1,-1.3661005E-2,2.5932107E-2,-4.7764238E-2,-5.617603E-3,-3.5524853E-2,2.2951102E-2,-1.5877875E-2,5.4292884E-2],"categories":[],"categories_nodes":[],"categories_segments":[],"categories_sizes":[],"default_left":[0,0,0,0,0,1,0,0,0,0,0,0,0,0,0,0,0,0,0],"id":31,"left_children":[1,3,5,-1,-1,7,9,11,13,15,17,-1,-1,-1,-1,-1,-1,-1,-1],"loss_changes":[2.5982902E0,6.6196775E-1,2.8613665E0,0E0,0E0,3.1633549E0,3.632903E0,2.3063607E0,9.6645355E-3,4.447786E0,3.4847765E0,0E0,0E0,0E0,0E0,0E0,0E0,0E0,0E0],"parents":[2147483647,0,0,1,1,2,2,5,5,6,6,7,7,8,8,9,9,10,10],"right_children":[2,4,6,-1,-1,8,10,12,14,16,18,-1,-1,-1,-1,-1,-1,-1,-1],"split_conditions":[6.577431E2,9.7413164E-1,1.2504864E7,-0E0,4.7268644E-2,7.2280005E2,9.288186E-3,6.8953973E2,1.2312945E-1,1.5239452E7,9.5869E-3,-1.3661005E-2,2.5932107E-2,-4.7764238E-2,-5.617603E-3,-3.5524853E-2,2.2951102E-2,-1.5877875E-2,5.4292884E-2],"split_indices":[10,5,12,0,0,16,4,10,11,12,1,0,0,0,0,0,0,0,0],"split_type":[0,0,0,0,0,0,0,0,0,0,0,0,0,0,0,0,0,0,0],"sum_hessian":[3.811605E1,3.7961109E0,3.4319942E1,1.132233E0,2.6638777E0,1.7488293E1,1.6831648E1,1.3042947E1,4.4453464E0,9.975177E0,6.8564715E0,8.837662E0,4.205284E0,3.4065843E0,1.0387623E0,4.635864E0,5.339313E0,1.347066E0,5.5094056E0],"tree_param":{"num_deleted":"0","num_feature":"17","num_nodes":"19","size_leaf_vector":"1"}},{"base_weights":[1.8209942E-2,7.1070397E-1,-9.798517E-2,-0E0,4.844147E-2,-5.3670007E-1,2.1143769E-1,3.756539E-1,-4.9913306E-2,-7.142787E-2,4.385845E-2,-1.8565802E-2,3.6080457E-2,-2.2455068E-2,2.0738339E-2],"categories":[],"categories_nodes":[],"categories_segments":[],"categories_sizes":[],"default_left":[0,0,0,0,0,0,0,0,0,0,0,0,0,0,0],"id":32,"left_children":[1,3,5,-1,-1,7,9,11,-1,13,-1,-1,-1,-1,-1],"loss_changes":[3.2831876E0,1.1445098E0,4.7957954E0,0E0,0E0,6.8293653E0,4.1173058E0,1.9822885E0,0E0,3.1452546E0,0E0,0E0,0E0,0E0,0E0],"parents":[2147483647,0,0,1,1,2,2,5,5,6,6,7,7,9,9],"right_children":[2,4,6,-1,-1,8,10,12,-1,14,-1,-1,-1,-1,-1],"split_conditions":[6.5877515E2,6.71825E2,7.1819995E2,-0E0,4.844147E-2,7.356E2,5.8017056E1,9.8294854E-1,-4.9913306E-2,7.69925E2,4.385845E-2,-1.8565802E-2,3.6080457E-2,-2.2455068E-2,2.0738339E-2],"split_indices":[10,13,13,0,0,16,0,5,0,15,0,0,0,0,0],"split_type":[0,0,0,0,0,0,0,0,0,0,0,0,0,0,0],"sum_hessian":[3.6481834E1,4.386417E0,3.2095417E1,1.4994513E0,2.8869658E0,1.3086013E1,1.9009405E1,4.34445E0,8.741563E0,1.4069845E1,4.93956E0,1.1573931E0,3.187057E0,8.214591E0,5.855254E0],"tree_param":{"num_deleted":"0","num_feature":"17","num_nodes":"15","size_leaf_vector":"1"}},{"base_weights":[-0E0,-1.0336487E-1,3.190973E-2,-2.6441368E-1,3.7449944E-1,1.9493365E-1,-4.719655E-1,6.248988E-1,-1.54941175E-2,-1.7736262E-2,2.6160214E-2,-5.2343734E-2,-0E0,-2.5334375E-3,4.053864E-2],"categories":[],"categories_nodes":[],"categories_segments":[],"categories_sizes":[],"default_left":[0,0,0,0,0,0,0,0,0,0,0,0,0,0,0],"id":33,"left_children":[1,3,-1,5,7,9,11,13,-1,-1,-1,-1,-1,-1,-1],"loss_changes":[2.667901E0,2.6850762E0,0E0,2.6777077E0,1.8422953E0,1.9127982E0,5.0179043E0,1.101656E0,0E0,0E0,0E0,0E0,0E0,0E0,0E0],"parents":[2147483647,0,0,1,1,3,3,4,4,5,5,6,6,7,7],"right_children":[2,4,-1,6,8,10,12,14,-1,-1,-1,-1,-1,-1,-1],"split_conditions":[6.1881985E1,7.973828E2,3.190973E-2,6.79621E2,8.16875E2,9.017461E-3,1.3450207E7,-5.9020605E-2,-1.54941175E-2,-1.7736262E-2,2.6160214E-2,-5.2343734E-2,-0E0,-2.5334375E-3,4.053864E-2],"split_indices":[0,9,0,10,9,4,12,3,0,0,0,0,0,0,0],"split_type":[0,0,0,0,0,0,0,0,0,0,0,0,0,0,0],"sum_hessian":[3.592376E1,3.1745539E1,4.1782217E0,2.45577E1,7.18784E0,7.3713126E0,1.7186386E1,5.5718403E0,1.6159997E0,2.483233E0,4.8880796E0,6.876618E0,1.0309768E1,1.2055002E0,4.36634E0],"tree_param":{"num_deleted":"0","num_feature":"17","num_nodes":"15","size_leaf_vector":"1"}},{"base_weights":[7.1213E-2,4.3353507E-1,-8.185519E-2,-2.957013E-1,7.1774715E-1,-5.879785E-1,1.7580536E-1,1.3323602E-2,-3.8902335E-2,-1.8748257E-2,5.008126E-2,1.4656357E-1,-4.9013726E-2,-1.3602015E-1,7.021052E-1,-1.5729608E-2,3.1511206E-2,2.0559585E-2,-2.5000406E-2,-4.16825E-3,4.33489E-2],"categories":[],"categories_nodes":[],"categories_segments":[],"categories_sizes":[],"default_left":[0,0,0,0,0,0,0,0,0,0,0,0,0,1,0,0,0,0,0,0,0],"id":34,"left_children":[1,3,5,7,9,11,13,-1,-1,-1,-1,15,-1,17,19,-1,-1,-1,-1,-1,-1],"loss_changes":[2.2760499E0,2.9215894E0,3.9095669E0,1.5720366E0,3.5983057E0,3.2944548E0,3.4652352E0,0E0,0E0,0E0,0E0,1.396734E0,0E0,2.9743705E0,1.2696159E0,0E0,0E0,0E0,0E0,0E0,0E0],"parents":[2147483647,0,0,1,1,2,2,3,3,4,4,5,5,6,6,11,11,13,13,14,14],"right_children":[2,4,6,8,10,12,14,-1,-1,-1,-1,16,-1,18,20,-1,-1,-1,-1,-1,-1],"split_conditions":[7.356E2,-2.7513646E-2,7.1435E2,7.1765845E2,6.7585E2,6.673995E2,1.2039529E0,1.3323602E-2,-3.8902335E-2,-1.8748257E-2,5.008126E-2,1.6739663E-2,-4.9013726E-2,9.904057E-1,7.056875E2,-1.5729608E-2,3.1511206E-2,2.0559585E-2,-2.5000406E-2,-4.16825E-3,4.33489E-2],"split_indices":[16,2,13,9,13,10,8,0,0,0,0,4,0,5,15,0,0,0,0,0,0],"split_type":[0,0,0,0,0,0,0,0,0,0,0,0,0,0,0,0,0,0,0,0,0],"sum_hessian":[3.7311466E1,1.0653089E1,2.6658377E1,2.7732072E0,7.8798814E0,8.606277E0,1.80521E1,1.3991647E0,1.3740425E0,1.3804363E0,6.4994454E0,3.1457996E0,5.4604774E0,1.1795654E1,6.2564454E0,1.6670984E0,1.4787012E0,4.414696E0,7.3809576E0,1.0036157E0,5.2528296E0],"tree_param":{"num_deleted":"0","num_feature":"17","num_nodes":"21","size_leaf_vector":"1"}},{"base_weights":[1.0878351E-1,-2.7765721E-2,7.348339E-1,1.1345969E-1,-4.9687967E-1,-0E0,4.480728E-2,-1.1358224E-1,5.3723174E-1,-4.9143355E-2,3.3912334E-1,1.6104365E-2,-3.280922E-2,-5.6598503E-3,3.938597E-2,-3.7455584E-3,2.974612E-2],"categories":[],"categories_nodes":[],"categories_segments":[],"categories_sizes":[],"default_left":[0,1,0,0,0,0,0,0,0,0,0,0,0,0,0,0,0],"id":35,"left_children":[1,3,5,7,9,-1,-1,11,13,-1,15,-1,-1,-1,-1,-1,-1],"loss_changes":[3.3268273E0,2.2467742E0,9.4040966E-1,2.5901537E0,3.8345108E0,0E0,0E0,4.4657416E0,1.7873602E0,0E0,5.8015037E-1,0E0,0E0,0E0,0E0,0E0,0E0],"parents":[2147483647,0,0,1,1,2,2,3,3,4,4,7,7,8,8,10,10],"right_children":[2,4,6,8,10,-1,-1,12,14,-1,16,-1,-1,-1,-1,-1,-1],"split_conditions":[6.1188778E1,1.0016278E0,7.1435E2,7.208E2,7.7025E2,-0E0,4.480728E-2,7.3697864E2,9.5869E-3,-4.9143355E-2,-2.2784514E-2,1.6104365E-2,-3.280922E-2,-5.6598503E-3,3.938597E-2,-3.7455584E-3,2.974612E-2],"split_indices":[0,5,13,13,13,0,0,9,1,0,2,0,0,0,0,0,0],"split_type":[0,0,0,0,0,0,0,0,0,0,0,0,0,0,0,0,0],"sum_hessian":[3.540409E1,2.997926E1,5.424832E0,2.3588795E1,6.3904643E0,1.0976373E0,4.327194E0,1.5767265E1,7.82153E0,4.025862E0,2.3646019E0,8.879051E0,6.8882136E0,2.1812596E0,5.64027E0,1.0094969E0,1.355105E0],"tree_param":{"num_deleted":"0","num_feature":"17","num_nodes":"17","size_leaf_vector":"1"}},{"base_weights":[-1.0734577E-2,-5.358868E-1,1.1223505E-1,1.6562304E-2,-9.10847E-1,-3.339477E-3,6.9371676E-1,-3.2287878E-3,-5.1561475E-2,-2.8302753E-1,3.149585E-1,4.2263296E-2,-0E0,-2.5334809E-2,2.2422526E-2,3.267707E-2,-1.2574521E-2],"categories":[],"categories_nodes":[],"categories_segments":[],"categories_sizes":[],"default_left":[0,1,0,0,0,0,0,0,0,0,0,0,0,0,0,0,0],"id":36,"left_children":[1,3,5,-1,7,9,11,-1,-1,13,15,-1,-1,-1,-1,-1,-1],"loss_changes":[2.499151E0,2.9735372E0,2.163989E0,0E0,2.6419353E-1,2.4695551E0,3.9688063E-1,0E0,0E0,2.827711E0,2.7590637E0,0E0,0E0,0E0,0E0,0E0,0E0],"parents":[2147483647,0,0,1,1,2,2,4,4,5,5,6,6,9,9,10,10],"right_children":[2,4,6,-1,8,10,12,-1,-1,14,16,-1,-1,-1,-1,-1,-1],"split_conditions":[-3.031294E-2,6.95E2,8.0072925E2,1.6562304E-2,-6.6584053E0,1.3935272E7,8.155105E2,-3.2287878E-3,-5.1561475E-2,5.8015274E1,5.994118E-2,4.2263296E-2,-0E0,-2.5334809E-2,2.2422526E-2,3.267707E-2,-1.2574521E-2],"split_indices":[2,14,9,0,8,12,9,0,0,0,11,0,0,0,0,0,0],"split_type":[0,0,0,0,0,0,0,0,0,0,0,0,0,0,0,0,0],"sum_hessian":[3.4490753E1,5.8969455E0,2.859381E1,1.6719286E0,4.225017E0,2.4810036E1,3.783773E0,1.0200711E0,3.2049458E0,1.3628897E1,1.1181139E1,2.614436E0,1.1693372E0,1.0999788E1,2.6291082E0,7.074785E0,4.1063538E0],"tree_param":{"num_deleted":"0","num_feature":"17","num_nodes":"17","size_leaf_vector":"1"}},{"base_weights":[-3.4288626E-2,-8.326731E-1,8.108538E-2,-5.325642E-3,-4.7644064E-2,-1.7354299E-1,3.949513E-1,1.1246528E-1,-8.308549E-1,-1.7313886E-1,7.1922684E-1,2.7970165E-2,-1.9772865E-2,-4.748116E-2,-7.893915E-4,3.3564378E-2,-3.767499E-2,-1.658016E-2,4.5125376E-2],"categories":[],"categories_nodes":[],"categories_segments":[],"categories_sizes":[],"default_left":[0,0,0,0,0,1,0,0,0,0,0,0,0,0,0,0,0,0,0],"id":37,"left_children":[1,3,5,-1,-1,7,9,11,13,15,17,-1,-1,-1,-1,-1,-1,-1,-1],"loss_changes":[3.6646614E0,7.498813E-2,2.8261993E0,0E0,0E0,3.8930364E0,3.2111626E0,3.6532156E0,3.857379E-1,4.075942E0,2.602542E0,0E0,0E0,0E0,0E0,0E0,0E0,0E0,0E0],"parents":[2147483647,0,0,1,1,2,2,5,5,6,6,7,7,8,8,9,9,10,10],"right_children":[2,4,6,-1,-1,8,10,12,14,16,18,-1,-1,-1,-1,-1,-1,-1,-1],"split_conditions":[-1.2601441E1,6.5947394E2,1.2491317E7,-5.325642E-3,-4.7644064E-2,7.2280005E2,7.18E2,-8.8625854E-1,1.8488485E-2,7.356E2,4.514173E-3,2.7970165E-2,-1.9772865E-2,-4.748116E-2,-7.893915E-4,3.3564378E-2,-3.767499E-2,-1.658016E-2,4.5125376E-2],"split_indices":[6,10,12,0,0,16,13,8,3,16,1,0,0,0,0,0,0,0,0],"split_type":[0,0,0,0,0,0,0,0,0,0,0,0,0,0,0,0,0,0,0],"sum_hessian":[3.5553123E1,3.5304272E0,3.2022694E1,1.1395369E0,2.3908904E0,1.7698187E1,1.432451E1,1.2986575E1,4.711611E0,5.2352896E0,9.08922E0,7.0365806E0,5.9499946E0,3.6820672E0,1.0295435E0,1.8964007E0,3.338889E0,1.0075221E0,8.081697E0],"tree_param":{"num_deleted":"0","num_feature":"17","num_nodes":"19","size_leaf_vector":"1"}},{"base_weights":[3.2017637E-2,3.913678E-2,-5.8754362E-2,-2.6498887E-1,3.6906552E-1,-6.226181E-1,1.6452718E-1,-1.655082E-2,5.1219094E-1,1.3489781E-4,-4.738938E-2,-2.9928563E-2,2.2897793E-2,3.0837407E-2,-2.1602132E-3],"categories":[],"categories_nodes":[],"categories_segments":[],"categories_sizes":[],"default_left":[0,0,0,0,0,0,0,0,0,0,0,0,0,0,0],"id":38,"left_children":[1,-1,3,5,7,9,11,-1,13,-1,-1,-1,-1,-1,-1],"loss_changes":[2.7851472E0,0E0,3.1982176E0,4.0368943E0,1.45663E0,3.04698E0,3.1029878E0,0E0,7.6373816E-1,0E0,0E0,0E0,0E0,0E0,0E0],"parents":[2147483647,0,0,2,2,3,3,4,4,5,5,6,6,8,8],"right_children":[2,-1,4,6,8,10,12,-1,14,-1,-1,-1,-1,-1,-1],"split_conditions":[6.577431E2,3.913678E-2,1.4678759E7,9.099754E-2,-2.9814892E-2,7.2280005E2,7.69382E5,-1.655082E-2,1.9547001E0,1.3489781E-4,-4.738938E-2,-2.9928563E-2,2.2897793E-2,3.0837407E-2,-2.1602132E-3],"split_indices":[10,0,12,11,2,16,12,0,6,0,0,0,0,0,0],"split_type":[0,0,0,0,0,0,0,0,0,0,0,0,0,0,0],"sum_hessian":[3.6234222E1,2.9128187E0,3.3321404E1,2.3183825E1,1.013758E1,1.2536659E1,1.0647165E1,1.1493125E0,8.988268E0,4.587389E0,7.9492707E0,2.3345072E0,8.312658E0,7.7278466E0,1.2604213E0],"tree_param":{"num_deleted":"0","num_feature":"17","num_nodes":"15","size_leaf_vector":"1"}},{"base_weights":[1.47061795E-2,4.1094103E-1,-1.0061668E-1,-1.5407736E-2,6.615483E-1,-5.01301E-1,1.6865896E-1,-1.8732054E-2,4.976174E-2,-7.041655E-1,1.5436615E-2,5.2416986E-1,-3.46737E-1,-4.364456E-2,-0E0,-7.835633E-3,3.500485E-2,-4.543623E-2,1.6951215E-2],"categories":[],"categories_nodes":[],"categories_segments":[],"categories_sizes":[],"default_left":[0,0,0,0,0,0,1,0,0,0,0,0,0,0,0,0,0,0,0],"id":39,"left_children":[1,3,5,-1,7,9,11,-1,-1,13,-1,15,17,-1,-1,-1,-1,-1,-1],"loss_changes":[1.85585E0,2.0397398E0,3.4483974E0,0E0,3.286043E0,2.508869E0,3.765082E0,0E0,0E0,1.3914824E0,0E0,1.709738E0,3.8036146E0,0E0,0E0,0E0,0E0,0E0,0E0],"parents":[2147483647,0,0,1,1,2,2,4,4,5,5,6,6,9,9,11,11,12,12],"right_children":[2,4,6,-1,8,10,12,-1,-1,14,-1,16,18,-1,-1,-1,-1,-1,-1],"split_conditions":[7.2280005E2,6.72525E2,7.2035E2,-1.5407736E-2,-2.92517E-2,1.6745588E-2,1.0016278E0,-1.8732054E-2,4.976174E-2,1.5239452E7,1.5436615E-2,6.6289026E-3,8.232049E0,-4.364456E-2,-0E0,-7.835633E-3,3.500485E-2,-4.543623E-2,1.6951215E-2],"split_indices":[16,13,13,0,2,4,5,0,0,12,0,1,6,0,0,0,0,0,0],"split_type":[0,0,0,0,0,0,0,0,0,0,0,0,0,0,0,0,0,0,0],"sum_hessian":[3.6398376E1,7.729602E0,2.8668774E1,1.7023493E0,6.027252E0,1.1301815E1,1.7366957E1,1.2773277E0,4.7499247E0,9.392506E0,1.9093096E0,1.0492166E1,6.8747916E0,7.4147844E0,1.9777212E0,1.9545516E0,8.537614E0,3.6706274E0,3.2041645E0],"tree_param":{"num_deleted":"0","num_feature":"17","num_nodes":"19","size_leaf_vector":"1"}},{"base_weights":[6.243778E-2,-3.881925E-2,4.8111215E-1,-5.7718545E-1,1.4668335E-1,6.9788283E-1,-1.4064771E-2,-7.0560336E-1,-0E0,-4.0642265E-2,7.30745E-1,4.559627E-3,4.0309608E-2,-4.133047E-2,-0E0,8.673865E-3,-3.2799497E-2,4.3549847E-2,2.5522077E-4],"categories":[],"categories_nodes":[],"categories_segments":[],"categories_sizes":[],"default_left":[0,0,0,0,0,0,0,0,0,1,0,0,0,0,0,0,0,0,0],"id":40,"left_children":[1,3,5,7,9,11,-1,13,-1,15,17,-1,-1,-1,-1,-1,-1,-1,-1],"loss_changes":[1.6597842E0,3.240886E0,1.6315719E0,7.182307E-1,2.7502139E0,1.401279E-1,0E0,5.725393E-1,0E0,2.7614841E0,4.3254876E-1,0E0,0E0,0E0,0E0,0E0,0E0,0E0,0E0],"parents":[2147483647,0,0,1,1,2,2,3,3,4,4,5,5,7,7,9,9,10,10],"right_children":[2,4,6,8,10,12,-1,14,-1,16,18,-1,-1,-1,-1,-1,-1,-1,-1],"split_conditions":[1.5293193E7,9.0585295E-3,1.0015137E0,2.3471557E-2,1.2491317E7,-1.6839646E-2,-1.4064771E-2,-1.5557231E0,-0E0,7.2280005E2,7.725875E2,4.559627E-3,4.0309608E-2,-4.133047E-2,-0E0,8.673865E-3,-3.2799497E-2,4.3549847E-2,2.5522077E-4],"split_indices":[12,4,5,3,12,2,0,7,0,16,15,0,0,0,0,0,0,0,0],"split_type":[0,0,0,0,0,0,0,0,0,0,0,0,0,0,0,0,0,0,0],"sum_hessian":[3.4904232E1,2.881782E1,6.0864105E0,6.8496614E0,2.1968159E1,5.042098E0,1.0443125E0,5.5295863E0,1.3200752E0,1.7430788E1,4.53737E0,1.4620419E0,3.5800564E0,4.460051E0,1.0695353E0,1.3489141E1,3.9416478E0,3.3196561E0,1.2177141E0],"tree_param":{"num_deleted":"0","num_feature":"17","num_nodes":"19","size_leaf_vector":"1"}},{"base_weights":[3.6534218E-3,-3.517751E-1,1.354789E-1,-6.406263E-1,1.7402805E-2,5.9751415E-1,-1.2335031E-1,-8.670803E-1,-0E0,-1.4654956E-3,7.2377735E-1,-6.6590005E-1,7.5390704E-2,-1.9522185E-3,-5.0194334E-2,1.3116374E-2,-1.5207014E-2,4.343924E-2,1.6641867E-4,-4.0956583E-2,-0E0,3.0818839E-2,-1.0056136E-2],"categories":[],"categories_nodes":[],"categories_segments":[],"categories_sizes":[],"default_left":[0,0,1,0,0,0,0,0,0,0,0,0,0,0,0,0,0,0,0,0,0,0,0],"id":41,"left_children":[1,3,5,7,-1,9,11,13,15,-1,17,19,21,-1,-1,-1,-1,-1,-1,-1,-1,-1,-1],"loss_changes":[1.6932375E0,2.3377743E0,3.4838998E0,9.969082E-1,0E0,9.920461E-1,2.1922386E0,3.490944E-1,4.114397E-1,0E0,7.5746393E-1,5.225489E-1,2.4597707E0,0E0,0E0,0E0,0E0,0E0,0E0,0E0,0E0,0E0,0E0],"parents":[2147483647,0,0,1,1,2,2,3,3,5,5,6,6,7,7,8,8,10,10,11,11,12,12],"right_children":[2,4,6,8,-1,10,12,14,16,-1,18,20,22,-1,-1,-1,-1,-1,-1,-1,-1,-1,-1],"split_conditions":[-9.247645E0,5.7371486E-2,9.877456E-1,-1.1037359E-3,1.7402805E-2,5.5549715E-2,-2.7513646E-2,9.2285015E-3,2.208202E-2,-1.4654956E-3,6.5597035E-2,8.0072925E2,-7.6902453E-3,-1.9522185E-3,-5.0194334E-2,1.3116374E-2,-1.5207014E-2,4.343924E-2,1.6641867E-4,-4.0956583E-2,-0E0,3.0818839E-2,-1.0056136E-2],"split_indices":[7,1,5,2,0,11,2,4,1,0,1,9,2,0,0,0,0,0,0,0,0,0,0],"split_type":[0,0,0,0,0,0,0,0,0,0,0,0,0,0,0,0,0,0,0,0,0,0,0],"sum_hessian":[3.403572E1,8.120714E0,2.5915007E1,6.0402985E0,2.0804157E0,8.877583E0,1.7037426E1,3.9420173E0,2.0982811E0,1.4159609E0,7.4616213E0,3.8922603E0,1.3145165E1,1.0396198E0,2.9023974E0,1.0398536E0,1.0584276E0,5.723239E0,1.7383826E0,2.842328E0,1.0499322E0,4.0673046E0,9.07786E0],"tree_param":{"num_deleted":"0","num_feature":"17","num_nodes":"23","size_leaf_vector":"1"}},{"base_weights":[-6.317884E-2,-2.0219383E-1,3.785461E-2,-2.7513728E-1,2.9567722E-2,1.4856695E-1,-4.6771452E-1,-1.5657049E-2,3.7017748E-2,-2.9101579E-2,2.0299247E-2],"categories":[],"categories_nodes":[],"categories_segments":[],"categories_sizes":[],"default_left":[0,0,0,0,0,1,0,0,0,0,0],"id":42,"left_children":[1,3,-1,5,-1,7,9,-1,-1,-1,-1],"loss_changes":[4.350844E0,2.0984373E0,0E0,2.7460246E0,0E0,3.353116E0,2.6277146E0,0E0,0E0,0E0,0E0],"parents":[2147483647,0,0,1,1,3,3,5,5,6,6],"right_children":[2,4,-1,6,-1,8,10,-1,-1,-1,-1],"split_conditions":[6.1881985E1,2.4483602E-2,3.785461E-2,6.79621E2,2.9567722E-2,9.752774E-1,7.4991235E2,-1.5657049E-2,3.7017748E-2,-2.9101579E-2,2.0299247E-2],"split_indices":[0,4,0,10,0,5,10,0,0,0,0],"split_type":[0,0,0,0,0,0,0,0,0,0,0],"sum_hessian":[3.5614845E1,3.1628672E1,3.9861753E0,3.0094336E1,1.5343347E0,9.186548E0,2.0907787E1,5.3673296E0,3.819219E0,1.9133917E1,1.7738712E0],"tree_param":{"num_deleted":"0","num_feature":"17","num_nodes":"11","size_leaf_vector":"1"}},{"base_weights":[2.073571E-2,-1.5734312E-1,2.7443495E-1,1.9946285E-1,-5.0075376E-1,-3.894442E-2,6.720029E-1,-7.420273E-2,3.884587E-2,-8.103674E-1,2.3112345E-2,-5.383592E-1,4.9391523E-1,4.6298347E-2,-7.2708796E-3,-2.3100568E-2,2.4187496E-2,-5.4272998E-2,-0E0,8.482807E-3,-3.94548E-2,4.1795637E-2,-1.077094E-2],"categories":[],"categories_nodes":[],"categories_segments":[],"categories_sizes":[],"default_left":[0,0,0,0,0,0,0,0,0,0,0,0,0,0,0,0,0,0,0,0,0,0,0],"id":43,"left_children":[1,3,5,7,9,11,13,15,-1,17,-1,19,21,-1,-1,-1,-1,-1,-1,-1,-1,-1,-1],"loss_changes":[1.6335315E0,2.732765E0,2.049307E0,1.9470452E0,3.9720464E0,2.959858E0,1.8168571E0,2.1741872E0,0E0,2.1218357E0,0E0,1.3653352E0,1.6625333E0,0E0,0E0,0E0,0E0,0E0,0E0,0E0,0E0,0E0,0E0],"parents":[2147483647,0,0,1,1,2,2,3,3,4,4,5,5,6,6,7,7,9,9,11,11,12,12],"right_children":[2,4,6,8,10,12,14,16,-1,18,-1,20,22,-1,-1,-1,-1,-1,-1,-1,-1,-1,-1],"split_conditions":[1.2504864E7,6.8114197E2,9.288186E-3,9.352218E6,1.0409554E0,1.5293193E7,1.5455413E7,5.7371486E-2,3.884587E-2,7.7025E2,2.3112345E-2,9.86374E-1,8.727944E-3,4.6298347E-2,-7.2708796E-3,-2.3100568E-2,2.4187496E-2,-5.4272998E-2,-0E0,8.482807E-3,-3.94548E-2,4.1795637E-2,-1.077094E-2],"split_indices":[12,10,4,12,5,12,12,1,0,13,0,5,4,0,0,0,0,0,0,0,0,0,0],"split_type":[0,0,0,0,0,0,0,0,0,0,0,0,0,0,0,0,0,0,0,0,0,0,0],"sum_hessian":[3.2705284E1,1.9088139E1,1.3617145E1,9.384227E0,9.703913E0,8.0901575E0,5.5269876E0,7.0188003E0,2.3654263E0,7.6801147E0,2.0237978E0,4.3618913E0,3.7282662E0,4.2515583E0,1.2754296E0,4.504382E0,2.5144181E0,5.417512E0,2.262603E0,1.0589882E0,3.302903E0,2.5251007E0,1.2031654E0],"tree_param":{"num_deleted":"0","num_feature":"17","num_nodes":"23","size_leaf_vector":"1"}},{"base_weights":[-3.7469443E-2,-1.390382E-1,5.01041E-1,2.5970045E-1,-2.788656E-1,-0E0,3.2019507E-2,-2.0622638E-1,6.1304694E-1,1.0477836E-1,-4.8209098E-1,1.2135154E-2,-2.5663713E-2,3.9259136E-2,2.0620858E-3,-3.1090248E-2,2.3872193E-2,-5.370265E-2,-9.263759E-3],"categories":[],"categories_nodes":[],"categories_segments":[],"categories_sizes":[],"default_left":[0,1,0,0,0,0,0,0,1,0,1,0,0,0,0,0,0,0,0],"id":44,"left_children":[1,3,5,7,9,-1,-1,11,13,15,17,-1,-1,-1,-1,-1,-1,-1,-1],"loss_changes":[2.0659547E0,1.9395976E0,4.713961E-1,1.738487E0,2.1282468E0,0E0,0E0,8.919624E-1,3.462906E-1,3.0354438E0,2.4691124E0,0E0,0E0,0E0,0E0,0E0,0E0,0E0,0E0],"parents":[2147483647,0,0,1,1,2,2,3,3,4,4,7,7,8,8,9,9,10,10],"right_children":[2,4,6,8,10,-1,-1,12,14,16,18,-1,-1,-1,-1,-1,-1,-1,-1],"split_conditions":[6.1881985E1,7.054125E2,7.3653424E2,-8.964895E0,7.356E2,-0E0,3.2019507E-2,6.5947394E2,9.8294854E-1,-2.2033155E0,7.40375E2,1.2135154E-2,-2.5663713E-2,3.9259136E-2,2.0620858E-3,-3.1090248E-2,2.3872193E-2,-5.370265E-2,-9.263759E-3],"split_indices":[0,15,9,7,16,0,0,10,5,8,16,0,0,0,0,0,0,0,0],"split_type":[0,0,0,0,0,0,0,0,0,0,0,0,0,0,0,0,0,0,0],"sum_hessian":[3.5684902E1,3.1270975E1,4.413927E0,7.413631E0,2.3857346E1,1.1442548E0,3.2696724E0,3.222686E0,4.1909447E0,8.172327E0,1.5685018E1,1.1720405E0,2.0506456E0,2.5221596E0,1.6687853E0,2.2486587E0,5.9236684E0,3.7013812E0,1.1983637E1],"tree_param":{"num_deleted":"0","num_feature":"17","num_nodes":"19","size_leaf_vector":"1"}},{"base_weights":[-4.9335092E-2,-1.3308775E-1,3.384798E-2,-2.4260128E-1,4.9540997E-1,1.4041255E-1,-4.166636E-1,-4.419323E-3,3.601548E-2,-1.3856659E-2,3.288151E-2,-3.9116178E-2,-0E0],"categories":[],"categories_nodes":[],"categories_segments":[],"categories_sizes":[],"default_left":[0,0,0,0,0,0,0,0,0,0,0,0,0],"id":45,"left_children":[1,3,-1,5,7,9,11,-1,-1,-1,-1,-1,-1],"loss_changes":[2.1608024E0,2.398429E0,0E0,2.099608E0,8.932307E-1,2.4946232E0,3.3176317E0,0E0,0E0,0E0,0E0,0E0,0E0],"parents":[2147483647,0,0,1,1,3,3,4,4,5,5,6,6],"right_children":[2,4,-1,6,8,10,12,-1,-1,-1,-1,-1,-1],"split_conditions":[7.517048E2,6.1881985E1,3.384798E-2,7.356E2,9.133787E6,9.500473E6,7.297E2,-4.419323E-3,3.601548E-2,-1.3856659E-2,3.288151E-2,-3.9116178E-2,-0E0],"split_indices":[10,0,0,16,12,12,14,0,0,0,0,0,0],"split_type":[0,0,0,0,0,0,0,0,0,0,0,0,0],"sum_hessian":[3.3589027E1,3.1461548E1,2.127481E0,2.7848297E1,3.6132517E0,8.432982E0,1.9415314E1,1.0107492E0,2.6025023E0,4.837389E0,3.5955935E0,9.853542E0,9.561771E0],"tree_param":{"num_deleted":"0","num_feature":"17","num_nodes":"13","size_leaf_vector":"1"}},{"base_weights":[-6.445282E-2,-1.521143E-1,5.54238E-1,-2.4260207E-1,2.6688352E-2,-0E0,3.7806675E-2,-0E0,-5.131187E-1,-1.1770003E-2,2.6718048E-2,-3.431596E-2,4.2192186E-3],"categories":[],"categories_nodes":[],"categories_segments":[],"categories_sizes":[],"default_left":[0,0,0,1,0,0,0,0,0,0,0,0,0],"id":46,"left_children":[1,3,5,7,-1,-1,-1,9,11,-1,-1,-1,-1],"loss_changes":[1.9023846E0,2.0872912E0,4.678743E-1,1.9682021E0,0E0,0E0,0E0,2.3111715E0,1.6532357E0,0E0,0E0,0E0,0E0],"parents":[2147483647,0,0,1,1,2,2,3,3,7,7,8,8],"right_children":[2,4,6,8,-1,-1,-1,10,12,-1,-1,-1,-1],"split_conditions":[3.4450486E-2,7.517048E2,9.299328E-2,9.904057E-1,2.6688352E-2,-0E0,3.7806675E-2,7.2685E2,1.470535E0,-1.1770003E-2,2.6718048E-2,-3.431596E-2,4.2192186E-3],"split_indices":[2,10,11,5,0,0,0,13,8,0,0,0,0],"split_type":[0,0,0,0,0,0,0,0,0,0,0,0,0],"sum_hessian":[3.2727634E1,2.9939949E1,2.7876856E0,2.756443E1,2.3755195E0,1.1656873E0,1.6219982E0,1.5092001E1,1.2472429E1,1.0905455E1,4.1865463E0,9.756138E0,2.716291E0],"tree_param":{"num_deleted":"0","num_feature":"17","num_nodes":"13","size_leaf_vector":"1"}},{"base_weights":[-1.9052105E-4,-3.3434284E-1,3.9138147E-1,6.02308E-2,-6.355195E-1,-1.6032645E-1,5.894605E-1,6.877302E-1,-6.2257683E-1,-0E0,-8.1460726E-1,1.2011751E-2,-4.1366097E-1,6.8735945E-1,-1.222249E-3,-0E0,4.4468798E-2,-3.8611267E-2,-0E0,1.9473799E-2,-2.0594819E-2,-4.9319234E-2,-8.9953246E-4,-3.0537648E-2,-0E0,-0E0,4.608834E-2],"categories":[],"categories_nodes":[],"categories_segments":[],"categories_sizes":[],"default_left":[0,0,0,1,0,0,0,0,0,0,0,0,0,0,0,0,0,0,0,0,0,0,0,0,0,0,0],"id":47,"left_children":[1,3,5,7,9,11,13,15,17,19,21,-1,23,25,-1,-1,-1,-1,-1,-1,-1,-1,-1,-1,-1,-1,-1],"loss_changes":[4.249983E0,2.2934296E0,1.8362677E0,4.429424E0,1.1375928E0,6.7097396E-1,8.440833E-1,9.1185665E-1,4.137571E-1,8.696368E-1,8.848624E-1,0E0,3.0144453E-1,1.550952E0,0E0,0E0,0E0,0E0,0E0,0E0,0E0,0E0,0E0,0E0,0E0,0E0,0E0],"parents":[2147483647,0,0,1,1,2,2,3,3,4,4,5,5,6,6,7,7,8,8,9,9,10,10,12,12,13,13],"right_children":[2,4,6,8,10,12,14,16,18,20,22,-1,24,26,-1,-1,-1,-1,-1,-1,-1,-1,-1,-1,-1,-1,-1],"split_conditions":[1.2491317E7,-1.4006444E0,7.341315E2,9.9389446E-1,7.1451245E2,-1.553123E0,7.777625E2,-5.391228E0,-1.8964259E-2,2.0901375E0,3.8041437E0,1.2011751E-2,-5.9254095E-3,-2.4365408E-2,-1.222249E-3,-0E0,4.4468798E-2,-3.8611267E-2,-0E0,1.9473799E-2,-2.0594819E-2,-4.9319234E-2,-8.9953246E-4,-3.0537648E-2,-0E0,-0E0,4.608834E-2],"split_indices":[12,8,9,5,15,6,15,8,3,8,8,0,2,3,0,0,0,0,0,0,0,0,0,0,0,0,0],"split_type":[0,0,0,0,0,0,0,0,0,0,0,0,0,0,0,0,0,0,0,0,0,0,0,0,0,0,0],"sum_hessian":[2.9568186E1,1.6347692E1,1.3220494E1,7.308603E0,9.039089E0,3.3013797E0,9.919114E0,3.9555507E0,3.353052E0,2.410253E0,6.628836E0,1.0032218E0,2.298158E0,8.681061E0,1.238053E0,1.0405949E0,2.9149556E0,2.3482077E0,1.0048443E0,1.1859865E0,1.2242665E0,4.9525175E0,1.6763184E0,1.050453E0,1.247705E0,2.6943352E0,5.9867263E0],"tree_param":{"num_deleted":"0","num_feature":"17","num_nodes":"27","size_leaf_vector":"1"}},{"base_weights":[-2.9237911E-2,-1.4858294E-1,5.169434E-1,2.691275E-2,-7.6545566E-1,3.4528796E-2,-2.1817565E-3,-2.4211027E-1,4.6525174E-1,-4.5724016E-2,-0E0,-2.2809794E-2,1.7050533E-2,3.6098957E-2,-2.2686573E-3],"categories":[],"categories_nodes":[],"categories_segments":[],"categories_sizes":[],"default_left":[0,1,0,0,0,0,0,0,1,0,0,0,0,0,0],"id":48,"left_children":[1,3,5,7,9,-1,-1,11,13,-1,-1,-1,-1,-1,-1],"loss_changes":[2.1877863E0,3.262585E0,7.5263846E-1,2.9699767E0,8.000994E-1,0E0,0E0,2.1524904E0,1.4541929E0,0E0,0E0,0E0,0E0,0E0,0E0],"parents":[2147483647,0,0,1,1,2,2,3,3,4,4,7,7,8,8],"right_children":[2,4,6,8,10,-1,-1,12,14,-1,-1,-1,-1,-1,-1],"split_conditions":[1.0016237E-1,1.0015811E0,1.3877645E1,-2.7279902E0,7.4901263E2,3.4528796E-2,-2.1817565E-3,7.0543823E2,7.1785E2,-4.5724016E-2,-0E0,-2.2809794E-2,1.7050533E-2,3.6098957E-2,-2.2686573E-3],"split_indices":[1,5,6,6,10,0,0,10,14,0,0,0,0,0,0],"split_type":[0,0,0,0,0,0,0,0,0,0,0,0,0,0,0],"sum_hessian":[3.142594E1,2.6987148E1,4.4387903E0,2.1874392E1,5.1127586E0,3.3958826E0,1.0429077E0,1.3688523E1,8.185867E0,4.089867E0,1.0228912E0,1.0502236E1,3.1862864E0,5.2946687E0,2.8911989E0],"tree_param":{"num_deleted":"0","num_feature":"17","num_nodes":"15","size_leaf_vector":"1"}},{"base_weights":[6.915845E-2,3.2275226E-2,-3.0817168E-3,-2.8773227E-1,2.566688E-1,2.2132085E-1,-5.475856E-1,-9.427748E-2,5.2366614E-1,-1.3888749E-2,2.6421905E-2,-4.2605016E-2,1.979136E-2,-2.9788107E-2,3.6803626E-2,3.2940518E-2,-7.1603357E-4],"categories":[],"categories_nodes":[],"categories_segments":[],"categories_sizes":[],"default_left":[0,0,0,0,0,0,0,0,0,0,0,0,0,0,0,0,0],"id":49,"left_children":[1,-1,3,5,7,9,11,13,15,-1,-1,-1,-1,-1,-1,-1,-1],"loss_changes":[1.6012938E0,0E0,2.5240357E0,2.4438677E0,1.7947794E0,1.2544792E0,3.9546113E0,4.163378E0,9.0364814E-1,0E0,0E0,0E0,0E0,0E0,0E0,0E0,0E0],"parents":[2147483647,0,0,2,2,3,3,4,4,5,5,6,6,7,7,8,8],"right_children":[2,-1,4,6,8,10,12,14,16,-1,-1,-1,-1,-1,-1,-1,-1],"split_conditions":[6.5708484E2,3.2275226E-2,7.23325E2,7.356E2,-9.027778E-3,9.822082E-1,2.0775624E-2,7.7485E2,3.0043134E-2,-1.3888749E-2,2.6421905E-2,-4.2605016E-2,1.979136E-2,-2.9788107E-2,3.6803626E-2,3.2940518E-2,-7.1603357E-4],"split_indices":[10,0,13,16,3,5,2,15,2,0,0,0,0,0,0,0,0],"split_type":[0,0,0,0,0,0,0,0,0,0,0,0,0,0,0,0,0],"sum_hessian":[3.3802357E1,2.7475016E0,3.1054855E1,1.5107506E1,1.59473505E1,4.9206696E0,1.0186836E1,6.986042E0,8.9613085E0,1.6809895E0,3.23968E0,7.9711046E0,2.2157316E0,4.7699175E0,2.2161245E0,7.1900268E0,1.7712811E0],"tree_param":{"num_deleted":"0","num_feature":"17","num_nodes":"17","size_leaf_vector":"1"}}]},"name":"gbtree"},"learner_model_param":{"base_score":"[5.608696E-1]","boost_from_average":"1","num_class":"0","num_feature":"17","num_target":"1"},"objective":{"name":"binary:logistic","reg_loss_param":{"scale_pos_weight":"1"}}},"version":[3,3,0]}