{"learner":{"attributes":{"scikit_learn":"{\"_estimator_type\": \"classifier\"}"},"feature_names":["rsi","volume_ratio","close_to_support","close_to_resistance","sentiment_1d","sentiment_3d","sentiment_5d","price_momentum_5d","price_momentum_10d","volatility_20d","pe_ratio","debt_to_equity","eps_growth","operating_margin","ma20_ma50_ratio","macd","macd_signal","macd_hist","bb_upper","bb_lower","bb_width","obv","ichimoku_tenkan","ichimoku_kijun","ichimoku_senkou_a","ichimoku_senkou_b"],"feature_types":["float","float","float","float","float","float","float","float","float","float","float","float","float","float","float","float","float","float","float","float","float","float","float","float","float","float"],"gradient_booster":{"model":{"cats":{"enc":[],"feature_segments":[],"sorted_idx":[]},"gbtree_model_param":{"num_parallel_tree":"1","num_trees":"50"},"iteration_indptr":[0,1,2,3,4,5,6,7,8,9,10,11,12,13,14,15,16,17,18,19,20,21,22,23,24,25,26,27,28,29,30,31,32,33,34,35,36,37,38,39,40,41,42,43,44,45,46,47,48,49,50],"tree_info":[0,0,0,0,0,0,0,0,0,0,0,0,0,0,0,0,0,0,0,0,0,0,0,0,0,0,0,0,0,0,0,0,0,0,0,0,0,0,0,0,0,0,0,0,0,0,0,0,0,0],"trees":[{"base_weights":[-1.6404154E-2,-4.8588595E-1,6.117208E-1,-7.7456367E-1,5.5339414E-1,8.80356E-2,1.3810649E0,1.4716593E-2,-6.0927805E-2,5.4546744E-2,-4.0911324E-2,2.6195547E-2,-4.4393003E-2,2.7421415E-3,7.93458E-2],"categories":[],"categories_nodes":[],"categories_segments":[],"categories_sizes":[],"default_left":[0,0,0,0,0,0,0,0,0,0,0,0,0,0,0],"id":0,"left_children":[1,3,5,7,9,11,13,-1,-1,-1,-1,-1,-1,-1,-1],"loss_changes":[1.6916899E1,1.0596952E1,9.3580475E0,1.33590355E1,7.2216144E0,7.549953E0,2.169859E0,0E0,0E0,0E0,0E0,0E0,0E0,0E0,0E0],"parents":[2147483647,0,0,1,1,2,2,3,3,4,4,5,5,6,6],"right_children":[2,4,6,8,10,12,14,-1,-1,-1,-1,-1,-1,-1,-1],"split_conditions":[3.5609686E0,1.951168E2,1.6901749E2,6.122489E8,1.7843726E-1,1.42095E2,5.343737E-3,1.4716593E-2,-6.0927805E-2,5.4546744E-2,-4.0911324E-2,2.6195547E-2,-4.4393003E-2,2.7421415E-3,7.93458E-2],"split_indices":[15,18,22,21,3,23,8,0,0,0,0,0,0,0,0],"split_type":[0,0,0,0,0,0,0,0,0,0,0,0,0,0,0],"sum_hessian":[5.443965E1,3.1530659E1,2.2908995E1,2.5125994E1,6.404665E0,1.4779996E1,8.128998E0,7.389998E0,1.7735996E1,4.9266653E0,1.4779997E0,1.0838664E1,3.9413323E0,1.4779997E0,6.650998E0],"tree_param":{"num_deleted":"0","num_feature":"26","num_nodes":"15","size_leaf_vector":"1"}},{"base_weights":[4.1551925E-2,-2.3994294E-1,9.604522E-1,-7.0419914E-1,3.6694536E-1,-3.6512557E-2,1.2275894E0,2.4313627E-2,-4.270125E-2,-8.961819E-3,4.277021E-2,-7.489306E-3,7.24053E-2],"categories":[],"categories_nodes":[],"categories_segments":[],"categories_sizes":[],"default_left":[0,0,0,0,0,0,0,0,0,0,0,0,0],"id":1,"left_children":[1,3,5,7,9,-1,11,-1,-1,-1,-1,-1,-1],"loss_changes":[1.5272532E1,1.3072399E1,7.7077208E0,5.3469563E0,5.756658E0,0E0,4.4235E0,0E0,0E0,0E0,0E0,0E0,0E0],"parents":[2147483647,0,0,1,1,2,2,3,3,4,4,6,6],"right_children":[2,4,6,8,10,-1,12,-1,-1,-1,-1,-1,-1],"split_conditions":[1.951168E2,1.8556894E-1,2.2283735E9,9.9432846E1,1.047548E0,-3.6512557E-2,-2.9558492E0,2.4313627E-2,-4.270125E-2,-8.961819E-3,4.277021E-2,-7.489306E-3,7.24053E-2],"split_indices":[18,2,21,23,14,0,17,0,0,0,0,0,0],"split_type":[0,0,0,0,0,0,0,0,0,0,0,0,0],"sum_hessian":[5.5650017E1,4.328179E1,1.2368226E1,2.4573011E1,1.8708778E1,1.2306125E0,1.1137614E1,2.2211504E0,2.2351862E1,9.087506E0,9.621273E0,1.4782752E0,9.659339E0],"tree_param":{"num_deleted":"0","num_feature":"26","num_nodes":"13","size_leaf_vector":"1"}},{"base_weights":[-1.963692E-2,-2.2799389E-1,1.2091964E0,-5.7447547E-1,6.670099E-1,7.210856E-2,-7.922586E-4,5.4911453E-2,-3.701052E-2,5.346615E-2,-1.5499453E-2],"categories":[],"categories_nodes":[],"categories_segments":[],"categories_sizes":[],"default_left":[0,0,0,0,0,0,0,0,0,0,0],"id":2,"left_children":[1,3,5,7,9,-1,-1,-1,-1,-1,-1],"loss_changes":[1.5400473E1,1.6714142E1,2.801405E0,1.1829338E1,6.5743732E0,0E0,0E0,0E0,0E0,0E0,0E0],"parents":[2147483647,0,0,1,1,2,2,3,3,4,4],"right_children":[2,4,6,8,10,-1,-1,-1,-1,-1,-1],"split_conditions":[7.2485657E0,1.6301236E2,2.4962544E0,9.163724E-1,1.0356021E0,7.210856E-2,-7.922586E-4,5.4911453E-2,-3.701052E-2,5.346615E-2,-1.5499453E-2],"split_indices":[15,19,17,14,14,0,0,0,0,0,0],"split_type":[0,0,0,0,0,0,0,0,0,0,0],"sum_hessian":[5.7800957E1,5.0604992E1,7.1959662E0,3.70302E1,1.357479E1,5.959922E0,1.2360445E0,2.4686475E0,3.4561554E1,9.659939E0,3.9148514E0],"tree_param":{"num_deleted":"0","num_feature":"26","num_nodes":"11","size_leaf_vector":"1"}},{"base_weights":[-2.6517441E-2,-3.1180757E-1,9.660986E-1,-5.4275435E-1,9.5278144E-1,-3.8845107E-2,1.2797105E0,9.277358E-3,-4.2304523E-2,-2.8160475E-3,5.9098013E-2,8.302414E-2,-5.351098E-3],"categories":[],"categories_nodes":[],"categories_segments":[],"categories_sizes":[],"default_left":[0,0,0,1,0,0,0,0,0,0,0,0,0],"id":3,"left_children":[1,3,5,7,9,-1,11,-1,-1,-1,-1,-1,-1],"loss_changes":[1.7699568E1,1.4992196E1,9.195391E0,9.7539625E0,2.1684031E0,0E0,7.1526337E0,0E0,0E0,0E0,0E0,0E0,0E0],"parents":[2147483647,0,0,1,1,2,2,3,3,4,4,6,6],"right_children":[2,4,6,8,10,-1,12,-1,-1,-1,-1,-1,-1],"split_conditions":[1.951168E2,7.2485657E0,2.2283735E9,9.5682495E1,2.4403639E-1,-3.8845107E-2,1.3191113E0,9.277358E-3,-4.2304523E-2,-2.8160475E-3,5.9098013E-2,8.302414E-2,-5.351098E-3],"split_indices":[18,15,21,25,2,0,1,0,0,0,0,0,0],"split_type":[0,0,0,0,0,0,0,0,0,0,0,0,0],"sum_hessian":[5.9868572E1,4.745866E1,1.2409909E1,4.098762E1,6.471041E0,1.457231E0,1.0952679E1,1.2029135E1,2.8958487E1,1.2455268E0,5.2255144E0,8.473985E0,2.4786932E0],"tree_param":{"num_deleted":"0","num_feature":"26","num_nodes":"13","size_leaf_vector":"1"}},{"base_weights":[-0E0,-3.8352248E-1,5.585487E-1,-6.8375224E-1,4.7475302E-1,1.1037484E-1,1.2409811E0,4.481121E-2,-4.616817E-2,-4.4805083E-2,4.7480863E-2,-4.7651917E-2,1.911884E-2,5.816105E-4,7.215253E-2],"categories":[],"categories_nodes":[],"categories_segments":[],"categories_sizes":[],"default_left":[0,0,0,0,0,0,0,0,0,0,0,0,0,0,0],"id":4,"left_children":[1,3,5,7,9,11,13,-1,-1,-1,-1,-1,-1,-1,-1],"loss_changes":[1.2915575E1,9.699175E0,7.054261E0,1.1526334E1,7.7548704E0,5.258335E0,2.027938E0,0E0,0E0,0E0,0E0,0E0,0E0,0E0,0E0],"parents":[2147483647,0,0,1,1,2,2,3,3,4,4,5,5,6,6],"right_children":[2,4,6,8,10,12,14,-1,-1,-1,-1,-1,-1,-1,-1],"split_conditions":[3.5609686E0,1.951168E2,1.6604999E2,9.198059E-1,-9.509451E-2,1.5086496E-1,2.2260021E-2,4.481121E-2,-4.616817E-2,-4.4805083E-2,4.7480863E-2,-4.7651917E-2,1.911884E-2,5.816105E-4,7.215253E-2],"split_indices":[15,18,22,14,7,2,8,0,0,0,0,0,0,0,0],"split_type":[0,0,0,0,0,0,0,0,0,0,0,0,0,0,0],"sum_hessian":[5.7208584E1,3.4088566E1,2.3120018E1,2.5653027E1,8.435539E0,1.5183943E1,7.9360757E0,2.7268994E0,2.2926126E1,1.7195897E0,6.715949E0,2.1779802E0,1.3005962E1,1.4839768E0,6.452099E0],"tree_param":{"num_deleted":"0","num_feature":"26","num_nodes":"15","size_leaf_vector":"1"}},{"base_weights":[-0E0,-2.3827693E-1,8.726889E-1,7.781015E-1,-4.7455233E-1,1.1767157E0,-2.700601E-2,7.101073E-2,-1.4227236E-2,2.6560375E-2,-3.6621574E-2,-2.3282187E-3,6.775939E-2],"categories":[],"categories_nodes":[],"categories_segments":[],"categories_sizes":[],"default_left":[0,1,0,0,0,0,0,0,0,0,0,0,0],"id":5,"left_children":[1,3,5,7,9,11,-1,-1,-1,-1,-1,-1,-1],"loss_changes":[1.2544979E1,1.19390745E1,6.629777E0,7.246391E0,1.0937164E1,2.8058577E0,0E0,0E0,0E0,0E0,0E0,0E0,0E0],"parents":[2147483647,0,0,1,1,2,2,3,3,4,4,5,5],"right_children":[2,4,6,8,10,12,-1,-1,-1,-1,-1,-1,-1],"split_conditions":[1.951168E2,9.163724E-1,1.7655447E-1,9.9432846E1,1.2596309E-2,3.811239E-2,-2.700601E-2,7.101073E-2,-1.4227236E-2,2.6560375E-2,-3.6621574E-2,-2.3282187E-3,6.775939E-2],"split_indices":[18,14,3,23,3,2,0,0,0,0,0,0,0],"split_type":[0,0,0,0,0,0,0,0,0,0,0,0,0],"sum_hessian":[5.7581417E1,4.6162453E1,1.1418963E1,7.89868E0,3.826377E1,9.719599E0,1.6993651E0,4.726269E0,3.1724114E0,7.3260136E0,3.0937757E1,1.2359799E0,8.483619E0],"tree_param":{"num_deleted":"0","num_feature":"26","num_nodes":"13","size_leaf_vector":"1"}},{"base_weights":[-1.840985E-2,-4.5473424E-1,5.119969E-1,-7.155052E-1,6.5271246E-1,1.2402275E0,1.9076917E-1,2.6832452E-2,-5.3117868E-2,5.8427107E-2,-1.8950915E-2,1.0768381E-2,6.7961775E-2,-6.6893147E-3,5.3366523E-2],"categories":[],"categories_nodes":[],"categories_segments":[],"categories_sizes":[],"default_left":[0,0,0,1,0,0,1,0,0,0,0,0,0,0,0],"id":6,"left_children":[1,3,5,7,9,11,13,-1,-1,-1,-1,-1,-1,-1,-1],"loss_changes":[1.3343502E1,9.906584E0,5.408935E0,1.2525576E1,4.39098E0,1.5500355E-1,6.065073E0,0E0,0E0,0E0,0E0,0E0,0E0,0E0,0E0],"parents":[2147483647,0,0,1,1,2,2,3,3,4,4,5,5,6,6],"right_children":[2,4,6,8,10,12,14,-1,-1,-1,-1,-1,-1,-1,-1],"split_conditions":[3.5609686E0,1.8256E2,1.3623029E-2,9.163724E-1,1.0308563E0,9.909E1,1.67261E2,2.6832452E-2,-5.3117868E-2,5.8427107E-2,-1.8950915E-2,1.0768381E-2,6.7961775E-2,-6.6893147E-3,5.3366523E-2],"split_indices":[15,23,3,14,14,25,23,0,0,0,0,0,0,0,0],"split_type":[0,0,0,0,0,0,0,0,0,0,0,0,0,0,0],"sum_hessian":[5.4697357E1,3.0334553E1,2.4362804E1,2.5128906E1,5.2056465E0,5.9530797E0,1.8409725E1,5.1477714E0,1.9981134E1,3.46714E0,1.7385066E0,1.2326838E0,4.720396E0,1.4196301E1,4.2134237E0],"tree_param":{"num_deleted":"0","num_feature":"26","num_nodes":"15","size_leaf_vector":"1"}},{"base_weights":[-2.6689775E-2,-9.709818E-1,1.889062E-1,-6.2130153E-2,1.705314E-3,-3.8878292E-1,5.3874075E-1,-5.3232264E-2,5.0346637E-3,5.543361E-2,2.4437266E-3],"categories":[],"categories_nodes":[],"categories_segments":[],"categories_sizes":[],"default_left":[0,0,0,0,0,0,1,0,0,0,0],"id":7,"left_children":[1,3,5,-1,-1,7,9,-1,-1,-1,-1],"loss_changes":[1.20698595E1,3.3199568E0,9.968772E0,0E0,0E0,6.5127716E0,8.204187E0,0E0,0E0,0E0,0E0],"parents":[2147483647,0,0,1,1,2,2,5,5,6,6],"right_children":[2,4,6,-1,-1,8,10,-1,-1,-1,-1],"split_conditions":[-1.907937E0,-1.1276293E0,1.274338E2,-6.2130153E-2,1.705314E-3,4.1987987E0,1.608775E2,-5.3232264E-2,5.0346637E-3,5.543361E-2,2.4437266E-3],"split_indices":[15,16,25,0,0,16,24,0,0,0,0],"split_type":[0,0,0,0,0,0,0,0,0,0,0],"sum_hessian":[5.5666668E1,9.542672E0,4.6123997E1,7.3900557E0,2.152616E0,1.7117996E1,2.9006E1,6.621336E0,1.0496659E1,1.2342783E1,1.6663218E1],"tree_param":{"num_deleted":"0","num_feature":"26","num_nodes":"11","size_leaf_vector":"1"}},{"base_weights":[7.984613E-2,-1.0544237E0,2.6167303E-1,-6.112477E-2,-0E0,-3.3324608E-1,6.169368E-1,-5.2502673E-2,8.237838E-3,4.3109752E-2,-2.2391187E-2],"categories":[],"categories_nodes":[],"categories_segments":[],"categories_sizes":[],"default_left":[0,0,0,0,0,0,0,0,0,0,0],"id":8,"left_children":[1,3,5,-1,-1,7,9,-1,-1,-1,-1],"loss_changes":[1.1788683E1,1.210104E0,1.0837597E1,0E0,0E0,7.3223906E0,8.955908E0,0E0,0E0,0E0,0E0],"parents":[2147483647,0,0,1,1,2,2,5,5,6,6],"right_children":[2,4,6,-1,-1,8,10,-1,-1,-1,-1],"split_conditions":[-1.7154918E0,-1.9383534E0,1.274338E2,-6.112477E-2,-0E0,4.1987987E0,1.690821E2,-5.2502673E-2,8.237838E-3,4.3109752E-2,-2.2391187E-2],"split_indices":[16,15,25,0,0,16,19,0,0,0,0],"split_type":[0,0,0,0,0,0,0,0,0,0,0],"sum_hessian":[5.4421837E1,6.3722205E0,4.8049614E1,5.166139E0,1.2060814E0,1.7789537E1,3.0260078E1,6.775679E0,1.1013859E1,2.4979479E1,5.280599E0],"tree_param":{"num_deleted":"0","num_feature":"26","num_nodes":"11","size_leaf_vector":"1"}},{"base_weights":[5.00683E-2,-9.842567E-1,2.063553E-1,-5.78394E-2,-0E0,-1.6320926E-1,6.897387E-1,-3.187384E-2,2.734907E-2,-7.847171E-3,4.8705008E-2],"categories":[],"categories_nodes":[],"categories_segments":[],"categories_sizes":[],"default_left":[0,0,0,0,0,0,0,0,0,0,0],"id":9,"left_children":[1,3,5,-1,-1,7,9,-1,-1,-1,-1],"loss_changes":[9.043063E0,1.0956016E0,9.064263E0,0E0,0E0,1.0263169E1,5.6512985E0,0E0,0E0,0E0,0E0],"parents":[2147483647,0,0,1,1,2,2,5,5,6,6],"right_children":[2,4,6,-1,-1,8,10,-1,-1,-1,-1],"split_conditions":[-1.787101E0,5.5256493E1,2.1897672E-1,-5.78394E-2,-0E0,1.7128E2,7.347855E1,-3.187384E-2,2.734907E-2,-7.847171E-3,4.8705008E-2],"split_indices":[16,0,20,0,0,23,19,0,0,0,0],"split_type":[0,0,0,0,0,0,0,0,0,0,0],"sum_hessian":[5.3519474E1,5.8141894E0,4.7705284E1,4.6138544E0,1.2003351E0,2.736416E1,2.0341125E1,1.6668247E1,1.0695913E1,5.1062207E0,1.5234905E1],"tree_param":{"num_deleted":"0","num_feature":"26","num_nodes":"11","size_leaf_vector":"1"}},{"base_weights":[1.65502E-2,-2.257434E-1,8.3167064E-1,-9.2764735E-1,3.9457493E-3,-3.5372344E-1,1.260949E0,9.817972E-3,-5.6858253E-2,-3.9982002E-2,9.776659E-3,-3.700263E-2,4.958238E-3,2.0168251E-3,7.381981E-2],"categories":[],"categories_nodes":[],"categories_segments":[],"categories_sizes":[],"default_left":[0,0,0,0,0,0,0,0,0,0,0,0,0,0,0],"id":10,"left_children":[1,3,5,7,9,11,13,-1,-1,-1,-1,-1,-1,-1,-1],"loss_changes":[1.1622933E1,7.4103365E0,7.733877E0,3.1754894E0,5.505504E0,1.0507605E0,2.3378563E0,0E0,0E0,0E0,0E0,0E0,0E0,0E0,0E0],"parents":[2147483647,0,0,1,1,2,2,3,3,4,4,5,5,6,6],"right_children":[2,4,6,8,10,12,14,-1,-1,-1,-1,-1,-1,-1,-1],"split_conditions":[1.951168E2,1.0637487E-1,2.261742E9,2.7592031E-2,-1.3996544E0,-9.651547E-2,-7.4348226E-2,9.817972E-3,-5.6858253E-2,-3.9982002E-2,9.776659E-3,-3.700263E-2,4.958238E-3,2.0168251E-3,7.381981E-2],"split_indices":[18,2,21,2,16,8,7,0,0,0,0,0,0,0,0],"split_type":[0,0,0,0,0,0,0,0,0,0,0,0,0,0,0],"sum_hessian":[5.531123E1,4.3284256E1,1.2026975E1,9.762832E0,3.3521423E1,3.1438277E0,8.883146E0,1.3987169E0,8.364115E0,5.3359604E0,2.8185463E1,1.4216292E0,1.7221986E0,1.7391504E0,7.1439962E0],"tree_param":{"num_deleted":"0","num_feature":"26","num_nodes":"15","size_leaf_vector":"1"}},{"base_weights":[-5.2385256E-3,-1.7902315E-1,7.370831E-1,3.397753E-1,-4.522219E-1,-2.0594874E-2,9.7626835E-1,6.041419E-2,-1.4472594E-2,1.2700463E-2,-3.280855E-2,-0E0,5.5218317E-2],"categories":[],"categories_nodes":[],"categories_segments":[],"categories_sizes":[],"default_left":[1,0,0,0,1,0,0,0,0,0,0,0,0],"id":11,"left_children":[1,3,5,7,9,-1,11,-1,-1,-1,-1,-1,-1],"loss_changes":[7.1964545E0,6.784887E0,3.6099577E0,9.726033E0,4.8076777E0,0E0,1.0484371E0,0E0,0E0,0E0,0E0,0E0,0E0],"parents":[2147483647,0,0,1,1,2,2,3,3,4,4,6,6],"right_children":[2,4,6,8,10,-1,12,-1,-1,-1,-1,-1,-1],"split_conditions":[1.79995E2,2.8626272E-2,-9.639559E-2,1.42095E2,9.198059E-1,-2.0594874E-2,1.9091757E2,6.041419E-2,-1.4472594E-2,1.2700463E-2,-3.280855E-2,-0E0,5.5218317E-2],"split_indices":[23,3,7,23,14,0,18,0,0,0,0,0,0],"split_type":[0,0,0,0,0,0,0,0,0,0,0,0,0],"sum_hessian":[5.3615578E1,4.458539E1,9.030192E0,1.5001073E1,2.9584314E1,1.2252288E0,7.804963E0,5.8558383E0,9.145234E0,6.326882E0,2.3257433E1,1.1737783E0,6.631185E0],"tree_param":{"num_deleted":"0","num_feature":"26","num_nodes":"13","size_leaf_vector":"1"}},{"base_weights":[1.5693026E-2,-1.9470213E-1,6.825133E-1,-3.8115364E-1,8.227034E-1,9.9687004E-1,-3.1211054E-2,2.6064152E-2,-3.0669514E-2,5.403721E-2,-5.7727355E-3,-1.7567053E-2,6.4413875E-2],"categories":[],"categories_nodes":[],"categories_segments":[],"categories_sizes":[],"default_left":[0,0,0,1,0,0,0,0,0,0,0,0,0],"id":12,"left_children":[1,3,5,7,9,11,-1,-1,-1,-1,-1,-1,-1],"loss_changes":[8.34723E0,8.834509E0,6.89174E0,8.639744E0,2.1255965E0,5.677864E0,0E0,0E0,0E0,0E0,0E0,0E0,0E0],"parents":[2147483647,0,0,1,1,2,2,3,3,4,4,5,5],"right_children":[2,4,6,8,10,12,-1,-1,-1,-1,-1,-1,-1],"split_conditions":[1.951168E2,7.2485657E0,1.7843726E-1,9.198059E-1,6.1669785E-1,3.692096E-2,-3.1211054E-2,2.6064152E-2,-3.0669514E-2,5.403721E-2,-5.7727355E-3,-1.7567053E-2,6.4413875E-2],"split_indices":[18,15,3,14,2,2,0,0,0,0,0,0,0],"split_type":[0,0,0,0,0,0,0,0,0,0,0,0,0],"sum_hessian":[5.5881187E1,4.305771E1,1.282348E1,3.7347897E1,5.7098117E0,1.0746884E1,2.0765955E0,7.0857224E0,3.0262175E1,4.466504E0,1.2433075E0,1.7332212E0,9.013663E0],"tree_param":{"num_deleted":"0","num_feature":"26","num_nodes":"13","size_leaf_vector":"1"}},{"base_weights":[1.4215176E-3,-1.4873418E-1,9.171071E-1,-3.6282218E-1,7.490573E-1,5.7867017E-2,-7.140056E-3,1.3705869E-2,-3.1132683E-2,-3.599491E-2,5.5051602E-2],"categories":[],"categories_nodes":[],"categories_segments":[],"categories_sizes":[],"default_left":[0,0,0,1,0,0,0,0,0,0,0],"id":13,"left_children":[1,3,5,7,9,-1,-1,-1,-1,-1,-1],"loss_changes":[8.17134E0,9.925699E0,2.590261E0,7.1938424E0,6.395111E0,0E0,0E0,0E0,0E0,0E0,0E0],"parents":[2147483647,0,0,1,1,2,2,3,3,4,4],"right_children":[2,4,6,8,10,-1,-1,-1,-1,-1,-1],"split_conditions":[7.2485657E0,1.79995E2,1.274355E-1,9.5682495E1,-9.509451E-2,5.7867017E-2,-7.140056E-3,1.3705869E-2,-3.1132683E-2,-3.599491E-2,5.5051602E-2],"split_indices":[15,23,7,25,7,0,0,0,0,0,0],"split_type":[0,0,0,0,0,0,0,0,0,0,0],"sum_hessian":[5.5324127E1,4.842178E1,6.9023466E0,3.9999943E1,8.421837E0,5.668388E0,1.2339586E0,1.1342712E1,2.865723E1,1.2149769E0,7.2068596E0],"tree_param":{"num_deleted":"0","num_feature":"26","num_nodes":"11","size_leaf_vector":"1"}},{"base_weights":[-9.83705E-3,-9.374799E-1,1.5462899E-1,-1.0676016E0,-1.7354878E-3,-3.8499784E-1,4.6344733E-1,-5.7558246E-2,-7.7552022E-3,-4.719854E-2,1.1859763E-3,-0E0,3.8778823E-2],"categories":[],"categories_nodes":[],"categories_segments":[],"categories_sizes":[],"default_left":[0,0,0,1,0,0,0,0,0,0,0,0,0],"id":14,"left_children":[1,3,5,7,-1,9,11,-1,-1,-1,-1,-1,-1],"loss_changes":[9.214477E0,7.9548645E-1,8.669571E0,6.023693E-2,0E0,4.5356674E0,4.858834E0,0E0,0E0,0E0,0E0,0E0,0E0],"parents":[2147483647,0,0,1,1,2,2,3,3,5,5,6,6],"right_children":[2,4,6,8,-1,10,12,-1,-1,-1,-1,-1,-1],"split_conditions":[-1.5695602E0,-1.4375831E0,1.274338E2,1.73945E2,-1.7354878E-3,1.4637333E-2,1.1650551E-1,-5.7558246E-2,-7.7552022E-3,-4.719854E-2,1.1859763E-3,-0E0,3.8778823E-2],"split_indices":[16,15,25,25,0,7,2,0,0,0,0,0,0],"split_type":[0,0,0,0,0,0,0,0,0,0,0,0,0],"sum_hessian":[5.6445267E1,7.621775E0,4.882349E1,6.2285943E0,1.3931806E0,1.7400442E1,3.142305E1,5.145846E0,1.0827483E0,6.7263074E0,1.0674134E1,1.3089656E1,1.8333393E1],"tree_param":{"num_deleted":"0","num_feature":"26","num_nodes":"13","size_leaf_vector":"1"}},{"base_weights":[-2.9520094E-2,-1.7723373E-1,8.6659235E-1,-2.9971054E-1,6.7240506E-1,1.4845532E-3,5.6260534E-2,-2.3525426E-2,1.7057471E-2,-6.8442808E-3,4.6573628E-2],"categories":[],"categories_nodes":[],"categories_segments":[],"categories_sizes":[],"default_left":[0,0,0,0,0,0,0,0,0,0,0],"id":15,"left_children":[1,3,5,7,9,-1,-1,-1,-1,-1,-1],"loss_changes":[7.7414055E0,5.5395174E0,1.5024304E0,5.2860227E0,1.7523551E0,0E0,0E0,0E0,0E0,0E0,0E0],"parents":[2147483647,0,0,1,1,2,2,3,3,4,4],"right_children":[2,4,6,8,10,-1,-1,-1,-1,-1,-1],"split_conditions":[2.5517967E9,7.2485657E0,1.7555185E2,1.951168E2,1.2499126E2,1.4845532E-3,5.6260534E-2,-2.3525426E-2,1.7057471E-2,-6.8442808E-3,4.6573628E-2],"split_indices":[21,15,18,18,18,0,0,0,0,0,0],"split_type":[0,0,0,0,0,0,0,0,0,0,0],"sum_hessian":[5.628505E1,4.95447E1,6.740348E0,4.4356857E1,5.187845E0,2.1685061E0,4.571842E0,3.558403E1,8.772825E0,1.24235E0,3.9454951E0],"tree_param":{"num_deleted":"0","num_feature":"26","num_nodes":"11","size_leaf_vector":"1"}},{"base_weights":[5.2039932E-2,-9.5692545E-1,2.0859332E-1,-5.60831E-2,-0E0,-5.7437235E-1,3.5770822E-1,-4.8652597E-2,1.582562E-2,-3.8617984E-3,3.0911831E-2],"categories":[],"categories_nodes":[],"categories_segments":[],"categories_sizes":[],"default_left":[0,0,0,0,0,0,0,0,0,0,0],"id":16,"left_children":[1,3,5,-1,-1,7,9,-1,-1,-1,-1],"loss_changes":[9.102526E0,1.1674166E0,6.15716E0,0E0,0E0,3.5892375E0,5.1128416E0,0E0,0E0,0E0,0E0],"parents":[2147483647,0,0,1,1,2,2,5,5,6,6],"right_children":[2,4,6,-1,-1,8,10,-1,-1,-1,-1],"split_conditions":[-1.7154918E0,-1.4375831E0,1.21062584E-1,-5.60831E-2,-0E0,3.3778498E0,1.274338E2,-4.8652597E-2,1.582562E-2,-3.8617984E-3,3.0911831E-2],"split_indices":[16,15,20,0,0,16,25,0,0,0,0],"split_type":[0,0,0,0,0,0,0,0,0,0,0],"sum_hessian":[5.5178608E1,6.209973E0,4.8968636E1,5.0394807E0,1.1704924E0,6.9350934E0,4.2033543E1,4.8505673E0,2.084526E0,1.5853781E1,2.617976E1],"tree_param":{"num_deleted":"0","num_feature":"26","num_nodes":"11","size_leaf_vector":"1"}},{"base_weights":[5.5271186E-2,-5.0745815E-2,2.1048744E-1,-4.2940208E-1,4.151908E-1,-4.95123E-2,2.822443E-2,-2.6692906E-2,2.7595071E-2],"categories":[],"categories_nodes":[],"categories_segments":[],"categories_sizes":[],"default_left":[0,0,0,0,0,0,0,0,0],"id":17,"left_children":[1,-1,3,5,7,-1,-1,-1,-1],"loss_changes":[9.397181E0,0E0,6.810405E0,7.954035E0,5.4875093E0,0E0,0E0,0E0,0E0],"parents":[2147483647,0,0,2,2,3,3,4,4],"right_children":[2,-1,4,6,8,-1,-1,-1,-1],"split_conditions":[-1.7154918E0,-5.0745815E-2,1.463429E-1,1.8741812E2,2.2174036E-2,-4.95123E-2,2.822443E-2,-2.6692906E-2,2.7595071E-2],"split_indices":[16,0,20,18,9,0,0,0,0],"split_type":[0,0,0,0,0,0,0,0,0],"sum_hessian":[5.4111336E1,5.6384754E0,4.8472862E1,1.1112465E1,3.7360397E1,7.235989E0,3.8764758E0,3.971268E0,3.338913E1],"tree_param":{"num_deleted":"0","num_feature":"26","num_nodes":"9","size_leaf_vector":"1"}},{"base_weights":[-1.6518781E-2,-9.6253717E-1,1.6855912E-1,-0E0,-5.476554E-2,1.7826064E-2,8.951041E-1,-1.0316323E-2,3.228007E-2,6.2299203E-2,-2.3726334E-3],"categories":[],"categories_nodes":[],"categories_segments":[],"categories_sizes":[],"default_left":[0,0,0,0,0,0,0,0,0,0,0],"id":18,"left_children":[1,3,5,-1,-1,7,9,-1,-1,-1,-1],"loss_changes":[1.0231603E1,1.2252569E0,5.056067E0,0E0,0E0,6.13528E0,2.9735637E0,0E0,0E0,0E0,0E0],"parents":[2147483647,0,0,1,1,2,2,5,5,6,6],"right_children":[2,4,6,-1,-1,8,10,-1,-1,-1,-1],"split_conditions":[-1.907937E0,2.6813928E-2,7.2485657E0,-0E0,-5.476554E-2,1.9466695E2,9.637512E-2,-1.0316323E-2,3.228007E-2,6.2299203E-2,-2.3726334E-3],"split_indices":[15,2,15,0,0,18,7,0,0,0,0],"split_type":[0,0,0,0,0,0,0,0,0,0,0],"sum_hessian":[5.4640285E1,8.086421E0,4.6553864E1,1.1619698E0,6.9244514E0,4.0055756E1,6.498111E0,3.002389E1,1.0031865E1,4.538063E0,1.9600478E0],"tree_param":{"num_deleted":"0","num_feature":"26","num_nodes":"11","size_leaf_vector":"1"}},{"base_weights":[6.188836E-2,-9.348694E-1,2.3418681E-1,-0E0,-5.45772E-2,-0E0,9.418757E-1,4.606206E-2,-1.2074438E-2,-3.1895697E-2,6.68027E-2],"categories":[],"categories_nodes":[],"categories_segments":[],"categories_sizes":[],"default_left":[0,0,0,0,0,1,0,0,0,0,0],"id":19,"left_children":[1,3,5,-1,-1,7,9,-1,-1,-1,-1],"loss_changes":[9.396137E0,1.1994514E0,7.681077E0,0E0,0E0,8.656547E0,8.622374E0,0E0,0E0,0E0,0E0],"parents":[2147483647,0,0,1,1,2,2,5,5,6,6],"right_children":[2,4,6,-1,-1,8,10,-1,-1,-1,-1],"split_conditions":[-1.4580327E0,9.2698056E-1,1.951168E2,-0E0,-5.45772E-2,9.224197E-1,-9.509451E-2,4.606206E-2,-1.2074438E-2,-3.1895697E-2,6.68027E-2],"split_indices":[16,14,18,0,0,14,7,0,0,0,0],"split_type":[0,0,0,0,0,0,0,0,0,0,0],"sum_hessian":[5.2115242E1,6.5313535E0,4.558389E1,1.133394E0,5.397959E0,3.551476E1,1.0069132E1,6.6107597E0,2.8903997E1,1.724156E0,8.344975E0],"tree_param":{"num_deleted":"0","num_feature":"26","num_nodes":"11","size_leaf_vector":"1"}},{"base_weights":[-2.9441701E-2,-2.243905E-1,6.5184623E-1,-6.0497934E-1,1.10705696E-1,-3.6705222E-2,9.917818E-1,6.479469E-3,-4.6782248E-2,-2.3044689E-2,2.3451226E-2,-2.9164215E-3,5.839464E-2],"categories":[],"categories_nodes":[],"categories_segments":[],"categories_sizes":[],"default_left":[0,0,0,0,0,0,0,0,0,0,0,0,0],"id":20,"left_children":[1,3,5,7,9,-1,11,-1,-1,-1,-1,-1,-1],"loss_changes":[6.9305105E0,5.4450264E0,6.5810213E0,5.145187E0,5.0083065E0,0E0,2.1774855E0,0E0,0E0,0E0,0E0,0E0,0E0],"parents":[2147483647,0,0,1,1,2,2,3,3,4,4,6,6],"right_children":[2,4,6,8,10,-1,12,-1,-1,-1,-1,-1,-1],"split_conditions":[1.9466695E2,2.414452E0,2.2283735E9,-1.944232E-2,7.171594E-4,-3.6705222E-2,-1.05469935E-1,6.479469E-3,-4.6782248E-2,-2.3044689E-2,2.3451226E-2,-2.9164215E-3,5.839464E-2],"split_indices":[18,16,21,7,7,0,7,0,0,0,0,0,0],"split_type":[0,0,0,0,0,0,0,0,0,0,0,0,0],"sum_hessian":[4.967294E1,3.9631893E1,1.0041046E1,1.827015E1,2.1361744E1,1.5192515E0,8.521794E0,5.7667346E0,1.2503414E1,7.850639E0,1.3511106E1,1.2048854E0,7.3169093E0],"tree_param":{"num_deleted":"0","num_feature":"26","num_nodes":"13","size_leaf_vector":"1"}},{"base_weights":[-0E0,-2.1909583E-1,4.0721405E-1,-5.7722926E-1,2.5703323E-1,-7.27208E-2,8.3505464E-1,3.8380094E-2,-3.8138464E-2,-2.8749216E-2,2.793624E-2,-3.008761E-2,2.9524414E-2,-6.895973E-3,6.4391375E-2],"categories":[],"categories_nodes":[],"categories_segments":[],"categories_sizes":[],"default_left":[0,0,0,0,0,0,0,0,0,0,0,0,0,0,0],"id":21,"left_children":[1,3,5,7,9,11,13,-1,-1,-1,-1,-1,-1,-1,-1],"loss_changes":[5.069809E0,6.5383134E0,4.342097E0,6.273468E0,4.6296206E0,4.2427287E0,5.295304E0,0E0,0E0,0E0,0E0,0E0,0E0,0E0,0E0],"parents":[2147483647,0,0,1,1,2,2,3,3,4,4,5,5,6,6],"right_children":[2,4,6,8,10,12,14,-1,-1,-1,-1,-1,-1,-1,-1],"split_conditions":[1.8556894E-1,1.8853122E2,4.383267E0,-2.6656115E0,2.2484506E9,1.8241E2,1.3174487E2,3.8380094E-2,-3.8138464E-2,-2.8749216E-2,2.793624E-2,-3.008761E-2,2.9524414E-2,-6.895973E-3,6.4391375E-2],"split_indices":[2,18,16,17,21,25,18,0,0,0,0,0,0,0,0],"split_type":[0,0,0,0,0,0,0,0,0,0,0,0,0,0,0],"sum_hessian":[5.3623398E1,3.5163193E1,1.8460205E1,2.0126242E1,1.5036952E1,9.0668955E0,9.393309E0,1.7388794E0,1.8387362E1,3.463484E0,1.1573468E1,5.2887254E0,3.77817E0,3.1739962E0,6.2193127E0],"tree_param":{"num_deleted":"0","num_feature":"26","num_nodes":"15","size_leaf_vector":"1"}},{"base_weights":[-1.2923927E-2,-7.510088E-1,1.3404417E-1,1.198664E-2,-9.711034E-1,6.934685E-1,-5.8310036E-2,-4.0288367E-3,-5.2745577E-2,-2.288679E-2,4.677709E-2,-4.6436083E-2,8.91935E-3],"categories":[],"categories_nodes":[],"categories_segments":[],"categories_sizes":[],"default_left":[0,0,0,0,0,0,0,0,0,0,0,0,0],"id":22,"left_children":[1,3,5,-1,7,9,11,-1,-1,-1,-1,-1,-1],"loss_changes":[5.866268E0,2.460897E0,4.92636E0,0E0,2.3031044E-1,3.9844313E0,7.380057E0,0E0,0E0,0E0,0E0,0E0,0E0],"parents":[2147483647,0,0,1,1,2,2,4,4,5,5,6,6],"right_children":[2,4,6,-1,8,10,12,-1,-1,-1,-1,-1,-1],"split_conditions":[-1.3996544E0,2.6123838E-2,9.120887E-1,1.198664E-2,1.493751E-1,2.2684764E-2,2.414452E0,-4.0288367E-3,-5.2745577E-2,-2.288679E-2,4.677709E-2,-4.6436083E-2,8.91935E-3],"split_indices":[16,3,15,0,20,9,16,0,0,0,0,0,0],"split_type":[0,0,0,0,0,0,0,0,0,0,0,0,0],"sum_hessian":[5.0049908E1,7.513312E0,4.25366E1,1.1761976E0,6.3371143E0,1.0149826E1,3.2386772E1,1.0034316E0,5.3336825E0,1.38774E0,8.762086E0,6.1672497E0,2.621952E1],"tree_param":{"num_deleted":"0","num_feature":"26","num_nodes":"13","size_leaf_vector":"1"}},{"base_weights":[-6.2835336E-2,-2.9602626E-1,3.3082697E-1,2.8643635E-1,-6.503043E-1,-8.252355E-2,8.4866846E-1,-4.165931E-2,4.2702664E-2,-5.4065444E-2,-1.3307869E-2,-3.8841244E-2,1.5720509E-2,-0E0,4.8233595E-2],"categories":[],"categories_nodes":[],"categories_segments":[],"categories_sizes":[],"default_left":[0,1,0,0,0,0,0,0,0,0,0,0,0,0,0],"id":23,"left_children":[1,3,5,7,9,11,13,-1,-1,-1,-1,-1,-1,-1,-1],"loss_changes":[4.824128E0,7.1939287E0,4.404736E0,9.566699E0,2.8234653E0,3.745236E0,7.9809856E-1,0E0,0E0,0E0,0E0,0E0,0E0,0E0,0E0],"parents":[2147483647,0,0,1,1,2,2,3,3,4,4,5,5,6,6],"right_children":[2,4,6,8,10,12,14,-1,-1,-1,-1,-1,-1,-1,-1],"split_conditions":[1.695238E2,9.5682495E1,3.371306E0,-1.6877775E0,1.053641E0,2.2126455E-2,5.343737E-3,-4.165931E-2,4.2702664E-2,-5.4065444E-2,-1.3307869E-2,-3.8841244E-2,1.5720509E-2,-0E0,4.8233595E-2],"split_indices":[22,25,15,15,14,9,8,0,0,0,0,0,0,0,0],"split_type":[0,0,0,0,0,0,0,0,0,0,0,0,0,0,0],"sum_hessian":[4.9526863E1,3.1655437E1,1.7871428E1,1.1867308E1,1.978813E1,1.0424857E1,7.4465704E0,3.6377354E0,8.229572E0,7.7970867E0,1.1991043E1,3.453097E0,6.97176E0,1.1646854E0,6.2818847E0],"tree_param":{"num_deleted":"0","num_feature":"26","num_nodes":"15","size_leaf_vector":"1"}},{"base_weights":[9.9133015E-2,-1.939622E-1,4.2907542E-1,2.0725968E-1,-8.436911E-1,-4.6287183E-2,5.895815E-1,-2.3831867E-2,4.173172E-2,-0E0,-4.8080847E-2,5.1458576E-3,5.281617E-2],"categories":[],"categories_nodes":[],"categories_segments":[],"categories_sizes":[],"default_left":[0,0,0,0,0,0,0,0,0,0,0,0,0],"id":24,"left_children":[1,3,5,7,9,-1,11,-1,-1,-1,-1,-1,-1],"loss_changes":[5.3326516E0,7.9425244E0,6.3821187E0,8.78875E0,9.586582E-1,0E0,5.101783E0,0E0,0E0,0E0,0E0,0E0,0E0],"parents":[2147483647,0,0,1,1,2,2,3,3,4,4,6,6],"right_children":[2,4,6,8,10,-1,12,-1,-1,-1,-1,-1,-1],"split_conditions":[3.5609686E0,1.3512518E0,1.03149994E2,-9.8565704E-1,4.458928E1,-4.6287183E-2,5.8480803E-2,-2.3831867E-2,4.173172E-2,-0E0,-4.8080847E-2,5.1458576E-3,5.281617E-2],"split_indices":[15,15,22,16,0,0,8,0,0,0,0,0,0],"split_type":[0,0,0,0,0,0,0,0,0,0,0,0,0],"sum_hessian":[5.18666E1,2.74734E1,2.4393202E1,1.7426092E1,1.0047307E1,1.6942905E0,2.2698912E1,8.35738E0,9.068713E0,1.6217849E0,8.425523E0,1.2218318E1,1.0480593E1],"tree_param":{"num_deleted":"0","num_feature":"26","num_nodes":"13","size_leaf_vector":"1"}},{"base_weights":[-8.980825E-2,-1.8775512E-1,4.9612414E-2,-3.6748067E-1,3.1044292E-1,3.641324E-2,-2.4118114E-2,-8.650007E-3,4.3564208E-2],"categories":[],"categories_nodes":[],"categories_segments":[],"categories_sizes":[],"default_left":[0,0,0,0,0,0,0,0,0],"id":25,"left_children":[1,3,-1,5,7,-1,-1,-1,-1],"loss_changes":[5.8951654E0,4.785833E0,0E0,5.357325E0,4.2017155E0,0E0,0E0,0E0,0E0],"parents":[2147483647,0,0,1,1,3,3,4,4],"right_children":[2,4,-1,6,8,-1,-1,-1,-1],"split_conditions":[8.150833E0,1.6301236E2,4.9612414E-2,9.198059E-1,1.7332248E2,3.641324E-2,-2.4118114E-2,-8.650007E-3,4.3564208E-2],"split_indices":[16,19,0,14,24,0,0,0,0],"split_type":[0,0,0,0,0,0,0,0,0],"sum_hessian":[5.300456E1,4.9911194E1,3.0933633E0,3.7263397E1,1.2647798E1,2.610882E0,3.4652515E1,7.1581736E0,5.489624E0],"tree_param":{"num_deleted":"0","num_feature":"26","num_nodes":"9","size_leaf_vector":"1"}},{"base_weights":[4.7211267E-2,6.3616335E-1,-1.735902E-1,1.1276573E0,7.354478E-2,-3.6032784E-1,3.6809254E-1,-1.1126874E-2,7.1641676E-2,-3.8161647E-2,3.333197E-2,2.6679618E-2,-2.4117313E-2,-2.024511E-2,4.201924E-2],"categories":[],"categories_nodes":[],"categories_segments":[],"categories_sizes":[],"default_left":[0,0,0,0,0,0,0,0,0,0,0,0,0,0,0],"id":26,"left_children":[1,3,5,7,9,11,13,-1,-1,-1,-1,-1,-1,-1,-1],"loss_changes":[7.2752533E0,3.8612857E0,4.2615137E0,3.9600105E0,5.1707644E0,3.7473803E0,4.5284925E0,0E0,0E0,0E0,0E0,0E0,0E0,0E0,0E0],"parents":[2147483647,0,0,1,1,2,2,3,3,4,4,5,5,6,6],"right_children":[2,4,6,8,10,12,14,-1,-1,-1,-1,-1,-1,-1,-1],"split_conditions":[2.4471564E-2,1.42095E2,1.951168E2,9.018205E1,1.7263675E2,-2.6656115E0,-6.458957E-2,-1.1126874E-2,7.1641676E-2,-3.8161647E-2,3.333197E-2,2.6679618E-2,-2.4117313E-2,-2.024511E-2,4.201924E-2],"split_indices":[3,23,18,23,18,17,7,0,0,0,0,0,0,0,0],"split_type":[0,0,0,0,0,0,0,0,0,0,0,0,0,0,0],"sum_hessian":[5.2460415E1,1.3782334E1,3.867808E1,6.3623557E0,7.419978E0,2.94106E1,9.26748E0,1.126997E0,5.2353587E0,2.7593668E0,4.6606116E0,2.727797E0,2.6682804E1,3.4353878E0,5.8320923E0],"tree_param":{"num_deleted":"0","num_feature":"26","num_nodes":"15","size_leaf_vector":"1"}},{"base_weights":[-1.8170593E-2,6.69102E-1,-1.4656514E-1,-3.4958184E-1,5.8300752E-2,-4.8217943E-1,2.821632E-1,2.0072188E-3,-3.1147594E-2,-3.863247E-2,1.3731522E-2,3.174178E-2,-1.7568758E-2],"categories":[],"categories_nodes":[],"categories_segments":[],"categories_sizes":[],"default_left":[1,0,0,0,0,0,0,0,0,0,0,0,0],"id":27,"left_children":[1,3,5,7,-1,9,11,-1,-1,-1,-1,-1,-1],"loss_changes":[4.6847525E0,4.9788046E0,6.834392E0,5.530705E-1,0E0,6.244761E0,5.037701E0,0E0,0E0,0E0,0E0,0E0,0E0],"parents":[2147483647,0,0,1,1,2,2,3,3,5,5,6,6],"right_children":[2,4,6,8,-1,10,12,-1,-1,-1,-1,-1,-1],"split_conditions":[9.198059E-1,7.07339E1,3.5609686E0,6.1391E-2,5.8300752E-2,1.803E2,4.1257568E-2,2.0072188E-3,-3.1147594E-2,-3.863247E-2,1.3731522E-2,3.174178E-2,-1.7568758E-2],"split_indices":[14,19,15,9,0,23,3,0,0,0,0,0,0],"split_type":[0,0,0,0,0,0,0,0,0,0,0,0,0],"sum_hessian":[5.11071E1,6.8052416E0,4.430186E1,2.2450626E0,4.560179E0,2.5006176E1,1.9295683E1,1.1515241E0,1.0935385E0,1.8238832E1,6.767344E0,1.2596303E1,6.6993804E0],"tree_param":{"num_deleted":"0","num_feature":"26","num_nodes":"13","size_leaf_vector":"1"}},{"base_weights":[1.4987569E-2,-4.6210982E-2,1.2868209E-1,2.8141087E-1,-6.273383E-1,-2.01549E-2,2.3852123E-2,-4.847805E-2,-0E0],"categories":[],"categories_nodes":[],"categories_segments":[],"categories_sizes":[],"default_left":[0,0,0,0,1,0,0,0,0],"id":28,"left_children":[1,-1,3,5,7,-1,-1,-1,-1],"loss_changes":[5.419611E0,0E0,5.578497E0,5.664953E0,1.8243558E0,0E0,0E0,0E0,0E0],"parents":[2147483647,0,0,2,2,3,3,4,4],"right_children":[2,-1,4,6,8,-1,-1,-1,-1],"split_conditions":[-2.1677778E0,-4.6210982E-2,1.3500649E0,1.3877113E-1,1.4552249E2,-2.01549E-2,2.3852123E-2,-4.847805E-2,-0E0],"split_indices":[16,0,1,20,24,0,0,0,0],"split_type":[0,0,0,0,0,0,0,0,0],"sum_hessian":[4.9073006E1,3.9543524E0,4.5118652E1,3.8539276E1,6.579376E0,7.98543E0,3.0553848E1,3.8231523E0,2.7562237E0],"tree_param":{"num_deleted":"0","num_feature":"26","num_nodes":"9","size_leaf_vector":"1"}},{"base_weights":[-2.96931E-2,-1.857249E-1,5.886714E-1,3.841686E-1,-4.4135797E-1,-1.6769042E-2,8.848491E-1,-3.8592275E-2,3.4036096E-2,1.6254572E-2,-3.3861626E-2,5.6161683E-2,-0E0],"categories":[],"categories_nodes":[],"categories_segments":[],"categories_sizes":[],"default_left":[0,0,0,0,1,0,0,0,0,0,0,0,0],"id":29,"left_children":[1,3,5,7,9,-1,11,-1,-1,-1,-1,-1,-1],"loss_changes":[5.1913147E0,6.628047E0,3.502146E0,5.5978737E0,6.021075E0,0E0,2.0124283E0,0E0,0E0,0E0,0E0,0E0,0E0],"parents":[2147483647,0,0,1,1,2,2,3,3,4,4,6,6],"right_children":[2,4,6,8,10,-1,12,-1,-1,-1,-1,-1,-1],"split_conditions":[1.951168E2,2.4471564E-2,2.261742E9,2.2077527E-2,9.198059E-1,-1.6769042E-2,4.184138E0,-3.8592275E-2,3.4036096E-2,1.6254572E-2,-3.3861626E-2,5.6161683E-2,-0E0],"split_indices":[18,3,21,9,14,0,16,0,0,0,0,0,0],"split_type":[0,0,0,0,0,0,0,0,0,0,0,0,0],"sum_hessian":[5.1440174E1,4.2171864E1,9.268309E0,1.2583144E1,2.958872E1,2.0375352E0,7.230773E0,1.9404507E0,1.06426935E1,6.6299925E0,2.2958727E1,5.513221E0,1.7175524E0],"tree_param":{"num_deleted":"0","num_feature":"26","num_nodes":"13","size_leaf_vector":"1"}},{"base_weights":[2.7286712E-2,-8.546031E-2,6.767328E-1,-4.078053E-2,-4.564281E-3,-0E0,9.4885534E-1,1.8842679E-2,-1.1162642E-2,3.2531153E-2,-3.3137415E-2,6.514944E-3,5.2046772E-2],"categories":[],"categories_nodes":[],"categories_segments":[],"categories_sizes":[],"default_left":[0,0,0,0,0,0,0,0,0,0,0,0,0],"id":30,"left_children":[1,3,5,-1,7,9,11,-1,-1,-1,-1,-1,-1],"loss_changes":[4.141453E0,2.5992112E0,1.5672405E0,0E0,3.7619345E0,2.3193188E0,1.4908314E-2,0E0,0E0,0E0,0E0,0E0,0E0],"parents":[2147483647,0,0,1,1,2,2,4,4,5,5,6,6],"right_children":[2,4,6,-1,8,10,12,-1,-1,-1,-1,-1,-1],"split_conditions":[2.5517967E9,-2.5701404E0,1.7555185E2,-4.078053E-2,1.3512518E0,2.6026514E9,7.973813E-1,1.8842679E-2,-1.1162642E-2,3.2531153E-2,-3.3137415E-2,6.514944E-3,5.2046772E-2],"split_indices":[21,16,18,0,15,21,1,0,0,0,0,0,0],"split_type":[0,0,0,0,0,0,0,0,0,0,0,0,0],"sum_hessian":[5.2259636E1,4.5376682E1,6.8829536E0,2.9205751E0,4.2456104E1,2.3780668E0,4.504887E0,1.4743081E1,2.7713024E1,1.1950145E0,1.1830522E0,1.0414457E0,3.4634411E0],"tree_param":{"num_deleted":"0","num_feature":"26","num_nodes":"13","size_leaf_vector":"1"}},{"base_weights":[9.1997325E-2,-7.55884E-1,2.2051924E-1,-0E0,-4.595804E-2,-2.0922048E-1,4.654602E-1,-4.5554735E-2,6.999407E-3,-1.9307686E-2,3.2524433E-2],"categories":[],"categories_nodes":[],"categories_segments":[],"categories_sizes":[],"default_left":[0,0,0,0,0,0,0,0,0,0,0],"id":31,"left_children":[1,3,5,-1,-1,7,9,-1,-1,-1,-1],"loss_changes":[5.8565183E0,7.4303865E-1,5.1336746E0,0E0,0E0,4.6995E0,5.256475E0,0E0,0E0,0E0,0E0],"parents":[2147483647,0,0,1,1,2,2,5,5,6,6],"right_children":[2,4,6,-1,-1,8,10,-1,-1,-1,-1],"split_conditions":[-1.7154918E0,1.8081276E-1,1.274338E2,-0E0,-4.595804E-2,4.1987987E0,2.2174036E-2,-4.5554735E-2,6.999407E-3,-1.9307686E-2,3.2524433E-2],"split_indices":[16,20,25,0,0,16,9,0,0,0,0],"split_type":[0,0,0,0,0,0,0,0,0,0,0],"sum_hessian":[5.0931774E1,5.5354247E0,4.539635E1,1.3980135E0,4.137411E0,1.6264E1,2.913235E1,4.7919154E0,1.1472084E1,4.715826E0,2.4416525E1],"tree_param":{"num_deleted":"0","num_feature":"26","num_nodes":"11","size_leaf_vector":"1"}},{"base_weights":[4.8719887E-2,1.6761594E-1,-5.0954825E-1,-7.3882975E-3,6.7224544E-1,-6.92966E-1,8.823272E-3,-1.0148338E-2,4.3887246E-2,5.9524197E-2,-3.4433224E-3,-0E0,-4.5991655E-2],"categories":[],"categories_nodes":[],"categories_segments":[],"categories_sizes":[],"default_left":[0,0,0,0,0,0,0,0,0,0,0,0,0],"id":32,"left_children":[1,3,5,7,9,11,-1,-1,-1,-1,-1,-1,-1],"loss_changes":[3.4867995E0,4.025278E0,1.4369543E0,5.9925075E0,4.817103E0,1.31562E0,0E0,0E0,0E0,0E0,0E0,0E0,0E0],"parents":[2147483647,0,0,1,1,2,2,3,3,4,4,5,5],"right_children":[2,4,6,8,10,12,-1,-1,-1,-1,-1,-1,-1],"split_conditions":[1.3500649E0,1.6181079E2,2.5501768E9,7.2485657E0,1.7039362E2,2.5532188E-2,8.823272E-3,-1.0148338E-2,4.3887246E-2,5.9524197E-2,-3.4433224E-3,-0E0,-4.5991655E-2],"split_indices":[1,19,21,15,19,9,0,0,0,0,0,0,0],"split_type":[0,0,0,0,0,0,0,0,0,0,0,0,0],"sum_hessian":[5.0131313E1,4.2489983E1,7.641333E0,3.2352074E1,1.0137909E1,6.247336E0,1.393997E0,2.7629148E1,4.722924E0,5.589601E0,4.548308E0,1.7953835E0,4.4519525E0],"tree_param":{"num_deleted":"0","num_feature":"26","num_nodes":"13","size_leaf_vector":"1"}},{"base_weights":[-8.485009E-2,-2.9484904E-1,3.5930797E-1,-3.8992447E-1,3.7632752E-2,-4.8252973E-1,7.520898E-1,2.7792072E-2,-2.6146358E-2,-3.4692064E-2,-3.3047222E-4,-6.5660193E-3,4.7675725E-2],"categories":[],"categories_nodes":[],"categories_segments":[],"categories_sizes":[],"default_left":[0,0,0,0,0,0,0,0,0,0,0,0,0],"id":33,"left_children":[1,3,5,7,-1,9,11,-1,-1,-1,-1,-1,-1],"loss_changes":[4.813019E0,3.8636463E0,6.0319963E0,4.623884E0,0E0,4.544009E-1,2.4792361E0,0E0,0E0,0E0,0E0,0E0,0E0],"parents":[2147483647,0,0,1,1,2,2,3,3,5,5,6,6],"right_children":[2,4,6,8,-1,10,12,-1,-1,-1,-1,-1,-1],"split_conditions":[1.8842723E2,8.688795E0,2.2676808E9,9.6965004E1,3.7632752E-2,1.0824326E0,-7.4348226E-2,2.7792072E-2,-2.6146358E-2,-3.4692064E-2,-3.3047222E-4,-6.5660193E-3,4.7675725E-2],"split_indices":[18,16,21,18,0,1,7,0,0,0,0,0,0],"split_type":[0,0,0,0,0,0,0,0,0,0,0,0,0],"sum_hessian":[4.853604E1,3.3603E1,1.49330435E1,3.1845179E1,1.7578206E0,4.479766E0,1.0453278E1,3.1528878E0,2.8692291E1,2.3356452E0,2.1441205E0,1.8534654E0,8.599812E0],"tree_param":{"num_deleted":"0","num_feature":"26","num_nodes":"13","size_leaf_vector":"1"}},{"base_weights":[-8.079641E-3,-3.0662474E-1,3.4146282E-1,2.7504563E-1,-4.657342E-1,-3.3084728E-2,4.6879292E-1,-2.6452396E-2,4.0778566E-2,-3.661706E-2,4.0458245E-3,1.4961854E-3,4.5736592E-2],"categories":[],"categories_nodes":[],"categories_segments":[],"categories_sizes":[],"default_left":[0,1,0,0,0,0,0,0,0,0,0,0,0],"id":34,"left_children":[1,3,5,7,9,-1,11,-1,-1,-1,-1,-1,-1],"loss_changes":[5.5685973E0,2.923837E0,3.533197E0,3.7140138E0,3.6702828E0,0E0,4.200058E0,0E0,0E0,0E0,0E0,0E0,0E0],"parents":[2147483647,0,0,1,1,2,2,3,3,4,4,6,6],"right_children":[2,4,6,8,10,-1,12,-1,-1,-1,-1,-1,-1],"split_conditions":[3.4422386E0,9.198059E-1,1.03149994E2,-2.3150625E0,1.951168E2,-3.3084728E-2,5.8480803E-2,-2.6452396E-2,4.0778566E-2,-3.661706E-2,4.0458245E-3,1.4961854E-3,4.5736592E-2],"split_indices":[15,14,22,15,18,0,8,0,0,0,0,0,0],"split_type":[0,0,0,0,0,0,0,0,0,0,0,0,0],"sum_hessian":[5.0424263E1,2.7603981E1,2.282028E1,5.424217E0,2.2179764E1,1.6843722E0,2.1135908E1,2.044553E0,3.3796644E0,1.4812093E1,7.367672E0,1.1685152E1,9.450755E0],"tree_param":{"num_deleted":"0","num_feature":"26","num_nodes":"13","size_leaf_vector":"1"}},{"base_weights":[-5.541594E-2,-3.1611395E-1,2.9388618E-1,-5.908197E-1,1.8568422E-1,-4.1778433E-1,5.2412814E-1,1.4777436E-2,-4.2623486E-2,-2.3937676E-2,3.2212216E-2,-4.2511363E-2,2.7186139E-2,4.086119E-2,-9.519574E-3],"categories":[],"categories_nodes":[],"categories_segments":[],"categories_sizes":[],"default_left":[0,0,0,1,0,0,0,0,0,0,0,0,0,0,0],"id":35,"left_children":[1,3,5,7,9,11,13,-1,-1,-1,-1,-1,-1,-1,-1],"loss_changes":[4.5625606E0,4.2206745E0,3.8214502E0,4.95408E0,3.873324E0,3.1669598E0,3.895092E0,0E0,0E0,0E0,0E0,0E0,0E0,0E0,0E0],"parents":[2147483647,0,0,1,1,2,2,3,3,4,4,5,5,6,6],"right_children":[2,4,6,8,10,12,14,-1,-1,-1,-1,-1,-1,-1,-1],"split_conditions":[1.7100158E-1,1.9091757E2,7.347855E1,9.163724E-1,-6.458957E-2,1.03149994E2,1.4603683E2,1.4777436E-2,-4.2623486E-2,-2.3937676E-2,3.2212216E-2,-4.2511363E-2,2.7186139E-2,4.086119E-2,-9.519574E-3],"split_indices":[2,18,19,14,7,22,19,0,0,0,0,0,0,0,0],"split_type":[0,0,0,0,0,0,0,0,0,0,0,0,0,0,0],"sum_hessian":[4.702458E1,2.7336988E1,1.9687588E1,1.7751513E1,9.585477E0,4.3014565E0,1.5386132E1,3.8273208E0,1.3924191E1,3.7090251E0,5.8764515E0,3.2302456E0,1.0712109E0,1.09562025E1,4.4299293E0],"tree_param":{"num_deleted":"0","num_feature":"26","num_nodes":"15","size_leaf_vector":"1"}},{"base_weights":[1.6653508E-2,-2.3819615E-1,2.901089E-1,5.6835115E-1,-4.649089E-1,-6.1030453E-1,5.2023166E-1,5.1308572E-2,-1.2324856E-2,-4.789258E-2,1.3963137E-3,-4.631315E-2,9.670171E-3,2.1899398E-3,4.6849336E-2],"categories":[],"categories_nodes":[],"categories_segments":[],"categories_sizes":[],"default_left":[0,1,0,0,0,0,0,0,0,0,0,0,0,0,0],"id":36,"left_children":[1,3,5,7,9,11,13,-1,-1,-1,-1,-1,-1,-1,-1],"loss_changes":[3.463584E0,5.0061274E0,5.480959E0,2.7877274E0,5.2757487E0,1.7986128E0,3.7715364E0,0E0,0E0,0E0,0E0,0E0,0E0,0E0,0E0],"parents":[2147483647,0,0,1,1,2,2,3,3,4,4,5,5,6,6],"right_children":[2,4,6,8,10,12,14,-1,-1,-1,-1,-1,-1,-1,-1],"split_conditions":[3.4422386E0,9.198059E-1,1.3227477E2,3.100775E-1,1.8741812E2,8.404762E1,2.4589034E-2,5.1308572E-2,-1.2324856E-2,-4.789258E-2,1.3963137E-3,-4.631315E-2,9.670171E-3,2.1899398E-3,4.6849336E-2],"split_indices":[15,14,18,3,18,0,7,0,0,0,0,0,0,0,0],"split_type":[0,0,0,0,0,0,0,0,0,0,0,0,0,0,0],"sum_hessian":[4.656352E1,2.3823233E1,2.2740286E1,4.5376506E0,1.9285582E1,3.9474936E0,1.8792791E1,2.813389E0,1.7242615E0,9.137035E0,1.0148546E1,2.8479905E0,1.099503E0,9.765943E0,9.02685E0],"tree_param":{"num_deleted":"0","num_feature":"26","num_nodes":"15","size_leaf_vector":"1"}},{"base_weights":[4.606186E-2,-5.4187484E-2,6.8547267E-1,-2.3408785E-1,2.8248516E-1,4.7542278E-2,-1.0554659E-2,-4.9971018E-2,-3.8453036E-3,-1.3599418E-2,2.782749E-2],"categories":[],"categories_nodes":[],"categories_segments":[],"categories_sizes":[],"default_left":[0,0,0,0,0,0,0,0,0,0,0],"id":37,"left_children":[1,3,5,7,9,-1,-1,-1,-1,-1,-1],"loss_changes":[3.370005E0,2.7613752E0,2.143301E0,3.2733147E0,2.663014E0,0E0,0E0,0E0,0E0,0E0,0E0],"parents":[2147483647,0,0,1,1,2,2,3,3,4,4],"right_children":[2,4,6,8,10,-1,-1,-1,-1,-1,-1],"split_conditions":[7.2485657E0,1.7701999E2,1.1676275E0,1.5647688E9,8.8009995E1,4.7542278E-2,-1.0554659E-2,-4.9971018E-2,-3.8453036E-3,-1.3599418E-2,2.782749E-2],"split_indices":[15,25,1,21,22,0,0,0,0,0,0],"split_type":[0,0,0,0,0,0,0,0,0,0,0],"sum_hessian":[4.8234886E1,4.261382E1,5.621069E0,2.8458288E1,1.415553E1,4.439338E0,1.1817309E0,3.2625694E0,2.5195719E1,4.4447494E0,9.71078E0],"tree_param":{"num_deleted":"0","num_feature":"26","num_nodes":"11","size_leaf_vector":"1"}},{"base_weights":[-3.187721E-2,5.3549254E-1,-1.4502002E-1,-1.8321568E-1,4.2748664E-2,-2.737186E-1,4.2635208E-1,-2.7458731E-2,9.893508E-3,-2.3637429E-2,1.1414601E-2,-3.781363E-2,4.2771686E-2],"categories":[],"categories_nodes":[],"categories_segments":[],"categories_sizes":[],"default_left":[0,0,0,0,0,0,0,0,0,0,0,0,0],"id":38,"left_children":[1,3,5,7,-1,9,11,-1,-1,-1,-1,-1,-1],"loss_changes":[3.409882E0,2.3802445E0,3.4729002E0,7.545242E-1,0E0,4.0216317E0,5.3652697E0,0E0,0E0,0E0,0E0,0E0,0E0],"parents":[2147483647,0,0,1,1,2,2,3,3,5,5,6,6],"right_children":[2,4,6,8,-1,10,12,-1,-1,-1,-1,-1,-1],"split_conditions":[1.25076E-2,4.9976013E-3,1.1694866E0,1.0225924E0,4.2748664E-2,1.951168E2,1.254666E2,-2.7458731E-2,9.893508E-3,-2.3637429E-2,1.1414601E-2,-3.781363E-2,4.2771686E-2],"split_indices":[3,3,14,1,0,18,18,0,0,0,0,0,0],"split_type":[0,0,0,0,0,0,0,0,0,0,0,0,0],"sum_hessian":[5.1020493E1,7.257879E0,4.3762615E1,2.2376943E0,5.020184E0,3.6640896E1,7.121718E0,1.0717169E0,1.1659775E0,2.658621E1,1.0054687E1,1.4673961E0,5.6543217E0],"tree_param":{"num_deleted":"0","num_feature":"26","num_nodes":"13","size_leaf_vector":"1"}},{"base_weights":[-5.4164834E-2,-7.5600463E-1,4.7457997E-2,1.3704476E-4,-4.662384E-2,5.927147E-1,-1.0573015E-1,-1.645694E-2,4.107706E-2,-3.0658117E-2,7.462233E-3],"categories":[],"categories_nodes":[],"categories_segments":[],"categories_sizes":[],"default_left":[0,0,0,0,0,0,0,0,0,0,0],"id":39,"left_children":[1,3,5,-1,-1,7,9,-1,-1,-1,-1],"loss_changes":[3.7482646E0,1.0785656E0,3.922894E0,0E0,0E0,2.6792767E0,4.8700266E0,0E0,0E0,0E0,0E0],"parents":[2147483647,0,0,1,1,2,2,5,5,6,6],"right_children":[2,4,6,-1,-1,8,10,-1,-1,-1,-1],"split_conditions":[-2.3021603E0,2.6848927E-2,1.9398424E-1,1.3704476E-4,-4.662384E-2,-1.787101E0,3.5609686E0,-1.645694E-2,4.107706E-2,-3.0658117E-2,7.462233E-3],"split_indices":[15,2,15,0,0,16,15,0,0,0,0],"split_type":[0,0,0,0,0,0,0,0,0,0,0],"sum_hessian":[4.831199E1,5.137798E0,4.317419E1,1.0342783E0,4.1035194E0,8.811697E0,3.436249E1,1.4477358E0,7.363961E0,1.1049595E1,2.3312899E1],"tree_param":{"num_deleted":"0","num_feature":"26","num_nodes":"11","size_leaf_vector":"1"}},{"base_weights":[-3.1859398E-2,-1.8464376E-1,3.0218652E-1,5.3605452E-2,-5.20441E-1,-3.2756783E-2,5.247373E-1,-1.895607E-2,2.6042659E-2,5.7291472E-3,-5.3414125E-2,-3.6491274E-3,4.2159792E-2],"categories":[],"categories_nodes":[],"categories_segments":[],"categories_sizes":[],"default_left":[0,0,0,0,0,0,0,0,0,0,0,0,0],"id":40,"left_children":[1,3,5,7,9,-1,11,-1,-1,-1,-1,-1,-1],"loss_changes":[2.6294265E0,3.0060546E0,3.8892176E0,4.773224E0,5.72548E0,0E0,2.901598E0,0E0,0E0,0E0,0E0,0E0,0E0],"parents":[2147483647,0,0,1,1,2,2,3,3,4,4,6,6],"right_children":[2,4,6,8,10,-1,12,-1,-1,-1,-1,-1,-1],"split_conditions":[1.080853E0,2.8303927E-2,1.254666E2,2.3644453E-2,9.120887E-1,-3.2756783E-2,-4.2481773E-2,-1.895607E-2,2.6042659E-2,5.7291472E-3,-5.3414125E-2,-3.6491274E-3,4.2159792E-2],"split_indices":[14,9,18,9,15,0,7,0,0,0,0,0,0],"split_type":[0,0,0,0,0,0,0,0,0,0,0,0,0],"sum_hessian":[4.8840733E1,3.4383953E1,1.4456778E1,2.050239E1,1.3881563E1,2.007411E0,1.2449367E1,1.0569059E1,9.9333315E0,6.8095527E0,7.072011E0,4.510934E0,7.938432E0],"tree_param":{"num_deleted":"0","num_feature":"26","num_nodes":"13","size_leaf_vector":"1"}},{"base_weights":[4.5780662E-2,-3.63512E-2,1.4052157E-1,-2.814355E-1,3.2927385E-1,6.1959135E-3,-2.6874319E-2,4.8371572E-2,4.5017297E-3],"categories":[],"categories_nodes":[],"categories_segments":[],"categories_sizes":[],"default_left":[0,0,0,0,0,0,0,0,0],"id":41,"left_children":[1,-1,3,5,7,-1,-1,-1,-1],"loss_changes":[3.5849643E0,0E0,3.7061052E0,1.6654408E0,4.525141E0,0E0,0E0,0E0,0E0],"parents":[2147483647,0,0,2,2,3,3,4,4],"right_children":[2,-1,4,6,8,-1,-1,-1,-1],"split_conditions":[-1.787101E0,-3.63512E-2,1.0559556E-1,-1.063707E0,5.5759293E1,6.1959135E-3,-2.6874319E-2,4.8371572E-2,4.5017297E-3],"split_indices":[16,0,2,15,0,0,0,0,0],"split_type":[0,0,0,0,0,0,0,0,0],"sum_hessian":[4.6973164E1,3.805974E0,4.3167187E1,1.2786573E1,3.0380615E1,4.9473686E0,7.839205E0,6.8109965E0,2.3569618E1],"tree_param":{"num_deleted":"0","num_feature":"26","num_nodes":"9","size_leaf_vector":"1"}},{"base_weights":[-2.3666069E-2,8.75452E-2,-5.8237195E-1,-3.84265E-2,1.7842717E-1,-7.0241624E-1,1.3002339E-3,-5.1602395E-3,2.4996758E-2,-1.9312169E-3,-4.3700088E-2],"categories":[],"categories_nodes":[],"categories_segments":[],"categories_sizes":[],"default_left":[0,0,0,0,0,0,0,0,0,0,0],"id":42,"left_children":[1,3,5,-1,7,9,-1,-1,-1,-1,-1],"loss_changes":[3.3467872E0,3.4776888E0,8.1760526E-1,0E0,3.8528018E0,6.5726876E-1,0E0,0E0,0E0,0E0,0E0],"parents":[2147483647,0,0,1,1,2,2,4,4,5,5],"right_children":[2,4,6,-1,8,10,-1,-1,-1,-1,-1],"split_conditions":[1.3500649E0,-2.1677778E0,1.8391E2,-3.84265E-2,1.6089001E2,1.735957E-1,1.3002339E-3,-5.1602395E-3,2.4996758E-2,-1.9312169E-3,-4.3700088E-2],"split_indices":[1,16,24,0,25,20,0,0,0,0,0],"split_type":[0,0,0,0,0,0,0,0,0,0,0],"sum_hessian":[4.9540108E1,4.2072502E1,7.467606E0,2.7531972E0,3.9319305E1,6.317855E0,1.1497517E0,2.117075E1,1.8148556E1,1.9145441E0,4.403311E0],"tree_param":{"num_deleted":"0","num_feature":"26","num_nodes":"11","size_leaf_vector":"1"}},{"base_weights":[1.1943518E-2,-6.555257E-1,9.765189E-2,-4.8365097E-2,9.935777E-3,6.803676E-1,-3.658221E-2,-1.4560772E-3,4.803839E-2,-2.8876826E-2,7.439682E-3],"categories":[],"categories_nodes":[],"categories_segments":[],"categories_sizes":[],"default_left":[0,0,0,0,0,0,1,0,0,0,0],"id":43,"left_children":[1,3,5,-1,-1,7,9,-1,-1,-1,-1],"loss_changes":[2.704751E0,1.8642788E0,3.5852036E0,0E0,0E0,1.9271612E0,3.8920896E0,0E0,0E0,0E0,0E0],"parents":[2147483647,0,0,1,1,2,2,5,5,6,6],"right_children":[2,4,6,-1,-1,8,10,-1,-1,-1,-1],"split_conditions":[7.2677986E1,1.2833025E2,8.109104E1,-4.8365097E-2,9.935777E-3,8.8009995E1,1.011789E0,-1.4560772E-3,4.803839E-2,-2.8876826E-2,7.439682E-3],"split_indices":[19,18,19,0,0,22,14,0,0,0,0],"split_type":[0,0,0,0,0,0,0,0,0,0,0],"sum_hessian":[4.605139E1,3.8400824E0,4.221131E1,2.839379E0,1.0007032E0,7.0395403E0,3.517177E1,2.1727748E0,4.8667655E0,8.442105E0,2.6729664E1],"tree_param":{"num_deleted":"0","num_feature":"26","num_nodes":"11","size_leaf_vector":"1"}},{"base_weights":[-2.413893E-4,-3.950734E-2,8.0924205E-2,2.0425493E-1,-4.1684398E-1,-3.0282896E-3,2.5098538E-2,5.6804772E-3,-2.763156E-2],"categories":[],"categories_nodes":[],"categories_segments":[],"categories_sizes":[],"default_left":[0,0,0,0,0,0,0,0,0],"id":44,"left_children":[1,-1,3,5,7,-1,-1,-1,-1],"loss_changes":[3.5256088E0,0E0,3.0094922E0,3.2484818E0,8.7562E-1,0E0,0E0,0E0,0E0],"parents":[2147483647,0,0,2,2,3,3,4,4],"right_children":[2,-1,4,6,8,-1,-1,-1,-1],"split_conditions":[-2.6611571E0,-3.950734E-2,1.3500649E0,1.6089001E2,2.2640014E-2,-3.0282896E-3,2.5098538E-2,5.6804772E-3,-2.763156E-2],"split_indices":[15,0,1,25,3,0,0,0,0],"split_type":[0,0,0,0,0,0,0,0,0],"sum_hessian":[4.978202E1,3.647367E0,4.6134655E1,3.8004627E1,8.130026E0,2.0390327E1,1.76143E1,1.406729E0,6.7232966E0],"tree_param":{"num_deleted":"0","num_feature":"26","num_nodes":"9","size_leaf_vector":"1"}},{"base_weights":[-2.8562732E-2,-2.1788017E-1,2.6619336E-1,1.07700504E-1,-8.3897907E-1,7.0204955E-1,-1.8813074E-2,3.6241237E-2,-8.667862E-3,1.2895988E-2,-5.043543E-2,4.3976996E-2,-0E0,1.1135669E-2,-3.8384765E-2],"categories":[],"categories_nodes":[],"categories_segments":[],"categories_sizes":[],"default_left":[0,0,0,0,0,0,0,0,0,0,0,0,0,0,0],"id":45,"left_children":[1,3,5,7,9,11,13,-1,-1,-1,-1,-1,-1,-1,-1],"loss_changes":[2.853225E0,6.657335E0,2.605722E0,4.0804644E0,2.6302357E0,1.1264105E0,2.7357955E0,0E0,0E0,0E0,0E0,0E0,0E0,0E0,0E0],"parents":[2147483647,0,0,1,1,2,2,3,3,4,4,5,5,6,6],"right_children":[2,4,6,8,10,12,14,-1,-1,-1,-1,-1,-1,-1,-1],"split_conditions":[1.695238E2,1.2662542E2,1.6584E2,2.4471564E-2,2.669687E1,1.8002005E2,1.22307315E-1,3.6241237E-2,-8.667862E-3,1.2895988E-2,-5.043543E-2,4.3976996E-2,-0E0,1.1135669E-2,-3.8384765E-2],"split_indices":[22,19,25,3,0,22,3,0,0,0,0,0,0,0,0],"split_type":[0,0,0,0,0,0,0,0,0,0,0,0,0,0,0],"sum_hessian":[4.8244938E1,3.002809E1,1.821685E1,2.030308E1,9.72501E0,6.612015E0,1.1604835E1,5.834772E0,1.44683075E1,1.0408227E0,8.684187E0,5.1244464E0,1.4875687E0,9.369776E0,2.2350585E0],"tree_param":{"num_deleted":"0","num_feature":"26","num_nodes":"15","size_leaf_vector":"1"}},{"base_weights":[3.5835817E-3,-1.7217536E-1,3.276737E-1,6.034673E-2,-7.902218E-1,6.279727E-1,-1.0117853E-1,3.178041E-2,-8.93854E-3,-4.87874E-2,2.981042E-3,-2.143525E-2,4.3276772E-2,-3.7947353E-2,1.17480485E-2],"categories":[],"categories_nodes":[],"categories_segments":[],"categories_sizes":[],"default_left":[0,0,0,0,0,0,0,0,0,0,0,0,0,0,0],"id":46,"left_children":[1,3,5,7,9,11,13,-1,-1,-1,-1,-1,-1,-1,-1],"loss_changes":[2.8583827E0,4.7877426E0,2.4990954E0,3.5998032E0,1.6950712E0,3.4000587E0,2.2224367E0,0E0,0E0,0E0,0E0,0E0,0E0,0E0,0E0],"parents":[2147483647,0,0,1,1,2,2,3,3,4,4,5,5,6,6],"right_children":[2,4,6,8,10,12,14,-1,-1,-1,-1,-1,-1,-1,-1],"split_conditions":[1.6901749E2,1.46535E2,1.6751517E2,2.4471564E-2,1.080853E0,2.2077527E-2,-4.8345443E-2,3.178041E-2,-8.93854E-3,-4.87874E-2,2.981042E-3,-2.143525E-2,4.3276772E-2,-3.7947353E-2,1.17480485E-2],"split_indices":[22,22,19,3,14,9,7,0,0,0,0,0,0,0,0],"split_type":[0,0,0,0,0,0,0,0,0,0,0,0,0,0,0],"sum_hessian":[4.664911E1,3.0301922E1,1.6347187E1,2.276659E1,7.5353327E0,9.479304E0,6.8678823E0,6.2000055E0,1.6566584E1,6.1958494E0,1.3394834E0,1.363901E0,8.115404E0,1.8858438E0,4.9820385E0],"tree_param":{"num_deleted":"0","num_feature":"26","num_nodes":"15","size_leaf_vector":"1"}},{"base_weights":[-5.282168E-2,8.591847E-2,-7.179375E-1,-7.168089E-2,5.178616E-1,-0E0,-8.993424E-1,-2.2096217E-2,1.7662684E-2,4.746545E-2,-0E0,-5.2489664E-2,-1.6287983E-3],"categories":[],"categories_nodes":[],"categories_segments":[],"categories_sizes":[],"default_left":[0,0,0,0,0,0,0,0,0,0,0,0,0],"id":47,"left_children":[1,3,5,7,9,-1,11,-1,-1,-1,-1,-1,-1],"loss_changes":[4.3073792E0,2.7146873E0,1.149787E0,4.7572794E0,2.5160778E0,0E0,5.870905E-1,0E0,0E0,0E0,0E0,0E0,0E0],"parents":[2147483647,0,0,1,1,2,2,3,3,4,4,6,6],"right_children":[2,4,6,8,10,-1,12,-1,-1,-1,-1,-1,-1],"split_conditions":[1.3500649E0,1.599871E2,3.602412E1,6.2147575E1,1.0347341E0,-0E0,2.3845322E-1,-2.2096217E-2,1.7662684E-2,4.746545E-2,-0E0,-5.2489664E-2,-1.6287983E-3],"split_indices":[1,19,0,0,14,0,2,0,0,0,0,0,0],"split_type":[0,0,0,0,0,0,0,0,0,0,0,0,0],"sum_hessian":[4.280566E1,3.6249676E1,6.555985E0,2.7136623E1,9.113054E0,1.5005858E0,5.0553994E0,1.4720986E1,1.2415637E1,4.4502525E0,4.6628017E0,3.8411756E0,1.2142236E0],"tree_param":{"num_deleted":"0","num_feature":"26","num_nodes":"13","size_leaf_vector":"1"}},{"base_weights":[1.2807719E-2,4.541036E-1,-1.3891935E-1,-3.2485846E-2,7.15856E-1,-3.1065732E-1,3.0922732E-1,-1.5550395E-2,4.939913E-2,-2.4491942E-2,1.1339516E-2,3.7442002E-2,-3.5723795E-3],"categories":[],"categories_nodes":[],"categories_segments":[],"categories_sizes":[],"default_left":[0,0,0,0,0,0,0,0,0,0,0,0,0],"id":48,"left_children":[1,3,5,-1,7,9,11,-1,-1,-1,-1,-1,-1],"loss_changes":[3.3000655E0,4.3792133E0,2.8947315E0,0E0,3.7044377E0,2.8103154E0,1.9443837E0,0E0,0E0,0E0,0E0,0E0,0E0],"parents":[2147483647,0,0,1,1,2,2,4,4,5,5,6,6],"right_children":[2,4,6,-1,8,10,12,-1,-1,-1,-1,-1,-1],"split_conditions":[2.4471564E-2,1.5086496E-1,1.6301236E2,-3.2485846E-2,7.2677986E1,1.1694866E0,1.0308563E0,-1.5550395E-2,4.939913E-2,-2.4491942E-2,1.1339516E-2,3.7442002E-2,-3.5723795E-3],"split_indices":[3,2,19,0,19,14,14,0,0,0,0,0,0],"split_type":[0,0,0,0,0,0,0,0,0,0,0,0,0],"sum_hessian":[4.5431988E1,1.1196359E1,3.4235626E1,1.5734987E0,9.62286E0,2.5406044E1,8.829584E0,1.8170369E0,7.805823E0,1.9432411E1,5.9736333E0,3.6681685E0,5.161415E0],"tree_param":{"num_deleted":"0","num_feature":"26","num_nodes":"13","size_leaf_vector":"1"}},{"base_weights":[-2.039016E-3,-2.5891256E-1,2.751407E-1,2.8987387E-2,-3.833696E-1,3.8948256E-1,-3.2502558E-2,-0E0,-3.901368E-2,-0E0,3.7642386E-2],"categories":[],"categories_nodes":[],"categories_segments":[],"categories_sizes":[],"default_left":[0,0,0,0,0,0,0,0,0,0,0],"id":49,"left_children":[1,3,5,-1,7,9,-1,-1,-1,-1,-1],"loss_changes":[3.6821184E0,3.136584E0,2.9223413E0,0E0,3.8496332E0,3.2182271E0,0E0,0E0,0E0,0E0,0E0],"parents":[2147483647,0,0,1,1,2,2,4,4,5,5],"right_children":[2,4,6,-1,8,10,-1,-1,-1,-1,-1],"split_conditions":[3.5609686E0,9.198059E-1,2.532689E0,2.8987387E-2,4.6526184E1,2.8219244E-2,-3.2502558E-2,-0E0,-3.901368E-2,-0E0,3.7642386E-2],"split_indices":[15,14,17,0,0,7,0,0,0,0,0],"split_type":[0,0,0,0,0,0,0,0,0,0,0],"sum_hessian":[4.8759842E1,2.5732714E1,2.302713E1,2.4085133E0,2.3324202E1,2.1459696E1,1.5674343E0,1.2508544E1,1.0815657E1,1.1136518E1,1.0323177E1],"tree_param":{"num_deleted":"0","num_feature":"26","num_nodes":"11","size_leaf_vector":"1"}}]},"name":"gbtree"},"learner_model_param":{"base_score":"[4.3944636E-1]","boost_from_average":"1","num_class":"0","num_feature":"26","num_target":"1"},"objective":{"name":"binary:logistic","reg_loss_param":{"scale_pos_weight":"1"}}},"version":[3,3,0]}