{"learner":{"attributes":{"scikit_learn":"{\"_estimator_type\": \"classifier\"}"},"feature_names":["rsi","volume_ratio","close_to_support","close_to_resistance","sentiment_1d","sentiment_3d","sentiment_5d","price_momentum_5d","price_momentum_10d","volatility_20d","pe_ratio","debt_to_equity","eps_growth","operating_margin"],"feature_types":["float","float","float","float","float","float","float","float","float","float","float","float","float","float"],"gradient_booster":{"model":{"cats":{"enc":[],"feature_segments":[],"sorted_idx":[]},"gbtree_model_param":{"num_parallel_tree":"1","num_trees":"50"},"iteration_indptr":[0,1,2,3,4,5,6,7,8,9,10,11,12,13,14,15,16,17,18,19,20,21,22,23,24,25,26,27,28,29,30,31,32,33,34,35,36,37,38,39,40,41,42,43,44,45,46,47,48,49,50],"tree_info":[0,0,0,0,0,0,0,0,0,0,0,0,0,0,0,0,0,0,0,0,0,0,0,0,0,0,0,0,0,0,0,0,0,0,0,0,0,0,0,0,0,0,0,0,0,0,0,0,0,0],"trees":[{"base_weights":[2.968896E-2,5.784994E-1,-5.423851E-1,-1.23989895E-1,8.117044E-1,-9.5182824E-1,2.6677063E-1,-5.9741026E-1,3.9534634E-1,1.0227821E0,-4.485711E-2,3.216945E-2,-1.1300983E0,-5.3512264E-2,6.49997E-1,-0E0,-3.8072582E-2,2.7737154E-2,-0E0,5.504906E-2,-0E0,3.615779E-2,-3.1182174E-2,-6.426134E-2,-1.4577567E-2,5.1058915E-2,-3.4885805E-2],"categories":[],"categories_nodes":[],"categories_segments":[],"categories_sizes":[],"default_left":[0,0,0,0,0,0,0,0,0,0,0,0,0,0,0,0,0,0,0,0,0,0,0,0,0,0,0],"id":0,"left_children":[1,3,5,7,9,11,13,15,17,19,21,-1,23,-1,25,-1,-1,-1,-1,-1,-1,-1,-1,-1,-1,-1,-1],"loss_changes":[1.7309769E1,4.91922E0,9.411779E0,2.3941505E0,4.1758566E0,6.397194E0,6.0972424E0,4.3967748E-1,3.2902455E-1,1.488514E0,3.113333E0,0E0,1.3513451E0,0E0,5.5571012E0,0E0,0E0,0E0,0E0,0E0,0E0,0E0,0E0,0E0,0E0,0E0,0E0],"parents":[2147483647,0,0,1,1,2,2,3,3,4,4,5,5,6,6,7,7,8,8,9,9,10,10,12,12,14,14],"right_children":[2,4,6,8,10,12,14,16,18,20,22,-1,24,-1,26,-1,-1,-1,-1,-1,-1,-1,-1,-1,-1,-1,-1],"split_conditions":[3.0033221E-2,6.3287115E-1,5.817483E1,5.8666946E1,1.5029405E0,-1.3897376E-1,3.0824658E-2,4.4577806E-3,7.113085E1,7.500707E1,5.5546047E1,3.216945E-2,1.4411937E0,-5.3512264E-2,2.1373154E-1,-0E0,-3.8072582E-2,2.7737154E-2,-0E0,5.504906E-2,-0E0,3.615779E-2,-3.1182174E-2,-6.426134E-2,-1.4577567E-2,5.1058915E-2,-3.4885805E-2],"split_indices":[9,1,0,0,1,8,9,8,0,0,0,0,1,0,8,0,0,0,0,0,0,0,0,0,0,0,0],"split_type":[0,0,0,0,0,0,0,0,0,0,0,0,0,0,0,0,0,0,0,0,0,0,0,0,0,0,0],"sum_hessian":[5.2111546E1,2.6766384E1,2.5345161E1,6.6323786E0,2.0134007E1,1.6817818E1,8.527344E0,3.5530598E0,3.0793185E0,1.6107204E1,4.026801E0,1.1843534E0,1.5633464E1,1.1843534E0,7.3429904E0,1.1843534E0,2.3687067E0,1.8949653E0,1.1843534E0,1.4922852E1,1.1843534E0,1.421224E0,2.6055772E0,1.2317274E1,3.3161893E0,6.158637E0,1.1843534E0],"tree_param":{"num_deleted":"0","num_feature":"14","num_nodes":"27","size_leaf_vector":"1"}},{"base_weights":[-3.2838427E-2,2.2643556E-1,-5.981231E-1,9.9187523E-1,3.6473736E-2,3.3857536E-2,-8.691029E-1,1.8050497E-3,5.8814246E-2,-6.7559785E-1,1.7237113E-1,-6.631195E-2,-2.4670283E-1,-6.869505E-2,1.3174134E-2,1.5779516E-2,-2.098415E-2,2.271135E-2,-4.246431E-2],"categories":[],"categories_nodes":[],"categories_segments":[],"categories_sizes":[],"default_left":[0,0,0,0,0,0,0,0,0,0,0,0,0,0,0,0,0,0,0],"id":1,"left_children":[1,3,5,7,9,-1,11,-1,-1,13,15,-1,17,-1,-1,-1,-1,-1,-1],"loss_changes":[8.335102E0,5.3432903E0,7.1212287E0,9.9729204E-1,3.2325745E0,0E0,3.6284485E0,0E0,0E0,4.2406464E0,2.6233048E0,0E0,4.3014154E0,0E0,0E0,0E0,0E0,0E0,0E0],"parents":[2147483647,0,0,1,1,2,2,3,3,4,4,6,6,9,9,10,10,12,12],"right_children":[2,4,6,8,10,-1,12,-1,-1,14,16,-1,18,-1,-1,-1,-1,-1,-1],"split_conditions":[9.120143E-2,7.4498735E-2,-1.2190636E-1,-1.8815242E-2,5.547325E1,3.3857536E-2,8.8615626E-1,1.8050497E-3,5.8814246E-2,5.9712358E-2,2.9049635E-1,-6.631195E-2,3.796462E1,-6.869505E-2,1.3174134E-2,1.5779516E-2,-2.098415E-2,2.271135E-2,-4.246431E-2],"split_indices":[3,2,8,8,0,0,1,0,0,3,2,0,0,0,0,0,0,0,0],"split_type":[0,0,0,0,0,0,0,0,0,0,0,0,0,0,0,0,0,0,0],"sum_hessian":[5.3476883E1,3.7035492E1,1.6441391E1,5.895385E0,3.1140106E1,2.3579757E0,1.4083416E1,1.4190096E0,4.476375E0,3.8000314E0,2.7340075E1,6.95647E0,7.1269455E0,1.903222E0,1.8968095E0,2.2850687E1,4.4893885E0,3.311906E0,3.8150396E0],"tree_param":{"num_deleted":"0","num_feature":"14","num_nodes":"19","size_leaf_vector":"1"}},{"base_weights":[-7.938709E-2,4.8890033E-1,-5.5713207E-1,9.650247E-1,-0E0,-8.726889E-1,2.9504927E-2,6.9595436E-3,5.220011E-2,3.25948E-1,-6.909228E-1,-5.3313166E-2,2.7262354E-2,7.3588586E-1,-5.6206405E-1,-1.740195E-2,2.4267513E-2,7.4568874E-4,-5.016854E-2,-0E0,4.6229254E-2,-6.3125774E-2,-0E0],"categories":[],"categories_nodes":[],"categories_segments":[],"categories_sizes":[],"default_left":[0,0,0,0,0,0,0,0,0,0,0,0,0,0,0,0,0,0,0,0,0,0,0],"id":2,"left_children":[1,3,5,7,9,11,13,-1,-1,15,17,-1,-1,19,21,-1,-1,-1,-1,-1,-1,-1,-1],"loss_changes":[1.5863087E1,6.359825E0,6.092189E0,4.3580437E-1,3.6527333E0,6.724307E0,5.81526E0,0E0,0E0,1.4249387E0,1.3849459E0,0E0,0E0,1.0152385E0,2.721218E0,0E0,0E0,0E0,0E0,0E0,0E0,0E0,0E0],"parents":[2147483647,0,0,1,1,2,2,3,3,4,4,5,5,6,6,9,9,10,10,13,13,14,14],"right_children":[2,4,6,8,10,12,14,-1,-1,16,18,-1,-1,20,22,-1,-1,-1,-1,-1,-1,-1,-1],"split_conditions":[2.872131E-2,1.8946804E-2,1.6843784E-1,1.6593734E-2,2.4032453E-2,1.847975E-1,2.7498636E-1,6.9595436E-3,5.220011E-2,1.631972E-2,8.824488E-2,-5.3313166E-2,2.7262354E-2,1.9178104E-2,3.16938E-2,-1.740195E-2,2.4267513E-2,7.4568874E-4,-5.016854E-2,-0E0,4.6229254E-2,-6.3125774E-2,-0E0],"split_indices":[9,7,2,9,3,3,2,0,0,9,2,0,0,3,9,0,0,0,0,0,0,0,0],"split_type":[0,0,0,0,0,0,0,0,0,0,0,0,0,0,0,0,0,0,0,0,0,0,0],"sum_hessian":[5.5373177E1,2.50829E1,3.0290277E1,1.2152031E1,1.2930868E1,1.9441854E1,1.0848424E1,1.6434237E0,1.0508607E1,9.14918E0,3.7816873E0,1.7557947E1,1.8839072E0,4.9317126E0,5.9167113E0,1.1704553E0,7.9787254E0,1.4022422E0,2.379445E0,1.1697937E0,3.7619188E0,1.6771953E0,4.2395163E0],"tree_param":{"num_deleted":"0","num_feature":"14","num_nodes":"23","size_leaf_vector":"1"}},{"base_weights":[-0E0,5.510888E-1,-4.6364766E-1,-2.2583194E-1,8.576134E-1,-8.0150497E-1,1.8233892E-1,2.9181426E-2,-8.393405E-1,9.870207E-1,1.9889909E-1,3.1042982E-2,-9.349511E-1,-4.355755E-2,5.5452543E-1,-5.822524E-2,6.844185E-4,-0E0,5.3565074E-2,3.7750203E-2,-1.3969173E-2,-2.6218569E-2,-6.075107E-2,4.3644156E-2,-1.2586727E-2],"categories":[],"categories_nodes":[],"categories_segments":[],"categories_sizes":[],"default_left":[0,0,0,0,0,0,0,0,0,0,0,0,0,0,0,0,0,0,0,0,0,0,0,0,0],"id":3,"left_children":[1,3,5,7,9,11,13,-1,15,17,19,-1,21,-1,23,-1,-1,-1,-1,-1,-1,-1,-1,-1,-1],"loss_changes":[1.5442763E1,6.9819117E0,7.5215874E0,5.1571126E0,1.1958103E0,5.1240273E0,5.4894304E0,0E0,1.8525352E0,1.481534E0,1.8637098E0,0E0,1.1010094E0,0E0,3.0606513E0,0E0,0E0,0E0,0E0,0E0,0E0,0E0,0E0,0E0,0E0],"parents":[2147483647,0,0,1,1,2,2,3,3,4,4,5,5,6,6,8,8,9,9,10,10,12,12,14,14],"right_children":[2,4,6,8,10,12,14,-1,16,18,20,-1,22,-1,24,-1,-1,-1,-1,-1,-1,-1,-1,-1,-1],"split_conditions":[2.872131E-2,6.0417503E-1,1.6843784E-1,9.9606745E-2,1.7087616E-1,-1.3897376E-1,3.0824658E-2,2.9181426E-2,1.5459238E-1,1.5846478E-2,1.937326E-2,3.1042982E-2,3.321341E-2,-4.355755E-2,1.819857E-1,-5.822524E-2,6.844185E-4,-0E0,5.3565074E-2,3.7750203E-2,-1.3969173E-2,-2.6218569E-2,-6.075107E-2,4.3644156E-2,-1.2586727E-2],"split_indices":[9,1,2,2,2,8,9,0,2,9,9,0,9,0,8,0,0,0,0,0,0,0,0,0,0],"split_type":[0,0,0,0,0,0,0,0,0,0,0,0,0,0,0,0,0,0,0,0,0,0,0,0,0],"sum_hessian":[5.7458527E1,2.6067375E1,3.139115E1,7.302012E0,1.8765364E1,2.0577436E1,1.0813714E1,3.0391855E0,4.2628264E0,1.4805525E1,3.959839E0,1.1665044E0,1.9410933E1,2.157763E0,8.655951E0,2.859548E0,1.4032781E0,1.1737515E0,1.3631773E1,1.6230277E0,2.3368113E0,9.908183E0,9.5027485E0,6.294595E0,2.3613563E0],"tree_param":{"num_deleted":"0","num_feature":"14","num_nodes":"25","size_leaf_vector":"1"}},{"base_weights":[2.098108E-2,5.8746916E-1,-4.0582308E-1,-3.218411E-2,8.2115936E-1,-5.440273E-1,3.598715E-2,-5.3413206E-1,4.3773586E-1,9.046047E-1,2.2857634E-3,-8.64182E-1,1.0731087E-1,1.8888625E-3,-5.388273E-2,4.06136E-2,-7.3655955E-3,9.637277E-3,4.803283E-2,-2.5657427E-3,-5.7192337E-2,3.4747925E-2,-2.4211463E-2],"categories":[],"categories_nodes":[],"categories_segments":[],"categories_sizes":[],"default_left":[0,0,0,0,0,0,0,0,0,0,0,0,0,0,0,0,0,0,0,0,0,0,0],"id":4,"left_children":[1,3,5,7,9,11,-1,13,15,17,-1,19,21,-1,-1,-1,-1,-1,-1,-1,-1,-1,-1],"loss_changes":[1.4009556E1,3.819296E0,5.654898E0,2.2708066E0,9.419508E-1,6.5938587E0,0E0,1.7542279E0,1.3600239E0,1.4386272E-1,0E0,4.3645287E0,4.4019995E0,0E0,0E0,0E0,0E0,0E0,0E0,0E0,0E0,0E0,0E0],"parents":[2147483647,0,0,1,1,2,2,3,3,4,4,5,5,7,7,8,8,9,9,11,11,12,12],"right_children":[2,4,6,8,10,12,-1,14,16,18,-1,20,22,-1,-1,-1,-1,-1,-1,-1,-1,-1,-1],"split_conditions":[2.5812369E-2,6.3287115E-1,1.8526284E-1,2.0414423E-2,1.5389066E0,1.7367597E-1,3.598715E-2,1.9044382E-2,1.1664124E-1,4.666498E1,2.2857634E-3,6.0885828E-2,2.7498636E-1,1.8888625E-3,-5.388273E-2,4.06136E-2,-7.3655955E-3,9.637277E-3,4.803283E-2,-2.5657427E-3,-5.7192337E-2,3.4747925E-2,-2.4211463E-2],"split_indices":[9,1,3,9,1,2,0,9,2,0,0,2,2,0,0,0,0,0,0,0,0,0,0],"split_type":[0,0,0,0,0,0,0,0,0,0,0,0,0,0,0,0,0,0,0,0,0,0,0],"sum_hessian":[5.4814186E1,2.3511637E1,3.1302551E1,6.5585537E0,1.6953083E1,2.8727844E1,2.5747068E0,3.277891E0,3.2806628E0,1.4847578E1,2.1055045E0,1.9137842E1,9.590002E0,2.0980442E0,1.1798468E0,1.8534162E0,1.4272467E0,1.8302011E0,1.3017377E1,5.536359E0,1.3601483E1,4.8488827E0,4.7411194E0],"tree_param":{"num_deleted":"0","num_feature":"14","num_nodes":"23","size_leaf_vector":"1"}},{"base_weights":[6.432196E-3,-3.9589822E-1,4.3507302E-1,-1.1444263E-1,-6.646467E-2,6.476889E-1,-2.7092284E-1,-2.675137E-1,4.256701E-2,7.39346E-3,8.6443603E-1,5.7688124E-2,-3.69668E-2,-4.9087282E-2,5.7820883E-3,2.7511945E-2,-1.5690638E-2,4.6588246E-2,-0E0,2.2688506E-2,-1.1699877E-2],"categories":[],"categories_nodes":[],"categories_segments":[],"categories_sizes":[],"default_left":[0,0,0,0,0,0,0,0,0,0,0,0,0,0,0,0,0,0,0,0,0],"id":5,"left_children":[1,3,5,7,-1,9,11,13,-1,15,17,19,-1,-1,-1,-1,-1,-1,-1,-1,-1],"loss_changes":[1.0082349E1,7.339583E0,4.6187153E0,3.8886304E0,0E0,2.9489985E0,1.3454522E0,6.559108E0,0E0,1.6062642E0,8.076639E-1,8.4012455E-1,0E0,0E0,0E0,0E0,0E0,0E0,0E0,0E0,0E0],"parents":[2147483647,0,0,1,1,2,2,3,3,5,5,6,6,7,7,9,9,10,10,11,11],"right_children":[2,4,6,8,-1,10,12,14,-1,16,18,20,-1,-1,-1,-1,-1,-1,-1,-1,-1],"split_conditions":[5.7690727E1,3.711915E-2,2.7498636E-1,1.8526284E-1,-6.646467E-2,1.0769832E-2,2.8654857E-2,-3.402033E-2,4.256701E-2,6.3043654E-2,7.595208E1,4.4257466E-2,-3.69668E-2,-4.9087282E-2,5.7820883E-3,2.7511945E-2,-1.5690638E-2,4.6588246E-2,-0E0,2.2688506E-2,-1.1699877E-2],"split_indices":[0,7,2,3,0,3,3,7,0,8,0,7,0,0,0,0,0,0,0,0,0],"split_type":[0,0,0,0,0,0,0,0,0,0,0,0,0,0,0,0,0,0,0,0,0],"sum_hessian":[5.5419968E1,2.8405764E1,2.7014202E1,2.3283155E1,5.1226087E0,2.1074598E1,5.939603E0,2.1212667E1,2.0704877E0,5.9554443E0,1.5119155E1,4.0127716E0,1.926831E0,6.7705026E0,1.4442165E1,2.0477672E0,3.907677E0,1.3734434E1,1.3847204E0,1.639131E0,2.3736405E0],"tree_param":{"num_deleted":"0","num_feature":"14","num_nodes":"21","size_leaf_vector":"1"}},{"base_weights":[-6.0682707E-2,4.2561048E-1,-4.9594492E-1,7.272169E-1,-6.949556E-1,-7.6661694E-1,3.6279444E-2,1.5049553E-1,8.8195544E-1,-1.0242455E0,1.2031316E-2,-8.973466E-1,1.0905711E-2,-5.0810706E-2,5.712951E-1,2.5262985E-2,-2.4460766E-2,5.570339E-2,1.23421615E-2,-6.365769E-2,-2.2116164E-4,-6.3885935E-2,-2.8183628E-2,4.574112E-2,-2.3522215E-2],"categories":[],"categories_nodes":[],"categories_segments":[],"categories_sizes":[],"default_left":[0,0,0,0,0,0,0,0,0,0,0,0,0,0,0,0,0,0,0,0,0,0,0,0,0],"id":6,"left_children":[1,3,5,7,9,11,13,15,17,19,-1,21,-1,-1,23,-1,-1,-1,-1,-1,-1,-1,-1,-1,-1],"loss_changes":[1.1779417E1,9.598076E0,4.4305634E0,1.5102139E0,2.427066E0,2.9834957E0,7.038973E0,1.8771565E0,1.7247381E0,1.0069656E0,0E0,8.343544E-1,0E0,0E0,3.7595463E0,0E0,0E0,0E0,0E0,0E0,0E0,0E0,0E0,0E0,0E0],"parents":[2147483647,0,0,1,1,2,2,3,3,4,4,5,5,6,6,7,7,8,8,9,9,11,11,14,14],"right_children":[2,4,6,8,10,12,14,16,18,20,-1,22,-1,-1,24,-1,-1,-1,-1,-1,-1,-1,-1,-1,-1],"split_conditions":[2.872131E-2,5.405032E-2,5.817483E1,6.0417503E-1,9.6267454E-2,1.8171263E-1,3.0824658E-2,6.970111E-2,2.1672124E-2,7.199546E1,1.2031316E-2,-4.350966E-2,1.0905711E-2,-5.0810706E-2,2.0580506E-1,2.5262985E-2,-2.4460766E-2,5.570339E-2,1.23421615E-2,-6.365769E-2,-2.2116164E-4,-6.3885935E-2,-2.8183628E-2,4.574112E-2,-2.3522215E-2],"split_indices":[9,7,0,1,8,3,9,3,7,0,0,7,0,0,8,0,0,0,0,0,0,0,0,0,0],"split_type":[0,0,0,0,0,0,0,0,0,0,0,0,0,0,0,0,0,0,0,0,0,0,0,0,0],"sum_hessian":[5.2588905E1,2.4637087E1,2.7951817E1,1.9967695E1,4.669391E0,1.8339912E1,9.611905E0,5.1234846E0,1.4844212E1,3.5067606E0,1.1626304E0,1.648732E1,1.8525916E0,2.658707E0,6.953198E0,3.699666E0,1.4238185E0,9.812116E0,5.032096E0,2.3616319E0,1.1451285E0,5.441279E0,1.10460415E1,5.510705E0,1.4424928E0],"tree_param":{"num_deleted":"0","num_feature":"14","num_nodes":"25","size_leaf_vector":"1"}},{"base_weights":[7.419123E-3,4.196328E-1,-3.918409E-1,8.1278706E-1,-1.06890716E-1,-1.0644008E0,-1.5750304E-1,-0E0,5.5788018E-2,2.3682982E-1,-7.606096E-1,-6.414027E-2,-0E0,2.7052295E-1,-5.036444E-1,-3.420086E-2,1.8730765E-2,-2.7733425E-2,2.4974564E-2,-5.9777487E-2,-0E0,3.886206E-2,-1.3431551E-2,-5.0508082E-2,-1.2597247E-3],"categories":[],"categories_nodes":[],"categories_segments":[],"categories_sizes":[],"default_left":[0,0,0,0,0,0,0,0,0,0,0,0,0,0,0,0,0,0,0,0,0,0,0,0,0],"id":7,"left_children":[1,3,5,7,9,11,13,15,-1,17,19,-1,-1,21,23,-1,-1,-1,-1,-1,-1,-1,-1,-1,-1],"loss_changes":[9.288394E0,6.064482E0,3.983264E0,4.128108E0,3.3120658E0,1.5702796E0,3.6670911E0,1.9169395E0,0E0,2.381699E0,1.6469662E0,0E0,0E0,3.427395E0,3.0337744E0,0E0,0E0,0E0,0E0,0E0,0E0,0E0,0E0,0E0,0E0],"parents":[2147483647,0,0,1,1,2,2,3,3,4,4,5,5,6,6,7,7,9,9,10,10,13,13,14,14],"right_children":[2,4,6,8,10,12,14,16,-1,18,20,-1,-1,22,24,-1,-1,-1,-1,-1,-1,-1,-1,-1,-1],"split_conditions":[2.872131E-2,2.2022216E-2,3.158102E-2,6.1007464E-1,2.3147194E-2,1.288975E-1,3.4047253E-2,-2.2199156E-2,5.5788018E-2,1.6717104E-2,8.512034E-1,-6.414027E-2,-0E0,6.6546043E-3,3.532321E-2,-3.420086E-2,1.8730765E-2,-2.7733425E-2,2.4974564E-2,-5.9777487E-2,-0E0,3.886206E-2,-1.3431551E-2,-5.0508082E-2,-1.2597247E-3],"split_indices":[9,7,9,1,3,8,9,7,0,9,1,0,0,8,9,0,0,0,0,0,0,0,0,0,0],"split_type":[0,0,0,0,0,0,0,0,0,0,0,0,0,0,0,0,0,0,0,0,0,0,0,0,0],"sum_hessian":[5.3404408E1,2.648476E1,2.6919647E1,1.4913324E1,1.1571435E1,5.3624554E0,2.1557192E1,4.3875613E0,1.05257635E1,8.01031E0,3.5611246E0,4.178872E0,1.1835833E0,9.526704E0,1.2030487E1,1.1872634E0,3.200298E0,1.3906709E0,6.6196394E0,1.7007545E0,1.86037E0,4.760839E0,4.7658653E0,4.831042E0,7.1994457E0],"tree_param":{"num_deleted":"0","num_feature":"14","num_nodes":"25","size_leaf_vector":"1"}},{"base_weights":[2.517189E-2,4.9429134E-1,-3.639811E-1,-1.18186876E-1,7.6014906E-1,-7.059096E-1,2.2611728E-1,-6.343511E-1,3.6990818E-1,9.872833E-1,-1.5279242E-1,3.397418E-2,-8.7647605E-1,8.345494E-1,-3.5417226E-1,4.112601E-3,-5.3211015E-2,4.211613E-2,-1.3520713E-2,-0E0,5.3903487E-2,-2.1820147E-2,1.1980341E-2,-7.08235E-2,-2.6663447E-2,3.7036666E-3,5.0874956E-2,-3.7701577E-2,3.1988323E-2],"categories":[],"categories_nodes":[],"categories_segments":[],"categories_sizes":[],"default_left":[0,0,0,0,0,0,0,0,0,0,0,0,0,0,0,0,0,0,0,0,0,0,0,0,0,0,0,0,0],"id":8,"left_children":[1,3,5,7,9,11,13,15,17,19,21,-1,23,25,27,-1,-1,-1,-1,-1,-1,-1,-1,-1,-1,-1,-1,-1,-1],"loss_changes":[1.0142468E1,4.3868017E0,6.4110394E0,2.6057353E0,4.144067E0,5.574437E0,4.765079E0,1.8671434E0,2.0406232E0,1.1929045E0,7.2230357E-1,0E0,1.8636246E0,5.670819E-1,3.5327637E0,0E0,0E0,0E0,0E0,0E0,0E0,0E0,0E0,0E0,0E0,0E0,0E0,0E0,0E0],"parents":[2147483647,0,0,1,1,2,2,3,3,4,4,5,5,6,6,7,7,8,8,9,9,10,10,12,12,13,13,14,14],"right_children":[2,4,6,8,10,12,14,16,18,20,22,-1,24,26,28,-1,-1,-1,-1,-1,-1,-1,-1,-1,-1,-1,-1,-1,-1],"split_conditions":[2.872131E-2,6.3287115E-1,1.8473238E-1,2.0414423E-2,5.405032E-2,-1.3897376E-1,2.7498636E-1,1.5587097E-2,4.379683E-2,1.5846478E-2,9.12907E-3,3.397418E-2,-6.4062476E-2,1.9178104E-2,3.501851E-2,4.112601E-3,-5.3211015E-2,4.211613E-2,-1.3520713E-2,-0E0,5.3903487E-2,-2.1820147E-2,1.1980341E-2,-7.08235E-2,-2.6663447E-2,3.7036666E-3,5.0874956E-2,-3.7701577E-2,3.1988323E-2],"split_indices":[9,1,2,9,7,8,2,7,3,9,3,0,8,3,9,0,0,0,0,0,0,0,0,0,0,0,0,0,0],"split_type":[0,0,0,0,0,0,0,0,0,0,0,0,0,0,0,0,0,0,0,0,0,0,0,0,0,0,0,0,0],"sum_hessian":[5.243612E1,2.3824562E1,2.8611557E1,7.235785E0,1.6588778E1,1.8143164E1,1.0468394E1,3.4974704E0,3.7383149E0,1.3361455E1,3.2273216E0,1.3697263E0,1.6773438E1,4.957687E0,5.5107074E0,1.5917356E0,1.9057349E0,2.0586417E0,1.679673E0,1.3712456E0,1.199021E1,2.0715575E0,1.1557642E0,4.4688234E0,1.2304614E1,1.5820444E0,3.3756423E0,4.33145E0,1.1792574E0],"tree_param":{"num_deleted":"0","num_feature":"14","num_nodes":"29","size_leaf_vector":"1"}},{"base_weights":[-4.3679673E-2,4.2895016E-1,-3.795053E-1,-4.0416506E-1,6.327896E-1,-5.060583E-1,3.2742586E-2,1.735475E-2,-4.5962818E-2,1.00436926E-1,7.935039E-1,-6.76608E-1,3.7913207E-2,3.1478267E-2,-1.9017642E-2,-2.185381E-3,4.4329938E-2,-4.2751696E-2,-1.8700523E-3,-2.709787E-2,2.9426182E-2],"categories":[],"categories_nodes":[],"categories_segments":[],"categories_sizes":[],"default_left":[0,0,0,0,0,0,0,0,0,0,0,0,0,0,0,0,0,0,0,0,0],"id":9,"left_children":[1,3,5,7,9,11,-1,-1,-1,13,15,17,19,-1,-1,-1,-1,-1,-1,-1,-1],"loss_changes":[8.648404E0,4.246508E0,4.6606693E0,2.5824318E0,1.3132505E0,2.9086895E0,0E0,0E0,0E0,2.0305457E0,1.3149481E0,2.3812466E0,3.1047075E0,0E0,0E0,0E0,0E0,0E0,0E0,0E0,0E0],"parents":[2147483647,0,0,1,1,2,2,3,3,4,4,5,5,9,9,10,10,11,11,12,12],"right_children":[2,4,6,8,10,12,-1,-1,-1,14,16,18,20,-1,-1,-1,-1,-1,-1,-1,-1],"split_conditions":[2.5812369E-2,1.6783327E-2,1.8526284E-1,1.47123635E-2,6.3287115E-1,1.4411937E0,3.2742586E-2,1.735475E-2,-4.5962818E-2,2.8748076E-2,8.251555E-3,3.532321E-2,3.1441778E-2,3.1478267E-2,-1.9017642E-2,-2.185381E-3,4.4329938E-2,-4.2751696E-2,-1.8700523E-3,-2.709787E-2,2.9426182E-2],"split_indices":[9,9,3,7,1,1,0,0,0,3,3,9,9,0,0,0,0,0,0,0,0],"split_type":[0,0,0,0,0,0,0,0,0,0,0,0,0,0,0,0,0,0,0,0,0],"sum_hessian":[5.1511875E1,2.0977434E1,3.0534443E1,3.6409883E0,1.7336447E1,2.8060715E1,2.4737282E0,1.5220388E0,2.1189497E0,4.873903E0,1.24625435E1,2.1364338E1,6.696377E0,2.2973738E0,2.576529E0,1.1117634E0,1.135078E1,1.6061602E1,5.302736E0,3.0960932E0,3.6002836E0],"tree_param":{"num_deleted":"0","num_feature":"14","num_nodes":"21","size_leaf_vector":"1"}},{"base_weights":[-0E0,4.0364805E-1,-3.787641E-1,-3.2476118E-1,7.2990113E-1,-5.57597E-1,4.066128E-1,-5.921124E-1,3.0038623E-2,1.1123637E0,1.8900523E-1,-6.590357E-1,2.9016022E-2,-1.838938E-2,4.8334416E-2,1.3288933E-2,-4.7286052E-2,6.513337E-3,5.8923006E-2,-1.8620658E-3,2.291554E-2,-5.410398E-3,-4.27698E-2],"categories":[],"categories_nodes":[],"categories_segments":[],"categories_sizes":[],"default_left":[0,0,0,0,0,0,0,0,0,0,0,0,0,0,0,0,0,0,0,0,0,0,0],"id":10,"left_children":[1,3,5,7,9,11,13,15,-1,17,19,21,-1,-1,-1,-1,-1,-1,-1,-1,-1,-1,-1],"loss_changes":[8.554061E0,6.8833036E0,4.4176645E0,2.8182635E0,3.4350471E0,3.3957539E0,3.257471E0,2.9678926E0,0E0,2.1120262E-1,7.2240025E-1,2.17626E0,0E0,0E0,0E0,0E0,0E0,0E0,0E0,0E0,0E0,0E0,0E0],"parents":[2147483647,0,0,1,1,2,2,3,3,4,4,5,5,6,6,7,7,9,9,10,10,11,11],"right_children":[2,4,6,8,10,12,14,16,-1,18,20,22,-1,-1,-1,-1,-1,-1,-1,-1,-1,-1,-1],"split_conditions":[2.872131E-2,6.3287115E-1,1.4411937E0,8.326901E-2,2.1672124E-2,1.9471507E-1,5.0537483E1,5.1996326E1,3.0038623E-2,1.706865E-2,2.2749795E-2,5.501791E-1,2.9016022E-2,-1.838938E-2,4.8334416E-2,1.3288933E-2,-4.7286052E-2,6.513337E-3,5.8923006E-2,-1.8620658E-3,2.291554E-2,-5.410398E-3,-4.27698E-2],"split_indices":[9,1,1,8,7,3,0,0,0,9,9,1,0,0,0,0,0,0,0,0,0,0,0],"split_type":[0,0,0,0,0,0,0,0,0,0,0,0,0,0,0,0,0,0,0,0,0,0,0],"sum_hessian":[5.2944363E1,2.5627396E1,2.7316967E1,7.74016E0,1.7887236E1,2.2812239E1,4.504728E0,6.592346E0,1.1478136E0,9.333245E0,8.55399E0,2.1686073E1,1.1261659E0,1.956888E0,2.5478399E0,1.8678137E0,4.7245326E0,1.0603379E0,8.272907E0,4.947479E0,3.6065114E0,6.578179E0,1.5107895E1],"tree_param":{"num_deleted":"0","num_feature":"14","num_nodes":"23","size_leaf_vector":"1"}},{"base_weights":[3.0553423E-2,5.824365E-1,-3.1887552E-1,6.678525E-1,-0E0,-4.624185E-1,5.2430815E-1,-3.3662466E-3,7.294092E-1,-2.7402354E-2,2.7408356E-2,-7.3346436E-1,1.2095019E-1,-0E0,4.0158704E-2,3.1630767E-3,4.035258E-2,-0E0,-3.9314818E-2,3.770574E-2,-1.2805866E-2],"categories":[],"categories_nodes":[],"categories_segments":[],"categories_sizes":[],"default_left":[0,0,0,0,0,0,0,0,0,0,0,0,0,0,0,0,0,0,0,0,0],"id":11,"left_children":[1,3,5,7,9,11,13,-1,15,-1,-1,17,19,-1,-1,-1,-1,-1,-1,-1,-1],"loss_changes":[1.0535313E1,1.1643095E0,4.363159E0,1.0561934E0,1.646758E0,4.892361E0,7.7703106E-1,0E0,6.654091E-1,0E0,0E0,9.025011E-1,2.861814E0,0E0,0E0,0E0,0E0,0E0,0E0,0E0,0E0],"parents":[2147483647,0,0,1,1,2,2,3,3,4,4,5,5,6,6,8,8,11,11,12,12],"right_children":[2,4,6,8,10,12,14,-1,16,-1,-1,18,20,-1,-1,-1,-1,-1,-1,-1,-1],"split_conditions":[2.5812369E-2,1.7779893E-1,1.7205521E-1,-2.8865661E-2,2.5223415E-2,1.8473238E-1,-7.3613755E-2,-3.3662466E-3,1.6593734E-2,-2.7402354E-2,2.7408356E-2,-1.21364586E-1,2.3482694E-1,-0E0,4.0158704E-2,3.1630767E-3,4.035258E-2,-0E0,-3.9314818E-2,3.770574E-2,-1.2805866E-2],"split_indices":[9,2,3,7,9,2,7,0,9,0,0,8,2,0,0,0,0,0,0,0,0],"split_type":[0,0,0,0,0,0,0,0,0,0,0,0,0,0,0,0,0,0,0,0,0],"sum_hessian":[5.1413334E1,1.9766512E1,3.164682E1,1.7284954E1,2.4815576E0,2.7824554E1,3.8222659E0,1.073574E0,1.621138E1,1.3862933E0,1.0952644E0,1.8968346E1,8.856209E0,1.8496935E0,1.9725723E0,2.2453177E0,1.3966063E1,1.1984296E0,1.7769915E1,2.9436975E0,5.912512E0],"tree_param":{"num_deleted":"0","num_feature":"14","num_nodes":"21","size_leaf_vector":"1"}},{"base_weights":[-1.02127366E-1,3.1586033E-1,-4.7487712E-1,-4.0546706E-1,6.282819E-1,-6.398851E-2,-2.0912705E-1,-7.108267E-1,2.1548746E-2,8.6112314E-1,-2.393224E-1,-5.0742185E-1,3.5396847E-1,1.55227175E-2,-5.3109206E-2,-2.566803E-3,4.7435705E-2,2.5835594E-2,-3.388764E-2,-4.252455E-2,1.7578771E-2,4.9004987E-2,-8.826311E-3],"categories":[],"categories_nodes":[],"categories_segments":[],"categories_sizes":[],"default_left":[0,0,0,0,0,0,0,0,0,0,0,0,0,0,0,0,0,0,0,0,0,0,0],"id":12,"left_children":[1,3,5,7,9,-1,11,13,-1,15,17,19,21,-1,-1,-1,-1,-1,-1,-1,-1,-1,-1],"loss_changes":[8.87289E0,6.4474254E0,5.735803E0,2.7612197E0,4.357385E0,0E0,4.431574E0,3.2222638E0,0E0,1.5170727E0,2.2486312E0,5.5367746E0,3.465844E0,0E0,0E0,0E0,0E0,0E0,0E0,0E0,0E0,0E0,0E0],"parents":[2147483647,0,0,1,1,2,2,3,3,4,4,6,6,7,7,9,9,10,10,11,11,12,12],"right_children":[2,4,6,8,10,-1,12,14,-1,16,18,20,22,-1,-1,-1,-1,-1,-1,-1,-1,-1,-1],"split_conditions":[3.0033221E-2,6.3287115E-1,3.158102E-2,1.5459238E-1,1.5389066E0,-6.398851E-2,5.7690727E1,6.9852E-2,2.1548746E-2,4.075369E-3,5.5546047E1,1.5485002E-1,2.7498636E-1,1.55227175E-2,-5.3109206E-2,-2.566803E-3,4.7435705E-2,2.5835594E-2,-3.388764E-2,-4.252455E-2,1.7578771E-2,4.9004987E-2,-8.826311E-3],"split_indices":[9,1,9,2,1,0,0,2,0,3,0,3,2,0,0,0,0,0,0,0,0,0,0],"split_type":[0,0,0,0,0,0,0,0,0,0,0,0,0,0,0,0,0,0,0,0,0,0,0],"sum_hessian":[5.3800568E1,2.5216312E1,2.8584257E1,7.29244E0,1.7923874E1,5.4875784E0,2.3096678E1,5.6823583E0,1.6100817E0,1.4321973E1,3.6019E0,1.5427555E1,7.6691227E0,1.3535194E0,4.328839E0,1.108802E0,1.3213171E1,1.0563396E0,2.5455606E0,1.1201533E1,4.226022E0,3.1073322E0,4.5617905E0],"tree_param":{"num_deleted":"0","num_feature":"14","num_nodes":"23","size_leaf_vector":"1"}},{"base_weights":[-9.326535E-2,3.5516247E-1,-3.714074E-1,4.618646E-1,-2.2050574E-2,-6.399343E-1,1.5856227E-1,-0E0,6.973412E-1,2.6930308E-2,-7.954487E-1,4.2840023E-2,-1.9827314E-1,1.5043469E-2,-1.6535515E-2,3.9890703E-2,-5.287478E-3,-5.687278E-2,-1.6076278E-2,1.7039098E-2,-3.6556497E-2],"categories":[],"categories_nodes":[],"categories_segments":[],"categories_sizes":[],"default_left":[0,0,0,0,0,0,0,0,0,0,0,0,0,0,0,0,0,0,0,0,0],"id":13,"left_children":[1,3,5,7,-1,9,11,13,15,-1,17,-1,19,-1,-1,-1,-1,-1,-1,-1,-1],"loss_changes":[7.0159087E0,2.1283605E0,5.190964E0,2.131064E0,0E0,5.019253E0,3.5336382E0,9.6901625E-1,1.3205395E0,0E0,2.6612358E0,0E0,3.148317E0,0E0,0E0,0E0,0E0,0E0,0E0,0E0,0E0],"parents":[2147483647,0,0,1,1,2,2,3,3,5,5,6,6,7,7,8,8,10,10,12,12],"right_children":[2,4,6,8,-1,10,12,14,16,-1,18,-1,20,-1,-1,-1,-1,-1,-1,-1,-1],"split_conditions":[2.5812369E-2,1.5029405E0,1.8473238E-1,6.3287115E-1,-2.2050574E-2,-1.2190636E-1,6.000214E-1,1.1664124E-1,7.500707E1,2.6930308E-2,9.212672E-1,4.2840023E-2,2.6791236E-1,1.5043469E-2,-1.6535515E-2,3.9890703E-2,-5.287478E-3,-5.687278E-2,-1.6076278E-2,1.7039098E-2,-3.6556497E-2],"split_indices":[9,1,2,1,0,8,1,2,0,0,1,0,2,0,0,0,0,0,0,0,0],"split_type":[0,0,0,0,0,0,0,0,0,0,0,0,0,0,0,0,0,0,0,0,0],"sum_hessian":[5.3137848E1,1.9907705E1,3.323014E1,1.833193E1,1.5757761E0,2.2099054E1,1.1131087E1,6.7499037E0,1.1582026E1,1.9954823E0,2.0103573E1,3.2433932E0,7.887694E0,3.663916E0,3.0859878E0,1.0524253E1,1.0577723E0,1.02119665E1,9.891605E0,4.003243E0,3.8844512E0],"tree_param":{"num_deleted":"0","num_feature":"14","num_nodes":"21","size_leaf_vector":"1"}},{"base_weights":[3.7819084E-2,1.5797448E-1,-9.4192183E-1,3.7888527E-1,-1.17843896E-1,-5.7846792E-2,-0E0,7.998181E-1,-1.9962681E-2,-2.5707364E-1,4.187132E-2,-2.01329E-3,5.7998266E-2,-4.0078934E-2,8.000896E-3,-4.976942E-2,1.5987486E-3],"categories":[],"categories_nodes":[],"categories_segments":[],"categories_sizes":[],"default_left":[0,0,0,0,0,0,0,0,0,0,0,0,0,0,0,0,0],"id":14,"left_children":[1,3,5,7,9,-1,-1,11,13,15,-1,-1,-1,-1,-1,-1,-1],"loss_changes":[6.632656E0,3.2358785E0,1.2301359E0,5.0757227E0,3.3310611E0,0E0,0E0,4.671421E0,2.598653E0,4.8996177E0,0E0,0E0,0E0,0E0,0E0,0E0,0E0],"parents":[2147483647,0,0,1,1,2,2,3,3,4,4,7,7,8,8,9,9],"right_children":[2,4,6,8,10,-1,-1,12,14,16,-1,-1,-1,-1,-1,-1,-1],"split_conditions":[3.7110865E-2,2.2022216E-2,4.0898785E-2,2.9259464E-2,3.4994464E-2,-5.7846792E-2,-0E0,6.1007464E-1,3.1118343E-2,5.5581608E1,4.187132E-2,-2.01329E-3,5.7998266E-2,-4.0078934E-2,8.000896E-3,-4.976942E-2,1.5987486E-3],"split_indices":[9,7,8,9,9,0,0,1,9,0,0,0,0,0,0,0,0],"split_type":[0,0,0,0,0,0,0,0,0,0,0,0,0,0,0,0,0],"sum_hessian":[5.427796E1,4.9651035E1,4.626928E0,2.7661085E1,2.1989948E1,3.4802358E0,1.1466919E0,1.2968237E1,1.4692848E1,2.0332241E1,1.6577069E0,4.124452E0,8.843785E0,1.9883919E0,1.2704456E1,4.883858E0,1.5448384E1],"tree_param":{"num_deleted":"0","num_feature":"14","num_nodes":"17","size_leaf_vector":"1"}},{"base_weights":[4.8913542E-2,1.757528E-1,-9.39984E-1,-1.487711E-1,4.6093863E-1,-5.722928E-2,-0E0,-2.6146117E-1,3.5335347E-2,-2.0124037E-2,5.278087E-1,7.029719E-3,-2.4758046E-2,3.356768E-2,1.371274E-3],"categories":[],"categories_nodes":[],"categories_segments":[],"categories_sizes":[],"default_left":[0,0,0,0,0,0,0,0,0,0,0,0,0,0,0],"id":15,"left_children":[1,3,5,7,9,-1,-1,11,-1,-1,13,-1,-1,-1,-1],"loss_changes":[7.0598426E0,4.8536787E0,1.2143841E0,2.5500855E0,1.9405599E0,0E0,0E0,2.3317742E0,0E0,0E0,1.7384362E0,0E0,0E0,0E0,0E0],"parents":[2147483647,0,0,1,1,2,2,3,3,4,4,7,7,10,10],"right_children":[2,4,6,8,10,-1,-1,12,-1,-1,14,-1,-1,-1,-1],"split_conditions":[3.7110865E-2,8.9654326E-1,4.0898785E-2,3.5313454E-2,1.5956657E-2,-5.722928E-2,-0E0,2.8748076E-2,3.5335347E-2,-2.0124037E-2,5.405032E-2,7.029719E-3,-2.4758046E-2,3.356768E-2,1.371274E-3],"split_indices":[9,1,8,9,9,0,0,3,0,0,7,0,0,0,0],"split_type":[0,0,0,0,0,0,0,0,0,0,0,0,0,0,0],"sum_hessian":[5.4027573E1,4.9158054E1,4.869518E0,2.3000784E1,2.615727E1,3.722826E0,1.1466919E0,2.1450502E1,1.5502825E0,1.1240833E0,2.5033188E1,7.7901597E0,1.3660342E1,1.8743914E1,6.2892733E0],"tree_param":{"num_deleted":"0","num_feature":"14","num_nodes":"15","size_leaf_vector":"1"}},{"base_weights":[-4.7579337E-2,3.532847E-1,-3.178792E-1,7.483018E-1,-9.434946E-3,3.409489E-2,-4.0269026E-1,-2.9201962E-3,8.64353E-1,-4.8317334E-1,5.3245556E-1,-6.475875E-1,3.7743032E-2,5.0768424E-2,-1.183619E-3,5.147352E-3,-3.5245962E-2,-6.92542E-3,4.0001336E-2,1.9306404E-3,-3.637856E-2,2.3125406E-2,-2.8910924E-2],"categories":[],"categories_nodes":[],"categories_segments":[],"categories_sizes":[],"default_left":[0,0,0,0,0,0,0,0,0,0,0,0,0,0,0,0,0,0,0,0,0,0,0],"id":16,"left_children":[1,3,5,7,9,-1,11,-1,13,15,17,19,21,-1,-1,-1,-1,-1,-1,-1,-1,-1,-1],"loss_changes":[6.096023E0,3.3779645E0,3.2220736E0,1.2703776E0,3.6957674E0,0E0,3.6409168E0,0E0,1.570405E0,1.2537973E0,1.4741932E0,1.3392448E0,3.690962E0,0E0,0E0,0E0,0E0,0E0,0E0,0E0,0E0,0E0,0E0],"parents":[2147483647,0,0,1,1,2,2,3,3,4,4,6,6,8,8,9,9,10,10,11,11,12,12],"right_children":[2,4,6,8,10,-1,12,-1,14,16,18,20,22,-1,-1,-1,-1,-1,-1,-1,-1,-1,-1],"split_conditions":[2.6205689E-2,1.5731161E-2,-1.3897376E-1,-3.6456164E-2,7.027684E-2,3.409489E-2,1.6598782E-1,-2.9201962E-3,1.2527734E0,1.0757292E-2,5.24494E-1,2.2490337E-2,2.9049635E-1,5.0768424E-2,-1.183619E-3,5.147352E-3,-3.5245962E-2,-6.92542E-3,4.0001336E-2,1.9306404E-3,-3.637856E-2,2.3125406E-2,-2.8910924E-2],"split_indices":[9,7,8,7,8,0,2,0,1,3,1,2,2,0,0,0,0,0,0,0,0,0,0],"split_type":[0,0,0,0,0,0,0,0,0,0,0,0,0,0,0,0,0,0,0,0,0,0,0],"sum_hessian":[5.3271202E1,2.0970617E1,3.2300587E1,9.539041E0,1.1431578E1,1.5156142E0,3.0784971E1,1.0766518E0,8.462389E0,6.3829803E0,5.0485973E0,1.9622643E1,1.1162329E1,7.2411027E0,1.2212859E0,1.7250352E0,4.657945E0,1.4325014E0,3.6160958E0,1.8684136E0,1.7754229E1,7.0198503E0,4.1424785E0],"tree_param":{"num_deleted":"0","num_feature":"14","num_nodes":"23","size_leaf_vector":"1"}},{"base_weights":[-2.0124377E-5,5.592493E-1,-3.0321765E-1,-9.078799E-2,6.6526574E-1,4.0292095E-2,-4.1472343E-1,9.183422E-3,-1.9378025E-2,2.986163E-1,8.74609E-1,-6.0951393E-2,-2.7143312E-1,-1.0453556E-2,2.9601002E-2,5.0502446E-2,-0E0,2.9789148E-2,-2.002565E-2],"categories":[],"categories_nodes":[],"categories_segments":[],"categories_sizes":[],"default_left":[0,0,0,0,0,0,0,0,0,0,0,0,0,0,0,0,0,0,0],"id":17,"left_children":[1,3,5,7,9,-1,11,-1,-1,13,15,-1,17,-1,-1,-1,-1,-1,-1],"loss_changes":[9.295187E0,1.5248542E0,4.8718076E0,4.5217183E-1,6.7114544E-1,0E0,3.1057677E0,0E0,0E0,1.5684509E0,1.0930319E0,0E0,3.773884E0,0E0,0E0,0E0,0E0,0E0,0E0],"parents":[2147483647,0,0,1,1,2,2,3,3,4,4,6,6,9,9,10,10,12,12],"right_children":[2,4,6,8,10,-1,12,-1,-1,14,16,-1,18,-1,-1,-1,-1,-1,-1],"split_conditions":[2.5619796E-2,1.6593734E-2,-1.2190636E-1,1.5502697E-2,5.8666946E1,4.0292095E-2,-8.363065E-2,9.183422E-3,-1.9378025E-2,2.0338526E-2,7.595208E1,-6.0951393E-2,3.750491E1,-1.0453556E-2,2.9601002E-2,5.0502446E-2,-0E0,2.9789148E-2,-2.002565E-2],"split_indices":[9,9,8,9,0,0,8,0,0,9,0,0,0,0,0,0,0,0,0],"split_type":[0,0,0,0,0,0,0,0,0,0,0,0,0,0,0,0,0,0,0],"sum_hessian":[5.2118446E1,1.7644857E1,3.4473587E1,2.2399046E0,1.5404954E1,2.1322083E0,3.234138E1,1.1105849E0,1.1293198E0,7.2689495E0,8.136004E0,2.976589E0,2.9364792E1,2.5705385E0,4.698411E0,6.7964272E0,1.3395766E0,2.9010954E0,2.6463696E1],"tree_param":{"num_deleted":"0","num_feature":"14","num_nodes":"19","size_leaf_vector":"1"}},{"base_weights":[-7.731888E-2,1.3565435E-2,-4.9477134E-2,-6.807311E-2,4.3745555E-2,4.5200102E-2,-8.363838E-1,-3.2233108E-2,8.78004E-3,-5.3058036E-2,-0E0],"categories":[],"categories_nodes":[],"categories_segments":[],"categories_sizes":[],"default_left":[0,0,0,0,0,0,0,0,0,0,0],"id":18,"left_children":[1,3,-1,5,-1,7,9,-1,-1,-1,-1],"loss_changes":[4.720713E0,3.8158395E0,0E0,4.3479333E0,0E0,3.9067976E0,1.3562827E0,0E0,0E0,0E0,0E0],"parents":[2147483647,0,0,1,1,3,3,5,5,6,6],"right_children":[2,4,-1,6,-1,8,10,-1,-1,-1,-1],"split_conditions":[3.7072264E-2,3.532321E-2,-4.9477134E-2,3.424624E-2,4.3745555E-2,4.626762E-1,5.830917E-2,-3.2233108E-2,8.78004E-3,-5.3058036E-2,-0E0],"split_indices":[9,9,0,9,0,1,7,0,0,0,0],"split_type":[0,0,0,0,0,0,0,0,0,0,0],"sum_hessian":[5.2842712E1,4.919945E1,3.6432626E0,4.5989784E1,3.2096643E0,4.1084133E1,4.905653E0,5.3470745E0,3.5737057E1,3.6837995E0,1.2218536E0],"tree_param":{"num_deleted":"0","num_feature":"14","num_nodes":"11","size_leaf_vector":"1"}},{"base_weights":[2.8003367E-2,3.494508E-1,-1.5864126E-1,6.714024E-1,-5.7800032E-2,-3.2587248E-1,2.8705937E-1,-4.755247E-3,7.791731E-1,-4.3141785E-1,3.9092455E-2,-5.327295E-1,2.8783847E-2,-3.18357E-1,7.428598E-1,5.7650995E-3,4.3365326E-2,-3.8057204E-2,6.1752754E-3,-1.2548695E-2,-5.8144737E-2,2.1002775E-2,-3.239381E-2,1.6151585E-2,-3.6693178E-2,4.715654E-2,-0E0],"categories":[],"categories_nodes":[],"categories_segments":[],"categories_sizes":[],"default_left":[0,0,0,0,0,0,0,0,0,0,0,0,0,0,0,0,0,0,0,0,0,0,0,0,0,0,0],"id":19,"left_children":[1,3,5,7,9,11,13,-1,15,17,-1,19,21,23,25,-1,-1,-1,-1,-1,-1,-1,-1,-1,-1,-1,-1],"loss_changes":[3.232116E0,2.7912564E0,2.6406105E0,1.1989341E0,3.5405555E0,1.9832428E0,3.0874257E0,0E0,2.66932E-1,1.728764E0,0E0,2.1987123E0,3.1172307E0,1.7656677E0,1.072408E0,0E0,0E0,0E0,0E0,0E0,0E0,0E0,0E0,0E0,0E0,0E0,0E0],"parents":[2147483647,0,0,1,1,2,2,3,3,4,4,5,5,6,6,8,8,9,9,11,11,12,12,13,13,14,14],"right_children":[2,4,6,8,10,12,14,-1,16,18,-1,20,22,24,26,-1,-1,-1,-1,-1,-1,-1,-1,-1,-1,-1,-1],"split_conditions":[2.5812369E-2,2.2022216E-2,1.4017893E0,-3.2497E-2,2.5223415E-2,1.4445387E-1,3.1441778E-2,-4.755247E-3,1.6593734E-2,9.9476475E-1,3.9092455E-2,1.13118336E-1,2.8578198E-1,8.710451E-2,2.0413046E0,5.7650995E-3,4.3365326E-2,-3.8057204E-2,6.1752754E-3,-1.2548695E-2,-5.8144737E-2,2.1002775E-2,-3.239381E-2,1.6151585E-2,-3.6693178E-2,4.715654E-2,-0E0],"split_indices":[9,7,1,7,9,2,9,0,9,1,0,2,2,2,1,0,0,0,0,0,0,0,0,0,0,0,0],"split_type":[0,0,0,0,0,0,0,0,0,0,0,0,0,0,0,0,0,0,0,0,0,0,0,0,0,0,0],"sum_hessian":[5.0349716E1,1.840866E1,3.1941053E1,1.0011919E1,8.396743E0,2.3845865E1,8.095189E0,1.0271218E0,8.984797E0,6.4805727E0,1.9161704E0,1.4941722E1,8.904143E0,3.4827528E0,4.612436E0,1.7247425E0,7.260054E0,3.9415493E0,2.5390234E0,1.1993873E1,2.9478495E0,6.18952E0,2.714623E0,1.3112168E0,2.171536E0,3.4977744E0,1.1146616E0],"tree_param":{"num_deleted":"0","num_feature":"14","num_nodes":"27","size_leaf_vector":"1"}},{"base_weights":[6.38375E-2,3.059349E-1,-3.713601E-1,4.0196142E-1,-4.040813E-2,-8.3054435E-1,2.6896945E-1,2.2538003E-1,4.966217E-2,-9.754183E-1,-0E0,4.690319E-2,-2.7346548E-1,-3.6931317E-2,1.7745718E-2,-0E0,-5.5418182E-2,-2.5544947E-2,2.549613E-3],"categories":[],"categories_nodes":[],"categories_segments":[],"categories_sizes":[],"default_left":[0,0,0,0,0,0,0,0,0,0,0,0,0,0,0,0,0,0,0],"id":20,"left_children":[1,3,5,7,-1,9,11,13,-1,15,-1,-1,17,-1,-1,-1,-1,-1,-1],"loss_changes":[5.4255023E0,3.9628236E0,5.814957E0,2.7381153E0,0E0,1.3633933E0,3.629915E0,3.6466587E0,0E0,1.2433481E0,0E0,0E0,5.726411E-1,0E0,0E0,0E0,0E0,0E0,0E0],"parents":[2147483647,0,0,1,1,2,2,3,3,5,5,6,6,7,7,9,9,12,12],"right_children":[2,4,6,8,-1,10,12,14,-1,16,-1,-1,18,-1,-1,-1,-1,-1,-1],"split_conditions":[3.5789307E-2,3.978836E-2,8.326901E-2,1.5459238E-1,-4.040813E-2,8.980802E-2,7.1797935E1,2.1526698E-2,4.966217E-2,1.0088417E-1,-0E0,4.690319E-2,3.16938E-2,-3.6931317E-2,1.7745718E-2,-0E0,-5.5418182E-2,-2.5544947E-2,2.549613E-3],"split_indices":[7,9,8,2,0,7,0,3,0,2,0,0,9,0,0,0,0,0,0],"split_type":[0,0,0,0,0,0,0,0,0,0,0,0,0,0,0,0,0,0,0],"sum_hessian":[4.8501507E1,3.1746334E1,1.6755173E1,3.0275175E1,1.4711587E0,9.680197E0,7.0749764E0,2.5168747E1,5.106428E0,8.038729E0,1.6414682E0,2.842912E0,4.2320647E0,1.962962E0,2.3205784E1,1.1389419E0,6.8997874E0,2.3019834E0,1.930081E0],"tree_param":{"num_deleted":"0","num_feature":"14","num_nodes":"19","size_leaf_vector":"1"}},{"base_weights":[-8.6471334E-2,-3.6713085E-1,1.9487606E-1,2.948884E-1,-6.992433E-1,3.4388137E-1,-4.0928137E-1,7.043827E-1,-3.8310423E-1,1.7885622E-1,-8.6132455E-1,8.3014953E-1,4.2891037E-2,-4.4875126E-2,1.29987E-1,-0E0,4.1761298E-2,-4.948358E-2,1.0417435E-2,-2.340853E-2,3.8193222E-2,-4.709608E-2,-0E0,4.731779E-2,8.809484E-3,-3.9897084E-2,1.1885694E-2,-9.268603E-3,2.2001538E-2],"categories":[],"categories_nodes":[],"categories_segments":[],"categories_sizes":[],"default_left":[0,0,0,0,0,0,0,0,0,0,0,0,0,0,0,0,0,0,0,0,0,0,0,0,0,0,0,0,0],"id":21,"left_children":[1,3,5,7,9,11,13,15,17,19,21,23,25,-1,27,-1,-1,-1,-1,-1,-1,-1,-1,-1,-1,-1,-1,-1,-1],"loss_changes":[4.3819623E0,6.4932137E0,2.668299E0,3.2806695E0,3.0903702E0,3.1518214E0,1.8682079E0,5.923774E-1,2.116212E0,2.1212928E0,9.890175E-1,1.7080688E-1,2.8097534E0,0E0,5.540594E-1,0E0,0E0,0E0,0E0,0E0,0E0,0E0,0E0,0E0,0E0,0E0,0E0,0E0,0E0],"parents":[2147483647,0,0,1,1,2,2,3,3,4,4,5,5,6,6,7,7,8,8,9,9,10,10,11,11,12,12,14,14],"right_children":[2,4,6,8,10,12,14,16,18,20,22,24,26,-1,28,-1,-1,-1,-1,-1,-1,-1,-1,-1,-1,-1,-1,-1,-1],"split_conditions":[8.9654326E-1,2.8748076E-2,3.484621E-2,6.000214E-1,4.7608912E-2,9.544064E-2,1.322163E-1,1.7117215E-2,6.548156E1,-9.0423256E-2,6.862384E1,1.5389066E0,5.509803E1,-4.4875126E-2,6.2237065E-2,-0E0,4.1761298E-2,-4.948358E-2,1.0417435E-2,-2.340853E-2,3.8193222E-2,-4.709608E-2,-0E0,4.731779E-2,8.809484E-3,-3.9897084E-2,1.1885694E-2,-9.268603E-3,2.2001538E-2],"split_indices":[1,3,9,1,2,2,3,9,0,8,0,1,0,0,2,0,0,0,0,0,0,0,0,0,0,0,0,0,0],"split_type":[0,0,0,0,0,0,0,0,0,0,0,0,0,0,0,0,0,0,0,0,0,0,0,0,0,0,0,0,0],"sum_hessian":[5.2198616E1,2.6258165E1,2.594045E1,8.627127E0,1.7631039E1,2.159232E1,4.348132E0,5.526083E0,3.1010435E0,2.5308087E0,1.5100229E1,6.9930534E0,1.4599266E1,1.9537512E0,2.394381E0,1.1797684E0,4.346315E0,1.1993065E0,1.901737E0,1.1816226E0,1.3491861E0,1.3495663E1,1.6045667E0,5.108745E0,1.8843085E0,1.6797016E0,1.2919564E1,1.166241E0,1.22814E0],"tree_param":{"num_deleted":"0","num_feature":"14","num_nodes":"29","size_leaf_vector":"1"}},{"base_weights":[-0E0,-2.4467878E-1,2.8116345E-1,1.7128414E-1,-4.73421E-1,4.5771202E-1,-1.7565694E-1,5.0501084E-1,-3.2255843E-2,-5.886872E-1,2.5981167E-2,-2.0656097E-1,6.001769E-1,1.6608404E-1,-5.0033766E-1,-1.19068725E-2,3.5069395E-2,-1.6613806E-3,-3.857736E-2,1.4735705E-2,-3.0940419E-2,3.489023E-2,-6.225541E-3,3.5344154E-2,-2.5428573E-2,-4.7386542E-2,1.4576948E-2],"categories":[],"categories_nodes":[],"categories_segments":[],"categories_sizes":[],"default_left":[0,0,0,0,0,0,0,0,0,0,0,0,0,0,0,0,0,0,0,0,0,0,0,0,0,0,0],"id":22,"left_children":[1,3,5,7,9,11,13,15,-1,17,-1,19,21,23,25,-1,-1,-1,-1,-1,-1,-1,-1,-1,-1,-1,-1],"loss_changes":[3.601707E0,2.8207345E0,2.1577008E0,3.357049E0,2.60187E0,2.0102274E0,1.0363072E0,1.5926018E0,0E0,1.5832329E0,0E0,1.1908619E0,1.3642187E0,2.2337184E0,2.1676993E0,0E0,0E0,0E0,0E0,0E0,0E0,0E0,0E0,0E0,0E0,0E0,0E0],"parents":[2147483647,0,0,1,1,2,2,3,3,4,4,5,5,6,6,7,7,9,9,11,11,12,12,13,13,14,14],"right_children":[2,4,6,8,10,12,14,16,-1,18,-1,20,22,24,26,-1,-1,-1,-1,-1,-1,-1,-1,-1,-1,-1,-1],"split_conditions":[9.3493205E-1,2.8654857E-2,1.6625916E0,7.5060385E-1,1.9299631E-1,-7.104754E-2,3.1983748E-2,1.6783327E-2,-3.2255843E-2,2.5414707E-2,2.5981167E-2,3.3983182E-2,9.137386E-2,2.779429E-2,3.1220596E-2,-1.19068725E-2,3.5069395E-2,-1.6613806E-3,-3.857736E-2,1.4735705E-2,-3.0940419E-2,3.489023E-2,-6.225541E-3,3.5344154E-2,-2.5428573E-2,-4.7386542E-2,1.4576948E-2],"split_indices":[1,3,1,1,3,7,7,9,0,9,0,9,7,9,9,0,0,0,0,0,0,0,0,0,0,0,0],"split_type":[0,0,0,0,0,0,0,0,0,0,0,0,0,0,0,0,0,0,0,0,0,0,0,0,0,0,0],"sum_hessian":[4.9291004E1,2.6232222E1,2.305878E1,9.1306925E0,1.710153E1,1.6944918E1,6.1138644E0,7.0612955E0,2.069397E0,1.6050657E1,1.0508717E0,2.6252775E0,1.4319639E1,3.0355387E0,3.0783257E0,1.1963866E0,5.8649087E0,4.6851716E0,1.1365486E1,1.1587714E0,1.466506E0,1.2911822E1,1.4078169E0,1.8096945E0,1.2258441E0,1.9397495E0,1.1385764E0],"tree_param":{"num_deleted":"0","num_feature":"14","num_nodes":"27","size_leaf_vector":"1"}},{"base_weights":[5.56234E-2,3.7080804E-1,-1.3805453E-1,-3.4396034E-1,5.5151904E-1,-3.298637E-1,3.583806E-1,1.1679158E-2,-3.448807E-2,2.2885439E-1,3.996009E-2,1.6884112E-1,-4.6257503E-2,-1.5064753E-2,6.4439076E-1,2.4062762E-2,-1.072942E-2,2.6664034E-2,-2.010631E-2,4.456238E-2,-4.4258796E-3],"categories":[],"categories_nodes":[],"categories_segments":[],"categories_sizes":[],"default_left":[0,0,0,0,0,0,0,0,0,0,0,0,0,0,0,0,0,0,0,0,0],"id":23,"left_children":[1,3,5,7,9,11,13,-1,-1,15,-1,17,-1,-1,19,-1,-1,-1,-1,-1,-1],"loss_changes":[3.1417754E0,2.8602908E0,3.1545858E0,1.2635537E0,8.354955E-1,7.411907E0,2.0878935E0,0E0,0E0,1.282788E0,0E0,3.25365E0,0E0,0E0,1.5595133E0,0E0,0E0,0E0,0E0,0E0,0E0],"parents":[2147483647,0,0,1,1,2,2,3,3,4,4,5,5,6,6,9,9,11,11,14,14],"right_children":[2,4,6,8,10,12,14,-1,-1,16,-1,18,-1,-1,20,-1,-1,-1,-1,-1,-1],"split_conditions":[2.5767278E-2,1.6783327E-2,2.1122347E-1,1.561734E-2,2.2372527E-2,-5.1774303E-3,3.16938E-2,1.1679158E-2,-3.448807E-2,1.991016E-2,3.996009E-2,3.424624E-2,-4.6257503E-2,-1.5064753E-2,1.819857E-1,2.4062762E-2,-1.072942E-2,2.6664034E-2,-2.010631E-2,4.456238E-2,-4.4258796E-3],"split_indices":[9,9,2,9,9,8,9,0,0,9,0,9,0,0,8,0,0,0,0,0,0],"split_type":[0,0,0,0,0,0,0,0,0,0,0,0,0,0,0,0,0,0,0,0,0],"sum_hessian":[4.794666E1,1.8119854E1,2.9826807E1,3.1598527E0,1.4960001E1,2.2167902E1,7.6589055E0,1.1490912E0,2.0107613E0,8.100572E0,6.8594294E0,1.24643755E1,9.7035265E0,2.0806038E0,5.5783014E0,5.3681912E0,2.7323806E0,7.882432E0,4.581943E0,4.1345367E0,1.4437649E0],"tree_param":{"num_deleted":"0","num_feature":"14","num_nodes":"21","size_leaf_vector":"1"}},{"base_weights":[-1.720648E-3,9.8724894E-2,-4.742357E-2,3.2711187E-1,-1.5136027E-1,8.210407E-1,-6.775197E-2,-4.2782864E-1,4.479709E-1,2.9023287E-3,4.8349105E-2,-4.59255E-2,1.198123E-2,-3.2283805E-2,-0E0,4.2441484E-2,-3.8906336E-3],"categories":[],"categories_nodes":[],"categories_segments":[],"categories_sizes":[],"default_left":[0,0,0,0,0,0,0,0,0,0,0,0,0,0,0,0,0],"id":24,"left_children":[1,3,-1,5,7,9,11,13,15,-1,-1,-1,-1,-1,-1,-1,-1],"loss_changes":[5.2009373E0,2.8316693E0,0E0,5.266777E0,4.153719E0,1.0251279E0,4.519407E0,1.6135631E0,1.9136441E0,0E0,0E0,0E0,0E0,0E0,0E0,0E0,0E0],"parents":[2147483647,0,0,1,1,3,3,4,4,5,5,6,6,7,7,8,8],"right_children":[2,4,-1,6,8,10,12,14,16,-1,-1,-1,-1,-1,-1,-1,-1],"split_conditions":[3.7110865E-2,1.8946804E-2,-4.742357E-2,2.705634E-2,8.1669666E-2,5.490984E-1,3.1118343E-2,9.9476475E-1,1.0695345E-1,2.9023287E-3,4.8349105E-2,-4.59255E-2,1.198123E-2,-3.2283805E-2,-0E0,4.2441484E-2,-3.8906336E-3],"split_indices":[9,7,0,9,7,1,9,1,7,0,0,0,0,0,0,0,0],"split_type":[0,0,0,0,0,0,0,0,0,0,0,0,0,0,0,0,0],"sum_hessian":[4.9926823E1,4.6161636E1,3.765185E0,2.430403E1,2.1857609E1,1.0303322E1,1.4000707E1,1.5479797E1,6.3778105E0,2.2110076E0,8.092315E0,3.09704E0,1.0903667E1,9.825323E0,5.6544743E0,3.311719E0,3.0660918E0],"tree_param":{"num_deleted":"0","num_feature":"14","num_nodes":"17","size_leaf_vector":"1"}},{"base_weights":[6.101987E-2,1.2496646E-1,-4.3887276E-2,3.501146E-1,-5.4802302E-2,-3.03196E-1,5.687492E-1,-4.1148305E-1,3.0252203E-1,2.743416E-2,-4.799978E-2,3.4440108E-2,-2.1202065E-2,8.399229E-3,-3.712617E-2,-1.48918135E-2,2.058968E-2],"categories":[],"categories_nodes":[],"categories_segments":[],"categories_sizes":[],"default_left":[0,0,0,0,0,0,0,0,0,0,0,0,0,0,0,0,0],"id":25,"left_children":[1,3,-1,5,7,9,11,13,15,-1,-1,-1,-1,-1,-1,-1,-1],"loss_changes":[3.2224858E0,2.1743748E0,0E0,3.6804302E0,3.9641821E0,4.600172E0,2.6866803E0,3.3065436E0,1.2107925E0,0E0,0E0,0E0,0E0,0E0,0E0,0E0,0E0],"parents":[2147483647,0,0,1,1,3,3,4,4,5,5,6,6,7,7,8,8],"right_children":[2,4,-1,6,8,10,12,14,16,-1,-1,-1,-1,-1,-1,-1,-1],"split_conditions":[3.8895246E-2,7.99632E-3,-4.3887276E-2,-8.29046E-2,5.1310897E-2,-1.2190636E-1,7.430092E-2,4.004248E-3,4.573996E-1,2.743416E-2,-4.799978E-2,3.4440108E-2,-2.1202065E-2,8.399229E-3,-3.712617E-2,-1.48918135E-2,2.058968E-2],"split_indices":[9,7,0,8,8,8,8,8,1,0,0,0,0,0,0,0,0],"split_type":[0,0,0,0,0,0,0,0,0,0,0,0,0,0,0,0,0],"sum_hessian":[5.1947666E1,5.0051632E1,1.8960354E0,2.208404E1,2.7967592E1,5.1625857E0,1.6921453E1,1.4162733E1,1.3804859E1,2.2224472E0,2.9401386E0,1.568544E1,1.2360126E0,5.1982183E0,8.964515E0,1.4453045E0,1.2359554E1],"tree_param":{"num_deleted":"0","num_feature":"14","num_nodes":"17","size_leaf_vector":"1"}},{"base_weights":[1.52932275E-2,-2.9479408E-1,2.8391874E-1,2.1809781E-2,-3.869102E-1,4.004787E-1,-5.452721E-1,-2.6222302E-2,-6.647371E-1,4.6840373E-1,-1.9510109E-2,-4.2976834E-2,-0E0,1.4561919E-2,-2.461619E-2,-4.5983102E-2,-3.5178305E-3,2.7068144E-2,-1.1766078E-2],"categories":[],"categories_nodes":[],"categories_segments":[],"categories_sizes":[],"default_left":[0,0,0,0,0,0,0,0,0,0,0,0,0,0,0,0,0,0,0],"id":26,"left_children":[1,3,5,-1,7,9,11,13,15,17,-1,-1,-1,-1,-1,-1,-1,-1,-1],"loss_changes":[4.4999285E0,1.9118016E0,3.1268332E0,0E0,2.1448393E0,1.725513E0,8.128228E-1,2.0163372E0,1.6205168E0,1.5632019E0,0E0,0E0,0E0,0E0,0E0,0E0,0E0,0E0,0E0],"parents":[2147483647,0,0,1,1,2,2,4,4,5,5,6,6,7,7,8,8,9,9],"right_children":[2,4,6,-1,8,10,12,14,16,18,-1,-1,-1,-1,-1,-1,-1,-1,-1],"split_conditions":[8.8615626E-1,5.8020605E-3,2.3520226E0,2.1809781E-2,9.9606745E-2,3.7332628E-2,2.6483693E0,1.4154868E-1,1.8473238E-1,2.9049635E-1,-1.9510109E-2,-4.2976834E-2,-0E0,1.4561919E-2,-2.461619E-2,-4.5983102E-2,-3.5178305E-3,2.7068144E-2,-1.1766078E-2],"split_indices":[1,3,1,0,2,9,1,3,2,2,0,0,0,0,0,0,0,0,0],"split_type":[0,0,0,0,0,0,0,0,0,0,0,0,0,0,0,0,0,0,0],"sum_hessian":[5.104137E1,2.3278837E1,2.7762533E1,1.73518E0,2.1543657E1,2.523234E1,2.5301929E0,1.0401453E1,1.1142203E1,2.4032148E1,1.200192E0,1.2220869E0,1.3081061E0,6.2668E0,4.134653E0,6.9878116E0,4.1543922E0,2.2345722E1,1.6864271E0],"tree_param":{"num_deleted":"0","num_feature":"14","num_nodes":"19","size_leaf_vector":"1"}},{"base_weights":[9.4076075E-2,-1.3290748E-1,3.476271E-1,1.6569367E-1,-6.277772E-1,6.8164474E-1,1.1423031E-1,-2.4896327E-1,5.382204E-1,-5.144052E-2,1.6261816E-1,8.503551E-1,-3.9835167E-3,-2.7685273E-1,6.206397E-1,4.296068E-3,-4.0689543E-2,3.8490828E-2,-0E0,2.5045006E-2,-1.5619285E-2,4.5581464E-2,5.2951E-3,-2.5851218E-2,7.871091E-3,3.5415437E-2,-0E0],"categories":[],"categories_nodes":[],"categories_segments":[],"categories_sizes":[],"default_left":[0,0,0,0,0,0,0,0,0,0,0,0,0,0,0,0,0,0,0,0,0,0,0,0,0,0,0],"id":27,"left_children":[1,3,5,7,9,11,13,15,17,-1,19,21,-1,23,25,-1,-1,-1,-1,-1,-1,-1,-1,-1,-1,-1,-1],"loss_changes":[3.0856628E0,4.375564E0,1.6913409E0,3.0939677E0,3.9349527E0,1.5049448E0,3.6952233E0,2.0393171E0,1.2667243E0,0E0,1.0526222E0,3.051567E-2,0E0,1.2799957E0,3.3822322E-1,0E0,0E0,0E0,0E0,0E0,0E0,0E0,0E0,0E0,0E0,0E0,0E0],"parents":[2147483647,0,0,1,1,2,2,3,3,4,4,5,5,6,6,7,7,8,8,10,10,11,11,13,13,14,14],"right_children":[2,4,6,8,10,12,14,16,18,-1,20,22,-1,24,26,-1,-1,-1,-1,-1,-1,-1,-1,-1,-1,-1,-1],"split_conditions":[5.8109222E1,9.603497E-2,2.2022216E-2,-4.2221233E-2,1.3256936E-1,2.7498636E-1,6.1955113E-2,3.424624E-2,7.99632E-3,-5.144052E-2,3.6897026E-2,1.5731161E-2,-3.9835167E-3,1.8987751E-1,7.595208E1,4.296068E-3,-4.0689543E-2,3.8490828E-2,-0E0,2.5045006E-2,-1.5619285E-2,4.5581464E-2,5.2951E-3,-2.5851218E-2,7.871091E-3,3.5415437E-2,-0E0],"split_indices":[0,2,7,7,2,2,7,9,7,0,9,7,0,2,0,0,0,0,0,0,0,0,0,0,0,0,0],"split_type":[0,0,0,0,0,0,0,0,0,0,0,0,0,0,0,0,0,0,0,0,0,0,0,0,0,0,0],"sum_hessian":[5.0164936E1,2.6429598E1,2.3735336E1,1.6853765E1,9.575832E0,8.2256975E0,1.5509639E1,7.957258E0,8.896508E0,6.220324E0,3.3555083E0,6.804961E0,1.420736E0,8.912122E0,6.5975175E0,5.571602E0,2.3856564E0,5.7194905E0,3.1770172E0,2.1579564E0,1.197552E0,5.728006E0,1.0769554E0,5.8509974E0,3.0611238E0,5.391223E0,1.2062944E0],"tree_param":{"num_deleted":"0","num_feature":"14","num_nodes":"27","size_leaf_vector":"1"}},{"base_weights":[-1.3645166E-1,1.2558623E-1,-3.6928818E-1,-2.9685605E-1,3.7021556E-1,-4.717209E-2,-1.1464256E-1,1.2192484E-2,-5.117786E-1,6.049103E-1,-3.5438254E-1,3.4979954E-1,-4.5370328E-1,1.1067454E-2,-4.2016555E-2,1.093884E-2,4.4938546E-2,1.5375175E-2,-4.4164285E-2,3.5528123E-2,-1.200938E-2,-3.3273097E-2,2.3587318E-2],"categories":[],"categories_nodes":[],"categories_segments":[],"categories_sizes":[],"default_left":[0,0,0,0,0,0,0,0,0,0,0,0,0,0,0,0,0,0,0,0,0,0,0],"id":28,"left_children":[1,3,5,7,9,-1,11,-1,13,15,17,19,21,-1,-1,-1,-1,-1,-1,-1,-1,-1,-1],"loss_changes":[3.1790538E0,2.6926148E0,3.624588E0,1.3390439E0,3.1551201E0,0E0,3.5491436E0,0E0,2.2120802E0,9.70922E-1,2.1825466E0,2.354018E0,3.0532095E0,0E0,0E0,0E0,0E0,0E0,0E0,0E0,0E0,0E0,0E0],"parents":[2147483647,0,0,1,1,2,2,3,3,4,4,6,6,8,8,9,9,10,10,11,11,12,12],"right_children":[2,4,6,8,10,-1,12,-1,14,16,18,20,22,-1,-1,-1,-1,-1,-1,-1,-1,-1,-1],"split_conditions":[3.0033221E-2,6.3287115E-1,3.1904917E-2,5.1982807E1,1.5389066E0,-4.717209E-2,3.424624E-2,1.2192484E-2,1.7575327E-2,2.2749795E-2,3.1983748E-2,-8.547619E-3,8.066469E-2,1.1067454E-2,-4.2016555E-2,1.093884E-2,4.4938546E-2,1.5375175E-2,-4.4164285E-2,3.5528123E-2,-1.200938E-2,-3.3273097E-2,2.3587318E-2],"split_indices":[9,1,9,0,1,0,9,0,3,9,7,7,7,0,0,0,0,0,0,0,0,0,0],"split_type":[0,0,0,0,0,0,0,0,0,0,0,0,0,0,0,0,0,0,0,0,0,0,0],"sum_hessian":[4.8666325E1,2.2818258E1,2.5848064E1,7.9506836E0,1.4867575E1,6.4537973E0,1.9394268E1,1.9393008E0,6.011383E0,1.1625801E1,3.2417736E0,7.9150014E0,1.1479266E1,1.8233929E0,4.1879897E0,6.4490576E0,5.176744E0,1.5508066E0,1.6909668E0,4.9317756E0,2.983226E0,9.860519E0,1.618747E0],"tree_param":{"num_deleted":"0","num_feature":"14","num_nodes":"23","size_leaf_vector":"1"}},{"base_weights":[1.6872386E-2,-2.1994276E-1,2.914512E-1,7.131982E-2,-6.545525E-1,5.1416826E-1,-5.6560032E-2,4.0919554E-1,-4.0113816E-1,-9.638687E-1,-0E0,-2.037672E-2,7.526942E-1,3.6721468E-2,-3.8097182E-1,3.3656817E-2,-2.2594897E-2,2.8852774E-2,-3.6816504E-2,-5.3472977E-2,-3.6744492E-3,1.7780151E-2,-1.7097149E-2,2.364422E-2,-2.6587522E-2,-0E0,4.1809186E-2,-3.6496334E-2,4.7893533E-3],"categories":[],"categories_nodes":[],"categories_segments":[],"categories_sizes":[],"default_left":[0,0,0,0,0,0,0,0,0,0,0,0,0,0,0,0,0,0,0,0,0,0,0,0,0,0,0,0,0],"id":29,"left_children":[1,3,5,7,9,11,13,15,17,19,21,23,25,-1,27,-1,-1,-1,-1,-1,-1,-1,-1,-1,-1,-1,-1,-1,-1],"loss_changes":[3.4655674E0,3.7523007E0,2.0674167E0,3.1119916E0,2.3938422E0,2.1713357E0,3.1022406E0,3.1029618E0,3.2895947E0,4.041443E-1,8.2001495E-1,1.9140197E0,5.4510975E-1,0E0,1.6917048E0,0E0,0E0,0E0,0E0,0E0,0E0,0E0,0E0,0E0,0E0,0E0,0E0,0E0,0E0],"parents":[2147483647,0,0,1,1,2,2,3,3,4,4,5,5,6,6,7,7,8,8,9,9,10,10,11,11,12,12,14,14],"right_children":[2,4,6,8,10,12,14,16,18,20,22,24,26,-1,28,-1,-1,-1,-1,-1,-1,-1,-1,-1,-1,-1,-1,-1,-1],"split_conditions":[5.817483E1,9.906772E-2,7.1797935E1,3.321341E-2,1.3251473E-1,2.050914E-2,1.937326E-2,2.4434077E-2,-1.3897376E-1,5.518724E-2,2.3173874E-2,9.544064E-2,-1.8715933E-2,3.6721468E-2,3.16938E-2,3.3656817E-2,-2.2594897E-2,2.8852774E-2,-3.6816504E-2,-5.3472977E-2,-3.6744492E-3,1.7780151E-2,-1.7097149E-2,2.364422E-2,-2.6587522E-2,-0E0,4.1809186E-2,-3.6496334E-2,4.7893533E-3],"split_indices":[0,2,0,9,2,9,9,8,8,8,7,2,7,0,9,0,0,0,0,0,0,0,0,0,0,0,0,0,0],"split_type":[0,0,0,0,0,0,0,0,0,0,0,0,0,0,0,0,0,0,0,0,0,0,0,0,0,0,0,0,0],"sum_hessian":[5.009772E1,2.6667751E1,2.3429972E1,1.6442286E1,1.0225467E1,1.4200552E1,9.229419E0,9.950446E0,6.4918385E0,6.4840117E0,3.7414546E0,4.546056E0,9.654496E0,1.9536521E0,7.275767E0,8.044378E0,1.9060686E0,1.2282888E0,5.26355E0,5.3260736E0,1.1579382E0,1.8342581E0,1.9071966E0,2.1723988E0,2.3736572E0,1.3366433E0,8.317853E0,3.983263E0,3.2925036E0],"tree_param":{"num_deleted":"0","num_feature":"14","num_nodes":"29","size_leaf_vector":"1"}},{"base_weights":[8.84224E-3,3.4267148E-1,-1.9154906E-1,4.9669898E-1,-3.5332918E-1,-3.4582084E-1,2.741867E-1,1.8266203E-1,4.5934763E-2,-3.1142807E-2,-0E0,-4.1788888E-1,2.470941E-2,-2.4051458E-1,6.5431154E-1,2.291208E-2,-1.4511784E-2,-0E0,-2.7894774E-2,1.4634927E-2,-3.3468552E-2,4.747723E-2,-1.1554461E-4],"categories":[],"categories_nodes":[],"categories_segments":[],"categories_sizes":[],"default_left":[0,0,0,0,0,0,0,0,0,0,0,0,0,0,0,0,0,0,0,0,0,0,0],"id":30,"left_children":[1,3,5,7,9,11,13,15,-1,-1,-1,17,-1,19,21,-1,-1,-1,-1,-1,-1,-1,-1],"loss_changes":[3.6343975E0,2.497078E0,2.5516872E0,1.873836E0,4.7467184E-1,1.8701062E0,2.0422306E0,1.8351133E0,0E0,0E0,0E0,1.426045E0,0E0,1.4245977E0,1.296437E0,0E0,0E0,0E0,0E0,0E0,0E0,0E0,0E0],"parents":[2147483647,0,0,1,1,2,2,3,3,4,4,5,5,6,6,7,7,11,11,13,13,14,14],"right_children":[2,4,6,8,10,12,14,16,-1,-1,-1,18,-1,20,22,-1,-1,-1,-1,-1,-1,-1,-1],"split_conditions":[2.5812369E-2,5.405032E-2,1.4017893E0,2.2372527E-2,1.9381678E-2,1.9471507E-1,3.1220596E-2,1.9026246E-2,4.5934763E-2,-3.1142807E-2,-0E0,2.8654857E-2,2.470941E-2,2.7820623E-2,2.0413046E0,2.291208E-2,-1.4511784E-2,-0E0,-2.7894774E-2,1.4634927E-2,-3.3468552E-2,4.747723E-2,-1.1554461E-4],"split_indices":[9,7,1,9,9,3,9,9,0,0,0,3,0,9,1,0,0,0,0,0,0,0,0],"split_type":[0,0,0,0,0,0,0,0,0,0,0,0,0,0,0,0,0,0,0,0,0,0,0],"sum_hessian":[5.090508E1,1.9069868E1,3.1835213E1,1.6201338E1,2.86853E0,2.4526588E1,7.308625E0,1.0792844E1,5.408494E0,1.1293247E0,1.7392054E0,2.350211E1,1.0244775E0,3.1152477E0,4.193377E0,7.1156406E0,3.6772032E0,6.392501E0,1.710961E1,1.3930707E0,1.7221771E0,2.6412435E0,1.5521338E0],"tree_param":{"num_deleted":"0","num_feature":"14","num_nodes":"23","size_leaf_vector":"1"}},{"base_weights":[-1.8243963E-2,1.2439213E-1,-3.0184567E-1,-2.7538523E-1,3.072004E-1,-5.9875256E-1,2.6643062E-1,2.6492432E-2,-5.724775E-1,3.8068703E-1,-1.9372007E-2,-7.853899E-1,-0E0,3.602531E-2,-3.201413E-1,-4.7229778E-2,-4.34532E-3,3.0402472E-2,5.2166977E-3,-0E0,-4.6005595E-2,1.8768897E-2,-1.9770002E-2,-4.0234633E-2,1.3985264E-2],"categories":[],"categories_nodes":[],"categories_segments":[],"categories_sizes":[],"default_left":[0,0,0,0,0,0,0,0,0,0,0,0,0,0,0,0,0,0,0,0,0,0,0,0,0],"id":31,"left_children":[1,3,5,7,9,11,13,-1,15,17,-1,19,21,-1,23,-1,-1,-1,-1,-1,-1,-1,-1,-1,-1],"loss_changes":[2.173758E0,2.6792622E0,3.3647356E0,3.1857438E0,1.4939218E0,1.4974165E0,2.2981272E0,0E0,1.3355768E0,1.2444105E0,0E0,1.1016111E0,8.6599356E-1,0E0,1.5800157E0,0E0,0E0,0E0,0E0,0E0,0E0,0E0,0E0,0E0,0E0],"parents":[2147483647,0,0,1,1,2,2,3,3,4,4,5,5,6,6,8,8,9,9,11,11,12,12,14,14],"right_children":[2,4,6,8,10,12,14,-1,16,18,-1,20,22,-1,24,-1,-1,-1,-1,-1,-1,-1,-1,-1,-1],"split_conditions":[4.138026E-2,-3.6456164E-2,9.6267454E-2,-1.2190636E-1,1.269853E-1,8.1669666E-2,2.8559384E-1,2.6492432E-2,-6.549393E-2,8.231073E-3,-1.9372007E-2,4.798221E-3,2.915037E-2,3.602531E-2,1.1286048E-1,-4.7229778E-2,-4.34532E-3,3.0402472E-2,5.2166977E-3,-0E0,-4.6005595E-2,1.8768897E-2,-1.9770002E-2,-4.0234633E-2,1.3985264E-2],"split_indices":[7,7,8,8,8,7,2,0,8,7,0,3,3,0,7,0,0,0,0,0,0,0,0,0,0],"split_type":[0,0,0,0,0,0,0,0,0,0,0,0,0,0,0,0,0,0,0,0,0,0,0,0,0],"sum_hessian":[4.996728E1,3.3337307E1,1.6629972E1,9.879184E0,2.3458124E1,1.1101355E1,5.528619E0,2.1644182E0,7.714765E0,2.208735E1,1.370773E0,8.251454E0,2.8498998E0,3.115398E0,2.413221E0,3.3316622E0,4.383103E0,1.0732969E1,1.1354382E1,1.345334E0,6.9061203E0,1.6483138E0,1.2015859E0,1.2359791E0,1.1772417E0],"tree_param":{"num_deleted":"0","num_feature":"14","num_nodes":"25","size_leaf_vector":"1"}},{"base_weights":[-2.9235283E-2,7.016798E-2,-3.6487222E-1,-1.8945092E-1,3.8540986E-1,-3.5888392E-2,-0E0,2.5935668E-1,-3.7708646E-1,-9.5418476E-2,5.089869E-1,2.8231949E-2,-3.2782486E-1,2.7830927E-2,-1.5699875E-2,-3.365481E-2,-0E0,2.8573869E-2,-3.3002432E-2,2.2122515E-3,3.330127E-2,5.408308E-3,-3.6796406E-2],"categories":[],"categories_nodes":[],"categories_segments":[],"categories_sizes":[],"default_left":[0,0,0,0,0,0,0,0,0,0,0,0,0,0,0,0,0,0,0,0,0,0,0],"id":32,"left_children":[1,3,5,7,9,-1,11,13,15,17,19,-1,21,-1,-1,-1,-1,-1,-1,-1,-1,-1,-1],"loss_changes":[1.7684604E0,3.3767452E0,1.6713022E0,2.047072E0,1.2640312E0,0E0,1.6575699E0,1.5284699E0,1.750042E0,2.3708103E0,9.3829274E-1,0E0,1.2016822E0,0E0,0E0,0E0,0E0,0E0,0E0,0E0,0E0,0E0,0E0],"parents":[2147483647,0,0,1,1,2,2,3,3,4,4,6,6,7,7,8,8,9,9,10,10,12,12],"right_children":[2,4,6,8,10,-1,12,14,16,18,20,-1,22,-1,-1,-1,-1,-1,-1,-1,-1,-1,-1],"split_conditions":[5.5580083E-2,9.3493205E-1,8.1669666E-2,2.8748076E-2,-6.660501E-2,-3.5888392E-2,8.986849E-1,3.5789307E-2,5.949094E-1,3.890159E1,1.6908655E-2,2.8231949E-2,1.0695345E-1,2.7830927E-2,-1.5699875E-2,-3.365481E-2,-0E0,2.8573869E-2,-3.3002432E-2,2.2122515E-3,3.330127E-2,5.408308E-3,-3.6796406E-2],"split_indices":[7,1,7,3,7,0,1,7,1,0,3,0,7,0,0,0,0,0,0,0,0,0,0],"split_type":[0,0,0,0,0,0,0,0,0,0,0,0,0,0,0,0,0,0,0,0,0,0,0],"sum_hessian":[4.8588295E1,3.794185E1,1.0646445E1,2.0786854E1,1.7154997E1,4.8828387E0,5.7636065E0,5.645077E0,1.5141776E1,3.2464986E0,1.3908499E1,1.886607E0,3.8769996E0,3.976187E0,1.6688904E0,7.585816E0,7.55596E0,1.3177149E0,1.9287837E0,4.320007E0,9.588491E0,2.170518E0,1.7064817E0],"tree_param":{"num_deleted":"0","num_feature":"14","num_nodes":"23","size_leaf_vector":"1"}},{"base_weights":[-1.2571457E-2,-9.367164E-2,4.4393298E-1,1.8350609E-1,-3.066155E-1,9.8678833E-1,-3.620873E-2,7.168923E-1,-1.1174609E-1,-4.7260922E-1,3.9443314E-1,5.7155427E-2,7.6133474E-3,3.8463883E-3,3.8683318E-2,-3.6789164E-2,9.0716425E-3,3.3605509E-3,-3.6900964E-2,-4.570109E-3,3.2932144E-2],"categories":[],"categories_nodes":[],"categories_segments":[],"categories_sizes":[],"default_left":[0,0,0,0,0,0,0,0,0,0,0,0,0,0,0,0,0,0,0,0,0],"id":33,"left_children":[1,3,5,7,9,11,-1,13,15,17,19,-1,-1,-1,-1,-1,-1,-1,-1,-1,-1],"loss_changes":[1.816461E0,2.6735141E0,5.767468E0,3.2975702E0,3.267479E0,2.3003244E-1,0E0,7.97534E-3,2.7899344E0,3.2981858E0,9.067625E-1,0E0,0E0,0E0,0E0,0E0,0E0,0E0,0E0,0E0,0E0],"parents":[2147483647,0,0,1,1,2,2,3,3,4,4,5,5,7,7,8,8,9,9,10,10],"right_children":[2,4,6,8,10,12,-1,14,16,18,20,-1,-1,-1,-1,-1,-1,-1,-1,-1,-1],"split_conditions":[3.532321E-2,2.5427187E-2,3.978836E-2,6.5758373E-3,1.6279925E-1,4.344389E-2,-3.620873E-2,1.6783327E-2,5.8109222E1,2.8654857E-2,2.8005203E1,5.7155427E-2,7.6133474E-3,3.8463883E-3,3.8683318E-2,-3.6789164E-2,9.0716425E-3,3.3605509E-3,-3.6900964E-2,-4.570109E-3,3.2932144E-2],"split_indices":[9,9,9,7,3,7,0,9,0,3,0,0,0,0,0,0,0,0,0,0,0],"split_type":[0,0,0,0,0,0,0,0,0,0,0,0,0,0,0,0,0,0,0,0,0],"sum_hessian":[4.777092E1,4.1948833E1,5.822088E0,1.7907604E1,2.404123E1,4.250708E0,1.5713798E0,5.858766E0,1.2048838E1,2.0064451E1,3.9767766E0,2.9110873E0,1.3396207E0,1.0523008E0,4.806465E0,3.345513E0,8.703324E0,6.73423E0,1.3330222E1,1.4797971E0,2.4969797E0],"tree_param":{"num_deleted":"0","num_feature":"14","num_nodes":"21","size_leaf_vector":"1"}},{"base_weights":[5.15757E-2,-5.3309166E-1,1.6168268E-1,-8.776857E-1,1.544866E-2,2.23391E-1,-3.576249E-2,-2.421892E-3,-5.041314E-2,3.0038106E-1,-5.1211685E-1,4.3102875E-3,2.8154582E-2,-3.62422E-2,-0E0],"categories":[],"categories_nodes":[],"categories_segments":[],"categories_sizes":[],"default_left":[0,0,0,0,0,0,0,0,0,0,0,0,0,0,0],"id":34,"left_children":[1,3,5,7,-1,9,-1,-1,-1,11,13,-1,-1,-1,-1],"loss_changes":[3.3302946E0,2.8779216E0,2.5360227E0,4.001832E-1,0E0,2.6063669E0,0E0,0E0,0E0,2.039282E0,5.307083E-1,0E0,0E0,0E0,0E0],"parents":[2147483647,0,0,1,1,2,2,3,3,5,5,9,9,10,10],"right_children":[2,4,6,8,-1,10,-1,-1,-1,12,14,-1,-1,-1,-1],"split_conditions":[4.6363777E-1,1.8987751E-1,3.978836E-2,6.8730876E-2,1.544866E-2,2.8578198E-1,-3.576249E-2,-2.421892E-3,-5.041314E-2,5.8666946E1,1.1009861E0,4.3102875E-3,2.8154582E-2,-3.62422E-2,-0E0],"split_indices":[1,2,9,2,0,2,0,0,0,0,1,0,0,0,0],"split_type":[0,0,0,0,0,0,0,0,0,0,0,0,0,0,0],"sum_hessian":[4.9377518E1,6.6242113E0,4.2753304E1,4.8241196E0,1.8000919E0,4.1200077E1,1.5532268E0,1.1444187E0,3.6797009E0,3.834554E1,2.8545387E0,2.2640959E1,1.570458E1,1.6837635E0,1.1707752E0],"tree_param":{"num_deleted":"0","num_feature":"14","num_nodes":"15","size_leaf_vector":"1"}},{"base_weights":[-0E0,6.768414E-1,-1.19465694E-1,4.1769307E-2,-7.614195E-4,-2.3118612E-1,1.0611137E-1,-0E0,-5.495671E-1,5.537359E-1,-2.5635043E-1,-1.3206956E-2,2.7518496E-2,1.3581861E-3,-4.433135E-2,4.543112E-3,3.6623552E-2,2.7204782E-2,-2.5529822E-2],"categories":[],"categories_nodes":[],"categories_segments":[],"categories_sizes":[],"default_left":[0,0,0,0,0,0,0,0,0,0,0,0,0,0,0,0,0,0,0],"id":35,"left_children":[1,3,5,-1,-1,7,9,11,13,15,17,-1,-1,-1,-1,-1,-1,-1,-1],"loss_changes":[3.9903312E0,9.9208045E-1,1.1438487E0,0E0,0E0,2.183303E0,2.6503377E0,2.943763E0,2.6376727E0,3.377328E-1,2.2165751E0,0E0,0E0,0E0,0E0,0E0,0E0,0E0,0E0],"parents":[2147483647,0,0,1,1,2,2,5,5,6,6,7,7,8,8,9,9,10,10],"right_children":[2,4,6,-1,-1,8,10,12,14,16,18,-1,-1,-1,-1,-1,-1,-1,-1],"split_conditions":[1.9044382E-2,3.5789307E-2,5.1310897E-2,4.1769307E-2,-7.614195E-4,6.6546043E-3,6.984575E1,-1.158788E-2,7.99632E-3,6.0157032E1,7.430092E-2,-1.3206956E-2,2.7518496E-2,1.3581861E-3,-4.433135E-2,4.543112E-3,3.6623552E-2,2.7204782E-2,-2.5529822E-2],"split_indices":[9,7,8,0,0,8,0,8,7,0,8,0,0,0,0,0,0,0,0],"split_type":[0,0,0,0,0,0,0,0,0,0,0,0,0,0,0,0,0,0,0],"sum_hessian":[4.7308025E1,5.872739E0,4.1435287E1,4.760524E0,1.1122149E0,2.8279003E1,1.3156283E1,1.7280321E1,1.0998683E1,5.779309E0,7.376975E0,1.2222753E1,5.0575686E0,4.3467927E0,6.65189E0,2.5519629E0,3.2273462E0,1.1764495E0,6.2005253E0],"tree_param":{"num_deleted":"0","num_feature":"14","num_nodes":"19","size_leaf_vector":"1"}},{"base_weights":[-0E0,2.1678823E-1,-1.9279407E-1,7.436866E-1,-9.221434E-2,-4.9517775E-1,5.108679E-1,-0E0,4.782281E-2,-4.6776738E-2,1.1946601E-1,-5.985674E-1,1.0656145E-2,4.3959416E-2,-1.3628212E-1,-1.7237091E-2,2.0797549E-2,-3.5359967E-2,1.4383583E-2,-2.6264621E-2,1.4728365E-2],"categories":[],"categories_nodes":[],"categories_segments":[],"categories_sizes":[],"default_left":[0,0,0,0,0,0,0,0,0,0,0,0,0,0,0,0,0,0,0,0,0],"id":36,"left_children":[1,3,5,7,9,11,13,-1,-1,-1,15,17,-1,-1,19,-1,-1,-1,-1,-1,-1],"loss_changes":[2.0353732E0,3.9195561E0,5.936315E0,1.4444017E0,3.074138E0,1.6772032E0,2.32898E0,0E0,0E0,0E0,2.0769541E0,2.0668426E0,0E0,0E0,9.73161E-1,0E0,0E0,0E0,0E0,0E0,0E0],"parents":[2147483647,0,0,1,1,2,2,3,3,4,4,5,5,6,6,10,10,11,11,14,14],"right_children":[2,4,6,8,10,12,14,-1,-1,-1,16,18,-1,-1,20,-1,-1,-1,-1,-1,-1],"split_conditions":[8.231073E-3,2.960321E-2,9.878163E-2,5.490984E-1,3.1118343E-2,2.0916499E-1,2.9049635E-1,-0E0,4.782281E-2,-4.6776738E-2,-6.870631E-2,1.2848113E-1,1.0656145E-2,4.3959416E-2,1.19420886E-1,-1.7237091E-2,2.0797549E-2,-3.5359967E-2,1.4383583E-2,-2.6264621E-2,1.4728365E-2],"split_indices":[7,9,8,1,9,2,2,0,0,0,7,3,0,0,7,0,0,0,0,0,0],"split_type":[0,0,0,0,0,0,0,0,0,0,0,0,0,0,0,0,0,0,0,0,0],"sum_hessian":[4.5772663E1,2.11419E1,2.4630766E1,7.2746363E0,1.3867263E1,1.7737226E1,6.8935394E0,1.890805E0,5.383831E0,1.9427903E0,1.1924472E1,1.5927119E1,1.8101072E0,4.247388E0,2.6461515E0,4.2895656E0,7.634907E0,1.4658981E1,1.268138E0,1.4617481E0,1.1844034E0],"tree_param":{"num_deleted":"0","num_feature":"14","num_nodes":"21","size_leaf_vector":"1"}},{"base_weights":[2.1098126E-2,-2.4504897E-1,2.9807076E-1,-4.648878E-1,2.592469E-1,-4.007119E-1,4.7635207E-1,-4.7502983E-2,-1.3676879E-1,6.697097E-1,-1.9454613E-1,1.434761E-1,-4.4255268E-2,4.9706373E-2,2.1805646E-1,-1.4309381E-2,1.974717E-2,5.2620154E-3,4.046301E-2,3.419336E-3,-2.6473895E-2,2.4626113E-2,-1.0335562E-2,-1.7126424E-2,1.7008005E-2],"categories":[],"categories_nodes":[],"categories_segments":[],"categories_sizes":[],"default_left":[0,0,0,0,0,0,0,0,0,0,0,0,0,0,0,0,0,0,0,0,0,0,0,0,0],"id":37,"left_children":[1,3,5,7,9,11,13,-1,15,17,19,21,-1,-1,23,-1,-1,-1,-1,-1,-1,-1,-1,-1,-1],"loss_changes":[3.7058227E0,3.0224028E0,3.4011424E0,2.5176976E0,1.8468308E0,1.8266462E0,2.2057362E0,0E0,1.1788449E0,7.97708E-2,5.7798624E-1,6.687825E-1,0E0,0E0,1.2704703E0,0E0,0E0,0E0,0E0,0E0,0E0,0E0,0E0,0E0,0E0],"parents":[2147483647,0,0,1,1,2,2,3,3,4,4,5,5,6,6,8,8,9,9,10,10,11,11,14,14],"right_children":[2,4,6,8,10,12,14,-1,16,18,20,22,-1,-1,24,-1,-1,-1,-1,-1,-1,-1,-1,-1,-1],"split_conditions":[9.3493205E-1,1.6843784E-1,-5.8963887E-2,4.9674505E-1,6.000214E-1,3.3983182E-2,9.028422E-3,-4.7502983E-2,4.8391376E-2,3.0371817E-2,2.5623026E-1,-1.899067E-2,-4.4255268E-2,4.9706373E-2,1.8219246E-2,-1.4309381E-2,1.974717E-2,5.2620154E-3,4.046301E-2,3.419336E-3,-2.6473895E-2,2.4626113E-2,-1.0335562E-2,-1.7126424E-2,1.7008005E-2],"split_indices":[1,2,7,1,1,9,8,0,8,9,2,8,0,0,9,0,0,0,0,0,0,0,0,0,0],"split_type":[0,0,0,0,0,0,0,0,0,0,0,0,0,0,0,0,0,0,0,0,0,0,0,0,0],"sum_hessian":[4.7141838E1,2.3760662E1,2.3381176E1,1.6905025E1,6.8556366E0,4.14426E0,1.9236917E1,5.4272704E0,1.1477756E1,3.4563437E0,3.399293E0,2.2543945E0,1.8898654E0,4.7225876E0,1.451433E1,9.794224E0,1.6835319E0,1.4907547E0,1.965589E0,2.2385483E0,1.1607448E0,1.1097265E0,1.144668E0,1.8187137E0,1.2695616E1],"tree_param":{"num_deleted":"0","num_feature":"14","num_nodes":"25","size_leaf_vector":"1"}},{"base_weights":[6.238802E-2,3.251356E-1,-9.326878E-2,-1.1845331E-1,4.2898667E-1,-2.2799957E-1,3.3164212E-1,-1.8700209E-2,1.0702757E-2,-8.7029105E-3,5.218557E-1,-3.6579028E-1,5.2855007E-2,-2.2820258E-1,7.6356816E-1,-1.075599E-3,2.9373068E-2,-2.6137556E-3,-3.811044E-2,3.4758788E-2,-1.5173497E-2,1.4587471E-2,-3.272644E-2,1.7934568E-3,4.5162886E-2],"categories":[],"categories_nodes":[],"categories_segments":[],"categories_sizes":[],"default_left":[0,0,0,0,0,0,0,0,0,0,0,0,0,0,0,0,0,0,0,0,0,0,0,0,0],"id":38,"left_children":[1,3,5,7,9,11,13,-1,-1,-1,15,17,19,21,23,-1,-1,-1,-1,-1,-1,-1,-1,-1,-1],"loss_changes":[2.2014964E0,1.0597775E0,1.9864771E0,5.4334116E-1,1.1521499E0,1.1117924E0,2.3555496E0,0E0,0E0,0E0,6.777482E-1,2.0582762E0,2.5713174E0,1.3636051E0,2.9069638E-1,0E0,0E0,0E0,0E0,0E0,0E0,0E0,0E0,0E0,0E0],"parents":[2147483647,0,0,1,1,2,2,3,3,4,4,5,5,6,6,10,10,11,11,12,12,13,13,14,14],"right_children":[2,4,6,8,10,12,14,-1,-1,-1,16,18,20,22,24,-1,-1,-1,-1,-1,-1,-1,-1,-1,-1],"split_conditions":[2.5812369E-2,1.6783327E-2,1.4411937E0,6.925398E1,4.067796E-1,1.6843784E-1,3.1441778E-2,-1.8700209E-2,1.0702757E-2,-8.7029105E-3,4.666498E1,4.915107E1,6.000214E-1,1.19755626E-1,-5.340471E-2,-1.075599E-3,2.9373068E-2,-2.6137556E-3,-3.811044E-2,3.4758788E-2,-1.5173497E-2,1.4587471E-2,-3.272644E-2,1.7934568E-3,4.5162886E-2],"split_indices":[9,9,1,0,1,2,9,0,0,0,0,0,1,2,8,0,0,0,0,0,0,0,0,0,0],"split_type":[0,0,0,0,0,0,0,0,0,0,0,0,0,0,0,0,0,0,0,0,0,0,0,0,0],"sum_hessian":[5.0082294E1,1.8502272E1,3.1580023E1,3.104591E0,1.5397681E1,2.486245E1,6.717574E0,1.9896959E0,1.114895E0,1.5924153E0,1.3805265E1,1.685276E1,8.009687E0,3.0320318E0,3.685542E0,1.2674508E0,1.2537815E1,1.064013E1,6.212631E0,2.5492275E0,5.46046E0,1.367991E0,1.6640409E0,1.127718E0,2.5578241E0],"tree_param":{"num_deleted":"0","num_feature":"14","num_nodes":"25","size_leaf_vector":"1"}},{"base_weights":[-1.8505039E-2,5.4251436E-2,-6.034661E-1,-2.5304979E-2,4.0765986E-2,-3.9702874E-2,8.3152857E-4,1.755865E-1,-3.01228E-1,3.7733078E-2,2.3338238E-3,-4.4910863E-2,-9.416402E-4],"categories":[],"categories_nodes":[],"categories_segments":[],"categories_sizes":[],"default_left":[0,0,0,0,0,0,0,0,0,0,0,0,0],"id":39,"left_children":[1,3,5,7,-1,-1,-1,9,11,-1,-1,-1,-1],"loss_changes":[2.2544131E0,2.905222E0,8.695431E-1,2.4232826E0,0E0,0E0,0E0,1.6334012E0,2.9263968E0,0E0,0E0,0E0,0E0],"parents":[2147483647,0,0,1,1,2,2,3,3,7,7,8,8],"right_children":[2,4,6,8,-1,-1,-1,10,12,-1,-1,-1,-1],"split_conditions":[3.7110865E-2,3.532321E-2,4.0898785E-2,3.0033221E-2,4.0765986E-2,-3.9702874E-2,8.3152857E-4,6.019734E-2,3.158102E-2,3.7733078E-2,2.3338238E-3,-4.4910863E-2,-9.416402E-4],"split_indices":[9,9,8,9,0,0,0,2,9,0,0,0,0],"split_type":[0,0,0,0,0,0,0,0,0,0,0,0,0],"sum_hessian":[4.7735817E1,4.336156E1,4.3742566E0,4.0332806E1,3.0287538E0,3.2707045E0,1.103552E0,2.3235985E1,1.7096823E1,2.6225471E0,2.0613438E1,4.212409E0,1.2884413E1],"tree_param":{"num_deleted":"0","num_feature":"14","num_nodes":"13","size_leaf_vector":"1"}},{"base_weights":[2.7167745E-2,7.948605E-2,-3.560908E-2,2.2697482E-1,-2.0901354E-1,-1.6213968E-2,2.7737084E-1,-4.6465665E-1,2.0706202E-1,1.7688217E-2,-4.023048E-3,5.4031964E-3,-2.7959138E-2,-1.8408962E-2,2.2395298E-2],"categories":[],"categories_nodes":[],"categories_segments":[],"categories_sizes":[],"default_left":[0,0,0,0,0,0,0,0,0,0,0,0,0,0,0],"id":40,"left_children":[1,3,-1,5,7,-1,9,11,13,-1,-1,-1,-1,-1,-1],"loss_changes":[1.8873991E0,2.1246555E0,0E0,1.0438776E0,1.9635878E0,0E0,9.5648503E-1,7.793226E-1,1.2421023E0,0E0,0E0,0E0,0E0,0E0,0E0],"parents":[2147483647,0,0,1,1,3,3,4,4,6,6,7,7,8,8],"right_children":[2,4,-1,6,8,-1,10,12,14,-1,-1,-1,-1,-1,-1],"split_conditions":[3.978836E-2,4.138026E-2,-3.560908E-2,-1.02149E-1,8.1669666E-2,-1.6213968E-2,6.6945206E1,2.1135174E-3,4.187E1,1.7688217E-2,-4.023048E-3,5.4031964E-3,-2.7959138E-2,-1.8408962E-2,2.2395298E-2],"split_indices":[9,7,0,7,7,0,0,3,0,0,0,0,0,0,0],"split_type":[0,0,0,0,0,0,0,0,0,0,0,0,0,0,0],"sum_hessian":[4.8369453E1,4.6675797E1,1.693656E0,3.1556429E1,1.51193695E1,1.6280113E0,2.9928417E1,9.554488E0,5.564881E0,2.5137735E1,4.7906823E0,1.0233728E0,8.531116E0,1.1631935E0,4.401687E0],"tree_param":{"num_deleted":"0","num_feature":"14","num_nodes":"15","size_leaf_vector":"1"}},{"base_weights":[-9.259583E-2,2.023426E-1,-2.73461E-1,-1.032101E-1,6.693106E-1,-4.271794E-1,2.1822754E-1,4.1483065E-1,-3.6852786E-1,3.9026566E-2,-0E0,-5.0879157E-1,1.774416E-2,-3.4114593E-1,6.140794E-1,3.489057E-2,-8.232348E-3,-4.720425E-2,9.729861E-3,-1.1220971E-2,-3.9776262E-2,1.3812497E-2,-3.985114E-2,3.877375E-2,-0E0],"categories":[],"categories_nodes":[],"categories_segments":[],"categories_sizes":[],"default_left":[0,0,0,0,0,0,0,0,0,0,0,0,0,0,0,0,0,0,0,0,0,0,0,0,0],"id":41,"left_children":[1,3,5,7,9,11,13,15,17,-1,-1,19,-1,21,23,-1,-1,-1,-1,-1,-1,-1,-1,-1,-1],"loss_changes":[2.6871061E0,2.9131353E0,2.5362506E0,1.9331013E0,6.361909E-1,1.868587E0,2.163026E0,1.0450325E0,3.4370518E0,0E0,0E0,1.4100266E0,0E0,1.5919926E0,5.823262E-1,0E0,0E0,0E0,0E0,0E0,0E0,0E0,0E0,0E0,0E0],"parents":[2147483647,0,0,1,1,2,2,3,3,4,4,5,5,6,6,7,7,8,8,11,11,13,13,14,14],"right_children":[2,4,6,8,10,12,14,16,18,-1,-1,20,-1,22,24,-1,-1,-1,-1,-1,-1,-1,-1,-1,-1],"split_conditions":[2.5812369E-2,2.2372527E-2,1.4017893E0,9.244051E-2,5.9340313E-2,1.8526284E-1,3.1441778E-2,4.087146E-2,6.961089E1,3.9026566E-2,-0E0,8.251205E-1,1.774416E-2,1.19755626E-1,2.092861E0,3.489057E-2,-8.232348E-3,-4.720425E-2,9.729861E-3,-1.1220971E-2,-3.9776262E-2,1.3812497E-2,-3.985114E-2,3.877375E-2,-0E0],"split_indices":[9,9,1,2,7,3,9,3,0,0,0,1,0,2,1,0,0,0,0,0,0,0,0,0,0],"split_type":[0,0,0,0,0,0,0,0,0,0,0,0,0,0,0,0,0,0,0,0,0,0,0,0,0],"sum_hessian":[4.7050514E1,1.739706E1,2.9653454E1,1.096347E1,6.4335895E0,2.3050615E1,6.6028376E0,3.1716437E0,7.7918267E0,5.377962E0,1.0556276E0,2.1578646E1,1.471971E0,2.612791E0,3.9900463E0,2.157085E0,1.0145588E0,3.5271766E0,4.2646503E0,1.2526669E1,9.051976E0,1.1744931E0,1.4382981E0,2.9109697E0,1.0790765E0],"tree_param":{"num_deleted":"0","num_feature":"14","num_nodes":"25","size_leaf_vector":"1"}},{"base_weights":[-2.367207E-2,-2.0305124E-1,1.6779764E-1,1.4893769E-1,-4.0725687E-1,-2.235604E-1,2.717238E-1,5.7877445E-1,-3.8680932E-1,-3.727091E-2,-7.1580464E-1,2.9121098E-1,-3.503976E-2,-5.2665945E-2,4.9323225E-1,-7.410729E-4,4.344451E-2,-4.732693E-2,1.4385261E-2,8.691067E-3,-3.3155154E-2,-4.8010644E-2,-2.9797428E-3,2.3020072E-2,-0E0,-3.5214733E-2,1.4707873E-2,2.3728495E-3,3.3476494E-2],"categories":[],"categories_nodes":[],"categories_segments":[],"categories_sizes":[],"default_left":[0,0,0,0,0,0,0,0,0,0,0,0,0,0,0,0,0,0,0,0,0,0,0,0,0,0,0,0,0],"id":42,"left_children":[1,3,5,7,9,11,13,15,17,19,21,23,-1,25,27,-1,-1,-1,-1,-1,-1,-1,-1,-1,-1,-1,-1,-1,-1],"loss_changes":[1.8099811E0,2.1230536E0,1.1156642E0,2.873822E0,1.8867948E0,1.7773118E0,1.621537E0,1.3664331E0,2.6257918E0,1.6119348E0,1.2411566E0,2.3555616E-1,0E0,2.5235605E0,8.203871E-1,0E0,0E0,0E0,0E0,0E0,0E0,0E0,0E0,0E0,0E0,0E0,0E0,0E0,0E0],"parents":[2147483647,0,0,1,1,2,2,3,3,4,4,5,5,6,6,7,7,8,8,9,9,10,10,11,11,13,13,14,14],"right_children":[2,4,6,8,10,12,14,16,18,20,22,24,-1,26,28,-1,-1,-1,-1,-1,-1,-1,-1,-1,-1,-1,-1,-1,-1],"split_conditions":[9.3493205E-1,2.8654857E-2,-5.8963887E-2,6.000214E-1,5.1996326E1,3.3983182E-2,2.6482733E-2,2.0414423E-2,5.1310897E-2,3.2986138E-2,7.285149E-1,-9.13515E-2,-3.503976E-2,1.2685959E0,4.666498E1,-7.410729E-4,4.344451E-2,-4.732693E-2,1.4385261E-2,8.691067E-3,-3.3155154E-2,-4.8010644E-2,-2.9797428E-3,2.3020072E-2,-0E0,-3.5214733E-2,1.4707873E-2,2.3728495E-3,3.3476494E-2],"split_indices":[1,3,7,1,0,9,3,9,8,7,1,7,0,1,0,0,0,0,0,0,0,0,0,0,0,0,0,0,0],"split_type":[0,0,0,0,0,0,0,0,0,0,0,0,0,0,0,0,0,0,0,0,0,0,0,0,0,0,0,0,0],"sum_hessian":[4.9505642E1,2.6052279E1,2.3453362E1,9.354504E0,1.6697775E1,4.155123E0,1.9298239E1,5.330564E0,4.0239396E0,8.65217E0,8.045605E0,2.0786211E0,2.076502E0,7.9281936E0,1.1370045E1,1.9909457E0,3.3396182E0,2.0305305E0,1.9934092E0,7.041045E0,1.6111249E0,5.133808E0,2.9117966E0,1.0429933E0,1.035628E0,2.4172175E0,5.5109763E0,4.0833535E0,7.286691E0],"tree_param":{"num_deleted":"0","num_feature":"14","num_nodes":"29","size_leaf_vector":"1"}},{"base_weights":[-3.9627142E-2,-2.1981372E-1,1.6494289E-1,1.2176954E-1,-3.9713466E-1,4.5239845E-1,-1.3500922E-2,6.3987845E-1,-4.486895E-1,-6.074545E-1,5.2295875E-2,3.843474E-2,-1.3645365E-2,-8.742761E-1,2.5999427E-1,-0E0,4.5954745E-2,-4.268301E-2,3.1960048E-3,-3.5162016E-3,-3.720757E-2,-1.7316634E-2,2.204547E-2,-7.2331466E-3,-5.198414E-2,-1.6638173E-2,2.1706833E-2],"categories":[],"categories_nodes":[],"categories_segments":[],"categories_sizes":[],"default_left":[0,0,0,0,0,0,0,0,0,0,0,0,0,0,0,0,0,0,0,0,0,0,0,0,0,0,0],"id":43,"left_children":[1,3,5,7,9,11,13,15,17,19,21,-1,-1,23,25,-1,-1,-1,-1,-1,-1,-1,-1,-1,-1,-1,-1],"loss_changes":[1.7815062E0,1.6973934E0,1.2326388E0,3.3118703E0,1.8410182E0,2.4677114E0,3.9215953E0,1.0986159E0,1.335088E0,6.798029E-1,1.2938908E0,0E0,0E0,2.7700424E-2,1.4886849E0,0E0,0E0,0E0,0E0,0E0,0E0,0E0,0E0,0E0,0E0,0E0,0E0],"parents":[2147483647,0,0,1,1,2,2,3,3,4,4,5,5,6,6,7,7,8,8,9,9,10,10,13,13,14,14],"right_children":[2,4,6,8,10,12,14,16,18,20,22,-1,-1,24,26,-1,-1,-1,-1,-1,-1,-1,-1,-1,-1,-1,-1],"split_conditions":[9.3493205E-1,2.8748076E-2,9.544064E-2,6.000214E-1,6.96525E-1,3.3366345E-2,2.2051059E-2,1.1116218E-2,5.1310897E-2,2.5366455E-2,5.8563847E-2,3.843474E-2,-1.3645365E-2,1.1860441E0,5.8894027E-3,-0E0,4.5954745E-2,-4.268301E-2,3.1960048E-3,-3.5162016E-3,-3.720757E-2,-1.7316634E-2,2.204547E-2,-7.2331466E-3,-5.198414E-2,-1.6638173E-2,2.1706833E-2],"split_indices":[1,3,2,1,1,9,8,3,8,9,3,0,0,1,3,0,0,0,0,0,0,0,0,0,0,0,0],"split_type":[0,0,0,0,0,0,0,0,0,0,0,0,0,0,0,0,0,0,0,0,0,0,0,0,0,0,0],"sum_hessian":[4.5057537E1,2.4416882E1,2.0640657E1,8.118938E0,1.6297943E1,7.4528236E0,1.3187834E1,4.342763E0,3.7761755E0,1.1046235E1,5.2517076E0,5.3192024E0,2.1336212E0,2.56168E0,1.0626153E1,1.710224E0,2.632539E0,1.7700119E0,2.0061636E0,2.9985693E0,8.047666E0,2.4189587E0,2.8327491E0,1.2165353E0,1.3451447E0,1.8418723E0,8.784281E0],"tree_param":{"num_deleted":"0","num_feature":"14","num_nodes":"27","size_leaf_vector":"1"}},{"base_weights":[1.4381873E-2,-1.6837206E-1,2.2642429E-1,-2.9323822E-2,-5.2955773E-2,3.062566E-1,-2.5977692E-2,2.0444678E-1,-4.31034E-1,5.131826E-1,6.437921E-2,2.7662253E-2,-1.6804833E-2,-3.347152E-2,2.2230325E-2,3.328266E-3,3.1343307E-2,1.453311E-2,-3.2259624E-2],"categories":[],"categories_nodes":[],"categories_segments":[],"categories_sizes":[],"default_left":[0,0,0,0,0,0,0,0,0,0,0,0,0,0,0,0,0,0,0],"id":44,"left_children":[1,3,5,7,-1,9,-1,11,13,15,17,-1,-1,-1,-1,-1,-1,-1,-1],"loss_changes":[2.0308096E0,3.1475966E0,1.6600426E0,2.5782034E0,0E0,1.0057619E0,0E0,3.50168E0,2.6209779E0,4.052844E-1,2.2891145E0,0E0,0E0,0E0,0E0,0E0,0E0,0E0,0E0],"parents":[2147483647,0,0,1,1,2,2,3,3,5,5,7,7,8,8,9,9,10,10],"right_children":[2,4,6,8,-1,10,-1,12,14,16,18,-1,-1,-1,-1,-1,-1,-1,-1],"split_conditions":[5.8109222E1,5.62534E1,2.1373154E-1,6.6546043E-3,-5.2955773E-2,4.138026E-2,-2.5977692E-2,3.424624E-2,5.374865E1,1.8706858E-2,7.834896E1,2.7662253E-2,-1.6804833E-2,-3.347152E-2,2.2230325E-2,3.328266E-3,3.1343307E-2,1.453311E-2,-3.2259624E-2],"split_indices":[0,0,8,8,0,7,0,9,0,8,0,0,0,0,0,0,0,0,0],"split_type":[0,0,0,0,0,0,0,0,0,0,0,0,0,0,0,0,0,0,0],"sum_hessian":[4.913054E1,2.6047007E1,2.3083532E1,2.4064383E1,1.9826245E0,2.1892908E1,1.1906232E0,1.5362861E1,8.701522E0,1.0446538E1,1.144637E1,9.541035E0,5.8218255E0,7.2966347E0,1.4048876E0,2.9590764E0,7.487462E0,9.563862E0,1.882509E0],"tree_param":{"num_deleted":"0","num_feature":"14","num_nodes":"19","size_leaf_vector":"1"}},{"base_weights":[-0E0,1.2967382E-1,-2.8766882E-1,5.2440757E-1,-2.4694411E-2,-4.8413625E-1,2.0754494E-2,-1.2716291E-2,6.8416184E-1,-3.4904297E-2,6.834546E-2,-5.874362E-1,-9.112696E-2,-0E0,4.0795434E-2,-6.107901E-3,1.9614698E-2,-0E0,-3.876999E-2,1.1115949E-2,-1.6130544E-2],"categories":[],"categories_nodes":[],"categories_segments":[],"categories_sizes":[],"default_left":[0,0,0,0,0,0,0,0,0,0,0,0,0,0,0,0,0,0,0,0,0],"id":45,"left_children":[1,3,5,7,9,11,-1,-1,13,-1,15,17,19,-1,-1,-1,-1,-1,-1,-1,-1],"loss_changes":[1.8835061E0,2.2493665E0,2.4770784E0,1.6232128E0,1.8388108E0,3.1791043E-1,0E0,0E0,6.7954874E-1,0E0,1.614563E0,9.9250484E-1,4.8431277E-1,0E0,0E0,0E0,0E0,0E0,0E0,0E0,0E0],"parents":[2147483647,0,0,1,1,2,2,3,3,4,4,5,5,8,8,10,10,11,11,12,12],"right_children":[2,4,6,8,10,12,-1,-1,14,-1,16,18,20,-1,-1,-1,-1,-1,-1,-1,-1],"split_conditions":[9.120143E-2,6.522928E-3,1.8526284E-1,-3.6456164E-2,1.3376579E-2,3.6648996E-2,2.0754494E-2,-1.2716291E-2,1.9706892E-2,-3.4904297E-2,7.9183765E-2,1.1453961E-1,3.7332628E-2,-0E0,4.0795434E-2,-6.107901E-3,1.9614698E-2,-0E0,-3.876999E-2,1.1115949E-2,-1.6130544E-2],"split_indices":[3,7,3,7,7,9,0,0,9,0,8,3,9,0,0,0,0,0,0,0,0],"split_type":[0,0,0,0,0,0,0,0,0,0,0,0,0,0,0,0,0,0,0,0,0],"sum_hessian":[4.761321E1,3.3455635E1,1.4157572E1,8.758717E0,2.4696918E1,1.1651452E1,2.5061197E0,1.1266903E0,7.632026E0,2.0748484E0,2.262207E1,8.23577E0,3.4156823E0,1.6902474E0,5.9417787E0,1.4444635E1,8.177435E0,2.4972277E0,5.738542E0,1.1091758E0,2.3065064E0],"tree_param":{"num_deleted":"0","num_feature":"14","num_nodes":"21","size_leaf_vector":"1"}},{"base_weights":[3.0846195E-2,1.2884231E-1,-2.8409523E-1,-5.9885748E-2,4.1167158E-1,-6.660668E-1,2.2534683E-1,3.0739257E-2,-2.0308785E-1,6.324185E-1,-3.0934337E-1,8.487861E-3,-4.5793753E-2,-1.5153933E-1,3.5854127E-2,-5.136616E-2,-1.508828E-3,2.6489103E-3,4.8437767E-2,-2.326351E-2,-0E0,-2.2576062E-2,7.297615E-3],"categories":[],"categories_nodes":[],"categories_segments":[],"categories_sizes":[],"default_left":[0,0,0,0,0,0,0,0,0,0,0,0,0,0,0,0,0,0,0,0,0,0,0],"id":46,"left_children":[1,3,5,7,9,11,13,-1,15,17,19,-1,-1,21,-1,-1,-1,-1,-1,-1,-1,-1,-1],"loss_changes":[1.4785961E0,2.1071794E0,2.4868083E0,2.3615155E0,2.84247E0,1.841289E0,1.3292601E0,0E0,2.6834693E0,2.185079E0,2.8578317E-1,0E0,0E0,5.3701746E-1,0E0,0E0,0E0,0E0,0E0,0E0,0E0,0E0,0E0],"parents":[2147483647,0,0,1,1,2,2,3,3,4,4,5,5,6,6,8,8,9,9,10,10,13,13],"right_children":[2,4,6,8,10,12,14,-1,16,18,20,-1,-1,22,-1,-1,-1,-1,-1,-1,-1,-1,-1],"split_conditions":[5.5580083E-2,9.3493205E-1,3.157594E-2,1.8811349E-2,3.3667218E-2,4.7778976E-3,9.75403E-1,3.0739257E-2,2.1042919E-2,2.2372527E-2,6.515285E-2,8.487861E-3,-4.5793753E-2,8.066469E-2,3.5854127E-2,-5.136616E-2,-1.508828E-3,2.6489103E-3,4.8437767E-2,-2.326351E-2,-0E0,-2.2576062E-2,7.297615E-3],"split_indices":[7,1,9,9,9,3,1,0,9,9,2,0,0,7,0,0,0,0,0,0,0,0,0],"split_type":[0,0,0,0,0,0,0,0,0,0,0,0,0,0,0,0,0,0,0,0,0,0,0],"sum_hessian":[4.5635395E1,3.596579E1,9.669605E0,2.1856503E1,1.4109289E1,5.4869776E0,4.182628E0,2.717442E0,1.9139061E1,1.1155583E1,2.953706E0,1.1889557E0,4.298022E0,2.7250545E0,1.4575735E0,1.8329717E0,1.730609E1,4.953176E0,6.202407E0,1.7889185E0,1.1647875E0,1.3048887E0,1.4201658E0],"tree_param":{"num_deleted":"0","num_feature":"14","num_nodes":"23","size_leaf_vector":"1"}},{"base_weights":[5.458278E-2,-1.6951656E-1,3.3332798E-1,-3.4514165E-1,1.750314E-1,4.7071826E-1,-3.8119253E-2,1.3231911E-1,-5.593697E-1,-2.8411597E-1,4.2843193E-1,-1.2521398E-1,6.462028E-1,-2.8512249E-2,3.448649E-2,-3.453563E-2,1.1766682E-2,-2.2287203E-2,-0E0,3.3068523E-2,-1.2135497E-2,1.0523795E-2,-2.2311172E-2,4.0271256E-2,1.4668358E-2],"categories":[],"categories_nodes":[],"categories_segments":[],"categories_sizes":[],"default_left":[0,0,0,0,0,0,0,0,0,0,0,0,0,0,0,0,0,0,0,0,0,0,0,0,0],"id":47,"left_children":[1,3,5,7,9,11,-1,13,15,17,19,21,23,-1,-1,-1,-1,-1,-1,-1,-1,-1,-1,-1,-1],"loss_changes":[2.9024498E0,1.6562033E0,3.607035E0,2.0021942E0,1.2767678E0,2.2697806E0,0E0,3.116964E0,1.6670237E0,2.2986653E-1,1.3842853E0,7.7467024E-1,3.024063E-1,0E0,0E0,0E0,0E0,0E0,0E0,0E0,0E0,0E0,0E0,0E0,0E0],"parents":[2147483647,0,0,1,1,2,2,3,3,4,4,5,5,7,7,8,8,9,9,10,10,11,11,12,12],"right_children":[2,4,6,8,10,12,-1,14,16,18,20,22,24,-1,-1,-1,-1,-1,-1,-1,-1,-1,-1,-1,-1],"split_conditions":[9.3493205E-1,5.1310897E-2,3.125071E-1,6.9852E-2,4.573996E-1,-5.8963887E-2,-3.8119253E-2,-8.363065E-2,2.1122347E-1,7.0238396E1,7.458368E1,3.3983182E-2,1.4121528E0,-2.8512249E-2,3.448649E-2,-3.453563E-2,1.1766682E-2,-2.2287203E-2,-0E0,3.3068523E-2,-1.2135497E-2,1.0523795E-2,-2.2311172E-2,4.0271256E-2,1.4668358E-2],"split_indices":[1,8,2,2,1,7,0,8,2,0,0,9,1,0,0,0,0,0,0,0,0,0,0,0,0],"split_type":[0,0,0,0,0,0,0,0,0,0,0,0,0,0,0,0,0,0,0,0,0,0,0,0,0],"sum_hessian":[4.3082703E1,2.381042E1,1.9272282E1,1.6154127E1,7.656293E0,1.804746E1,1.2248219E0,4.891695E0,1.1262431E1,2.3774338E0,5.2788587E0,3.943985E0,1.4103476E1,1.9900649E0,2.90163E0,1.0049474E1,1.2129579E0,1.2322283E0,1.1452056E0,4.1561794E0,1.1226792E0,1.8758308E0,2.068154E0,8.001681E0,6.1017942E0],"tree_param":{"num_deleted":"0","num_feature":"14","num_nodes":"25","size_leaf_vector":"1"}},{"base_weights":[2.7518624E-2,-1.4427224E-1,2.6916254E-1,9.564843E-2,-3.3265248E-1,4.0858516E-1,-2.7371569E-2,4.2609528E-1,-4.1190052E-1,-8.637501E-2,-4.0870808E-2,5.026928E-1,-8.177838E-2,-0E0,3.503171E-2,-3.7721958E-2,1.36996275E-2,-1.7437842E-2,2.0990714E-2,5.6492607E-3,3.5301395E-2,-2.2461347E-2,1.4681518E-2],"categories":[],"categories_nodes":[],"categories_segments":[],"categories_sizes":[],"default_left":[0,0,0,0,0,0,0,0,0,0,0,0,0,0,0,0,0,0,0,0,0,0,0],"id":48,"left_children":[1,3,5,7,9,11,-1,13,15,17,-1,19,21,-1,-1,-1,-1,-1,-1,-1,-1,-1,-1],"loss_changes":[2.03018E0,1.3563435E0,2.641178E0,2.4416862E0,1.6752837E0,1.0030067E0,0E0,1.0354755E0,1.7310474E0,1.9118358E0,0E0,9.951682E-1,7.722949E-1,0E0,0E0,0E0,0E0,0E0,0E0,0E0,0E0,0E0,0E0],"parents":[2147483647,0,0,1,1,2,2,3,3,4,4,5,5,7,7,8,8,9,9,11,11,12,12],"right_children":[2,4,6,8,10,12,-1,14,16,18,-1,20,22,-1,-1,-1,-1,-1,-1,-1,-1,-1,-1],"split_conditions":[9.993946E-1,8.231073E-3,2.1929412E0,1.3546732E-1,8.163641E-1,8.465802E-2,-2.7371569E-2,5.490984E-1,1.8526284E-1,1.8188128E-1,-4.0870808E-2,-4.037374E-3,1.4843533E0,-0E0,3.503171E-2,-3.7721958E-2,1.36996275E-2,-1.7437842E-2,2.0990714E-2,5.6492607E-3,3.5301395E-2,-2.2461347E-2,1.4681518E-2],"split_indices":[1,7,1,3,1,7,0,1,3,2,0,7,1,0,0,0,0,0,0,0,0,0,0],"split_type":[0,0,0,0,0,0,0,0,0,0,0,0,0,0,0,0,0,0,0,0,0,0,0],"sum_hessian":[4.540072E1,2.6405289E1,1.8995428E1,1.14716835E1,1.4933605E1,1.7074562E1,1.9208658E0,7.3325205E0,4.139163E0,1.1348167E1,3.585438E0,1.4635879E1,2.4386845E0,3.4563823E0,3.876138E0,2.8550308E0,1.284132E0,8.041507E0,3.306661E0,6.1554894E0,8.480389E0,1.3525829E0,1.0861015E0],"tree_param":{"num_deleted":"0","num_feature":"14","num_nodes":"23","size_leaf_vector":"1"}},{"base_weights":[2.6144983E-2,2.6707187E-1,-1.7076093E-1,6.6283786E-1,1.4847641E-2,-4.8393667E-2,-0E0,4.3366324E-2,3.5370853E-2,-1.2704957E-1,2.7899733E-2,1.4839816E-1,-5.6084985E-1,-2.2387123E-2,2.6447106E-2,1.3281591E-2,-2.0677073E-2,-0E0,3.317871E-2,-1.6032152E-3,-3.510469E-2],"categories":[],"categories_nodes":[],"categories_segments":[],"categories_sizes":[],"default_left":[0,0,0,0,0,0,0,0,0,0,0,0,0,0,0,0,0,0,0,0,0],"id":49,"left_children":[1,3,5,7,9,-1,11,-1,13,15,-1,17,19,-1,-1,-1,-1,-1,-1,-1,-1],"loss_changes":[2.4510498E0,2.1901774E0,3.8091097E0,9.004326E-1,1.4382446E0,0E0,2.1522715E0,0E0,1.3164777E0,1.7406796E0,0E0,1.6312348E0,2.2307098E-1,0E0,0E0,0E0,0E0,0E0,0E0,0E0,0E0],"parents":[2147483647,0,0,1,1,2,2,3,3,4,4,6,6,8,8,9,9,11,11,12,12],"right_children":[2,4,6,8,10,-1,12,-1,14,16,-1,18,20,-1,-1,-1,-1,-1,-1,-1,-1],"split_conditions":[3.0033221E-2,9.244051E-2,3.0961445E-2,5.62534E1,9.878163E-2,-4.8393667E-2,3.7110865E-2,4.3366324E-2,5.8666946E1,2.3173874E-2,2.7899733E-2,3.532321E-2,8.914514E-2,-2.2387123E-2,2.6447106E-2,1.3281591E-2,-2.0677073E-2,-0E0,3.317871E-2,-1.6032152E-3,-3.510469E-2],"split_indices":[9,2,9,0,8,0,9,0,0,7,0,9,2,0,0,0,0,0,0,0,0],"split_type":[0,0,0,0,0,0,0,0,0,0,0,0,0,0,0,0,0,0,0,0,0],"sum_hessian":[4.831836E1,2.1946556E1,2.6371805E1,7.28334E0,1.4663217E1,3.4337497E0,2.2938055E1,4.820288E0,2.4630518E0,1.22450905E1,2.418126E0,1.9033274E1,3.9047818E0,1.1103225E0,1.3527293E0,4.9168735E0,7.328217E0,1.5801786E1,3.2314868E0,1.5096185E0,2.3951633E0],"tree_param":{"num_deleted":"0","num_feature":"14","num_nodes":"21","size_leaf_vector":"1"}}]},"name":"gbtree"},"learner_model_param":{"base_score":"[6.145833E-1]","boost_from_average":"1","num_class":"0","num_feature":"14","num_target":"1"},"objective":{"name":"binary:logistic","reg_loss_param":{"scale_pos_weight":"1"}}},"version":[3,3,0]}