{"learner":{"attributes":{"scikit_learn":"{\"_estimator_type\": \"classifier\"}"},"feature_names":["volatility_20d","macd_signal","bb_lower","ichimoku_senkou_a","ichimoku_senkou_b"],"feature_types":["float","float","float","float","float"],"gradient_booster":{"model":{"cats":{"enc":[],"feature_segments":[],"sorted_idx":[]},"gbtree_model_param":{"num_parallel_tree":"1","num_trees":"50"},"iteration_indptr":[0,1,2,3,4,5,6,7,8,9,10,11,12,13,14,15,16,17,18,19,20,21,22,23,24,25,26,27,28,29,30,31,32,33,34,35,36,37,38,39,40,41,42,43,44,45,46,47,48,49,50],"tree_info":[0,0,0,0,0,0,0,0,0,0,0,0,0,0,0,0,0,0,0,0,0,0,0,0,0,0,0,0,0,0,0,0,0,0,0,0,0,0,0,0,0,0,0,0,0,0,0,0,0,0],"trees":[{"base_weights":[-4.6910737E-2,5.8254826E-1,-7.619749E-1,-4.6849888E-2,7.738582E-1,4.0447384E-2,-7.173295E-2,2.6736627E-3,4.9349476E-2,6.4256065E-2,-3.4912437E-2],"categories":[],"categories_nodes":[],"categories_segments":[],"categories_sizes":[],"default_left":[0,0,0,0,0,0,0,0,0,0,0],"id":0,"left_children":[1,3,5,-1,7,9,-1,-1,-1,-1,-1],"loss_changes":[2.6129866E1,9.993254E0,1.5073284E1,0E0,4.0497017E0,1.4104386E1,0E0,0E0,0E0,0E0,0E0],"parents":[2147483647,0,0,1,1,2,2,4,4,5,5],"right_children":[2,4,6,-1,8,10,-1,-1,-1,-1,-1],"split_conditions":[4.1669952E1,1.2796076E-2,-5.71605E-1,-4.6849888E-2,3.1486376E1,4.388495E1,-7.173295E-2,2.6736627E-3,4.9349476E-2,6.4256065E-2,-3.4912437E-2],"split_indices":[4,0,1,0,3,4,0,0,0,0,0],"split_type":[0,0,0,0,0,0,0,0,0,0,0],"sum_hessian":[5.4993996E1,2.9246805E1,2.5747189E1,2.499727E0,2.674708E1,1.2248662E1,1.3498526E1,6.749263E0,1.9997816E1,4.249536E0,7.9991264E0],"tree_param":{"num_deleted":"0","num_feature":"5","num_nodes":"11","size_leaf_vector":"1"}},{"base_weights":[-8.54108E-2,5.315374E-1,-7.002518E-1,-4.8432898E-2,7.474129E-1,1.8951035E-1,-1.3086526E0,4.6801213E-2,9.412856E-4,5.5060714E-2,-2.2273889E-2,-1.22425845E-2,-7.0316784E-2],"categories":[],"categories_nodes":[],"categories_segments":[],"categories_sizes":[],"default_left":[0,0,0,0,0,0,0,0,0,0,0,0,0],"id":1,"left_children":[1,3,5,-1,7,9,11,-1,-1,-1,-1,-1,-1],"loss_changes":[2.2480463E1,1.059313E1,1.6679228E1,0E0,3.4580173E0,8.533212E0,1.0204525E0,0E0,0E0,0E0,0E0,0E0,0E0],"parents":[2147483647,0,0,1,1,2,2,4,4,5,5,6,6],"right_children":[2,4,6,-1,8,10,12,-1,-1,-1,-1,-1,-1],"split_conditions":[3.8989998E1,1.2796076E-2,-5.939692E-1,-4.8432898E-2,8.1037563E-1,4.3824753E1,4.1075E1,4.6801213E-2,9.412856E-4,5.5060714E-2,-2.2273889E-2,-1.22425845E-2,-7.0316784E-2],"split_indices":[4,0,1,0,1,4,4,0,0,0,0,0,0],"split_type":[0,0,0,0,0,0,0,0,0,0,0,0,0],"sum_hessian":[5.6203556E1,2.799278E1,2.8210773E1,2.746846E0,2.5245935E1,1.1742243E1,1.646853E1,1.9497099E1,5.748837E0,4.4978867E0,7.2443557E0,1.9995955E0,1.4468935E1],"tree_param":{"num_deleted":"0","num_feature":"5","num_nodes":"13","size_leaf_vector":"1"}},{"base_weights":[-7.6724395E-2,5.354415E-1,-6.2240463E-1,3.4825894E-1,5.975016E-2,2.0475876E-1,-1.2390158E0,2.8038044E-2,-4.5751415E-2,5.515985E-2,-1.766703E-2,-3.3702817E-2,-7.510134E-2],"categories":[],"categories_nodes":[],"categories_segments":[],"categories_sizes":[],"default_left":[0,0,0,0,0,0,0,0,0,0,0,0,0],"id":2,"left_children":[1,3,5,7,-1,9,11,-1,-1,-1,-1,-1,-1],"loss_changes":[2.0426008E1,2.613037E0,1.7100822E1,7.3364315E0,0E0,8.244075E0,8.545437E-1,0E0,0E0,0E0,0E0,0E0,0E0],"parents":[2147483647,0,0,1,1,2,2,3,3,5,5,6,6],"right_children":[2,4,6,8,-1,10,12,-1,-1,-1,-1,-1,-1],"split_conditions":[3.78475E1,3.760488E1,-5.71605E-1,9.2074597E-1,5.975016E-2,4.388495E1,4.26193E1,2.8038044E-2,-4.5751415E-2,5.515985E-2,-1.766703E-2,-3.3702817E-2,-7.510134E-2],"split_indices":[4,2,1,1,0,4,3,0,0,0,0,0,0],"split_type":[0,0,0,0,0,0,0,0,0,0,0,0,0],"sum_hessian":[5.80986E1,2.7221767E1,3.0876833E1,2.3225626E1,3.9961412E0,1.3476327E1,1.7400507E1,2.0730892E1,2.494733E0,4.7396536E0,8.736673E0,7.466601E0,9.933906E0],"tree_param":{"num_deleted":"0","num_feature":"5","num_nodes":"13","size_leaf_vector":"1"}},{"base_weights":[-7.395121E-3,4.95162E-1,-4.7650942E-1,6.7610407E-1,-4.7615457E-1,2.5532177E-1,-1.0429401E0,9.90524E-3,4.9820505E-2,-5.899307E-2,3.9829653E-2,6.244395E-2,-1.8793149E-2,-1.3570218E-2,-7.3030755E-2],"categories":[],"categories_nodes":[],"categories_segments":[],"categories_sizes":[],"default_left":[0,0,0,0,0,0,0,0,0,0,0,0,0,0,0],"id":3,"left_children":[1,3,5,7,9,11,13,-1,-1,-1,-1,-1,-1,-1,-1],"loss_changes":[1.4954063E1,5.8720903E0,1.4240041E1,3.5146713E0,6.3999734E0,1.0569296E1,5.1997833E0,0E0,0E0,0E0,0E0,0E0,0E0,0E0,0E0],"parents":[2147483647,0,0,1,1,2,2,3,3,4,4,5,5,6,6],"right_children":[2,4,6,8,10,12,14,-1,-1,-1,-1,-1,-1,-1,-1],"split_conditions":[3.78475E1,9.2074597E-1,-5.71605E-1,3.2572998E1,3.7390053E1,4.388495E1,4.328E1,9.90524E-3,4.9820505E-2,-5.899307E-2,3.9829653E-2,6.244395E-2,-1.8793149E-2,-1.3570218E-2,-7.3030755E-2],"split_indices":[4,1,1,3,2,4,3,0,0,0,0,0,0,0,0],"split_type":[0,0,0,0,0,0,0,0,0,0,0,0,0,0,0],"sum_hessian":[6.0444653E1,2.8936096E1,3.1508554E1,2.4950066E1,3.98603E0,1.3952559E1,1.7555996E1,1.1235392E1,1.3714675E1,2.7385097E0,1.2475206E0,4.97316E0,8.9794E0,7.203364E0,1.0352632E1],"tree_param":{"num_deleted":"0","num_feature":"5","num_nodes":"15","size_leaf_vector":"1"}},{"base_weights":[-4.7228854E-2,5.032292E-1,-4.9125496E-1,-5.091719E-2,7.835252E-1,2.1696296E-1,-8.1016064E-1,1.1572595E-2,6.1852194E-2,-2.452613E-2,3.817597E-2,-1.6695112E-2,-6.816523E-2],"categories":[],"categories_nodes":[],"categories_segments":[],"categories_sizes":[],"default_left":[0,0,0,0,0,1,0,0,0,0,0,0,0],"id":4,"left_children":[1,3,5,-1,7,9,11,-1,-1,-1,-1,-1,-1],"loss_changes":[1.479694E1,1.2621239E1,7.9789495E0,0E0,5.2036486E0,5.036766E0,5.2221813E0,0E0,0E0,0E0,0E0,0E0,0E0],"parents":[2147483647,0,0,1,1,2,2,4,4,5,5,6,6],"right_children":[2,4,6,-1,8,10,12,-1,-1,-1,-1,-1,-1],"split_conditions":[3.7725098E1,1.2796076E-2,-5.939692E-1,-5.091719E-2,3.1882967E1,4.003E1,4.328E1,1.1572595E-2,6.1852194E-2,-2.452613E-2,3.817597E-2,-1.6695112E-2,-6.816523E-2],"split_indices":[3,0,1,0,2,3,3,0,0,0,0,0,0],"split_type":[0,0,0,0,0,0,0,0,0,0,0,0,0],"sum_hessian":[5.7532185E1,2.5397072E1,3.2135113E1,3.2253323E0,2.217174E1,9.9316025E0,2.2203508E1,1.1220011E1,1.095173E1,4.236088E0,5.6955147E0,1.341779E1,8.785718E0],"tree_param":{"num_deleted":"0","num_feature":"5","num_nodes":"13","size_leaf_vector":"1"}},{"base_weights":[3.307344E-2,4.9169558E-1,-4.1380754E-1,-4.720201E-2,7.064415E-1,-7.0422393E-1,2.6487187E-1,6.0642487E-3,4.6401914E-2,2.3676962E-2,-4.6767425E-2,-4.8690416E-2,4.088711E-2],"categories":[],"categories_nodes":[],"categories_segments":[],"categories_sizes":[],"default_left":[0,0,1,0,0,0,0,0,0,0,0,0,0],"id":5,"left_children":[1,3,5,-1,7,9,11,-1,-1,-1,-1,-1,-1],"loss_changes":[1.2534995E1,1.0300474E1,6.4340215E0,0E0,3.168066E0,6.7919054E0,8.084955E0,0E0,0E0,0E0,0E0,0E0,0E0],"parents":[2147483647,0,0,1,1,2,2,4,4,5,5,6,6],"right_children":[2,4,6,-1,8,10,12,-1,-1,-1,-1,-1,-1],"split_conditions":[3.78475E1,1.2796076E-2,4.318995E1,-4.720201E-2,3.1271376E1,2.964266E1,1.2890188E-2,6.0642487E-3,4.6401914E-2,2.3676962E-2,-4.6767425E-2,-4.8690416E-2,4.088711E-2],"split_indices":[4,0,4,0,3,2,0,0,0,0,0,0,0],"split_type":[0,0,0,0,0,0,0,0,0,0,0,0,0],"sum_hessian":[5.8096222E1,2.8818096E1,2.9278128E1,2.9655757E0,2.585252E1,2.0670965E1,8.607162E0,7.9865255E0,1.7865995E1,2.9909735E0,1.7679993E1,2.1920886E0,6.4150734E0],"tree_param":{"num_deleted":"0","num_feature":"5","num_nodes":"13","size_leaf_vector":"1"}},{"base_weights":[-5.306957E-2,4.83772E-1,-5.6960654E-1,-6.91183E-1,6.6972613E-1,2.3293272E-1,-1.119621E0,-0E0,-4.4722177E-2,5.8234422E-3,4.81733E-2,4.7053333E-2,-1.3247776E-2,-8.3777925E-4,-6.3134484E-2],"categories":[],"categories_nodes":[],"categories_segments":[],"categories_sizes":[],"default_left":[0,0,0,0,0,0,0,0,0,0,0,0,0,0,0],"id":6,"left_children":[1,3,5,7,9,11,13,-1,-1,-1,-1,-1,-1,-1,-1],"loss_changes":[1.6050875E1,6.860942E0,1.3628438E1,4.511807E-1,3.726183E0,5.1368375E0,2.546461E0,0E0,0E0,0E0,0E0,0E0,0E0,0E0,0E0],"parents":[2147483647,0,0,1,1,2,2,3,3,4,4,5,5,6,6],"right_children":[2,4,6,8,10,12,14,-1,-1,-1,-1,-1,-1,-1,-1],"split_conditions":[3.8989998E1,1.23997E-2,-5.939692E-1,1.1880488E-2,3.1882967E1,4.388495E1,4.1669952E1,-0E0,-4.4722177E-2,5.8234422E-3,4.81733E-2,4.7053333E-2,-1.3247776E-2,-8.3777925E-4,-6.3134484E-2],"split_indices":[4,0,1,0,2,4,4,0,0,0,0,0,0,0,0],"split_type":[0,0,0,0,0,0,0,0,0,0,0,0,0,0,0],"sum_hessian":[5.4830513E1,2.6743599E1,2.8086914E1,2.9504092E0,2.379319E1,1.1625292E1,1.6461622E1,1.2289125E0,1.7214967E0,9.214107E0,1.4579084E1,4.413956E0,7.211336E0,2.2432005E0,1.4218422E1],"tree_param":{"num_deleted":"0","num_feature":"5","num_nodes":"15","size_leaf_vector":"1"}},{"base_weights":[1.7244129E-1,-4.8022706E-2,3.072519E-1,-4.5671397E-1,5.65772E-1,-6.5324485E-2,2.9476142E-2,4.6338554E-2,8.911409E-3],"categories":[],"categories_nodes":[],"categories_segments":[],"categories_sizes":[],"default_left":[0,0,1,0,0,0,0,0,0],"id":7,"left_children":[1,-1,3,5,7,-1,-1,-1,-1],"loss_changes":[9.113514E0,0E0,1.08364525E1,1.373036E1,5.171035E0,0E0,0E0,0E0,0E0],"parents":[2147483647,0,0,2,2,3,3,4,4],"right_children":[2,-1,4,6,8,-1,-1,-1,-1],"split_conditions":[1.2796076E-2,-4.8022706E-2,2.959E1,2.5641428E-2,3.7725098E1,-6.5324485E-2,2.9476142E-2,4.6338554E-2,8.911409E-3],"split_indices":[0,0,4,0,3,0,0,0,0],"split_type":[0,0,0,0,0,0,0,0,0],"sum_hessian":[5.6129242E1,4.834206E0,5.1295036E1,1.2482819E1,3.8812218E1,6.787721E0,5.695097E0,1.8746546E1,2.0065672E1],"tree_param":{"num_deleted":"0","num_feature":"5","num_nodes":"9","size_leaf_vector":"1"}},{"base_weights":[-1.506592E-2,4.4337788E-1,-5.016201E-1,-4.2765986E-2,6.410881E-1,2.6567373E-2,-9.728681E-1,5.502065E-3,4.5558203E-2,4.815585E-2,-2.6806442E-2,-5.6494147E-2,-7.7292915E-3],"categories":[],"categories_nodes":[],"categories_segments":[],"categories_sizes":[],"default_left":[0,0,0,0,0,0,0,0,0,0,0,0,0],"id":8,"left_children":[1,3,5,-1,7,9,11,-1,-1,-1,-1,-1,-1],"loss_changes":[1.28732E1,8.354818E0,7.237843E0,0E0,3.4597397E0,8.521859E0,1.424201E0,0E0,0E0,0E0,0E0,0E0,0E0],"parents":[2147483647,0,0,1,1,2,2,4,4,5,5,6,6],"right_children":[2,4,6,-1,8,10,12,-1,-1,-1,-1,-1,-1],"split_conditions":[3.8989998E1,1.23997E-2,-5.413059E-1,-4.2765986E-2,3.1882967E1,4.388495E1,4.3173267E1,5.502065E-3,4.5558203E-2,4.815585E-2,-2.6806442E-2,-5.6494147E-2,-7.7292915E-3],"split_indices":[4,0,1,0,2,4,2,0,0,0,0,0,0],"split_type":[0,0,0,0,0,0,0,0,0,0,0,0,0],"sum_hessian":[5.4664562E1,2.8002214E1,2.6662348E1,2.9069016E0,2.5095312E1,1.303896E1,1.3623388E1,9.421546E0,1.5673766E1,4.626554E0,8.412406E0,1.074583E1,2.8775587E0],"tree_param":{"num_deleted":"0","num_feature":"5","num_nodes":"13","size_leaf_vector":"1"}},{"base_weights":[-1.38351545E-2,2.3782709E-1,-6.7218673E-1,5.0646085E-1,-5.0735265E-1,-1.1663097E0,4.1247472E-1,-3.692641E-2,3.5315778E-2,1.7171657E-2,-4.8542675E-2,-6.455339E-2,-3.9401897E-3,5.3209405E-2,-2.244113E-2],"categories":[],"categories_nodes":[],"categories_segments":[],"categories_sizes":[],"default_left":[0,0,0,0,0,0,0,0,0,0,0,0,0,0,0],"id":9,"left_children":[1,3,5,7,9,11,13,-1,-1,-1,-1,-1,-1,-1,-1],"loss_changes":[9.4997015E0,8.5810995E0,9.406363E0,8.499685E0,5.1213665E0,1.1279783E0,4.187752E0,0E0,0E0,0E0,0E0,0E0,0E0,0E0,0E0],"parents":[2147483647,0,0,1,1,2,2,3,3,4,4,5,5,6,6],"right_children":[2,4,6,8,10,12,14,-1,-1,-1,-1,-1,-1,-1,-1],"split_conditions":[4.388495E1,3.8249706E1,2.6858483E-2,1.2796076E-2,4.1669952E1,3.833876E1,2.8810127E-2,-3.692641E-2,3.5315778E-2,1.7171657E-2,-4.8542675E-2,-6.455339E-2,-3.9401897E-3,5.3209405E-2,-2.244113E-2],"split_indices":[4,2,0,0,4,2,0,0,0,0,0,0,0,0,0],"split_type":[0,0,0,0,0,0,0,0,0,0,0,0,0,0,0],"sum_hessian":[5.386522E1,3.94423E1,1.4422918E1,2.9541609E1,9.90069E0,9.957984E0,4.4649343E0,3.3886144E0,2.6152994E1,3.4764714E0,6.4242187E0,8.516317E0,1.4416667E0,2.4727516E0,1.9921825E0],"tree_param":{"num_deleted":"0","num_feature":"5","num_nodes":"15","size_leaf_vector":"1"}},{"base_weights":[-1.3512558E-2,4.8340753E-1,-4.9163756E-1,-1.2284597E-1,6.341322E-1,2.9831204E-1,-7.457411E-1,3.7924595E-2,-3.1398002E-2,4.113713E-2,-4.8510646E-3,-2.1978287E-2,3.389957E-2,-9.484216E-3,-5.9454452E-2],"categories":[],"categories_nodes":[],"categories_segments":[],"categories_sizes":[],"default_left":[0,0,0,0,0,0,0,0,0,0,0,0,0,0,0],"id":10,"left_children":[1,3,5,7,9,11,13,-1,-1,-1,-1,-1,-1,-1,-1],"loss_changes":[1.3783123E1,2.801344E0,6.394028E0,3.6350243E0,3.4559479E0,2.7694368E0,5.087185E0,0E0,0E0,0E0,0E0,0E0,0E0,0E0,0E0],"parents":[2147483647,0,0,1,1,2,2,3,3,4,4,5,5,6,6],"right_children":[2,4,6,8,10,12,14,-1,-1,-1,-1,-1,-1,-1,-1],"split_conditions":[3.78475E1,2.9605E1,-1.065112E0,5.9674656E-1,9.2074597E-1,-1.4388096E0,4.328E1,3.7924595E-2,-3.1398002E-2,4.113713E-2,-4.8510646E-3,-2.1978287E-2,3.389957E-2,-9.484216E-3,-5.9454452E-2],"split_indices":[4,4,1,1,1,1,3,0,0,0,0,0,0,0,0],"split_type":[0,0,0,0,0,0,0,0,0,0,0,0,0,0,0],"sum_hessian":[5.500486E1,2.6759045E1,2.8245815E1,5.1191254E0,2.163992E1,6.6194425E0,2.1626373E1,1.4466248E0,3.6725006E0,1.7270432E1,4.369488E0,1.9895507E0,4.629892E0,1.0743951E1,1.0882422E1],"tree_param":{"num_deleted":"0","num_feature":"5","num_nodes":"15","size_leaf_vector":"1"}},{"base_weights":[-0E0,4.732414E-1,-3.857966E-1,-5.528928E-1,6.404246E-1,6.5816396E-1,-6.121074E-1,-0E0,-3.804798E-2,-2.0967586E-2,3.7101563E-2,-4.274239E-4,4.3465644E-2,-9.879429E-3,-5.586493E-2],"categories":[],"categories_nodes":[],"categories_segments":[],"categories_sizes":[],"default_left":[0,0,0,0,0,0,0,0,0,0,0,0,0,0,0],"id":11,"left_children":[1,3,5,7,9,11,13,-1,-1,-1,-1,-1,-1,-1,-1],"loss_changes":[1.0253961E1,4.844023E0,7.9706073E0,4.3434918E-1,2.9425879E0,1.0458488E0,4.9742775E0,0E0,0E0,0E0,0E0,0E0,0E0,0E0,0E0],"parents":[2147483647,0,0,1,1,2,2,3,3,4,4,5,5,6,6],"right_children":[2,4,6,8,10,12,14,-1,-1,-1,-1,-1,-1,-1,-1],"split_conditions":[3.7725098E1,1.2796076E-2,-1.1648036E0,1.1878608E-2,-1.5302241E0,4.01575E1,2.0544214E-2,-0E0,-3.804798E-2,-2.0967586E-2,3.7101563E-2,-4.274239E-4,4.3465644E-2,-9.879429E-3,-5.586493E-2],"split_indices":[3,0,1,0,1,3,0,0,0,0,0,0,0,0,0],"split_type":[0,0,0,0,0,0,0,0,0,0,0,0,0,0,0],"sum_hessian":[5.325621E1,2.3538347E1,2.9717863E1,2.645274E0,2.0893074E1,4.627117E0,2.5090746E1,1.2068543E0,1.4384196E0,1.2452894E0,1.9647785E1,1.231301E0,3.3958158E0,1.5145853E1,9.944893E0],"tree_param":{"num_deleted":"0","num_feature":"5","num_nodes":"15","size_leaf_vector":"1"}},{"base_weights":[-3.481337E-2,4.2121416E-1,-4.4764164E-1,1.4942934E-1,5.0202936E-2,1.842174E-1,-9.473121E-1,2.5501827E-2,-2.954706E-2,-1.4643616E-2,5.725357E-2,-2.2905948E-2,-5.8701992E-2],"categories":[],"categories_nodes":[],"categories_segments":[],"categories_sizes":[],"default_left":[0,0,0,0,0,1,0,0,0,0,0,0,0],"id":12,"left_children":[1,3,5,7,-1,9,11,-1,-1,-1,-1,-1,-1],"loss_changes":[1.0968687E1,3.9002624E0,1.01178055E1,5.9758053E0,0E0,7.3896422E0,8.1701756E-1,0E0,0E0,0E0,0E0,0E0,0E0],"parents":[2147483647,0,0,1,1,2,2,3,3,5,5,6,6],"right_children":[2,4,6,8,-1,10,12,-1,-1,-1,-1,-1,-1],"split_conditions":[3.78475E1,3.5694E1,-5.71605E-1,3.381E1,5.0202936E-2,4.318995E1,4.328E1,2.5501827E-2,-2.954706E-2,-1.4643616E-2,5.725357E-2,-2.2905948E-2,-5.8701992E-2],"split_indices":[4,4,1,4,0,4,3,0,0,0,0,0,0],"split_type":[0,0,0,0,0,0,0,0,0,0,0,0,0],"sum_hessian":[5.5232773E1,2.5998642E1,2.9234129E1,1.9249956E1,6.7486863E0,1.3150882E1,1.6083248E1,1.3440418E1,5.8095374E0,9.3453245E0,3.8055577E0,6.8077173E0,9.27553E0],"tree_param":{"num_deleted":"0","num_feature":"5","num_nodes":"13","size_leaf_vector":"1"}},{"base_weights":[1.5500534E-2,4.0583715E-1,-3.4963006E-1,-7.0947564E-1,6.0787994E-1,1.12726785E-1,-7.257095E-1,-0E0,-4.608315E-2,2.1340828E-3,3.8878944E-2,4.576163E-2,-1.8953245E-2,-4.519628E-2,-1.0777126E-2],"categories":[],"categories_nodes":[],"categories_segments":[],"categories_sizes":[],"default_left":[0,0,0,0,0,0,0,0,0,0,0,0,0,0,0],"id":13,"left_children":[1,3,5,7,9,11,13,-1,-1,-1,-1,-1,-1,-1,-1],"loss_changes":[8.239625E0,6.9678507E0,5.3921175E0,6.5114856E-1,2.163331E0,6.2857604E0,1.007926E0,0E0,0E0,0E0,0E0,0E0,0E0,0E0,0E0],"parents":[2147483647,0,0,1,1,2,2,3,3,4,4,5,5,6,6],"right_children":[2,4,6,8,10,12,14,-1,-1,-1,-1,-1,-1,-1,-1],"split_conditions":[3.78475E1,1.2796076E-2,-5.413059E-1,1.1878608E-2,2.9817701E1,4.388495E1,5.89447E-1,-0E0,-4.608315E-2,2.1340828E-3,3.8878944E-2,4.576163E-2,-1.8953245E-2,-4.519628E-2,-1.0777126E-2],"split_indices":[4,0,1,0,2,4,1,0,0,0,0,0,0,0,0],"split_type":[0,0,0,0,0,0,0,0,0,0,0,0,0,0,0],"sum_hessian":[5.4740025E1,2.6640728E1,2.8099295E1,3.3562822E0,2.3284447E1,1.2836511E1,1.5262785E1,1.2121133E0,2.1441689E0,6.0823717E0,1.7202074E1,4.5412498E0,8.295261E0,1.0162845E1,5.0999403E0],"tree_param":{"num_deleted":"0","num_feature":"5","num_nodes":"15","size_leaf_vector":"1"}},{"base_weights":[1.3506379E-2,-5.1197708E-2,1.4185916E-1,4.8143253E-1,-2.1525551E-1,3.474525E-2,-8.405046E-3,1.147101E-2,-3.7088554E-2],"categories":[],"categories_nodes":[],"categories_segments":[],"categories_sizes":[],"default_left":[0,0,0,0,0,0,0,0,0],"id":14,"left_children":[1,-1,3,5,7,-1,-1,-1,-1],"loss_changes":[7.672812E0,0E0,6.573803E0,4.1152425E0,6.5230474E0,0E0,0E0,0E0,0E0],"parents":[2147483647,0,0,2,2,3,3,4,4],"right_children":[2,-1,4,6,8,-1,-1,-1,-1],"split_conditions":[1.2796076E-2,-5.1197708E-2,1.8708032E-2,3.8249706E1,3.1150179E1,3.474525E-2,-8.405046E-3,1.147101E-2,-3.7088554E-2],"split_indices":[0,0,0,2,2,0,0,0,0],"split_type":[0,0,0,0,0,0,0,0,0],"sum_hessian":[5.580919E1,4.8205514E0,5.0988636E1,2.6155628E1,2.4833008E1,1.983868E1,6.3169475E0,1.3715741E1,1.1117268E1],"tree_param":{"num_deleted":"0","num_feature":"5","num_nodes":"9","size_leaf_vector":"1"}},{"base_weights":[5.0187092E-2,2.595021E-1,-5.198549E-1,4.81524E-1,-4.3139958E-1,3.0658457E-1,-9.419873E-1,4.1274205E-2,-9.647322E-4,-5.1340487E-2,1.5399972E-2,-1.7613467E-2,4.6931166E-2,-5.387233E-2,9.062285E-4],"categories":[],"categories_nodes":[],"categories_segments":[],"categories_sizes":[],"default_left":[0,0,0,0,0,0,0,0,0,0,0,0,0,0,0],"id":15,"left_children":[1,3,5,7,9,11,13,-1,-1,-1,-1,-1,-1,-1,-1],"loss_changes":[6.945546E0,6.9041758E0,5.981078E0,5.9393625E0,5.4645195E0,3.2054124E0,1.6475086E0,0E0,0E0,0E0,0E0,0E0,0E0,0E0,0E0],"parents":[2147483647,0,0,1,1,2,2,3,3,4,4,5,5,6,6],"right_children":[2,4,6,8,10,12,14,-1,-1,-1,-1,-1,-1,-1,-1],"split_conditions":[4.388495E1,3.822808E1,3.054641E1,5.833338E-1,5.840535E-1,-1.4651732E0,3.870463E1,4.1274205E-2,-9.647322E-4,-5.1340487E-2,1.5399972E-2,-1.7613467E-2,4.6931166E-2,-5.387233E-2,9.062285E-4],"split_indices":[4,2,2,1,1,1,2,0,0,0,0,0,0,0,0],"split_type":[0,0,0,0,0,0,0,0,0,0,0,0,0,0,0],"sum_hessian":[5.545068E1,4.1412376E1,1.4038304E1,3.1904037E1,9.508338E0,4.7248735E0,9.313431E0,1.8574259E1,1.3329781E1,5.0938673E0,4.414471E0,2.4835196E0,2.241354E0,8.183798E0,1.1296328E0],"tree_param":{"num_deleted":"0","num_feature":"5","num_nodes":"15","size_leaf_vector":"1"}},{"base_weights":[-1.0582701E-1,6.028485E-2,-5.787102E-1,2.1770991E-1,-5.59578E-1,3.9612923E-2,-5.854816E-2,-7.409615E-3,2.4834873E-2,-4.3861333E-2,2.2060566E-2],"categories":[],"categories_nodes":[],"categories_segments":[],"categories_sizes":[],"default_left":[0,0,0,0,0,0,0,0,0,0,0],"id":16,"left_children":[1,3,5,7,9,-1,-1,-1,-1,-1,-1],"loss_changes":[4.552992E0,4.258657E0,1.3651442E1,3.7739716E0,3.4539328E0,0E0,0E0,0E0,0E0,0E0,0E0],"parents":[2147483647,0,0,1,1,2,2,3,3,4,4],"right_children":[2,4,6,8,10,-1,-1,-1,-1,-1,-1],"split_conditions":[4.328E1,9.2074597E-1,-8.28775E-1,3.1882967E1,1.2870542E0,3.9612923E-2,-5.854816E-2,-7.409615E-3,2.4834873E-2,-4.3861333E-2,2.2060566E-2],"split_indices":[3,1,1,2,1,0,0,0,0,0,0],"split_type":[0,0,0,0,0,0,0,0,0,0,0],"sum_hessian":[5.44757E1,4.0969864E1,1.35058365E1,3.3705563E1,7.2643023E0,3.8196726E0,9.686164E0,1.4575553E1,1.9130009E1,5.8064013E0,1.457901E0],"tree_param":{"num_deleted":"0","num_feature":"5","num_nodes":"11","size_leaf_vector":"1"}},{"base_weights":[-1.8592456E-2,2.0294131E-1,-6.4368254E-1,-6.419062E-1,3.05993E-1,1.5519387E-2,-7.995297E-1,-0E0,-4.4125546E-2,-6.176865E-3,2.8399253E-2,-5.4098427E-2,1.3352248E-3],"categories":[],"categories_nodes":[],"categories_segments":[],"categories_sizes":[],"default_left":[0,0,0,0,0,0,1,0,0,0,0,0,0],"id":17,"left_children":[1,3,5,7,9,-1,11,-1,-1,-1,-1,-1,-1],"loss_changes":[7.8623886E0,3.8239956E0,2.6878686E0,8.3783543E-1,4.4755373E0,0E0,3.3863153E0,0E0,0E0,0E0,0E0,0E0,0E0],"parents":[2147483647,0,0,1,1,2,2,3,3,4,4,6,6],"right_children":[2,4,6,8,10,-1,12,-1,-1,-1,-1,-1,-1],"split_conditions":[4.328E1,1.2796076E-2,3.054641E1,1.1967087E-2,3.1882967E1,1.5519387E-2,4.5730476E1,-0E0,-4.4125546E-2,-6.176865E-3,2.8399253E-2,-5.4098427E-2,1.3352248E-3],"split_indices":[3,0,2,0,2,0,3,0,0,0,0,0,0],"split_type":[0,0,0,0,0,0,0,0,0,0,0,0,0],"sum_hessian":[5.3225414E1,3.9809772E1,1.3415644E1,3.2642517E0,3.654552E1,1.4946868E0,1.1920957E1,1.1679201E0,2.0963316E0,1.3856846E1,2.2688673E1,8.718441E0,3.2025154E0],"tree_param":{"num_deleted":"0","num_feature":"5","num_nodes":"13","size_leaf_vector":"1"}},{"base_weights":[-1.9443077E-3,-8.227291E-1,9.694767E-2,-5.0648082E-2,-0E0,3.5542792E-1,-2.9554868E-1,-1.2209852E-2,2.4051992E-2,-3.669673E-2,2.1843081E-2],"categories":[],"categories_nodes":[],"categories_segments":[],"categories_sizes":[],"default_left":[0,0,0,0,0,0,0,0,0,0,0],"id":18,"left_children":[1,3,5,-1,-1,7,9,-1,-1,-1,-1],"loss_changes":[4.7602777E0,7.9102516E-1,5.298293E0,0E0,0E0,2.5937803E0,7.149647E0,0E0,0E0,0E0,0E0],"parents":[2147483647,0,0,1,1,2,2,5,5,6,6],"right_children":[2,4,6,-1,-1,8,10,-1,-1,-1,-1],"split_conditions":[1.2796076E-2,8.710849E-1,2.0585243E-2,-5.0648082E-2,-0E0,3.1847902E1,2.5616195E-2,-1.2209852E-2,2.4051992E-2,-3.669673E-2,2.1843081E-2],"split_indices":[0,1,0,0,0,2,0,0,0,0,0],"split_type":[0,0,0,0,0,0,0,0,0,0,0],"sum_hessian":[5.3884163E1,4.830997E0,4.9053165E1,3.4472895E0,1.3837075E0,2.9968498E1,1.9084667E1,4.6695404E0,2.5298958E1,1.210759E1,6.977077E0],"tree_param":{"num_deleted":"0","num_feature":"5","num_nodes":"11","size_leaf_vector":"1"}},{"base_weights":[-6.1861992E-2,3.5436526E-1,-4.1395774E-1,-3.2331467E-2,5.1009625E-1,-6.259332E-1,9.864701E-2,-0E0,5.396358E-2,2.806047E-3,-3.647889E-2,3.608904E-2,-3.3775043E-2],"categories":[],"categories_nodes":[],"categories_segments":[],"categories_sizes":[],"default_left":[0,0,1,0,0,0,0,0,0,0,0,0,0],"id":19,"left_children":[1,3,5,-1,7,9,11,-1,-1,-1,-1,-1,-1],"loss_changes":[7.9576616E0,4.3187785E0,3.4046779E0,0E0,6.305893E0,1.7058935E0,5.3972063E0,0E0,0E0,0E0,0E0,0E0,0E0],"parents":[2147483647,0,0,1,1,2,2,4,4,5,5,6,6],"right_children":[2,4,6,-1,8,10,12,-1,-1,-1,-1,-1,-1],"split_conditions":[3.7725098E1,1.2796076E-2,4.318995E1,-3.2331467E-2,3.1882967E1,3.1071724E1,3.8249706E1,-0E0,5.396358E-2,2.806047E-3,-3.647889E-2,3.608904E-2,-3.3775043E-2],"split_indices":[3,0,4,0,2,2,2,0,0,0,0,0,0],"split_type":[0,0,0,0,0,0,0,0,0,0,0,0,0],"sum_hessian":[5.1216534E1,2.320602E1,2.8010511E1,2.3147662E0,2.0891254E1,1.985747E1,8.153042E0,1.1975926E1,8.915328E0,2.4556537E0,1.7401815E1,4.7164507E0,3.436591E0],"tree_param":{"num_deleted":"0","num_feature":"5","num_nodes":"13","size_leaf_vector":"1"}},{"base_weights":[6.7959465E-2,2.5113517E-1,-4.9081275E-1,3.662541E-1,-3.8088057E-2,-9.272156E-1,4.3362647E-1,-1.8848628E-3,3.4059796E-2,-1.3484823E-2,-5.546791E-2,-8.60182E-3,3.7915662E-2],"categories":[],"categories_nodes":[],"categories_segments":[],"categories_sizes":[],"default_left":[0,0,0,1,0,0,0,0,0,0,0,0,0],"id":20,"left_children":[1,3,5,7,-1,9,11,-1,-1,-1,-1,-1,-1],"loss_changes":[5.2888956E0,4.906723E0,5.8112507E0,4.793304E0,0E0,3.806286E-1,1.2837214E0,0E0,0E0,0E0,0E0,0E0,0E0],"parents":[2147483647,0,0,1,1,2,2,3,3,5,5,6,6],"right_children":[2,4,6,8,-1,10,12,-1,-1,-1,-1,-1,-1],"split_conditions":[3.8249706E1,9.2074597E-1,5.89447E-1,3.2572998E1,-3.8088057E-2,1.4363561E-2,1.7066842E-2,-1.8848628E-3,3.4059796E-2,-1.3484823E-2,-5.546791E-2,-8.60182E-3,3.7915662E-2],"split_indices":[2,1,1,3,0,0,0,0,0,0,0,0,0],"split_type":[0,0,0,0,0,0,0,0,0,0,0,0,0],"sum_hessian":[4.8834774E1,3.766972E1,1.1165054E1,3.4862545E1,2.8071725E0,7.7284865E0,3.4365678E0,1.5573303E1,1.9289244E1,2.7218642E0,5.0066223E0,1.2304877E0,2.20608E0],"tree_param":{"num_deleted":"0","num_feature":"5","num_nodes":"13","size_leaf_vector":"1"}},{"base_weights":[-6.1177732E-3,2.937386E-1,-3.123552E-1,-6.495549E-2,4.8772722E-1,2.7251986E-1,-5.701205E-1,1.3231933E-2,-4.6329003E-2,3.2875136E-2,4.7740033E-3,-2.6660359E-2,3.3410277E-2,-4.779036E-2,-1.1076292E-2],"categories":[],"categories_nodes":[],"categories_segments":[],"categories_sizes":[],"default_left":[0,0,0,0,0,0,1,0,0,0,0,0,0,0,0],"id":21,"left_children":[1,3,5,7,9,11,13,-1,-1,-1,-1,-1,-1,-1,-1],"loss_changes":[5.128217E0,2.0722091E0,4.5025015E0,3.5526097E0,9.9614954E-1,3.532701E0,2.1499968E0,0E0,0E0,0E0,0E0,0E0,0E0,0E0,0E0],"parents":[2147483647,0,0,1,1,2,2,3,3,4,4,5,5,6,6],"right_children":[2,4,6,8,10,12,14,-1,-1,-1,-1,-1,-1,-1,-1],"split_conditions":[3.78475E1,3.1882967E1,-1.065112E0,3.1441444E1,8.1037563E-1,-1.4388096E0,4.081625E1,1.3231933E-2,-4.6329003E-2,3.2875136E-2,4.7740033E-3,-2.6660359E-2,3.3410277E-2,-4.779036E-2,-1.1076292E-2],"split_indices":[4,2,1,2,1,1,3,0,0,0,0,0,0,0,0],"split_type":[0,0,0,0,0,0,0,0,0,0,0,0,0,0,0],"sum_hessian":[5.280706E1,2.6382462E1,2.64246E1,9.248429E0,1.7134031E1,7.8197227E0,1.8604877E1,7.273352E0,1.9750775E0,1.0894387E1,6.239645E0,2.2372575E0,5.5824647E0,7.319731E0,1.1285147E1],"tree_param":{"num_deleted":"0","num_feature":"5","num_nodes":"15","size_leaf_vector":"1"}},{"base_weights":[-2.0170078E-2,3.3727047E-1,-3.4191826E-1,-5.42692E-1,5.0573134E-1,4.79007E-1,-6.3424677E-1,-0E0,-3.88564E-2,-0E0,3.58375E-2,-1.9976165E-2,3.8041923E-2,-0E0,-4.5911428E-2],"categories":[],"categories_nodes":[],"categories_segments":[],"categories_sizes":[],"default_left":[0,0,0,0,0,0,0,0,0,0,0,0,0,0,0],"id":22,"left_children":[1,3,5,7,9,11,13,-1,-1,-1,-1,-1,-1,-1,-1],"loss_changes":[5.9985156E0,4.0291853E0,7.1325703E0,6.802602E-1,2.3964763E0,2.495846E0,3.7202692E0,0E0,0E0,0E0,0E0,0E0,0E0,0E0,0E0],"parents":[2147483647,0,0,1,1,2,2,3,3,4,4,5,5,6,6],"right_children":[2,4,6,8,10,12,14,-1,-1,-1,-1,-1,-1,-1,-1],"split_conditions":[3.78475E1,1.23997E-2,-1.1648036E0,1.1880488E-2,3.1271376E1,-1.5302241E0,1.505627E-2,-0E0,-3.88564E-2,-0E0,3.58375E-2,-1.9976165E-2,3.8041923E-2,-0E0,-4.5911428E-2],"split_indices":[4,0,1,0,3,1,0,0,0,0,0,0,0,0,0],"split_type":[0,0,0,0,0,0,0,0,0,0,0,0,0,0,0],"sum_hessian":[4.9146183E1,2.295299E1,2.6193193E1,2.9619079E0,1.9991081E1,6.4468675E0,1.9746326E1,1.159597E0,1.8023107E0,6.1267533E0,1.3864328E1,1.2413303E0,5.2055373E0,6.697195E0,1.3049131E1],"tree_param":{"num_deleted":"0","num_feature":"5","num_nodes":"15","size_leaf_vector":"1"}},{"base_weights":[8.087591E-2,-4.6019962E-1,2.4264501E-1,-5.255663E-2,2.7576518E-1,-4.0362395E-2,3.855386E-1,3.3056002E-2,-1.6658662E-2,2.7763216E-2,-4.8885527E-3],"categories":[],"categories_nodes":[],"categories_segments":[],"categories_sizes":[],"default_left":[1,0,0,0,0,0,0,0,0,0,0],"id":23,"left_children":[1,3,5,-1,7,-1,9,-1,-1,-1,-1],"loss_changes":[4.5280375E0,5.72785E0,6.3835907E0,0E0,1.8740711E0,0E0,3.1581645E0,0E0,0E0,0E0,0E0],"parents":[2147483647,0,0,1,1,2,2,4,4,6,6],"right_children":[2,4,6,-1,8,-1,10,-1,-1,-1,-1],"split_conditions":[2.959E1,2.5616195E-2,1.2455543E-2,-5.255663E-2,2.7935946E-2,-4.0362395E-2,2.075239E-2,3.3056002E-2,-1.6658662E-2,2.7763216E-2,-4.8885527E-3],"split_indices":[4,0,0,0,0,0,0,0,0,0,0],"split_type":[0,0,0,0,0,0,0,0,0,0,0],"sum_hessian":[4.8815166E1,1.0314E1,3.8501167E1,5.515112E0,4.7988877E0,3.6092284E0,3.4891937E1,3.0614257E0,1.7374622E0,2.5964413E1,8.9275255E0],"tree_param":{"num_deleted":"0","num_feature":"5","num_nodes":"11","size_leaf_vector":"1"}},{"base_weights":[-7.746535E-2,3.741461E-1,-2.4792542E-1,-1.8633342E-1,6.409272E-1,-3.5873914E-1,2.1398927E-1,-2.41925E-2,4.0793447E-3,-1.1916887E-2,4.5704205E-2,-2.2887387E-3,-3.6537558E-2,-2.5228668E-2,2.5846487E-2],"categories":[],"categories_nodes":[],"categories_segments":[],"categories_sizes":[],"default_left":[0,0,0,0,0,0,0,0,0,0,0,0,0,0,0],"id":24,"left_children":[1,3,5,7,9,11,13,-1,-1,-1,-1,-1,-1,-1,-1],"loss_changes":[4.135757E0,2.4519792E0,2.1481552E0,5.88136E-1,2.9756608E0,3.576799E0,2.1712248E0,0E0,0E0,0E0,0E0,0E0,0E0,0E0,0E0],"parents":[2147483647,0,0,1,1,2,2,3,3,4,4,5,5,6,6],"right_children":[2,4,6,8,10,12,14,-1,-1,-1,-1,-1,-1,-1,-1],"split_conditions":[3.381E1,2.9605E1,2.5641428E-2,3.1847902E1,1.2097267E-2,1.906182E-2,2.5092321E1,-2.41925E-2,4.0793447E-3,-1.1916887E-2,4.5704205E-2,-2.2887387E-3,-3.6537558E-2,-2.5228668E-2,2.5846487E-2],"split_indices":[4,4,0,2,0,0,2,0,0,0,0,0,0,0,0],"split_type":[0,0,0,0,0,0,0,0,0,0,0,0,0,0,0],"sum_hessian":[5.074436E1,1.3092319E1,3.7652042E1,4.126214E0,8.9661045E0,3.0986406E1,6.6656365E0,1.7360063E0,2.3902078E0,1.9969962E0,6.969108E0,1.8035654E1,1.2950753E1,1.4849117E0,5.1807246E0],"tree_param":{"num_deleted":"0","num_feature":"5","num_nodes":"15","size_leaf_vector":"1"}},{"base_weights":[6.0953952E-2,3.8585708E-1,-2.1304391E-1,-5.041951E-1,5.4207754E-1,3.43917E-2,-5.927928E-1,9.615444E-5,-3.7212383E-2,-4.5289748E-4,4.2688143E-2,-2.093448E-2,2.1783901E-2,-4.6589196E-2,1.4238985E-2],"categories":[],"categories_nodes":[],"categories_segments":[],"categories_sizes":[],"default_left":[0,0,0,0,1,0,0,0,0,0,0,0,0,0,0],"id":25,"left_children":[1,3,5,7,9,11,13,-1,-1,-1,-1,-1,-1,-1,-1],"loss_changes":[4.9589963E0,3.9689095E0,2.950848E0,6.851405E-1,4.069939E0,3.7673E0,4.1548266E0,0E0,0E0,0E0,0E0,0E0,0E0,0E0,0E0],"parents":[2147483647,0,0,1,1,2,2,3,3,4,4,5,5,6,6],"right_children":[2,4,6,8,10,12,14,-1,-1,-1,-1,-1,-1,-1,-1],"split_conditions":[3.7725098E1,1.23997E-2,2.075239E-2,1.1880488E-2,2.987405E1,1.4585736E-2,2.5641428E-2,9.615444E-5,-3.7212383E-2,-4.5289748E-4,4.2688143E-2,-2.093448E-2,2.1783901E-2,-4.6589196E-2,1.4238985E-2],"split_indices":[3,0,0,0,4,0,0,0,0,0,0,0,0,0,0],"split_type":[0,0,0,0,0,0,0,0,0,0,0,0,0,0,0],"sum_hessian":[5.2431446E1,2.4041227E1,2.8390219E1,2.899598E0,2.114163E1,1.769685E1,1.0693369E1,1.1435051E0,1.7560927E0,7.931516E0,1.32101145E1,8.047354E0,9.649495E0,7.8112555E0,2.8821135E0],"tree_param":{"num_deleted":"0","num_feature":"5","num_nodes":"15","size_leaf_vector":"1"}},{"base_weights":[-3.644262E-2,-4.556508E-2,6.8066984E-2,3.81047E-1,-1.9398475E-1,-2.448706E-3,3.2015067E-2,-2.1157725E-2,2.0855293E-2],"categories":[],"categories_nodes":[],"categories_segments":[],"categories_sizes":[],"default_left":[0,0,0,1,1,0,0,0,0],"id":26,"left_children":[1,-1,3,5,7,-1,-1,-1,-1],"loss_changes":[5.085004E0,0E0,4.110991E0,2.715193E0,4.0392294E0,0E0,0E0,0E0,0E0],"parents":[2147483647,0,0,2,2,3,3,4,4],"right_children":[2,-1,4,6,8,-1,-1,-1,-1],"split_conditions":[1.2796076E-2,-4.556508E-2,3.7725098E1,2.987405E1,4.318995E1,-2.448706E-3,3.2015067E-2,-2.1157725E-2,2.0855293E-2],"split_indices":[0,0,3,4,4,0,0,0,0],"split_type":[0,0,0,0,0,0,0,0,0],"sum_hessian":[5.1253494E1,4.437854E0,4.681564E1,2.1372084E1,2.5443558E1,8.206044E0,1.3166039E1,1.9077686E1,6.365872E0],"tree_param":{"num_deleted":"0","num_feature":"5","num_nodes":"9","size_leaf_vector":"1"}},{"base_weights":[-1.1219548E-2,-3.7414253E-2,8.199096E-2,-1.4116256E-2,6.453562E-1,1.0545429E-2,-2.7150845E-2,-1.9016264E-2,4.9182884E-2],"categories":[],"categories_nodes":[],"categories_segments":[],"categories_sizes":[],"default_left":[0,0,0,0,0,0,0,0,0],"id":27,"left_children":[1,-1,3,5,7,-1,-1,-1,-1],"loss_changes":[3.8148172E0,0E0,2.7113516E0,5.2054973E0,3.1998339E0,0E0,0E0,0E0,0E0],"parents":[2147483647,0,0,2,2,3,3,4,4],"right_children":[2,-1,4,6,8,-1,-1,-1,-1],"split_conditions":[1.2462716E-2,-3.7414253E-2,2.6858483E-2,2.1040415E-2,-1.5302241E0,1.0545429E-2,-2.7150845E-2,-1.9016264E-2,4.9182884E-2],"split_indices":[0,0,0,0,1,0,0,0,0],"split_type":[0,0,0,0,0,0,0,0,0],"sum_hessian":[5.0747627E1,4.7545633E0,4.5993065E1,4.0236355E1,5.75671E0,2.8594366E1,1.1641987E1,1.2349623E0,4.5217476E0],"tree_param":{"num_deleted":"0","num_feature":"5","num_nodes":"9","size_leaf_vector":"1"}},{"base_weights":[5.2942116E-2,4.9189505E-1,-1.0066774E-1,-0E0,7.549297E-1,5.299736E-1,-2.6266E-1,2.4958678E-2,-4.647992E-2,4.5572948E-2,-5.2773017E-3,-2.1107636E-2,4.897674E-2,-3.8787317E-2,9.1516407E-4],"categories":[],"categories_nodes":[],"categories_segments":[],"categories_sizes":[],"default_left":[0,0,0,0,0,0,1,0,0,0,0,0,0,0,0],"id":28,"left_children":[1,3,5,7,9,11,13,-1,-1,-1,-1,-1,-1,-1,-1],"loss_changes":[3.5342317E0,1.8466754E0,4.043484E0,3.5684412E0,1.5192299E0,4.1659417E0,4.719055E0,0E0,0E0,0E0,0E0,0E0,0E0,0E0,0E0],"parents":[2147483647,0,0,1,1,2,2,3,3,4,4,5,5,6,6],"right_children":[2,4,6,8,10,12,14,-1,-1,-1,-1,-1,-1,-1,-1],"split_conditions":[3.381E1,3.1882967E1,-1.1712669E0,3.1665321E1,9.2074597E-1,-1.4388096E0,3.577935E1,2.4958678E-2,-4.647992E-2,4.5572948E-2,-5.2773017E-3,-2.1107636E-2,4.897674E-2,-3.8787317E-2,9.1516407E-4],"split_indices":[4,2,1,2,1,1,4,0,0,0,0,0,0,0,0],"split_type":[0,0,0,0,0,0,0,0,0,0,0,0,0,0,0],"sum_hessian":[4.865327E1,1.209356E1,3.655971E1,4.582132E0,7.511429E0,6.5230875E0,3.0036623E1,3.351682E0,1.2304498E0,6.47679E0,1.0346389E0,1.9787862E0,4.5443015E0,9.94524E0,2.0091383E1],"tree_param":{"num_deleted":"0","num_feature":"5","num_nodes":"15","size_leaf_vector":"1"}},{"base_weights":[-4.9375247E-2,-5.0824817E-2,5.9713453E-2,-4.0264106E-1,2.106244E-1,-4.869951E-2,1.3092888E-2,1.9966556E-2,-1.1635027E-2],"categories":[],"categories_nodes":[],"categories_segments":[],"categories_sizes":[],"default_left":[0,0,1,0,0,0,0,0,0],"id":29,"left_children":[1,-1,3,5,7,-1,-1,-1,-1],"loss_changes":[5.793331E0,0E0,3.4499383E0,5.09724E0,3.320652E0,0E0,0E0,0E0,0E0],"parents":[2147483647,0,0,2,2,3,3,4,4],"right_children":[2,-1,4,6,8,-1,-1,-1,-1],"split_conditions":[1.2890188E-2,-5.0824817E-2,2.959E1,2.5641428E-2,3.822808E1,-4.869951E-2,1.3092888E-2,1.9966556E-2,-1.1635027E-2],"split_indices":[0,0,4,0,2,0,0,0,0],"split_type":[0,0,0,0,0,0,0,0,0],"sum_hessian":[5.073529E1,4.063832E0,4.667146E1,1.054297E1,3.612849E1,5.455003E0,5.087967E0,2.57624E1,1.0366092E1],"tree_param":{"num_deleted":"0","num_feature":"5","num_nodes":"9","size_leaf_vector":"1"}},{"base_weights":[9.1656335E-2,-6.8211186E-1,1.8400013E-1,-6.6593275E-3,-4.169703E-2,-3.202929E-1,3.3555377E-1,-4.7860462E-2,1.6057443E-2,2.6808698E-2,-5.661681E-3],"categories":[],"categories_nodes":[],"categories_segments":[],"categories_sizes":[],"default_left":[0,0,1,0,0,0,0,0,0,0,0],"id":30,"left_children":[1,3,5,-1,-1,7,9,-1,-1,-1,-1],"loss_changes":[3.8936498E0,1.2047601E-1,3.9081945E0,0E0,0E0,5.4019585E0,3.6604319E0,0E0,0E0,0E0,0E0],"parents":[2147483647,0,0,1,1,2,2,5,5,6,6],"right_children":[2,4,6,-1,-1,8,10,-1,-1,-1,-1],"split_conditions":[1.2796076E-2,1.1878608E-2,2.959E1,-6.6593275E-3,-4.169703E-2,2.5641428E-2,3.8249706E1,-4.7860462E-2,1.6057443E-2,2.6808698E-2,-5.661681E-3],"split_indices":[0,0,4,0,0,0,2,0,0,0,0],"split_type":[0,0,0,0,0,0,0,0,0,0,0],"sum_hessian":[5.1752148E1,4.265427E0,4.748672E1,1.8196648E0,2.4457624E0,1.0282398E1,3.7204323E1,4.9453344E0,5.337064E0,2.5816996E1,1.1387329E1],"tree_param":{"num_deleted":"0","num_feature":"5","num_nodes":"11","size_leaf_vector":"1"}},{"base_weights":[-6.060786E-2,1.22390084E-1,-3.5988292E-1,-3.631439E-2,2.591317E-1,8.0467135E-2,-4.5470145E-2,-1.8661786E-2,2.0631088E-2,-3.0381804E-2,1.8138219E-2],"categories":[],"categories_nodes":[],"categories_segments":[],"categories_sizes":[],"default_left":[0,0,0,0,0,0,0,0,0,0,0],"id":31,"left_children":[1,3,5,-1,7,9,-1,-1,-1,-1,-1],"loss_changes":[2.9294686E0,3.9733748E0,5.1890335E0,0E0,3.0919576E0,2.6997516E0,0E0,0E0,0E0,0E0,0E0],"parents":[2147483647,0,0,1,1,2,2,4,4,5,5],"right_children":[2,4,6,-1,8,10,-1,-1,-1,-1,-1],"split_conditions":[2.0585243E-2,1.2796076E-2,3.1071724E1,-3.631439E-2,3.1882967E1,-1.4388096E0,-4.5470145E-2,-1.8661786E-2,2.0631088E-2,-3.0381804E-2,1.8138219E-2],"split_indices":[0,0,2,0,2,1,0,0,0,0,0],"split_type":[0,0,0,0,0,0,0,0,0,0,0],"sum_hessian":[4.9916275E1,3.111106E1,1.8805216E1,3.2167592E0,2.78943E1,1.0948328E1,7.856889E0,4.7742496E0,2.312005E1,2.4759614E0,8.472366E0],"tree_param":{"num_deleted":"0","num_feature":"5","num_nodes":"11","size_leaf_vector":"1"}},{"base_weights":[-1.960485E-2,3.0202246E-1,-3.0390957E-1,-3.5987455E-1,4.9048573E-1,2.2118023E-1,-5.1398724E-1,6.422493E-3,-4.4825442E-2,3.6160942E-2,-1.8407358E-2,-2.6122382E-2,3.5368677E-2,-3.2453004E-2,1.2661162E-2],"categories":[],"categories_nodes":[],"categories_segments":[],"categories_sizes":[],"default_left":[0,1,0,0,0,1,0,0,0,0,0,0,0,0,0],"id":32,"left_children":[1,3,5,7,9,11,13,-1,-1,-1,-1,-1,-1,-1,-1],"loss_changes":[4.692432E0,3.2587712E0,3.2642846E0,1.8732216E0,4.34493E0,3.71484E0,2.4372501E0,0E0,0E0,0E0,0E0,0E0,0E0,0E0,0E0],"parents":[2147483647,0,0,1,1,2,2,3,3,4,4,5,5,6,6],"right_children":[2,4,6,8,10,12,14,-1,-1,-1,-1,-1,-1,-1,-1],"split_conditions":[3.7725098E1,2.959E1,-5.71605E-1,-1.1712669E0,7.6199967E-1,4.003E1,1.271945E0,6.422493E-3,-4.4825442E-2,3.6160942E-2,-1.8407358E-2,-2.6122382E-2,3.5368677E-2,-3.2453004E-2,1.2661162E-2],"split_indices":[3,4,1,1,1,3,1,0,0,0,0,0,0,0,0],"split_type":[0,0,0,0,0,0,0,0,0,0,0,0,0,0,0],"sum_hessian":[4.8307148E1,2.2291897E1,2.6015251E1,4.4029417E0,1.7888954E1,7.139284E0,1.8875967E1,2.7074711E0,1.6954706E0,1.4443519E1,3.445436E0,2.6155758E0,4.5237083E0,1.6468292E1,2.4076748E0],"tree_param":{"num_deleted":"0","num_feature":"5","num_nodes":"15","size_leaf_vector":"1"}},{"base_weights":[-1.7013728E-4,-3.6499658E-1,1.8409859E-1,-5.298049E-1,3.3161975E-2,5.465621E-1,-2.5159353E-1,-3.95616E-3,-3.366922E-2,5.603341E-3,4.571846E-2,-2.846156E-2,2.948004E-2],"categories":[],"categories_nodes":[],"categories_segments":[],"categories_sizes":[],"default_left":[0,0,0,0,0,0,0,0,0,0,0,0,0],"id":33,"left_children":[1,3,5,7,-1,9,11,-1,-1,-1,-1,-1,-1],"loss_changes":[3.428848E0,3.4320624E0,5.503131E0,7.9919386E-1,0E0,2.6500134E0,4.7313933E0,0E0,0E0,0E0,0E0,0E0,0E0],"parents":[2147483647,0,0,1,1,2,2,3,3,5,5,6,6],"right_children":[2,4,6,8,-1,10,12,-1,-1,-1,-1,-1,-1],"split_conditions":[1.55048445E-2,3.870463E1,4.1669952E1,3.6732765E1,3.3161975E-2,3.2572998E1,2.6698781E-2,-3.95616E-3,-3.366922E-2,5.603341E-3,4.571846E-2,-2.846156E-2,2.948004E-2],"split_indices":[0,2,4,2,0,3,0,0,0,0,0,0,0],"split_type":[0,0,0,0,0,0,0,0,0,0,0,0,0],"sum_hessian":[4.746722E1,1.57998705E1,3.166735E1,1.4411571E1,1.3882996E0,1.7328588E1,1.4338762E1,4.380667E0,1.0030904E1,9.090575E0,8.238013E0,1.0933104E1,3.4056587E0],"tree_param":{"num_deleted":"0","num_feature":"5","num_nodes":"13","size_leaf_vector":"1"}},{"base_weights":[-8.7753296E-2,5.900405E-2,-4.900575E-1,-1.4075848E-1,9.28201E-1,4.9054703E-1,-8.287769E-1,-5.2389194E-4,-3.1422146E-2,5.042718E-2,6.184019E-3,3.602947E-2,-0E0,-4.558326E-2,-7.9425275E-3],"categories":[],"categories_nodes":[],"categories_segments":[],"categories_sizes":[],"default_left":[0,1,0,1,0,0,0,0,0,0,0,0,0,0,0],"id":34,"left_children":[1,3,5,7,9,11,13,-1,-1,-1,-1,-1,-1,-1,-1],"loss_changes":[3.1343398E0,6.997394E0,5.3702283E0,1.9100313E0,7.350922E-2,4.525391E-1,1.911745E-1,0E0,0E0,0E0,0E0,0E0,0E0,0E0,0E0],"parents":[2147483647,0,0,1,1,2,2,3,3,4,4,5,5,6,6],"right_children":[2,4,6,8,10,12,14,-1,-1,-1,-1,-1,-1,-1,-1],"split_conditions":[3.8249706E1,3.690725E1,3.978825E1,3.7725098E1,3.816642E1,1.5315307E-2,4.394495E1,-5.2389194E-4,-3.1422146E-2,5.042718E-2,6.184019E-3,3.602947E-2,-0E0,-4.558326E-2,-7.9425275E-3],"split_indices":[2,4,3,3,2,0,4,0,0,0,0,0,0,0,0],"split_type":[0,0,0,0,0,0,0,0,0,0,0,0,0,0,0],"sum_hessian":[4.939262E1,3.6764202E1,1.262842E1,3.0728937E1,6.0352635E0,2.9179711E0,9.710449E0,2.5783443E1,4.9454937E0,4.915403E0,1.1198608E0,1.4189533E0,1.4990178E0,7.8939447E0,1.8165039E0],"tree_param":{"num_deleted":"0","num_feature":"5","num_nodes":"15","size_leaf_vector":"1"}},{"base_weights":[-2.3084085E-2,6.146971E-1,-2.3854268E-1,3.6422662E-2,8.528484E-2,2.3972867E-1,-5.4550093E-1,-2.0121811E-2,2.5408654E-2,4.33785E-2,-1.224388E-2,-8.3429245E-3,-3.8627133E-2],"categories":[],"categories_nodes":[],"categories_segments":[],"categories_sizes":[],"default_left":[0,0,0,0,0,0,0,0,0,0,0,0,0],"id":35,"left_children":[1,3,5,-1,7,9,11,-1,-1,-1,-1,-1,-1],"loss_changes":[6.694298E0,4.8003817E-1,5.680743E0,0E0,1.1882466E0,5.076584E0,1.6143675E0,0E0,0E0,0E0,0E0,0E0,0E0],"parents":[2147483647,0,0,1,1,2,2,4,4,5,5,6,6],"right_children":[2,4,6,-1,8,10,12,-1,-1,-1,-1,-1,-1],"split_conditions":[3.381E1,8.1037563E-1,-5.413059E-1,3.6422662E-2,8.710849E-1,4.388495E1,3.8901978E1,-2.0121811E-2,2.5408654E-2,4.33785E-2,-1.224388E-2,-8.3429245E-3,-3.8627133E-2],"split_indices":[4,1,1,0,1,4,3,0,0,0,0,0,0],"split_type":[0,0,0,0,0,0,0,0,0,0,0,0,0],"sum_hessian":[4.616264E1,1.0720644E1,3.5441998E1,8.049336E0,2.6713076E0,1.3728542E1,2.1713453E1,1.0546154E0,1.6166922E0,5.6438546E0,8.084687E0,9.445038E0,1.2268416E1],"tree_param":{"num_deleted":"0","num_feature":"5","num_nodes":"13","size_leaf_vector":"1"}},{"base_weights":[1.4083763E-3,-1.1223472E-1,7.780196E-1,2.422784E-2,-6.728901E-1,4.8205808E-2,6.288871E-5,-4.058614E-3,3.0242695E-2,-3.8934346E-2,-0E0],"categories":[],"categories_nodes":[],"categories_segments":[],"categories_sizes":[],"default_left":[0,0,0,0,0,0,0,0,0,0,0],"id":36,"left_children":[1,3,5,7,9,-1,-1,-1,-1,-1,-1],"loss_changes":[4.3587556E0,3.3337553E0,7.210114E-1,2.294868E0,6.3406086E-1,0E0,0E0,0E0,0E0,0E0,0E0],"parents":[2147483647,0,0,1,1,2,2,3,3,4,4],"right_children":[2,4,6,8,10,-1,-1,-1,-1,-1,-1],"split_conditions":[2.6858483E-2,4.388495E1,4.01575E1,4.318995E1,2.5616195E-2,4.8205808E-2,6.288871E-5,-4.058614E-3,3.0242695E-2,-3.8934346E-2,-0E0],"split_indices":[0,4,3,4,0,0,0,0,0,0,0],"split_type":[0,0,0,0,0,0,0,0,0,0,0],"sum_hessian":[4.4894516E1,4.0058384E1,4.8361316E0,3.30842E1,6.974183E0,3.4018407E0,1.4342908E0,2.8801716E1,4.282487E0,5.8736057E0,1.1005771E0],"tree_param":{"num_deleted":"0","num_feature":"5","num_nodes":"11","size_leaf_vector":"1"}},{"base_weights":[-1.5027566E-2,1.0134834E-1,-5.9649074E-1,-1.2948297E-2,4.8271877E-1,-8.107502E-1,1.2986709E-2,2.0585502E-2,-7.393376E-3,3.9219018E-2,-5.937771E-4,-4.533548E-3,-4.3623026E-2],"categories":[],"categories_nodes":[],"categories_segments":[],"categories_sizes":[],"default_left":[0,0,0,0,0,0,0,0,0,0,0,0,0],"id":37,"left_children":[1,3,5,7,9,11,-1,-1,-1,-1,-1,-1,-1],"loss_changes":[3.482529E0,1.9141061E0,2.007354E0,1.9304079E0,1.6637335E0,1.9544601E-2,0E0,0E0,0E0,0E0,0E0,0E0,0E0],"parents":[2147483647,0,0,1,1,2,2,3,3,4,4,5,5],"right_children":[2,4,6,8,10,12,-1,-1,-1,-1,-1,-1,-1],"split_conditions":[9.2074597E-1,6.365122E-1,1.3229436E0,-1.1648036E0,8.1037563E-1,1.1967087E-2,1.2986709E-2,2.0585502E-2,-7.393376E-3,3.9219018E-2,-5.937771E-4,-4.533548E-3,-4.3623026E-2],"split_indices":[1,1,1,1,1,0,0,0,0,0,0,0,0],"split_type":[0,0,0,0,0,0,0,0,0,0,0,0,0],"sum_hessian":[4.716119E1,4.0041706E1,7.1194844E0,3.151986E1,8.521848E0,5.945058E0,1.1744261E0,6.5003476E0,2.5019512E1,4.9986176E0,3.52323E0,1.0174652E0,4.9275928E0],"tree_param":{"num_deleted":"0","num_feature":"5","num_nodes":"13","size_leaf_vector":"1"}},{"base_weights":[-1.2403487E-2,7.0202565E-1,-1.3934799E-1,-2.7462817E-3,8.901554E-1,1.8263292E-2,-8.527507E-1,8.606445E-3,5.053116E-2,9.380168E-3,-2.5804657E-2,-4.6793498E-2,-5.118587E-3],"categories":[],"categories_nodes":[],"categories_segments":[],"categories_sizes":[],"default_left":[0,0,0,0,0,0,0,0,0,0,0,0,0],"id":38,"left_children":[1,3,5,-1,7,9,11,-1,-1,-1,-1,-1,-1],"loss_changes":[4.6835084E0,1.3433623E0,5.252203E0,0E0,6.496096E-2,3.5281763E0,1.7301273E-1,0E0,0E0,0E0,0E0,0E0,0E0],"parents":[2147483647,0,0,1,1,2,2,4,4,5,5,6,6],"right_children":[2,4,6,-1,8,10,12,-1,-1,-1,-1,-1,-1],"split_conditions":[-1.1648036E0,2.5092321E1,4.388495E1,-2.7462817E-3,2.4440534E-2,8.615516E-1,5.825935E-1,8.606445E-3,5.053116E-2,9.380168E-3,-2.5804657E-2,-4.6793498E-2,-5.118587E-3],"split_indices":[1,2,4,0,0,1,1,0,0,0,0,0,0],"split_type":[0,0,0,0,0,0,0,0,0,0,0,0,0],"sum_hessian":[4.97643E1,6.2453613E0,4.351894E1,1.2430091E0,5.002352E0,3.661163E1,6.907313E0,1.4806509E0,3.521701E0,2.8824627E1,7.787001E0,5.6447225E0,1.2625902E0],"tree_param":{"num_deleted":"0","num_feature":"5","num_nodes":"13","size_leaf_vector":"1"}},{"base_weights":[-3.3309374E-2,9.456576E-2,-4.6394515E-1,-4.795206E-2,7.9914117E-1,-4.2905953E-2,1.428035E-1,3.3837364E-3,-4.755875E-2,2.9348885E-3,5.0141364E-2,-2.4906597E-3,1.9717142E-2],"categories":[],"categories_nodes":[],"categories_segments":[],"categories_sizes":[],"default_left":[0,0,0,0,0,0,0,0,0,0,0,0,0],"id":39,"left_children":[1,3,5,7,9,-1,11,-1,-1,-1,-1,-1,-1],"loss_changes":[2.8352306E0,4.086759E0,3.1536741E0,3.752041E0,7.28024E-1,0E0,3.7651718E-1,0E0,0E0,0E0,0E0,0E0,0E0],"parents":[2147483647,0,0,1,1,2,2,3,3,4,4,6,6],"right_children":[2,4,6,8,10,-1,12,-1,-1,-1,-1,-1,-1],"split_conditions":[3.8249706E1,3.760488E1,5.840535E-1,9.2074597E-1,1.4361343E-2,-4.2905953E-2,4.313326E1,3.3837364E-3,-4.755875E-2,2.9348885E-3,5.0141364E-2,-2.4906597E-3,1.9717142E-2],"split_indices":[2,2,1,1,0,0,2,0,0,0,0,0,0],"split_type":[0,0,0,0,0,0,0,0,0,0,0,0,0],"sum_hessian":[4.7449734E1,3.7130264E1,1.0319469E1,3.1809967E1,5.320299E0,6.0786605E0,4.2408085E0,2.9233765E1,2.576201E0,1.776501E0,3.5437982E0,2.6326768E0,1.6081316E0],"tree_param":{"num_deleted":"0","num_feature":"5","num_nodes":"13","size_leaf_vector":"1"}},{"base_weights":[-4.9937855E-2,-6.728679E-1,3.2515004E-2,-4.2047765E-2,-3.9781E-3,4.4029173E-1,-8.9407414E-2,-0E0,3.6122866E-2,1.254029E-2,-1.6424326E-2],"categories":[],"categories_nodes":[],"categories_segments":[],"categories_sizes":[],"default_left":[0,0,0,0,0,0,0,0,0,0,0],"id":40,"left_children":[1,3,5,-1,-1,7,9,-1,-1,-1,-1],"loss_changes":[2.6848934E0,3.2355475E-1,2.3438401E0,0E0,0E0,1.3789504E0,2.999009E0,0E0,0E0,0E0,0E0],"parents":[2147483647,0,0,1,1,2,2,5,5,6,6],"right_children":[2,4,6,-1,-1,8,10,-1,-1,-1,-1],"split_conditions":[1.2796076E-2,8.710849E-1,3.381E1,-4.2047765E-2,-3.9781E-3,3.1882967E1,-5.413059E-1,-0E0,3.6122866E-2,1.254029E-2,-1.6424326E-2],"split_indices":[0,1,4,0,0,2,1,0,0,0,0],"split_type":[0,0,0,0,0,0,0,0,0,0,0],"sum_hessian":[4.7641144E1,4.596831E0,4.304431E1,2.8314579E0,1.7653732E0,9.383653E0,3.366066E1,4.199378E0,5.1842747E0,1.351644E1,2.0144218E1],"tree_param":{"num_deleted":"0","num_feature":"5","num_nodes":"11","size_leaf_vector":"1"}},{"base_weights":[-9.105223E-2,1.749055E-2,-4.0920478E-1,8.261243E-1,-1.2184026E-1,-7.8989375E-1,1.09573E-1,4.5844313E-2,5.9106103E-3,-2.8662568E-2,4.7050617E-3,-4.874015E-2,-8.8408915E-3,-2.0591367E-2,3.2059085E-2],"categories":[],"categories_nodes":[],"categories_segments":[],"categories_sizes":[],"default_left":[0,0,0,0,0,0,0,0,0,0,0,0,0,0,0],"id":41,"left_children":[1,3,5,7,9,11,13,-1,-1,-1,-1,-1,-1,-1,-1],"loss_changes":[1.7393975E0,4.415757E0,2.7714584E0,2.0022392E-3,3.3271444E0,3.865676E-1,2.233788E0,0E0,0E0,0E0,0E0,0E0,0E0,0E0,0E0],"parents":[2147483647,0,0,1,1,2,2,3,3,4,4,5,5,6,6],"right_children":[2,4,6,8,10,12,14,-1,-1,-1,-1,-1,-1,-1,-1],"split_conditions":[4.388495E1,-6.064017E-1,2.5641428E-2,2.4568249E-2,4.4527555E-1,-3.3552867E-1,-1.4388096E0,4.5844313E-2,5.9106103E-3,-2.8662568E-2,4.7050617E-3,-4.874015E-2,-8.8408915E-3,-2.0591367E-2,3.2059085E-2],"split_indices":[4,1,0,0,1,1,1,0,0,0,0,0,0,0,0],"split_type":[0,0,0,0,0,0,0,0,0,0,0,0,0,0,0],"sum_hessian":[4.6289387E1,3.5102516E1,1.1186871E1,4.2835693E0,3.0818949E1,6.2223825E0,4.9644885E0,3.1538892E0,1.1296799E0,9.468945E0,2.1350004E1,3.8499496E0,2.3724327E0,2.4870038E0,2.4774847E0],"tree_param":{"num_deleted":"0","num_feature":"5","num_nodes":"15","size_leaf_vector":"1"}},{"base_weights":[4.5695525E-2,-3.1985375E-1,2.1468918E-1,-7.153765E-1,2.8616372E-1,-6.1072487E-1,3.5749143E-1,-1.04380455E-2,-4.8383057E-2,4.081074E-2,-2.0034555E-2,1.4967406E-3,-4.2481337E-2,4.1166354E-2,4.5244742E-4],"categories":[],"categories_nodes":[],"categories_segments":[],"categories_sizes":[],"default_left":[1,0,0,0,0,0,0,0,0,0,0,0,0,0,0],"id":42,"left_children":[1,3,5,7,9,11,13,-1,-1,-1,-1,-1,-1,-1,-1],"loss_changes":[3.163893E0,4.2281404E0,4.448128E0,7.794318E-1,3.1915345E0,1.0541034E0,4.9064093E0,0E0,0E0,0E0,0E0,0E0,0E0,0E0,0E0],"parents":[2147483647,0,0,1,1,2,2,3,3,4,4,5,5,6,6],"right_children":[2,4,6,8,10,12,14,-1,-1,-1,-1,-1,-1,-1,-1],"split_conditions":[2.99791E1,2.5641428E-2,1.2890188E-2,3.24375E1,2.8810127E-2,1.1878608E-2,3.7725098E1,-1.04380455E-2,-4.8383057E-2,4.081074E-2,-2.0034555E-2,1.4967406E-3,-4.2481337E-2,4.1166354E-2,4.5244742E-4],"split_indices":[4,0,0,3,0,0,3,0,0,0,0,0,0,0,0],"split_type":[0,0,0,0,0,0,0,0,0,0,0,0,0,0,0],"sum_hessian":[4.8389065E1,1.4500527E1,3.388854E1,8.809965E0,5.6905622E0,4.066732E0,2.9821806E1,4.103553E0,4.706413E0,3.216806E0,2.4737563E0,1.2335695E0,2.8331623E0,1.164081E1,1.8180994E1],"tree_param":{"num_deleted":"0","num_feature":"5","num_nodes":"15","size_leaf_vector":"1"}},{"base_weights":[-3.9436918E-2,9.26537E-2,-4.0157074E-1,-4.3465648E-2,7.449273E-1,3.4574464E-1,-8.8754296E-1,7.4103884E-3,-2.6636938E-2,1.2847307E-3,4.2038057E-2,3.2485597E-2,1.3944213E-3,-4.8536208E-2,-2.7572885E-3],"categories":[],"categories_nodes":[],"categories_segments":[],"categories_sizes":[],"default_left":[0,1,0,0,0,0,0,0,0,0,0,0,0,0,0],"id":43,"left_children":[1,3,5,7,9,11,13,-1,-1,-1,-1,-1,-1,-1,-1],"loss_changes":[2.3126402E0,3.2465065E0,5.2719097E0,2.9764736E0,2.2731924E-1,4.189763E-1,2.9822254E-1,0E0,0E0,0E0,0E0,0E0,0E0,0E0,0E0],"parents":[2147483647,0,0,1,1,2,2,3,3,4,4,5,5,6,6],"right_children":[2,4,6,8,10,12,14,-1,-1,-1,-1,-1,-1,-1,-1],"split_conditions":[3.822808E1,4.003E1,4.1669952E1,3.7901276E1,1.3203537E-2,1.5315307E-2,2.2494571E-2,7.4103884E-3,-2.6636938E-2,1.2847307E-3,4.2038057E-2,3.2485597E-2,1.3944213E-3,-4.8536208E-2,-2.7572885E-3],"split_indices":[2,3,4,3,0,0,0,0,0,0,0,0,0,0,0],"split_type":[0,0,0,0,0,0,0,0,0,0,0,0,0,0,0],"sum_hessian":[4.438837E1,3.2937973E1,1.1450399E1,2.8155733E1,4.782239E0,4.520371E0,6.9300284E0,2.0688028E1,7.467705E0,1.0313183E0,3.7509208E0,1.1885116E0,3.331859E0,5.8553653E0,1.0746633E0],"tree_param":{"num_deleted":"0","num_feature":"5","num_nodes":"15","size_leaf_vector":"1"}},{"base_weights":[-5.5231467E-2,-6.1610717E-1,1.10760275E-2,-0E0,-4.0643785E-2,-3.3722076E-1,1.7359433E-1,-2.9100904E-2,7.724562E-4,3.214831E-2,1.943613E-3],"categories":[],"categories_nodes":[],"categories_segments":[],"categories_sizes":[],"default_left":[0,0,1,0,0,0,0,0,0,0,0],"id":44,"left_children":[1,3,5,-1,-1,7,9,-1,-1,-1,-1],"loss_changes":[2.0012505E0,5.58259E-1,2.6657364E0,0E0,0E0,1.4038162E0,1.9020789E0,0E0,0E0,0E0,0E0],"parents":[2147483647,0,0,1,1,2,2,5,5,6,6],"right_children":[2,4,6,-1,-1,8,10,-1,-1,-1,-1],"split_conditions":[1.2890188E-2,1.1878608E-2,2.9605E1,-0E0,-4.0643785E-2,2.5616195E-2,3.381E1,-2.9100904E-2,7.724562E-4,3.214831E-2,1.943613E-3],"split_indices":[0,0,4,0,0,0,4,0,0,0,0],"split_type":[0,0,0,0,0,0,0,0,0,0,0],"sum_hessian":[4.8782196E1,4.161345E0,4.462085E1,1.5642304E0,2.5971146E0,1.3291798E1,3.1329052E1,7.60476E0,5.687038E0,5.393779E0,2.5935274E1],"tree_param":{"num_deleted":"0","num_feature":"5","num_nodes":"11","size_leaf_vector":"1"}},{"base_weights":[-6.57658E-2,2.5661057E-1,-1.8385449E-1,7.4056625E-1,-1.5280004E-1,-5.3267803E-2,-7.6394504E-1,4.3792394E-3,4.047049E-2,1.557563E-2,-2.6643768E-2,-8.223625E-3,4.765148E-2,-4.358748E-2,-4.4262278E-4],"categories":[],"categories_nodes":[],"categories_segments":[],"categories_sizes":[],"default_left":[0,0,0,0,0,0,0,0,0,0,0,0,0,0,0],"id":45,"left_children":[1,3,5,7,9,11,13,-1,-1,-1,-1,-1,-1,-1,-1],"loss_changes":[1.922113E0,2.9249988E0,2.5935664E0,1.01156235E-2,1.745873E0,3.6873672E0,3.3668232E-1,0E0,0E0,0E0,0E0,0E0,0E0,0E0,0E0],"parents":[2147483647,0,0,1,1,2,2,3,3,4,4,5,5,6,6],"right_children":[2,4,6,8,10,12,14,-1,-1,-1,-1,-1,-1,-1,-1],"split_conditions":[-6.064017E-1,4.388495E1,4.328E1,2.5500805E1,3.0080051E1,4.1780674E1,5.741779E-1,4.3792394E-3,4.047049E-2,1.557563E-2,-2.6643768E-2,-8.223625E-3,4.765148E-2,-4.358748E-2,-4.4262278E-4],"split_indices":[1,4,3,2,2,3,1,0,0,0,0,0,0,0,0],"split_type":[0,0,0,0,0,0,0,0,0,0,0,0,0,0,0],"sum_hessian":[4.7513515E1,1.18125725E1,3.5700943E1,5.081297E0,6.7312756E0,3.0759134E1,4.9418073E0,1.0867686E0,3.9945283E0,2.9148166E0,3.816459E0,2.9007172E1,1.7519629E0,3.8898456E0,1.0519619E0],"tree_param":{"num_deleted":"0","num_feature":"5","num_nodes":"15","size_leaf_vector":"1"}},{"base_weights":[4.3707896E-2,1.7979667E-1,-3.3827913E-1,1.2533419E-2,7.957191E-1,1.4391145E-1,-6.441667E-1,2.064461E-2,-1.3186574E-2,1.1574312E-3,4.4059284E-2,-8.367685E-3,3.347763E-2,-3.4668643E-2,-2.824028E-3],"categories":[],"categories_nodes":[],"categories_segments":[],"categories_sizes":[],"default_left":[0,1,0,0,0,0,0,0,0,0,0,0,0,0,0],"id":46,"left_children":[1,3,5,7,9,11,13,-1,-1,-1,-1,-1,-1,-1,-1],"loss_changes":[2.4875505E0,3.511888E0,2.0685782E0,3.5042715E0,2.749753E-1,1.2152946E0,2.6008606E-2,0E0,0E0,0E0,0E0,0E0,0E0,0E0,0E0],"parents":[2147483647,0,0,1,1,2,2,3,3,4,4,5,5,6,6],"right_children":[2,4,6,8,10,12,14,-1,-1,-1,-1,-1,-1,-1,-1],"split_conditions":[3.8249706E1,3.690725E1,4.1669952E1,3.381E1,1.3203537E-2,4.061E1,2.2357205E-2,2.064461E-2,-1.3186574E-2,1.1574312E-3,4.4059284E-2,-8.367685E-3,3.347763E-2,-3.4668643E-2,-2.824028E-3],"split_indices":[2,4,4,4,0,3,0,0,0,0,0,0,0,0,0],"split_type":[0,0,0,0,0,0,0,0,0,0,0,0,0,0,0],"sum_hessian":[4.5206833E1,3.43033E1,1.0903534E1,2.843624E1,5.8670607E0,4.286656E0,6.616878E0,1.1603191E1,1.6833048E1,1.0073696E0,4.8596907E0,3.0955367E0,1.1911194E0,5.5427227E0,1.0741553E0],"tree_param":{"num_deleted":"0","num_feature":"5","num_nodes":"15","size_leaf_vector":"1"}},{"base_weights":[9.8545015E-2,-3.4032058E-2,1.9126588E-1,-1.3769008E-1,3.857711E-1,7.2986307E-3,-5.2703686E-2,4.3649003E-2,2.2402075E-3],"categories":[],"categories_nodes":[],"categories_segments":[],"categories_sizes":[],"default_left":[0,0,0,0,0,0,0,0,0],"id":47,"left_children":[1,-1,3,5,7,-1,-1,-1,-1],"loss_changes":[3.2734952E0,0E0,2.7325978E0,4.530365E0,4.134325E0,0E0,0E0,0E0,0E0],"parents":[2147483647,0,0,2,2,3,3,4,4],"right_children":[2,-1,4,6,8,-1,-1,-1,-1],"split_conditions":[1.2890188E-2,-3.4032058E-2,3.1882967E1,3.1150179E1,3.6673E1,7.2986307E-3,-5.2703686E-2,4.3649003E-2,2.2402075E-3],"split_indices":[0,0,2,2,4,0,0,0,0],"split_type":[0,0,0,0,0,0,0,0,0],"sum_hessian":[4.246173E1,3.2746701E0,3.918706E1,1.4341676E1,2.4845387E1,1.1747957E1,2.5937178E0,9.023972E0,1.5821415E1],"tree_param":{"num_deleted":"0","num_feature":"5","num_nodes":"9","size_leaf_vector":"1"}},{"base_weights":[-2.030427E-2,6.456512E-2,-5.762371E-1,-5.0041575E-2,5.518147E-1,-5.2765857E-2,1.375291E-2,6.082864E-3,-2.8910235E-2,3.9783258E-2,-0E0],"categories":[],"categories_nodes":[],"categories_segments":[],"categories_sizes":[],"default_left":[0,0,0,0,0,0,0,0,0,0,0],"id":48,"left_children":[1,3,5,7,9,-1,-1,-1,-1,-1,-1],"loss_changes":[2.3247962E0,2.4243937E0,3.2608495E0,3.2924063E0,1.1983638E0,0E0,0E0,0E0,0E0,0E0,0E0],"parents":[2147483647,0,0,1,1,2,2,3,3,4,4],"right_children":[2,4,6,8,10,-1,-1,-1,-1,-1,-1],"split_conditions":[9.048952E-1,6.408095E-1,1.2870542E0,3.8249706E1,8.1037563E-1,-5.2765857E-2,1.375291E-2,6.082864E-3,-2.8910235E-2,3.9783258E-2,-0E0],"split_indices":[1,1,1,2,1,0,0,0,0,0,0],"split_type":[0,0,0,0,0,0,0,0,0,0,0],"sum_hessian":[4.442153E1,3.9376328E1,5.0452027E0,3.263555E1,6.7407775E0,3.1486785E0,1.8965242E0,2.5214478E1,7.4210753E0,4.35654E0,2.3842373E0],"tree_param":{"num_deleted":"0","num_feature":"5","num_nodes":"11","size_leaf_vector":"1"}},{"base_weights":[-7.596512E-2,-3.5200527E-1,4.5072533E-2,-5.885236E-1,4.364388E-2,6.961731E-1,-1.18156314E-1,7.30006E-3,-3.5715453E-2,2.7055884E-2,-2.7912224E-2,-0E0,4.1999385E-2,2.4248756E-2,-1.5287387E-2],"categories":[],"categories_nodes":[],"categories_segments":[],"categories_sizes":[],"default_left":[1,0,0,0,0,0,0,0,0,0,0,0,0,0,0],"id":49,"left_children":[1,3,5,7,9,11,13,-1,-1,-1,-1,-1,-1,-1,-1],"loss_changes":[1.7443389E0,1.6270618E0,3.995678E0,1.2231591E0,2.5443203E0,7.0065045E-1,3.5015416E0,0E0,0E0,0E0,0E0,0E0,0E0,0E0,0E0],"parents":[2147483647,0,0,1,1,2,2,3,3,4,4,5,5,6,6],"right_children":[2,4,6,8,10,12,14,-1,-1,-1,-1,-1,-1,-1,-1],"split_conditions":[2.99791E1,2.5641428E-2,3.381E1,1.4864612E-2,2.8810127E-2,1.23997E-2,-5.468805E-1,7.30006E-3,-3.5715453E-2,2.7055884E-2,-2.7912224E-2,-0E0,4.1999385E-2,2.4248756E-2,-1.5287387E-2],"split_indices":[4,0,4,0,0,0,1,0,0,0,0,0,0,0,0],"split_type":[0,0,0,0,0,0,0,0,0,0,0,0,0,0,0],"sum_hessian":[4.815853E1,1.4310909E1,3.3847622E1,8.815365E0,5.4955444E0,6.0485253E0,2.7799097E1,1.0211672E0,7.794198E0,3.2735894E0,2.221955E0,1.3704873E0,4.678038E0,5.7780004E0,2.2021097E1],"tree_param":{"num_deleted":"0","num_feature":"5","num_nodes":"15","size_leaf_vector":"1"}}]},"name":"gbtree"},"learner_model_param":{"base_score":"[4.947735E-1]","boost_from_average":"1","num_class":"0","num_feature":"5","num_target":"1"},"objective":{"name":"binary:logistic","reg_loss_param":{"scale_pos_weight":"1"}}},"version":[3,3,0]}