{"learner":{"attributes":{"scikit_learn":"{\"_estimator_type\": \"classifier\"}"},"feature_names":["price_momentum_10d","ma20_ma50_ratio","macd_hist","ichimoku_tenkan","ichimoku_kijun"],"feature_types":["float","float","float","float","float"],"gradient_booster":{"model":{"cats":{"enc":[],"feature_segments":[],"sorted_idx":[]},"gbtree_model_param":{"num_parallel_tree":"1","num_trees":"50"},"iteration_indptr":[0,1,2,3,4,5,6,7,8,9,10,11,12,13,14,15,16,17,18,19,20,21,22,23,24,25,26,27,28,29,30,31,32,33,34,35,36,37,38,39,40,41,42,43,44,45,46,47,48,49,50],"tree_info":[0,0,0,0,0,0,0,0,0,0,0,0,0,0,0,0,0,0,0,0,0,0,0,0,0,0,0,0,0,0,0,0,0,0,0,0,0,0,0,0,0,0,0,0,0,0,0,0,0,0],"trees":[{"base_weights":[-4.0929627E-2,9.359612E-1,-2.692512E-1,7.402403E-2,-4.2340286E-2,2.5934944E-1,-9.121037E-1,-2.549359E-2,3.1715002E-2,-5.09588E-2,1.1329098E-2],"categories":[],"categories_nodes":[],"categories_segments":[],"categories_sizes":[],"default_left":[1,0,0,0,0,0,0,0,0,0,0],"id":0,"left_children":[1,3,5,-1,-1,7,9,-1,-1,-1,-1],"loss_changes":[1.3272202E1,1.2912854E1,1.7025192E1,0E0,0E0,8.501381E0,3.2439938E0,0E0,0E0,0E0,0E0],"parents":[2147483647,0,0,1,1,2,2,5,5,6,6],"right_children":[2,4,6,-1,-1,8,10,-1,-1,-1,-1],"split_conditions":[9.873293E-1,4.2605E1,1.5898849E-3,7.402403E-2,-4.2340286E-2,9.954467E-1,1.0138739E0,-2.549359E-2,3.1715002E-2,-5.09588E-2,1.1329098E-2],"split_indices":[1,3,0,0,0,1,1,0,0,0,0],"split_type":[0,0,0,0,0,0,0,0,0,0,0],"sum_hessian":[5.6907574E1,9.73419E0,4.717338E1,7.737433E0,1.9967569E0,2.6207434E1,2.0965948E1,8.236622E0,1.7970812E1,1.946838E1,1.4975677E0],"tree_param":{"num_deleted":"0","num_feature":"5","num_nodes":"11","size_leaf_vector":"1"}},{"base_weights":[1.9388065E-2,6.169094E-1,-3.846905E-1,9.2203027E-1,-5.4638976E-1,7.180807E-1,-7.259699E-1,5.2738646E-3,6.0799863E-2,3.2231424E-2,-6.55331E-2,4.545412E-2,-7.840905E-3,-4.8549738E-2,1.3031311E-2],"categories":[],"categories_nodes":[],"categories_segments":[],"categories_sizes":[],"default_left":[0,0,1,0,0,0,0,0,0,0,0,0,0,0,0],"id":1,"left_children":[1,3,5,7,9,11,13,-1,-1,-1,-1,-1,-1,-1,-1],"loss_changes":[1.4859593E1,9.680481E0,1.4499788E1,4.4511795E0,6.8496656E0,1.9065022E0,7.4635735E0,0E0,0E0,0E0,0E0,0E0,0E0,0E0,0E0],"parents":[2147483647,0,0,1,1,2,2,3,3,4,4,5,5,6,6],"right_children":[2,4,6,8,10,12,14,-1,-1,-1,-1,-1,-1,-1,-1],"split_conditions":[-4.7946814E-3,4.1995003E1,4.0625E1,4.1120003E1,-2.793701E-2,2.2844946E-1,1.0147605E0,5.2738646E-3,6.0799863E-2,3.2231424E-2,-6.55331E-2,4.545412E-2,-7.840905E-3,-4.8549738E-2,1.3031311E-2],"split_indices":[0,4,4,4,0,2,1,0,0,0,0,0,0,0,0],"split_type":[0,0,0,0,0,0,0,0,0,0,0,0,0,0,0],"sum_hessian":[5.837756E1,2.3432384E1,3.4945175E1,1.8946062E1,4.486323E0,7.728861E0,2.7216314E1,5.734865E0,1.3211197E1,1.7430853E0,2.7432377E0,6.4834347E0,1.2454264E0,2.1983152E1,5.2331624E0],"tree_param":{"num_deleted":"0","num_feature":"5","num_nodes":"15","size_leaf_vector":"1"}},{"base_weights":[1.8232439E-2,6.4114034E-2,-1.8006541E-1,1.7052749E-1,-8.906738E-1,5.8792133E-2,-6.45427E-3,4.482949E-2,-5.6950003E-2],"categories":[],"categories_nodes":[],"categories_segments":[],"categories_sizes":[],"default_left":[0,0,1,1,0,0,0,0,0],"id":2,"left_children":[1,-1,3,5,7,-1,-1,-1,-1],"loss_changes":[1.6060377E1,0E0,1.3976676E1,1.1773708E1,9.778045E0,0E0,0E0,0E0,0E0],"parents":[2147483647,0,0,2,2,3,3,4,4],"right_children":[2,-1,4,6,8,-1,-1,-1,-1],"split_conditions":[-1.0643343E-1,6.4114034E-2,4.169175E1,9.889754E-1,4.1445E1,5.8792133E-2,-6.45427E-3,4.482949E-2,-5.6950003E-2],"split_indices":[2,0,4,1,3,0,0,0,0],"split_type":[0,0,0,0,0,0,0,0,0],"sum_hessian":[6.0311672E1,7.2032886E0,5.3108383E1,3.613771E1,1.6970673E1,7.4433055E0,2.8694405E1,1.4943429E0,1.5476331E1],"tree_param":{"num_deleted":"0","num_feature":"5","num_nodes":"9","size_leaf_vector":"1"}},{"base_weights":[-1.15586504E-1,6.2526755E-2,-3.32085E-1,6.273855E-1,-5.6140107E-1,5.9033003E-2,-5.35764E-2,-1.0435403E-2,-4.962133E-2],"categories":[],"categories_nodes":[],"categories_segments":[],"categories_sizes":[],"default_left":[0,0,1,0,0,0,0,0,0],"id":3,"left_children":[1,-1,3,5,7,-1,-1,-1,-1],"loss_changes":[1.9286963E1,0E0,1.2906727E1,1.2639032E1,6.505172E0,0E0,0E0,0E0,0E0],"parents":[2147483647,0,0,2,2,3,3,4,4],"right_children":[2,-1,4,6,8,-1,-1,-1,-1],"split_conditions":[-1.0805252E-1,6.2526755E-2,9.888726E-1,4.260065E1,1.4294634E-2,5.9033003E-2,-5.35764E-2,-1.0435403E-2,-4.962133E-2],"split_indices":[2,0,1,3,2,0,0,0,0],"split_type":[0,0,0,0,0,0,0,0,0],"sum_hessian":[6.2225716E1,7.405895E0,5.481982E1,9.904184E0,4.4915634E1,7.9050827E0,1.9991019E0,2.6182085E1,1.873355E1],"tree_param":{"num_deleted":"0","num_feature":"5","num_nodes":"9","size_leaf_vector":"1"}},{"base_weights":[-6.180989E-2,5.4823685E-2,-2.5177798E-1,7.677259E-1,-4.4147566E-1,-6.275835E-3,5.1919915E-2,-6.6799945E-3,-5.7148095E-2],"categories":[],"categories_nodes":[],"categories_segments":[],"categories_sizes":[],"default_left":[0,0,0,0,0,0,0,0,0],"id":4,"left_children":[1,-1,3,5,7,-1,-1,-1,-1],"loss_changes":[1.3861627E1,0E0,1.0989429E1,2.5388546E0,9.686675E0,0E0,0E0,0E0,0E0],"parents":[2147483647,0,0,2,2,3,3,4,4],"right_children":[2,-1,4,6,8,-1,-1,-1,-1],"split_conditions":[-1.0643343E-1,5.4823685E-2,4.0725E1,1.1154888E-2,4.7437068E-2,-6.275835E-3,5.1919915E-2,-6.6799945E-3,-5.7148095E-2],"split_indices":[2,0,3,2,2,0,0,0,0],"split_type":[0,0,0,0,0,0,0,0,0],"sum_hessian":[6.038264E1,7.3510137E0,5.3031628E1,7.4370847E0,4.5594543E1,1.7447556E0,5.692329E0,3.3126442E1,1.24681E1],"tree_param":{"num_deleted":"0","num_feature":"5","num_nodes":"9","size_leaf_vector":"1"}},{"base_weights":[-8.260371E-3,5.7024892E-2,-1.8447343E-1,1.2115133E-1,-7.668285E-1,-4.842008E-3,5.397263E-2,3.947484E-2,-4.746346E-2],"categories":[],"categories_nodes":[],"categories_segments":[],"categories_sizes":[],"default_left":[0,0,1,0,0,0,0,0,0],"id":5,"left_children":[1,-1,3,5,7,-1,-1,-1,-1],"loss_changes":[1.2675152E1,0E0,1.009274E1,8.139097E0,6.672427E0,0E0,0E0,0E0,0E0],"parents":[2147483647,0,0,2,2,3,3,4,4],"right_children":[2,-1,4,6,8,-1,-1,-1,-1],"split_conditions":[-1.0805252E-1,5.7024892E-2,4.1692497E1,4.1585E1,4.1445E1,-4.842008E-3,5.397263E-2,3.947484E-2,-4.746346E-2],"split_indices":[2,0,4,4,3,0,0,0,0],"split_type":[0,0,0,0,0,0,0,0,0],"sum_hessian":[6.0501713E1,6.803744E0,5.3697968E1,3.5770058E1,1.792791E1,3.0069628E1,5.7004313E0,1.2423742E0,1.6685537E1],"tree_param":{"num_deleted":"0","num_feature":"5","num_nodes":"9","size_leaf_vector":"1"}},{"base_weights":[4.0107794E-2,7.0281154E-1,-2.4582408E-1,5.4017253E-2,-2.7615187E-1,7.3189896E-1,-4.6365213E-1,2.6795408E-2,-4.880553E-2,6.57523E-2,-4.29194E-2,2.8210843E-3,-4.499797E-2],"categories":[],"categories_nodes":[],"categories_segments":[],"categories_sizes":[],"default_left":[0,0,1,0,1,1,0,0,0,0,0,0,0],"id":6,"left_children":[1,3,5,-1,7,9,11,-1,-1,-1,-1,-1,-1],"loss_changes":[1.1559132E1,7.41945E0,9.447871E0,0E0,4.383297E0,9.303171E0,8.326508E0,0E0,0E0,0E0,0E0,0E0,0E0],"parents":[2147483647,0,0,1,1,2,2,4,4,5,5,6,6],"right_children":[2,4,6,-1,8,10,12,-1,-1,-1,-1,-1,-1],"split_conditions":[-3.8027447E-2,4.1995003E1,9.6988857E-1,5.4017253E-2,1.0042837E0,4.19625E1,2.8355136E-3,2.6795408E-2,-4.880553E-2,6.57523E-2,-4.29194E-2,2.8210843E-3,-4.499797E-2],"split_indices":[2,4,1,0,1,4,0,0,0,0,0,0,0],"split_type":[0,0,0,0,0,0,0,0,0,0,0,0,0],"sum_hessian":[5.7651894E1,1.6928728E1,4.0723164E1,1.225254E1,4.676188E0,6.607447E0,3.411572E1,2.1952205E0,2.4809675E0,5.1166034E0,1.490844E0,1.5950508E1,1.8165209E1],"tree_param":{"num_deleted":"0","num_feature":"5","num_nodes":"13","size_leaf_vector":"1"}},{"base_weights":[8.223621E-2,3.704079E-1,-5.216285E-1,-4.6204454E-3,9.286544E-1,4.8062E-2,-7.7623403E-1,4.491703E-2,-2.966708E-2,7.030099E-2,8.279565E-3,2.1398744E-2,-4.6714272E-2],"categories":[],"categories_nodes":[],"categories_segments":[],"categories_sizes":[],"default_left":[1,0,0,0,0,0,0,0,0,0,0,0,0],"id":7,"left_children":[1,3,5,7,9,-1,11,-1,-1,-1,-1,-1,-1],"loss_changes":[1.0685872E1,8.913352E0,8.540385E0,1.4665331E1,5.5153465E0,0E0,4.089718E0,0E0,0E0,0E0,0E0,0E0,0E0],"parents":[2147483647,0,0,1,1,2,2,3,3,4,4,6,6],"right_children":[2,4,6,8,10,-1,12,-1,-1,-1,-1,-1,-1],"split_conditions":[4.169175E1,4.1445E1,4.14725E1,4.0725E1,-2.3693772E-6,4.8062E-2,-2.9719448E-2,4.491703E-2,-2.966708E-2,7.030099E-2,8.279565E-3,2.1398744E-2,-4.6714272E-2],"split_indices":[4,4,3,3,0,0,0,0,0,0,0,0,0],"split_type":[0,0,0,0,0,0,0,0,0,0,0,0,0],"sum_hessian":[5.841547E1,4.016117E1,1.8254301E1,2.4698267E1,1.5462904E1,1.949781E0,1.630452E1,9.302224E0,1.5396043E1,8.573438E0,6.8894663E0,1.4476433E0,1.4856876E1],"tree_param":{"num_deleted":"0","num_feature":"5","num_nodes":"13","size_leaf_vector":"1"}},{"base_weights":[1.8314805E-2,7.692854E-1,-1.6271748E-1,1.1619476E0,-3.204199E-1,3.042884E-1,-6.999201E-1,-0E0,6.705413E-2,1.696572E-2,-4.118787E-2,3.4177E-2,-3.251715E-2,-1.6107293E-2,-5.2099247E-2],"categories":[],"categories_nodes":[],"categories_segments":[],"categories_sizes":[],"default_left":[1,1,0,0,0,0,0,0,0,0,0,0,0,0,0],"id":8,"left_children":[1,3,5,7,9,11,13,-1,-1,-1,-1,-1,-1,-1,-1],"loss_changes":[8.267002E0,5.7957067E0,1.2488158E1,1.9724598E0,1.9038211E0,1.03129835E1,2.2040777E0,0E0,0E0,0E0,0E0,0E0,0E0,0E0,0E0],"parents":[2147483647,0,0,1,1,2,2,3,3,4,4,5,5,6,6],"right_children":[2,4,6,8,10,12,14,-1,-1,-1,-1,-1,-1,-1,-1],"split_conditions":[9.821876E-1,4.19625E1,1.5898849E-3,-2.6284479E-2,-1.2624435E-2,4.19275E1,9.990631E-1,-0E0,6.705413E-2,1.696572E-2,-4.118787E-2,3.4177E-2,-3.251715E-2,-1.6107293E-2,-5.2099247E-2],"split_indices":[1,4,0,0,0,4,1,0,0,0,0,0,0,0,0],"split_type":[0,0,0,0,0,0,0,0,0,0,0,0,0,0,0],"sum_hessian":[5.7035713E1,1.0346455E1,4.668926E1,7.6676145E0,2.6788402E0,2.5125225E1,2.1564034E1,1.1888317E0,6.4787827E0,1.1988902E0,1.47995E0,1.8436375E1,6.6888504E0,1.1909069E1,9.654964E0],"tree_param":{"num_deleted":"0","num_feature":"5","num_nodes":"15","size_leaf_vector":"1"}},{"base_weights":[5.11465E-2,3.421688E-1,-5.310796E-1,-1.5299323E-1,6.8419945E-1,4.53246E-2,-7.7508205E-1,4.0002476E-2,-5.4069877E-2,5.5143815E-2,5.807681E-3,1.613179E-2,-4.763433E-2],"categories":[],"categories_nodes":[],"categories_segments":[],"categories_sizes":[],"default_left":[1,0,0,0,0,0,0,0,0,0,0,0,0],"id":9,"left_children":[1,3,5,7,9,-1,11,-1,-1,-1,-1,-1,-1],"loss_changes":[1.0030009E1,6.984276E0,7.9112997E0,1.6572697E1,5.2682676E0,0E0,4.038705E0,0E0,0E0,0E0,0E0,0E0,0E0],"parents":[2147483647,0,0,1,1,2,2,3,3,4,4,6,6],"right_children":[2,4,6,8,10,-1,12,-1,-1,-1,-1,-1,-1],"split_conditions":[4.169175E1,4.1120003E1,4.1445E1,4.0725E1,2.0780566E-3,4.53246E-2,-2.5880614E-2,4.0002476E-2,-5.4069877E-2,5.5143815E-2,5.807681E-3,1.613179E-2,-4.763433E-2],"split_indices":[4,4,3,3,0,0,0,0,0,0,0,0,0],"split_type":[0,0,0,0,0,0,0,0,0,0,0,0,0],"sum_hessian":[5.6309067E1,3.818466E1,1.8124405E1,1.5699945E1,2.2484715E1,1.9200256E0,1.620438E1,7.7432046E0,7.9567413E0,1.192848E1,1.0556234E1,1.9292567E0,1.4275124E1],"tree_param":{"num_deleted":"0","num_feature":"5","num_nodes":"13","size_leaf_vector":"1"}},{"base_weights":[1.0687893E-1,4.332828E-1,-4.8709333E-1,5.3033855E-2,1.7858765E-1,1.874408E-1,-1.037882E0,5.8542874E-2,-3.3095025E-3,2.7557436E-2,-2.6445491E-2,-6.311081E-2,7.875487E-4],"categories":[],"categories_nodes":[],"categories_segments":[],"categories_sizes":[],"default_left":[1,0,0,0,1,1,0,0,0,0,0,0,0],"id":10,"left_children":[1,3,5,-1,7,9,11,-1,-1,-1,-1,-1,-1],"loss_changes":[1.1783569E1,5.7347574E0,8.443876E0,0E0,7.6053596E0,3.2463512E0,3.1674347E0,0E0,0E0,0E0,0E0,0E0,0E0],"parents":[2147483647,0,0,1,1,2,2,4,4,5,5,6,6],"right_children":[2,4,6,-1,8,10,12,-1,-1,-1,-1,-1,-1],"split_conditions":[4.169175E1,-3.5616063E-2,-4.003099E-2,5.3033855E-2,9.6988857E-1,1.0042837E0,1.0047413E0,5.8542874E-2,-3.3095025E-3,2.7557436E-2,-2.6445491E-2,-6.311081E-2,7.875487E-4],"split_indices":[4,2,2,0,1,1,1,0,0,0,0,0,0],"split_type":[0,0,0,0,0,0,0,0,0,0,0,0,0],"sum_hessian":[5.7701897E1,3.7717583E1,1.9984318E1,9.293288E0,2.8424294E1,9.264626E0,1.0719692E1,4.66313E0,2.3761164E1,6.5593877E0,2.7052376E0,8.749634E0,1.9700576E0],"tree_param":{"num_deleted":"0","num_feature":"5","num_nodes":"13","size_leaf_vector":"1"}},{"base_weights":[-5.1772717E-2,1.0453682E0,-2.4344985E-1,5.899897E-2,1.2663508E-2,6.1127776E-1,-4.277622E-1,5.253187E-2,-3.9662197E-2,-4.382576E-3,-3.974404E-2],"categories":[],"categories_nodes":[],"categories_segments":[],"categories_sizes":[],"default_left":[0,0,1,0,0,0,0,0,0,0,0],"id":11,"left_children":[1,3,5,-1,-1,7,9,-1,-1,-1,-1],"loss_changes":[1.2263276E1,1.8676853E-1,8.250834E0,0E0,0E0,7.049918E0,5.0008593E0,0E0,0E0,0E0,0E0],"parents":[2147483647,0,0,1,1,2,2,5,5,6,6],"right_children":[2,4,6,-1,-1,8,10,-1,-1,-1,-1],"split_conditions":[-1.0643343E-1,-1.2607746E-1,9.888726E-1,5.899897E-2,1.2663508E-2,4.260065E1,2.8355136E-3,5.253187E-2,-3.9662197E-2,-4.382576E-3,-3.974404E-2],"split_indices":[2,2,1,0,0,3,0,0,0,0,0],"split_type":[0,0,0,0,0,0,0,0,0,0,0],"sum_hessian":[5.576153E1,7.144278E0,4.8617256E1,5.2628665E0,1.8814117E0,7.815208E0,4.0802048E1,6.3493543E0,1.4658536E0,2.2427444E1,1.8374603E1],"tree_param":{"num_deleted":"0","num_feature":"5","num_nodes":"11","size_leaf_vector":"1"}},{"base_weights":[-4.7847345E-2,5.0054725E-2,-2.159165E-1,6.878916E-1,-4.1930467E-1,5.022229E-3,5.0439205E-2,-1.1478314E-2,-5.0821453E-2],"categories":[],"categories_nodes":[],"categories_segments":[],"categories_sizes":[],"default_left":[0,0,1,0,0,0,0,0,0],"id":12,"left_children":[1,-1,3,5,7,-1,-1,-1,-1],"loss_changes":[1.0636668E1,0E0,1.0044979E1,1.5200548E0,4.3900037E0,0E0,0E0,0E0,0E0],"parents":[2147483647,0,0,2,2,3,3,4,4],"right_children":[2,-1,4,6,8,-1,-1,-1,-1],"split_conditions":[-1.0805252E-1,5.0054725E-2,4.0625E1,3.9940002E1,5.8095157E-2,5.022229E-3,5.0439205E-2,-1.1478314E-2,-5.0821453E-2],"split_indices":[2,0,4,4,2,0,0,0,0],"split_type":[0,0,0,0,0,0,0,0,0],"sum_hessian":[5.788619E1,6.803016E0,5.108317E1,8.546776E0,4.2536396E1,3.9353137E0,4.6114616E0,3.4109573E1,8.426822E0],"tree_param":{"num_deleted":"0","num_feature":"5","num_nodes":"9","size_leaf_vector":"1"}},{"base_weights":[-3.969781E-2,-2.1986338E-1,8.1513166E-1,3.113395E-1,-4.50912E-1,6.295065E-2,-2.1095836E-1,3.690838E-2,-5.0213654E-2,-4.17739E-3,-5.1839408E-2,2.9379595E-2,-4.1719712E-2],"categories":[],"categories_nodes":[],"categories_segments":[],"categories_sizes":[],"default_left":[0,0,1,0,0,0,0,0,0,0,0,0,0],"id":13,"left_children":[1,3,5,7,9,-1,11,-1,-1,-1,-1,-1,-1],"loss_changes":[9.35202E0,6.4640636E0,5.4024005E0,1.0043485E1,7.442506E0,0E0,2.9391084E0,0E0,0E0,0E0,0E0,0E0,0E0],"parents":[2147483647,0,0,1,1,2,2,3,3,4,4,6,6],"right_children":[2,4,6,8,10,-1,12,-1,-1,-1,-1,-1,-1],"split_conditions":[1.0147605E0,-9.489786E-3,4.19625E1,4.1995003E1,1.0008066E0,6.295065E-2,-2.9719448E-2,3.690838E-2,-5.0213654E-2,-4.17739E-3,-5.1839408E-2,2.9379595E-2,-4.1719712E-2],"split_indices":[1,0,4,4,1,0,0,0,0,0,0,0,0],"split_type":[0,0,0,0,0,0,0,0,0,0,0,0,0],"sum_hessian":[5.8250645E1,4.9224213E1,9.026431E0,1.4500134E1,3.472408E1,6.1991324E0,2.8272982E0,1.1560064E1,2.9400697E0,2.2605154E1,1.2118923E1,1.1367234E0,1.6905748E0],"tree_param":{"num_deleted":"0","num_feature":"5","num_nodes":"13","size_leaf_vector":"1"}},{"base_weights":[1.6259922E-2,4.601865E-2,-1.3528125E-1,6.334042E-1,-2.8943628E-1,-5.2394955E-3,4.7931932E-2,-2.2838722E-4,-5.0128914E-2],"categories":[],"categories_nodes":[],"categories_segments":[],"categories_sizes":[],"default_left":[0,0,0,0,0,0,0,0,0],"id":14,"left_children":[1,-1,3,5,7,-1,-1,-1,-1],"loss_changes":[8.639453E0,0E0,6.4834886E0,2.5069058E0,9.009013E0,0E0,0E0,0E0,0E0],"parents":[2147483647,0,0,2,2,3,3,4,4],"right_children":[2,-1,4,6,8,-1,-1,-1,-1],"split_conditions":[-1.0643343E-1,4.601865E-2,4.0725E1,-3.0884068E-3,4.7437068E-2,-5.2394955E-3,4.7931932E-2,-2.2838722E-4,-5.0128914E-2],"split_indices":[2,0,3,0,2,0,0,0,0],"split_type":[0,0,0,0,0,0,0,0,0],"sum_hessian":[5.904777E1,7.573427E0,5.1474346E1,7.602783E0,4.3871563E1,2.4480758E0,5.1547074E0,3.2628128E1,1.1243432E1],"tree_param":{"num_deleted":"0","num_feature":"5","num_nodes":"9","size_leaf_vector":"1"}},{"base_weights":[5.3019146E-3,5.9191096E-1,-2.258403E-1,8.8278675E-1,-7.52892E-2,6.0105544E-1,-4.4201007E-1,1.0286731E-2,4.802196E-2,2.0364657E-2,-3.6882307E-2,4.5702454E-2,-3.1784017E-2,1.740104E-2,-2.809698E-2],"categories":[],"categories_nodes":[],"categories_segments":[],"categories_sizes":[],"default_left":[0,0,1,0,1,0,0,0,0,0,0,0,0,0,0],"id":15,"left_children":[1,3,5,7,9,11,13,-1,-1,-1,-1,-1,-1,-1,-1],"loss_changes":[8.389421E0,3.6724238E0,8.191924E0,1.3109016E-1,2.5975473E0,4.6110053E0,3.7244139E0,0E0,0E0,0E0,0E0,0E0,0E0,0E0,0E0],"parents":[2147483647,0,0,1,1,2,2,3,3,4,4,5,5,6,6],"right_children":[2,4,6,8,10,12,14,-1,-1,-1,-1,-1,-1,-1,-1],"split_conditions":[-3.8027447E-2,4.1995003E1,9.888726E-1,9.874675E-1,1.0042837E0,4.260065E1,4.0625E1,1.0286731E-2,4.802196E-2,2.0364657E-2,-3.6882307E-2,4.5702454E-2,-3.1784017E-2,1.740104E-2,-2.809698E-2],"split_indices":[2,4,1,1,1,3,4,0,0,0,0,0,0,0,0],"split_type":[0,0,0,0,0,0,0,0,0,0,0,0,0,0,0],"sum_hessian":[5.83546E1,1.6077087E1,4.227751E1,1.1067238E1,5.0098486E0,8.016554E0,3.4260956E1,1.9669662E0,9.100272E0,3.0577197E0,1.9521288E0,6.8388643E0,1.17769E0,3.9196916E0,3.0341265E1],"tree_param":{"num_deleted":"0","num_feature":"5","num_nodes":"15","size_leaf_vector":"1"}},{"base_weights":[3.7384257E-2,2.4166045E-1,-6.8314743E-1,4.8714977E-2,1.5533486E-2,1.6720848E-2,-8.5951376E-1,5.4610737E-2,-8.445839E-3,-2.4208147E-3,-4.955249E-2],"categories":[],"categories_nodes":[],"categories_segments":[],"categories_sizes":[],"default_left":[1,0,0,0,1,0,0,0,0,0,0],"id":16,"left_children":[1,3,5,-1,7,-1,9,-1,-1,-1,-1],"loss_changes":[8.86016E0,7.6288853E0,2.911035E0,0E0,7.9958353E0,0E0,9.860935E-1,0E0,0E0,0E0,0E0],"parents":[2147483647,0,0,1,1,2,2,4,4,6,6],"right_children":[2,4,6,-1,8,-1,10,-1,-1,-1,-1],"split_conditions":[4.194535E1,-4.1616715E-2,-1.2607746E-1,4.8714977E-2,9.6988857E-1,1.6720848E-2,9.990631E-1,5.4610737E-2,-8.445839E-3,-2.4208147E-3,-4.955249E-2],"split_indices":[4,2,2,0,1,0,1,0,0,0,0],"split_type":[0,0,0,0,0,0,0,0,0,0,0],"sum_hessian":[5.761389E1,4.5880817E1,1.1733074E1,9.44196E0,3.6438858E1,1.3671174E0,1.0365956E1,4.4083514E0,3.2030506E1,1.9450033E0,8.420954E0],"tree_param":{"num_deleted":"0","num_feature":"5","num_nodes":"11","size_leaf_vector":"1"}},{"base_weights":[1.3089302E-1,2.814277E-1,-4.4504657E-1,1.4433256E-1,1.0608685E0,2.6184643E-2,-7.101567E-1,1.460097E-2,-4.2463075E-2,6.07409E-2,2.670213E-3,-5.2394837E-2,-1.3363945E-2],"categories":[],"categories_nodes":[],"categories_segments":[],"categories_sizes":[],"default_left":[1,0,0,0,0,0,0,0,0,0,0,0,0],"id":17,"left_children":[1,3,5,7,9,-1,11,-1,-1,-1,-1,-1,-1],"loss_changes":[5.156192E0,4.543518E0,3.7433848E0,6.4031157E0,6.6719055E-1,0E0,8.7593126E-1,0E0,0E0,0E0,0E0,0E0,0E0],"parents":[2147483647,0,0,1,1,2,2,3,3,4,4,6,6],"right_children":[2,4,6,8,10,-1,12,-1,-1,-1,-1,-1,-1],"split_conditions":[4.194535E1,4.182425E1,-2.793701E-2,4.169175E1,1.6662609E-2,2.6184643E-2,-5.1353756E-2,1.460097E-2,-4.2463075E-2,6.07409E-2,2.670213E-3,-5.2394837E-2,-1.3363945E-2],"split_indices":[4,4,0,4,0,0,2,0,0,0,0,0,0],"split_type":[0,0,0,0,0,0,0,0,0,0,0,0,0],"sum_hessian":[5.61829E1,4.542449E1,1.07584095E1,4.0359966E1,5.064523E0,1.8351417E0,8.923267E0,3.623454E1,4.1254296E0,3.9531949E0,1.1113281E0,3.6437652E0,5.2795024E0],"tree_param":{"num_deleted":"0","num_feature":"5","num_nodes":"13","size_leaf_vector":"1"}},{"base_weights":[-5.145608E-2,4.21367E-1,-2.5389913E-1,7.3696184E-1,-3.493334E-1,5.800488E-1,-4.765436E-1,-0E0,4.0882554E-2,1.3822168E-2,-4.1993484E-2,4.3036323E-2,-3.504547E-3,-6.2090375E-2,-8.48002E-3],"categories":[],"categories_nodes":[],"categories_segments":[],"categories_sizes":[],"default_left":[0,0,1,0,1,0,0,0,0,0,0,0,0,0,0],"id":18,"left_children":[1,3,5,7,9,11,13,-1,-1,-1,-1,-1,-1,-1,-1],"loss_changes":[5.7148714E0,4.785696E0,8.212343E0,6.7315006E-1,2.3014925E0,1.9566815E0,7.446409E0,0E0,0E0,0E0,0E0,0E0,0E0,0E0,0E0],"parents":[2147483647,0,0,1,1,2,2,3,3,4,4,5,5,6,6],"right_children":[2,4,6,8,10,12,14,-1,-1,-1,-1,-1,-1,-1,-1],"split_conditions":[-3.8027447E-2,4.1995003E1,4.0625E1,-4.4148635E-2,1.0024836E0,2.5853701E-2,4.1120003E1,-0E0,4.0882554E-2,1.3822168E-2,-4.1993484E-2,4.3036323E-2,-3.504547E-3,-6.2090375E-2,-8.48002E-3],"split_indices":[2,4,4,0,1,0,4,0,0,0,0,0,0,0,0],"split_type":[0,0,0,0,0,0,0,0,0,0,0,0,0,0,0],"sum_hessian":[5.687759E1,1.6269268E1,4.060832E1,1.17733555E1,4.495913E0,7.860279E0,3.274804E1,1.4836032E0,1.0289752E1,2.0841355E0,2.4117775E0,5.3656063E0,2.494673E0,7.8804665E0,2.4867573E1],"tree_param":{"num_deleted":"0","num_feature":"5","num_nodes":"15","size_leaf_vector":"1"}},{"base_weights":[8.9033835E-2,2.6687545E-1,-4.341172E-1,4.7469908E-1,-3.280964E-1,3.8608257E-2,-7.4832827E-1,-1.7440932E-2,3.8361933E-2,2.8568028E-2,-3.1306513E-2,-6.532026E-3,-4.5748092E-2],"categories":[],"categories_nodes":[],"categories_segments":[],"categories_sizes":[],"default_left":[0,1,0,0,0,0,0,0,0,0,0,0,0],"id":19,"left_children":[1,3,5,7,9,-1,11,-1,-1,-1,-1,-1,-1],"loss_changes":[5.3249497E0,5.5554247E0,6.3288317E0,8.335009E0,3.6888824E0,0E0,8.813019E-1,0E0,0E0,0E0,0E0,0E0,0E0],"parents":[2147483647,0,0,1,1,2,2,3,3,4,4,6,6],"right_children":[2,4,6,8,10,-1,12,-1,-1,-1,-1,-1,-1],"split_conditions":[4.785842E-2,4.194535E1,4.02E1,4.1004997E1,-2.793701E-2,3.8608257E-2,6.253687E-2,-1.7440932E-2,3.8361933E-2,2.8568028E-2,-3.1306513E-2,-6.532026E-3,-4.5748092E-2],"split_indices":[2,4,3,3,0,0,2,0,0,0,0,0,0],"split_type":[0,0,0,0,0,0,0,0,0,0,0,0,0],"sum_hessian":[5.4225773E1,4.1302406E1,1.2923367E1,3.1084103E1,1.0218302E1,2.087305E0,1.08360615E1,7.892884E0,2.319122E1,2.033761E0,8.184541E0,3.1257114E0,7.71035E0],"tree_param":{"num_deleted":"0","num_feature":"5","num_nodes":"13","size_leaf_vector":"1"}},{"base_weights":[-9.683865E-3,2.0324469E-1,-5.427512E-1,7.255552E-2,4.996176E-2,-9.626123E-1,2.2003199E-1,3.1884737E-2,-7.7328677E-3,-1.6359758E-2,-6.133742E-2,5.013941E-2,-3.605686E-2],"categories":[],"categories_nodes":[],"categories_segments":[],"categories_sizes":[],"default_left":[0,0,0,0,0,0,0,0,0,0,0,0,0],"id":20,"left_children":[1,3,5,7,-1,9,11,-1,-1,-1,-1,-1,-1],"loss_changes":[6.2900095E0,3.7290454E0,5.560725E0,4.7763505E0,0E0,8.843374E-1,6.0763807E0,0E0,0E0,0E0,0E0,0E0,0E0],"parents":[2147483647,0,0,1,1,2,2,3,3,5,5,6,6],"right_children":[2,4,6,8,-1,10,12,-1,-1,-1,-1,-1,-1],"split_conditions":[4.189E1,1.0138739E0,1.0084862E0,-1.3111876E-2,4.996176E-2,-1.6039447E-3,4.2605E1,3.1884737E-2,-7.7328677E-3,-1.6359758E-2,-6.133742E-2,5.013941E-2,-3.605686E-2],"split_indices":[3,1,1,0,0,0,3,0,0,0,0,0,0],"split_type":[0,0,0,0,0,0,0,0,0,0,0,0,0],"sum_hessian":[5.1860012E1,3.745277E1,1.4407243E1,3.379255E1,3.6602209E0,9.208059E0,5.1991835E0,9.165596E0,2.4626951E1,3.9121394E0,5.2959194E0,2.9008696E0,2.2983136E0],"tree_param":{"num_deleted":"0","num_feature":"5","num_nodes":"13","size_leaf_vector":"1"}},{"base_weights":[5.8574706E-2,2.2606258E-1,-6.0211754E-1,4.3061855E-1,-4.9853998E-1,3.4786396E-2,-4.6916757E-2,9.533054E-3,4.7029503E-2,6.4086705E-3,-3.2357734E-2],"categories":[],"categories_nodes":[],"categories_segments":[],"categories_sizes":[],"default_left":[0,1,0,0,0,0,0,0,0,0,0],"id":21,"left_children":[1,3,5,7,9,-1,-1,-1,-1,-1,-1],"loss_changes":[6.5288367E0,7.3446007E0,6.204813E0,4.1597414E0,1.2462852E0,0E0,0E0,0E0,0E0,0E0,0E0],"parents":[2147483647,0,0,1,1,2,2,3,3,4,4],"right_children":[2,4,6,8,10,-1,-1,-1,-1,-1,-1],"split_conditions":[6.253687E-2,4.194535E1,9.719557E-1,4.1585E1,-1.0805252E-1,3.4786396E-2,-4.6916757E-2,9.533054E-3,4.7029503E-2,6.4086705E-3,-3.2357734E-2],"split_indices":[2,4,1,4,2,0,0,0,0,0,0],"split_type":[0,0,0,0,0,0,0,0,0,0,0],"sum_hessian":[5.6334732E1,4.5970512E1,1.0364219E1,3.6539864E1,9.430648E0,1.6800865E0,8.684133E0,2.6516163E1,1.0023703E1,1.5892549E0,7.8413925E0],"tree_param":{"num_deleted":"0","num_feature":"5","num_nodes":"11","size_leaf_vector":"1"}},{"base_weights":[-4.2434856E-2,7.1504575E-1,-1.8623419E-1,-5.074053E-3,8.755137E-1,2.6227608E-1,-5.7115465E-1,5.1024683E-2,-0E0,-5.443247E-2,2.4193538E-2,-4.5275386E-2,1.941482E-2],"categories":[],"categories_nodes":[],"categories_segments":[],"categories_sizes":[],"default_left":[0,0,0,0,0,0,0,0,0,0,0,0,0],"id":22,"left_children":[1,3,5,-1,7,9,11,-1,-1,-1,-1,-1,-1],"loss_changes":[5.9406047E0,1.4217157E0,8.318337E0,0E0,8.4979916E-1,7.337363E0,8.890896E0,0E0,0E0,0E0,0E0,0E0,0E0],"parents":[2147483647,0,0,1,1,2,2,4,4,5,5,6,6],"right_children":[2,4,6,-1,8,10,12,-1,-1,-1,-1,-1,-1],"split_conditions":[4.072E1,3.89675E1,-2.3698322E-4,-5.074053E-3,4.0625E1,4.09875E1,1.0078099E0,5.1024683E-2,-0E0,-5.443247E-2,2.4193538E-2,-4.5275386E-2,1.941482E-2],"split_indices":[3,3,0,0,4,3,1,0,0,0,0,0,0],"split_type":[0,0,0,0,0,0,0,0,0,0,0,0,0],"sum_hessian":[5.2175526E1,7.1519804E0,4.502355E1,1.0605419E0,6.091439E0,2.0774912E1,2.4248634E1,4.903662E0,1.1877766E0,1.9732833E0,1.880163E1,1.819927E1,6.0493636E0],"tree_param":{"num_deleted":"0","num_feature":"5","num_nodes":"13","size_leaf_vector":"1"}},{"base_weights":[5.2114666E-2,4.871506E-2,-4.7808677E-2,6.066758E-1,-1.8475778E-1,4.087748E-2,-0E0,-4.253775E-2,-5.0313387E-4],"categories":[],"categories_nodes":[],"categories_segments":[],"categories_sizes":[],"default_left":[0,0,1,0,0,0,0,0,0],"id":23,"left_children":[1,-1,3,5,7,-1,-1,-1,-1],"loss_changes":[5.173961E0,0E0,4.5110745E0,1.1378562E0,4.7306623E0,0E0,0E0,0E0,0E0],"parents":[2147483647,0,0,2,2,3,3,4,4],"right_children":[2,-1,4,6,8,-1,-1,-1,-1],"split_conditions":[-2.6806347E-2,4.871506E-2,4.0625E1,2.5853701E-2,4.1120003E1,4.087748E-2,-0E0,-4.253775E-2,-5.0313387E-4],"split_indices":[0,0,4,0,4,0,0,0,0],"split_type":[0,0,0,0,0,0,0,0,0],"sum_hessian":[5.1879284E1,3.9842927E0,4.7894993E1,7.1447387E0,4.075025E1,4.962722E0,2.1820168E0,7.023711E0,3.3726543E1],"tree_param":{"num_deleted":"0","num_feature":"5","num_nodes":"9","size_leaf_vector":"1"}},{"base_weights":[8.782946E-2,3.8982323E-1,-2.3370099E-1,6.121145E-1,-5.0233823E-1,4.3180894E-2,-4.0161088E-1,-4.423757E-3,4.33373E-2,2.5714478E-2,-4.351785E-2,-4.71041E-2,-2.6181997E-3],"categories":[],"categories_nodes":[],"categories_segments":[],"categories_sizes":[],"default_left":[0,0,0,0,0,0,0,0,0,0,0,0,0],"id":24,"left_children":[1,3,5,7,9,-1,11,-1,-1,-1,-1,-1,-1],"loss_changes":[5.612698E0,6.3928313E0,5.545544E0,4.678837E0,3.2074986E0,0E0,4.497304E0,0E0,0E0,0E0,0E0,0E0,0E0],"parents":[2147483647,0,0,1,1,2,2,3,3,4,4,6,6],"right_children":[2,4,6,8,10,-1,12,-1,-1,-1,-1,-1,-1],"split_conditions":[1.5898849E-3,4.1995003E1,4.052E1,4.09875E1,-1.2607746E-1,4.3180894E-2,4.1372498E1,-4.423757E-3,4.33373E-2,2.5714478E-2,-4.351785E-2,-4.71041E-2,-2.6181997E-3],"split_indices":[0,4,3,3,2,0,3,0,0,0,0,0,0],"split_type":[0,0,0,0,0,0,0,0,0,0,0,0,0],"sum_hessian":[5.457425E1,2.8298569E1,2.6275679E1,2.3210463E1,5.088106E0,2.504199E0,2.377148E1,6.2387123E0,1.697175E1,1.0494466E0,4.03866E0,8.106909E0,1.5664571E1],"tree_param":{"num_deleted":"0","num_feature":"5","num_nodes":"13","size_leaf_vector":"1"}},{"base_weights":[6.0061105E-2,2.7114272E-1,-3.453103E-1,6.1173457E-1,-8.025554E-2,4.1888192E-2,-5.397382E-1,-2.9889636E-3,4.920635E-2,4.7861025E-2,-1.8366778E-2,2.4046876E-2,-3.2651786E-2],"categories":[],"categories_nodes":[],"categories_segments":[],"categories_sizes":[],"default_left":[1,0,0,0,0,0,0,0,0,0,0,0,0],"id":25,"left_children":[1,3,5,7,9,-1,11,-1,-1,-1,-1,-1,-1],"loss_changes":[5.0406823E0,4.8401117E0,5.220046E0,5.3334074E0,6.4263115E0,0E0,2.614574E0,0E0,0E0,0E0,0E0,0E0,0E0],"parents":[2147483647,0,0,1,1,2,2,3,3,4,4,6,6],"right_children":[2,4,6,8,10,-1,12,-1,-1,-1,-1,-1,-1],"split_conditions":[4.169175E1,1.5898849E-3,4.1445E1,4.0929947E1,4.052E1,4.1888192E-2,-1.6774987E-1,-2.9889636E-3,4.920635E-2,4.7861025E-2,-1.8366778E-2,2.4046876E-2,-3.2651786E-2],"split_indices":[4,0,3,3,3,0,2,0,0,0,0,0,0],"split_type":[0,0,0,0,0,0,0,0,0,0,0,0,0],"sum_hessian":[5.594159E1,3.7437508E1,1.8504086E1,1.8735773E1,1.8701733E1,1.7660277E0,1.6738058E1,6.9412165E0,1.1794557E1,3.1434555E0,1.5558277E1,1.0096538E0,1.5728403E1],"tree_param":{"num_deleted":"0","num_feature":"5","num_nodes":"13","size_leaf_vector":"1"}},{"base_weights":[-5.5465656E-3,3.95562E-2,-1.1845083E-1,4.346759E-2,-7.3406607E-1,-7.1821176E-3,4.8616733E-2,-6.695484E-3,-5.2945662E-2],"categories":[],"categories_nodes":[],"categories_segments":[],"categories_sizes":[],"default_left":[0,0,1,0,0,0,0,0,0],"id":26,"left_children":[1,-1,3,5,7,-1,-1,-1,-1],"loss_changes":[4.987442E0,0E0,5.1730905E0,7.4613423E0,1.6464858E0,0E0,0E0,0E0,0E0],"parents":[2147483647,0,0,2,2,3,3,4,4],"right_children":[2,-1,4,6,8,-1,-1,-1,-1],"split_conditions":[-2.6806347E-2,3.95562E-2,4.19625E1,1.0160116E0,1.0039082E0,-7.1821176E-3,4.8616733E-2,-6.695484E-3,-5.2945662E-2],"split_indices":[0,0,4,1,1,0,0,0,0],"split_type":[0,0,0,0,0,0,0,0,0],"sum_hessian":[5.388133E1,5.349864E0,4.8531464E1,3.9271523E1,9.259942E0,3.356329E1,5.708232E0,4.2120934E0,5.047849E0],"tree_param":{"num_deleted":"0","num_feature":"5","num_nodes":"9","size_leaf_vector":"1"}},{"base_weights":[2.1374205E-3,6.1595166E-1,-1.2121789E-1,-6.651313E-3,7.4869096E-1,-5.769608E-2,3.677612E-2,4.4227388E-2,2.115419E-3,-3.9816286E-2,9.465658E-3],"categories":[],"categories_nodes":[],"categories_segments":[],"categories_sizes":[],"default_left":[0,0,0,0,0,0,0,0,0,0,0],"id":27,"left_children":[1,3,5,-1,7,-1,9,-1,-1,-1,-1],"loss_changes":[4.429778E0,1.2509723E0,8.017102E0,0E0,6.042657E-1,0E0,5.4898133E0,0E0,0E0,0E0,0E0],"parents":[2147483647,0,0,1,1,2,2,4,4,6,6],"right_children":[2,4,6,-1,8,-1,10,-1,-1,-1,-1],"split_conditions":[4.0725E1,3.89675E1,4.1035E1,-6.651313E-3,9.931462E-1,-5.769608E-2,9.942076E-1,4.4227388E-2,2.115419E-3,-3.9816286E-2,9.465658E-3],"split_indices":[3,3,3,0,1,0,1,0,0,0,0],"split_type":[0,0,0,0,0,0,0,0,0,0,0],"sum_hessian":[5.4218285E1,8.341661E0,4.587662E1,1.0284882E0,7.3131733E0,5.0007153E0,4.0875908E1,5.578759E0,1.734414E0,5.1432705E0,3.5732635E1],"tree_param":{"num_deleted":"0","num_feature":"5","num_nodes":"11","size_leaf_vector":"1"}},{"base_weights":[-4.206715E-2,6.7370915E-1,-1.5429501E-1,3.8606815E-2,4.3842597E-3,-3.4374956E-2,-8.6917794E-1,-8.464711E-3,3.8446613E-2,-5.3938866E-2,-0E0],"categories":[],"categories_nodes":[],"categories_segments":[],"categories_sizes":[],"default_left":[0,0,1,0,0,0,0,0,0,0,0],"id":28,"left_children":[1,3,5,-1,-1,7,9,-1,-1,-1,-1],"loss_changes":[4.322771E0,1.443131E-1,3.839804E0,0E0,0E0,4.6718154E0,1.0823679E0,0E0,0E0,0E0,0E0],"parents":[2147483647,0,0,1,1,2,2,5,5,6,6],"right_children":[2,4,6,-1,-1,8,10,-1,-1,-1,-1],"split_conditions":[-1.0805252E-1,4.199E1,4.19975E1,3.8606815E-2,4.3842597E-3,1.0160116E0,1.2354059E-3,-8.464711E-3,3.8446613E-2,-5.3938866E-2,-0E0],"split_indices":[2,4,4,0,0,1,0,0,0,0,0],"split_type":[0,0,0,0,0,0,0,0,0,0,0],"sum_hessian":[5.1664776E1,5.7439394E0,4.5920837E1,4.2178583E0,1.5260814E0,4.0910145E1,5.0106945E0,3.6253967E1,4.656175E0,3.656563E0,1.3541317E0],"tree_param":{"num_deleted":"0","num_feature":"5","num_nodes":"11","size_leaf_vector":"1"}},{"base_weights":[-2.7760848E-2,3.9005345E-1,-2.1010861E-1,7.019353E-1,-6.842308E-2,3.606095E-1,-3.4766993E-1,3.9813172E-2,-0E0,-1.8054107E-2,3.2191254E-2,3.9539456E-2,-8.17872E-3,-5.501145E-2,-3.5202745E-3],"categories":[],"categories_nodes":[],"categories_segments":[],"categories_sizes":[],"default_left":[0,0,1,0,0,0,0,0,0,0,0,0,0,0,0],"id":29,"left_children":[1,3,5,7,9,11,13,-1,-1,-1,-1,-1,-1,-1,-1],"loss_changes":[4.3807836E0,2.67469E0,3.3684845E0,7.8454924E-1,1.9841928E0,2.197431E0,6.6846213E0,0E0,0E0,0E0,0E0,0E0,0E0,0E0,0E0],"parents":[2147483647,0,0,1,1,2,2,3,3,4,4,5,5,6,6],"right_children":[2,4,6,8,10,12,14,-1,-1,-1,-1,-1,-1,-1,-1],"split_conditions":[-3.8027447E-2,4.194535E1,4.045745E1,-4.789382E-3,-6.6343597E-3,4.052E1,4.1120003E1,3.9813172E-2,-0E0,-1.8054107E-2,3.2191254E-2,3.9539456E-2,-8.17872E-3,-5.501145E-2,-3.5202745E-3],"split_indices":[2,4,4,0,0,3,4,0,0,0,0,0,0,0,0],"split_type":[0,0,0,0,0,0,0,0,0,0,0,0,0,0,0],"sum_hessian":[5.4858875E1,1.5815453E1,3.9043423E1,9.198091E0,6.6173625E0,6.8282266E0,3.2215195E1,8.050947E0,1.1471426E0,5.4133883E0,1.203974E0,3.5409346E0,3.2872922E0,7.28055E0,2.4934647E1],"tree_param":{"num_deleted":"0","num_feature":"5","num_nodes":"15","size_leaf_vector":"1"}},{"base_weights":[-6.0214952E-5,3.9272886E-2,-1.1616105E-1,1.2119073E-1,-6.047025E-1,-3.0620652E-3,4.9593247E-2,-1.1391895E-2,-4.5197207E-2],"categories":[],"categories_nodes":[],"categories_segments":[],"categories_sizes":[],"default_left":[0,0,1,0,0,0,0,0,0],"id":30,"left_children":[1,-1,3,5,7,-1,-1,-1,-1],"loss_changes":[5.1631837E0,0E0,6.0999875E0,5.86514E0,1.3981428E0,0E0,0E0,0E0,0E0],"parents":[2147483647,0,0,2,2,3,3,4,4],"right_children":[2,-1,4,6,8,-1,-1,-1,-1],"split_conditions":[-1.0805252E-1,3.9272886E-2,4.169175E1,4.1585E1,-7.0331283E-3,-3.0620652E-3,4.9593247E-2,-1.1391895E-2,-4.5197207E-2],"split_indices":[2,0,4,4,2,0,0,0,0],"split_type":[0,0,0,0,0,0,0,0,0],"sum_hessian":[5.5081398E1,5.757379E0,4.932402E1,3.3679684E1,1.5644337E1,2.880828E1,4.871402E0,8.389298E0,7.2550383E0],"tree_param":{"num_deleted":"0","num_feature":"5","num_nodes":"9","size_leaf_vector":"1"}},{"base_weights":[-6.088493E-3,1.7803557E-1,-5.189428E-1,4.2324156E-2,4.6164338E-2,3.283877E-2,-7.543539E-1,1.1040642E-2,-2.2275008E-2,-1.5635459E-2,-5.5722874E-2],"categories":[],"categories_nodes":[],"categories_segments":[],"categories_sizes":[],"default_left":[0,0,0,0,1,0,1,0,0,0,0],"id":31,"left_children":[1,3,5,-1,7,-1,9,-1,-1,-1,-1],"loss_changes":[5.4237857E0,3.419529E0,4.987758E0,0E0,3.2354486E0,0E0,1.3481331E0,0E0,0E0,0E0,0E0],"parents":[2147483647,0,0,1,1,2,2,4,4,6,6],"right_children":[2,4,6,-1,8,-1,10,-1,-1,-1,-1],"split_conditions":[4.785842E-2,-1.1510374E-1,9.7935534E-1,4.2324156E-2,4.194535E1,3.283877E-2,9.968128E-1,1.1040642E-2,-2.2275008E-2,-1.5635459E-2,-5.5722874E-2],"split_indices":[2,2,1,0,4,0,1,0,0,0,0],"split_type":[0,0,0,0,0,0,0,0,0,0,0],"sum_hessian":[5.374817E1,3.9982883E1,1.3765282E1,4.998852E0,3.498403E1,1.7067566E0,1.2058525E1,2.6724205E1,8.2598295E0,6.9242897E0,5.134236E0],"tree_param":{"num_deleted":"0","num_feature":"5","num_nodes":"11","size_leaf_vector":"1"}},{"base_weights":[-5.4547608E-2,1.6510156E-1,-3.7788847E-1,-1.543945E-1,5.1130545E-1,4.429667E-2,-6.0167634E-1,2.539805E-2,-4.0719483E-2,5.8610346E-2,-7.5181634E-3,-5.0765364E-3,-5.8750857E-2],"categories":[],"categories_nodes":[],"categories_segments":[],"categories_sizes":[],"default_left":[1,0,0,0,1,0,0,0,0,0,0,0,0],"id":32,"left_children":[1,3,5,7,9,-1,11,-1,-1,-1,-1,-1,-1],"loss_changes":[3.9491093E0,3.8007417E0,7.118212E0,8.475903E0,7.603797E0,0E0,5.3520403E0,0E0,0E0,0E0,0E0,0E0,0E0],"parents":[2147483647,0,0,1,1,2,2,3,3,4,4,6,6],"right_children":[2,4,6,8,10,-1,12,-1,-1,-1,-1,-1,-1],"split_conditions":[1.0003061E0,4.134E1,4.12575E1,4.0725E1,4.169175E1,4.429667E-2,-7.2379853E-3,2.539805E-2,-4.0719483E-2,5.8610346E-2,-7.5181634E-3,-5.0765364E-3,-5.8750857E-2],"split_indices":[1,3,3,3,4,0,2,0,0,0,0,0,0],"split_type":[0,0,0,0,0,0,0,0,0,0,0,0,0],"sum_hessian":[5.218746E1,3.1145504E1,2.1041958E1,1.6329292E1,1.4816213E1,2.3633323E0,1.8678627E1,8.171286E0,8.158007E0,6.984595E0,7.8316174E0,1.1105428E1,7.5731983E0],"tree_param":{"num_deleted":"0","num_feature":"5","num_nodes":"13","size_leaf_vector":"1"}},{"base_weights":[4.0725764E-2,4.388352E-2,-1.0751947E-1,-9.4704455E-1,1.01877324E-1,-3.46875E-3,-5.204152E-2,2.2651315E-2,-1.9652862E-2],"categories":[],"categories_nodes":[],"categories_segments":[],"categories_sizes":[],"default_left":[0,0,0,0,1,0,0,0,0],"id":33,"left_children":[1,-1,3,5,7,-1,-1,-1,-1],"loss_changes":[6.871177E0,0E0,8.427752E0,4.557829E-1,6.9017067E0,0E0,0E0,0E0,0E0],"parents":[2147483647,0,0,2,2,3,3,4,4],"right_children":[2,-1,4,6,8,-1,-1,-1,-1],"split_conditions":[4.0725E1,4.388352E-2,4.1120003E1,-1.2983876E-2,4.169175E1,-3.46875E-3,-5.204152E-2,2.2651315E-2,-1.9652862E-2],"split_indices":[3,0,4,0,4,0,0,0,0],"split_type":[0,0,0,0,0,0,0,0,0],"sum_hessian":[5.1497787E1,6.841487E0,4.46563E1,8.050566E0,3.6605736E1,1.2350233E0,6.815542E0,2.1723984E1,1.488175E1],"tree_param":{"num_deleted":"0","num_feature":"5","num_nodes":"9","size_leaf_vector":"1"}},{"base_weights":[-0E0,6.350459E-1,-1.2723292E-1,-0E0,8.1495035E-1,-9.462286E-1,5.9461385E-2,2.170985E-2,-2.0790024E-2,4.6323914E-2,2.2551382E-3,9.648447E-4,-5.6412484E-2,1.2151702E-2,-3.156572E-2],"categories":[],"categories_nodes":[],"categories_segments":[],"categories_sizes":[],"default_left":[0,0,0,0,0,0,0,0,0,0,0,0,0,0,0],"id":34,"left_children":[1,3,5,7,9,11,13,-1,-1,-1,-1,-1,-1,-1,-1],"loss_changes":[4.540559E0,1.062274E0,7.2864947E0,9.2077196E-1,3.7118053E-1,1.8038759E0,5.0506277E0,0E0,0E0,0E0,0E0,0E0,0E0,0E0,0E0],"parents":[2147483647,0,0,1,1,2,2,3,3,4,4,5,5,6,6],"right_children":[2,4,6,8,10,12,14,-1,-1,-1,-1,-1,-1,-1,-1],"split_conditions":[4.0725E1,-9.251557E-3,4.1120003E1,-2.1573271E-1,4.05575E1,-1.2983876E-2,4.7437068E-2,2.170985E-2,-2.0790024E-2,4.6323914E-2,2.2551382E-3,9.648447E-4,-5.6412484E-2,1.2151702E-2,-3.156572E-2],"split_indices":[3,0,4,2,4,0,2,0,0,0,0,0,0,0,0],"split_type":[0,0,0,0,0,0,0,0,0,0,0,0,0,0,0],"sum_hessian":[5.2357628E1,7.9147854E0,4.444284E1,2.0984511E0,5.8163342E0,7.3162947E0,3.712655E1,1.0133135E0,1.0851377E0,4.5868587E0,1.2294754E0,1.1989105E0,6.1173844E0,3.0328564E1,6.797984E0],"tree_param":{"num_deleted":"0","num_feature":"5","num_nodes":"15","size_leaf_vector":"1"}},{"base_weights":[7.285178E-2,6.1566615E-1,-4.0167592E-2,1.4807233E-1,4.5200657E-2,-8.2562697E-1,9.532179E-2,3.1069903E-2,-1.2435041E-2,-3.4857863E-3,-5.277763E-2,1.4622449E-2,-1.9037096E-2],"categories":[],"categories_nodes":[],"categories_segments":[],"categories_sizes":[],"default_left":[1,0,0,0,0,0,0,0,0,0,0,0,0],"id":35,"left_children":[1,3,5,7,-1,9,11,-1,-1,-1,-1,-1,-1],"loss_changes":[3.316454E0,8.407233E-1,4.9246354E0,1.3580834E0,0E0,8.4907484E-1,3.7603226E0,0E0,0E0,0E0,0E0,0E0,0E0],"parents":[2147483647,0,0,1,1,2,2,3,3,5,5,6,6],"right_children":[2,4,6,8,-1,10,12,-1,-1,-1,-1,-1,-1],"split_conditions":[4.0625E1,9.9168533E-1,4.1035E1,9.688135E-1,4.5200657E-2,4.0725E1,4.194535E1,3.1069903E-2,-1.2435041E-2,-3.4857863E-3,-5.277763E-2,1.4622449E-2,-1.9037096E-2],"split_indices":[4,1,3,1,0,3,4,0,0,0,0,0,0],"split_type":[0,0,0,0,0,0,0,0,0,0,0,0,0],"sum_hessian":[5.00784E1,7.7852945E0,4.2293106E1,4.100182E0,3.6851127E0,5.3152366E0,3.697787E1,1.7123399E0,2.3878422E0,1.8984596E0,3.416777E0,2.6856043E1,1.0121826E1],"tree_param":{"num_deleted":"0","num_feature":"5","num_nodes":"13","size_leaf_vector":"1"}},{"base_weights":[-0E0,6.563818E-1,-1.1604964E-1,9.916392E-2,5.022198E-2,2.610083E-1,-4.7805426E-1,2.1845533E-2,-1.5534724E-2,-3.5298277E-2,2.3793079E-2,-5.871817E-2,-1.0074685E-2],"categories":[],"categories_nodes":[],"categories_segments":[],"categories_sizes":[],"default_left":[1,0,0,0,0,0,0,0,0,0,0,0,0],"id":36,"left_children":[1,3,5,7,-1,9,11,-1,-1,-1,-1,-1,-1],"loss_changes":[4.062024E0,1.1900957E0,6.2718487E0,9.1799194E-1,0E0,5.1072245E0,3.872375E0,0E0,0E0,0E0,0E0,0E0,0E0],"parents":[2147483647,0,0,1,1,2,2,3,3,5,5,6,6],"right_children":[2,4,6,8,-1,10,12,-1,-1,-1,-1,-1,-1],"split_conditions":[4.0625E1,3.9940002E1,-7.0331283E-3,4.0445E1,5.022198E-2,4.0929947E1,4.113495E1,2.1845533E-2,-1.5534724E-2,-3.5298277E-2,2.3793079E-2,-5.871817E-2,-1.0074685E-2],"split_indices":[4,4,2,3,0,3,4,0,0,0,0,0,0],"split_type":[0,0,0,0,0,0,0,0,0,0,0,0,0],"sum_hessian":[4.93042E1,6.5447083E0,4.275949E1,3.4782436E0,3.0664647E0,2.0878649E1,2.188084E1,2.120115E0,1.3581285E0,3.003128E0,1.787552E1,4.630295E0,1.7250546E1],"tree_param":{"num_deleted":"0","num_feature":"5","num_nodes":"13","size_leaf_vector":"1"}},{"base_weights":[4.5186747E-2,2.1008511E-1,-3.4061706E-1,-1.2463764E-1,4.2152426E-1,2.5455394E-1,-6.490076E-1,2.1963594E-2,-3.662256E-2,2.987991E-2,-2.235199E-2,3.898343E-2,-3.2466773E-2,-5.5018198E-2,-0E0],"categories":[],"categories_nodes":[],"categories_segments":[],"categories_sizes":[],"default_left":[0,0,1,0,1,0,0,0,0,0,0,0,0,0,0],"id":37,"left_children":[1,3,5,7,9,11,13,-1,-1,-1,-1,-1,-1,-1,-1],"loss_changes":[3.4038436E0,2.819056E0,3.2354517E0,5.838851E0,4.0894976E0,3.7590938E0,3.2659879E0,0E0,0E0,0E0,0E0,0E0,0E0,0E0,0E0],"parents":[2147483647,0,0,1,1,2,2,3,3,4,4,5,5,6,6],"right_children":[2,4,6,8,10,12,14,-1,-1,-1,-1,-1,-1,-1,-1],"split_conditions":[4.1870003E1,4.1120003E1,9.9779797E-1,4.0725E1,4.199E1,4.2605E1,4.18425E1,2.1963594E-2,-3.662256E-2,2.987991E-2,-2.235199E-2,3.898343E-2,-3.2466773E-2,-5.5018198E-2,-0E0],"split_indices":[3,4,1,3,4,3,4,0,0,0,0,0,0,0,0],"split_type":[0,0,0,0,0,0,0,0,0,0,0,0,0,0,0],"sum_hessian":[5.0727207E1,3.6379604E1,1.4347602E1,1.3956072E1,2.2423532E1,4.7649436E0,9.582659E0,7.284573E0,6.671499E0,1.9224577E1,3.1989558E0,3.2843246E0,1.480619E0,5.0527897E0,4.5298686E0],"tree_param":{"num_deleted":"0","num_feature":"5","num_nodes":"15","size_leaf_vector":"1"}},{"base_weights":[1.8017383E-2,5.740497E-1,-1.01171166E-1,7.676524E-1,-5.072723E-2,3.9690265E-1,-3.254234E-1,6.6493335E-3,5.0733473E-2,2.1405779E-2,-2.7941957E-2,3.3383176E-2,-1.0533331E-2,-2.4552759E-2,2.0915806E-2],"categories":[],"categories_nodes":[],"categories_segments":[],"categories_sizes":[],"default_left":[1,0,0,0,0,0,0,0,0,0,0,0,0,0,0],"id":38,"left_children":[1,3,5,7,9,11,13,-1,-1,-1,-1,-1,-1,-1,-1],"loss_changes":[3.8584979E0,1.4493814E0,5.3917446E0,8.5540867E-1,1.2615592E0,2.751331E0,4.422223E0,0E0,0E0,0E0,0E0,0E0,0E0,0E0,0E0],"parents":[2147483647,0,0,1,1,2,2,3,3,4,4,5,5,6,6],"right_children":[2,4,6,8,10,12,14,-1,-1,-1,-1,-1,-1,-1,-1],"split_conditions":[4.0625E1,2.5853701E-2,-3.8027447E-2,9.9174786E-1,9.688135E-1,4.1995003E1,1.0138739E0,6.6493335E-3,5.0733473E-2,2.1405779E-2,-2.7941957E-2,3.3383176E-2,-1.0533331E-2,-2.4552759E-2,2.0915806E-2],"split_indices":[4,0,2,1,1,4,1,0,0,0,0,0,0,0,0],"split_type":[0,0,0,0,0,0,0,0,0,0,0,0,0,0,0],"sum_hessian":[5.3979965E1,8.814157E0,4.516581E1,6.7115164E0,2.1026397E0,1.3386695E1,3.1779116E1,2.7536714E0,3.957845E0,1.0014349E0,1.1012049E0,9.385085E0,4.00161E0,2.662764E1,5.151476E0],"tree_param":{"num_deleted":"0","num_feature":"5","num_nodes":"15","size_leaf_vector":"1"}},{"base_weights":[1.0673657E-2,3.12527E-1,-2.5836256E-1,5.2330714E-1,-4.3419704E-1,6.479042E-1,-5.09454E-1,5.7906884E-4,4.3114547E-2,1.8342013E-2,-4.1709308E-2,4.546646E-2,-1.1073252E-2,-3.0997956E-2,1.4752652E-2],"categories":[],"categories_nodes":[],"categories_segments":[],"categories_sizes":[],"default_left":[0,0,1,0,0,1,0,0,0,0,0,0,0,0,0],"id":39,"left_children":[1,3,5,7,9,11,13,-1,-1,-1,-1,-1,-1,-1,-1],"loss_changes":[4.4119244E0,4.4297915E0,6.9156895E0,3.4636164E0,2.572616E0,1.9476776E0,2.4020524E0,0E0,0E0,0E0,0E0,0E0,0E0,0E0,0E0],"parents":[2147483647,0,0,1,1,2,2,3,3,4,4,5,5,6,6],"right_children":[2,4,6,8,10,12,14,-1,-1,-1,-1,-1,-1,-1,-1],"split_conditions":[-2.3693772E-6,4.1995003E1,9.821876E-1,4.14375E1,-2.793701E-2,4.188E1,1.0138739E0,5.7906884E-4,4.3114547E-2,1.8342013E-2,-4.1709308E-2,4.546646E-2,-1.1073252E-2,-3.0997956E-2,1.4752652E-2],"split_indices":[0,4,1,4,0,4,1,0,0,0,0,0,0,0,0],"split_type":[0,0,0,0,0,0,0,0,0,0,0,0,0,0,0],"sum_hessian":[5.1202885E1,2.4365824E1,2.683706E1,1.9560928E1,4.8048954E0,5.135261E0,2.17018E1,8.647705E0,1.0913224E1,1.4750959E0,3.3297994E0,4.071915E0,1.0633459E0,1.9602003E1,2.0997958E0],"tree_param":{"num_deleted":"0","num_feature":"5","num_nodes":"15","size_leaf_vector":"1"}},{"base_weights":[-9.607972E-2,5.1422447E-1,-2.4328227E-1,4.1209467E-2,-2.157052E-1,3.880726E-2,-5.803543E-1,1.4091958E-2,-3.1088764E-2,1.5539757E-2,-2.9890506E-2,-3.2860655E-2,4.211333E-3],"categories":[],"categories_nodes":[],"categories_segments":[],"categories_sizes":[],"default_left":[1,1,0,0,0,0,0,0,0,0,0,0,0],"id":40,"left_children":[1,3,5,-1,7,9,11,-1,-1,-1,-1,-1,-1],"loss_changes":[4.822343E0,2.7323484E0,4.26233E0,0E0,1.1560863E0,4.4935026E0,1.2273412E0,0E0,0E0,0E0,0E0,0E0,0E0],"parents":[2147483647,0,0,1,1,2,2,4,4,5,5,6,6],"right_children":[2,4,6,-1,8,10,12,-1,-1,-1,-1,-1,-1],"split_conditions":[9.873293E-1,4.19625E1,1.5898849E-3,4.1209467E-2,-1.0569684E-1,4.194535E1,1.0126806E0,1.4091958E-2,-3.1088764E-2,1.5539757E-2,-2.9890506E-2,-3.2860655E-2,4.211333E-3],"split_indices":[1,4,0,0,2,4,1,0,0,0,0,0,0],"split_type":[0,0,0,0,0,0,0,0,0,0,0,0,0],"sum_hessian":[5.06924E1,8.860011E0,4.183239E1,6.27544E0,2.5845714E0,2.3173153E1,1.8659239E1,1.1463556E0,1.4382157E0,1.699436E1,6.178792E0,1.7009644E1,1.6495947E0],"tree_param":{"num_deleted":"0","num_feature":"5","num_nodes":"13","size_leaf_vector":"1"}},{"base_weights":[-2.1557191E-2,-1.5264726E-1,6.0905635E-1,5.9124183E-2,-4.471834E-1,4.9456343E-2,-2.4341729E-2,-1.1931532E-2,2.4887249E-2,5.300633E-3,-3.5398073E-2],"categories":[],"categories_nodes":[],"categories_segments":[],"categories_sizes":[],"default_left":[0,0,0,0,0,0,0,0,0,0,0],"id":41,"left_children":[1,3,5,7,9,-1,-1,-1,-1,-1,-1],"loss_changes":[4.2661667E0,2.8433104E0,4.4961433E0,3.671885E0,2.9523394E0,0E0,0E0,0E0,0E0,0E0,0E0],"parents":[2147483647,0,0,1,1,2,2,3,3,4,4],"right_children":[2,4,6,8,10,-1,-1,-1,-1,-1,-1],"split_conditions":[1.0160116E0,1.0004758E0,4.2605E1,4.134E1,-9.014705E-3,4.9456343E-2,-2.4341729E-2,-1.1931532E-2,2.4887249E-2,5.300633E-3,-3.5398073E-2],"split_indices":[1,1,3,3,0,0,0,0,0,0,0],"split_type":[0,0,0,0,0,0,0,0,0,0,0],"sum_hessian":[4.952379E1,4.2204502E1,7.319287E0,2.4854197E1,1.7350304E1,5.6785264E0,1.6407603E0,1.4940138E1,9.91406E0,5.598122E0,1.1752182E1],"tree_param":{"num_deleted":"0","num_feature":"5","num_nodes":"11","size_leaf_vector":"1"}},{"base_weights":[-0E0,6.384048E-1,-1.1866796E-1,-0E0,7.856562E-1,-9.130923E-1,5.0288104E-2,4.8865244E-2,3.764024E-3,-7.246019E-3,-5.2798975E-2,1.8992987E-2,-1.3286851E-2],"categories":[],"categories_nodes":[],"categories_segments":[],"categories_sizes":[],"default_left":[0,0,0,0,0,0,0,0,0,0,0,0,0],"id":42,"left_children":[1,3,5,-1,7,9,11,-1,-1,-1,-1,-1,-1],"loss_changes":[4.1492643E0,9.3924046E-1,6.4078183E0,0E0,6.5875864E-1,4.460163E-1,4.2464457E0,0E0,0E0,0E0,0E0,0E0,0E0],"parents":[2147483647,0,0,1,1,2,2,4,4,5,5,6,6],"right_children":[2,4,6,-1,8,10,12,-1,-1,-1,-1,-1,-1],"split_conditions":[4.0725E1,3.91045E1,4.1120003E1,-0E0,4.05575E1,4.003E1,-2.3693772E-6,4.8865244E-2,3.764024E-3,-7.246019E-3,-5.2798975E-2,1.8992987E-2,-1.3286851E-2],"split_indices":[3,3,4,0,4,4,0,0,0,0,0,0,0],"split_type":[0,0,0,0,0,0,0,0,0,0,0,0,0],"sum_hessian":[5.153473E1,7.093356E0,4.4441372E1,1.3977085E0,5.6956472E0,6.843024E0,3.759835E1,3.8199148E0,1.8757327E0,1.766616E0,5.076408E0,1.856619E1,1.903216E1],"tree_param":{"num_deleted":"0","num_feature":"5","num_nodes":"13","size_leaf_vector":"1"}},{"base_weights":[1.00926705E-1,4.1320068E-1,-2.0145372E-1,5.946857E-1,-3.189976E-1,3.398128E-2,-3.8160747E-1,-1.0937608E-2,4.288224E-2,1.7374549E-2,-3.543141E-2,-3.909977E-2,-5.046975E-3],"categories":[],"categories_nodes":[],"categories_segments":[],"categories_sizes":[],"default_left":[0,0,0,0,0,0,0,0,0,0,0,0,0],"id":43,"left_children":[1,3,5,7,9,-1,11,-1,-1,-1,-1,-1,-1],"loss_changes":[4.845642E0,3.6872E0,4.4333577E0,4.886187E0,1.9376771E0,0E0,2.2463791E0,0E0,0E0,0E0,0E0,0E0,0E0],"parents":[2147483647,0,0,1,1,2,2,3,3,4,4,6,6],"right_children":[2,4,6,8,10,-1,12,-1,-1,-1,-1,-1,-1],"split_conditions":[-2.3693772E-6,4.1995003E1,4.072E1,4.0929947E1,-2.793701E-2,3.398128E-2,4.1372498E1,-1.0937608E-2,4.288224E-2,1.7374549E-2,-3.543141E-2,-3.909977E-2,-5.046975E-3],"split_indices":[0,4,3,3,0,0,3,0,0,0,0,0,0],"split_type":[0,0,0,0,0,0,0,0,0,0,0,0,0],"sum_hessian":[4.8046253E1,2.369139E1,2.4354864E1,1.9430216E1,4.2611732E0,3.2400167E0,2.1114847E1,4.622516E0,1.4807699E1,1.442539E0,2.8186343E0,7.3037624E0,1.3811085E1],"tree_param":{"num_deleted":"0","num_feature":"5","num_nodes":"13","size_leaf_vector":"1"}},{"base_weights":[3.2939706E-2,-1.0993767E-1,4.1123053E-1,1.0692831E-1,-5.300125E-1,6.0971445E-1,-2.6114529E-2,-8.281045E-3,2.6824055E-2,2.5018426E-3,-4.906141E-2,7.314601E-3,4.8473682E-2],"categories":[],"categories_nodes":[],"categories_segments":[],"categories_sizes":[],"default_left":[0,0,0,0,0,0,0,0,0,0,0,0,0],"id":44,"left_children":[1,3,5,7,9,11,-1,-1,-1,-1,-1,-1,-1],"loss_changes":[2.9947634E0,3.7496665E0,3.3190706E0,3.3511217E0,3.9099348E0,1.8043451E0,0E0,0E0,0E0,0E0,0E0,0E0,0E0],"parents":[2147483647,0,0,1,1,2,2,3,3,4,4,5,5],"right_children":[2,4,6,8,10,12,-1,-1,-1,-1,-1,-1,-1],"split_conditions":[1.0047816E0,1.0001959E0,4.2605E1,4.134E1,-5.299486E-3,1.0160116E0,-2.6114529E-2,-8.281045E-3,2.6824055E-2,2.5018426E-3,-4.906141E-2,7.314601E-3,4.8473682E-2],"split_indices":[1,1,3,3,0,1,0,0,0,0,0,0,0],"split_type":[0,0,0,0,0,0,0,0,0,0,0,0,0],"sum_hessian":[5.1538532E1,3.779794E1,1.3740594E1,2.5351936E1,1.2446003E1,1.1937088E1,1.8035054E0,1.5789576E1,9.56236E0,5.835163E0,6.6108394E0,6.38201E0,5.555078E0],"tree_param":{"num_deleted":"0","num_feature":"5","num_nodes":"13","size_leaf_vector":"1"}},{"base_weights":[-3.4823887E-2,1.3437594E-1,-5.010276E-1,-1.8443769E-1,3.4582108E-1,-7.591448E-1,1.4336541E-1,1.7630143E-2,-3.9445825E-2,2.5924558E-2,-1.9183809E-2,-4.4199474E-2,3.1669566E-3,4.074417E-2,-3.2209918E-2],"categories":[],"categories_nodes":[],"categories_segments":[],"categories_sizes":[],"default_left":[0,0,0,0,1,0,0,0,0,0,0,0,0,0,0],"id":45,"left_children":[1,3,5,7,9,11,13,-1,-1,-1,-1,-1,-1,-1,-1],"loss_changes":[4.2821174E0,2.762158E0,2.698015E0,5.7580566E0,3.398001E0,1.3583426E0,3.564679E0,0E0,0E0,0E0,0E0,0E0,0E0,0E0,0E0],"parents":[2147483647,0,0,1,1,2,2,3,3,4,4,5,5,6,6],"right_children":[2,4,6,8,10,12,14,-1,-1,-1,-1,-1,-1,-1,-1],"split_conditions":[4.1870003E1,4.1120003E1,1.0084862E0,4.05575E1,4.194535E1,4.222E1,4.2605E1,1.7630143E-2,-3.9445825E-2,2.5924558E-2,-1.9183809E-2,-4.4199474E-2,3.1669566E-3,4.074417E-2,-3.2209918E-2],"split_indices":[3,4,1,4,4,3,3,0,0,0,0,0,0,0,0],"split_type":[0,0,0,0,0,0,0,0,0,0,0,0,0,0,0],"sum_hessian":[5.0575497E1,3.7576473E1,1.2999022E1,1.4683159E1,2.2893316E1,9.312195E0,3.6868272E0,7.9310718E0,6.7520866E0,1.9084177E1,3.8091395E0,8.1987095E0,1.113485E0,2.0990133E0,1.5878139E0],"tree_param":{"num_deleted":"0","num_feature":"5","num_nodes":"15","size_leaf_vector":"1"}},{"base_weights":[3.750926E-2,2.1561715E-1,-4.1164693E-1,-1.16444245E-1,6.4202666E-1,1.0782726E-2,-5.0744534E-1,2.0877032E-2,-1.7078457E-2,4.8229143E-2,-0E0,-3.574599E-3,-3.5403136E-2],"categories":[],"categories_nodes":[],"categories_segments":[],"categories_sizes":[],"default_left":[0,0,0,0,1,0,0,0,0,0,0,0,0],"id":46,"left_children":[1,3,5,7,9,-1,11,-1,-1,-1,-1,-1,-1],"loss_changes":[4.076088E0,5.4487486E0,1.0837185E0,2.816684E0,3.3453236E0,0E0,9.1880345E-1,0E0,0E0,0E0,0E0,0E0,0E0],"parents":[2147483647,0,0,1,1,2,2,3,3,4,4,6,6],"right_children":[2,4,6,8,10,-1,12,-1,-1,-1,-1,-1,-1],"split_conditions":[4.189E1,4.138E1,-2.793701E-2,-3.5616063E-2,4.1665E1,1.0782726E-2,4.1685E1,2.0877032E-2,-1.7078457E-2,4.8229143E-2,-0E0,-3.574599E-3,-3.5403136E-2],"split_indices":[3,3,0,2,4,0,4,0,0,0,0,0,0],"split_type":[0,0,0,0,0,0,0,0,0,0,0,0,0],"sum_hessian":[4.827804E1,3.5447094E1,1.2830946E1,2.0277544E1,1.5169552E1,1.1746649E0,1.16562805E1,5.369916E0,1.4907627E1,9.480505E0,5.6890464E0,4.6288905E0,7.02739E0],"tree_param":{"num_deleted":"0","num_feature":"5","num_nodes":"13","size_leaf_vector":"1"}},{"base_weights":[-9.663955E-3,1.8313454E-1,-4.077014E-1,-6.0600948E-2,5.948149E-1,2.5141537E-2,-5.377769E-1,1.9449864E-2,-1.6864752E-2,3.911752E-2,-0E0,-4.8382513E-2,-1.39706675E-2],"categories":[],"categories_nodes":[],"categories_segments":[],"categories_sizes":[],"default_left":[1,0,0,0,1,0,0,0,0,0,0,0,0],"id":47,"left_children":[1,3,5,7,9,-1,11,-1,-1,-1,-1,-1,-1],"loss_changes":[3.7177486E0,3.3674164E0,2.3010602E0,2.8148687E0,1.5288663E0,0E0,9.963875E-1,0E0,0E0,0E0,0E0,0E0,0E0],"parents":[2147483647,0,0,1,1,2,2,3,3,4,4,6,6],"right_children":[2,4,6,8,10,-1,12,-1,-1,-1,-1,-1,-1],"split_conditions":[4.1665E1,4.1445E1,-2.9719448E-2,4.0625E1,1.0003834E0,2.5141537E-2,4.182425E1,1.9449864E-2,-1.6864752E-2,3.911752E-2,-0E0,-4.8382513E-2,-1.39706675E-2],"split_indices":[4,4,0,4,1,0,4,0,0,0,0,0,0],"split_type":[0,0,0,0,0,0,0,0,0,0,0,0,0],"sum_hessian":[4.4900723E1,3.045604E1,1.4444682E1,1.9628412E1,1.0827628E1,1.0760695E0,1.3368612E1,6.9704866E0,1.2657926E1,8.123769E0,2.7038596E0,3.182091E0,1.0186522E1],"tree_param":{"num_deleted":"0","num_feature":"5","num_nodes":"13","size_leaf_vector":"1"}},{"base_weights":[4.017507E-2,-6.0189914E-2,5.5406374E-1,4.208068E-1,-1.8451102E-1,4.8197307E-2,-2.4555225E-2,3.988664E-3,3.7782412E-2,-4.6717625E-2,-1.6351074E-3],"categories":[],"categories_nodes":[],"categories_segments":[],"categories_sizes":[],"default_left":[0,0,0,0,0,0,0,0,0,0,0],"id":48,"left_children":[1,3,5,7,9,-1,-1,-1,-1,-1,-1],"loss_changes":[2.6790378E0,2.584893E0,4.441038E0,7.436359E-1,3.7224207E0,0E0,0E0,0E0,0E0,0E0,0E0],"parents":[2147483647,0,0,1,1,2,2,3,3,4,4],"right_children":[2,4,6,8,10,-1,-1,-1,-1,-1,-1],"split_conditions":[1.0147605E0,4.0725E1,4.260065E1,4.863528E-2,4.1035E1,4.8197307E-2,-2.4555225E-2,3.988664E-3,3.7782412E-2,-4.6717625E-2,-1.6351074E-3],"split_indices":[1,3,3,2,3,0,0,0,0,0,0],"split_type":[0,0,0,0,0,0,0,0,0,0,0],"sum_hessian":[4.755806E1,4.0569717E1,6.988344E0,7.2671638E0,3.3302555E1,5.2409368E0,1.7474071E0,4.816378E0,2.4507856E0,4.08341E0,2.9219143E1],"tree_param":{"num_deleted":"0","num_feature":"5","num_nodes":"11","size_leaf_vector":"1"}},{"base_weights":[3.1403106E-2,2.3851322E-1,-1.9603176E-1,3.88251E-1,-3.6264667E-1,1.4411645E-1,-7.366843E-1,4.3673508E-4,3.9883785E-2,1.8598637E-2,-3.8394928E-2,-1.5364553E-2,2.5371362E-2,-4.450012E-2,-5.8433483E-3],"categories":[],"categories_nodes":[],"categories_segments":[],"categories_sizes":[],"default_left":[0,0,1,0,0,0,0,0,0,0,0,0,0,0,0],"id":49,"left_children":[1,3,5,7,9,11,13,-1,-1,-1,-1,-1,-1,-1,-1],"loss_changes":[2.563062E0,2.8035793E0,4.9675107E0,3.5576825E0,2.3655467E0,3.0095763E0,6.233678E-1,0E0,0E0,0E0,0E0,0E0,0E0,0E0,0E0],"parents":[2147483647,0,0,1,1,2,2,3,3,4,4,5,5,6,6],"right_children":[2,4,6,8,10,12,14,-1,-1,-1,-1,-1,-1,-1,-1],"split_conditions":[-2.3693772E-6,4.1995003E1,1.0003834E0,4.1502502E1,-2.793701E-2,4.120925E1,1.0076557E0,4.3673508E-4,3.9883785E-2,1.8598637E-2,-3.8394928E-2,-1.5364553E-2,2.5371362E-2,-4.450012E-2,-5.8433483E-3],"split_indices":[0,4,1,4,0,3,1,0,0,0,0,0,0,0,0],"split_type":[0,0,0,0,0,0,0,0,0,0,0,0,0,0,0],"sum_hessian":[5.1243458E1,2.7242132E1,2.4001326E1,2.2501389E1,4.740743E0,1.5180712E1,8.820615E0,1.2725746E1,9.775642E0,1.5537839E0,3.186959E0,6.627255E0,8.553456E0,6.288539E0,2.532076E0],"tree_param":{"num_deleted":"0","num_feature":"5","num_nodes":"15","size_leaf_vector":"1"}}]},"name":"gbtree"},"learner_model_param":{"base_score":"[5.201342E-1]","boost_from_average":"1","num_class":"0","num_feature":"5","num_target":"1"},"objective":{"name":"binary:logistic","reg_loss_param":{"scale_pos_weight":"1"}}},"version":[3,3,0]}